{"learner":{"attributes":{"scikit_learn":"{\"n_estimators\": 100, \"objective\": \"binary:logistic\", \"max_depth\": 4, \"learning_rate\": null, \"verbosity\": null, \"booster\": null, \"tree_method\": null, \"gamma\": 0.4, \"min_child_weight\": null, \"max_delta_step\": null, \"subsample\": 0.8, \"colsample_bytree\": 0.75, \"colsample_bylevel\": null, \"colsample_bynode\": null, \"reg_alpha\": null, \"reg_lambda\": null, \"scale_pos_weight\": null, \"base_score\": null, \"missing\": NaN, \"num_parallel_tree\": null, \"kwargs\": {}, \"random_state\": null, \"n_jobs\": null, \"monotone_constraints\": null, \"interaction_constraints\": null, \"importance_type\": \"gain\", \"gpu_id\": null, \"validate_parameters\": null, \"classes_\": [false, true], \"n_classes_\": 2, \"_le\": {\"classes_\": [false, true]}, \"_features_count\": 33, \"type\": \"XGBClassifier\"}"},"gradient_booster":{"model":{"gbtree_model_param":{"num_trees":"100","size_leaf_vector":"0"},"tree_info":[0,0,0,0,0,0,0,0,0,0,0,0,0,0,0,0,0,0,0,0,0,0,0,0,0,0,0,0,0,0,0,0,0,0,0,0,0,0,0,0,0,0,0,0,0,0,0,0,0,0,0,0,0,0,0,0,0,0,0,0,0,0,0,0,0,0,0,0,0,0,0,0,0,0,0,0,0,0,0,0,0,0,0,0,0,0,0,0,0,0,0,0,0,0,0,0,0,0,0,0],"trees":[{"base_weights":[-1.62886595726013184e+00,-1.79746830463409424e+00,-7.27272748947143555e-01,-5.00000000000000000e-01,-1.84000003337860107e+00,-1.11111116409301758e+00,5.00000000000000000e-01,-1.88732397556304932e+00,-5.00000000000000000e-01,-0.00000000000000000e+00,-1.42857146263122559e+00],"default_left":[true,true,true,true,true,true,false,true,true,false,false],"id":0,"leaf_child_counts":[0,0,0,0,0,0,0,0,0,0,0],"left_children":[1,-1,5,-1,-1,9,-1,-1,-1,-1,-1],"loss_changes":[2.37900543212890625e+00,1.69872283935546875e-01,3.14646434783935547e+00,0.00000000000000000e+00,2.45353698730468750e-01,1.58730173110961914e+00,0.00000000000000000e+00,0.00000000000000000e+00,0.00000000000000000e+00,0.00000000000000000e+00,0.00000000000000000e+00],"parents":[2147483647,0,0,1,1,2,2,4,4,5,5],"right_children":[2,-1,6,-1,-1,10,-1,-1,-1,-1,-1],"split_conditions":[9.39999997615814209e-01,-5.39240539073944092e-01,7.50245451927185059e-02,-1.50000005960464478e-01,-5.52000045776367188e-01,5.31307029724121094e+00,1.50000005960464478e-01,-5.66197216510772705e-01,-1.50000005960464478e-01,-0.00000000000000000e+00,-4.28571462631225586e-01],"split_indices":[2,1,31,2147483647,2147483647,1,0,2147483647,2147483647,0,0],"sum_hessian":[2.32500000000000000e+01,1.87500000000000000e+01,4.50000000000000000e+00,1.00000000000000000e+00,1.77500000000000000e+01,3.50000000000000000e+00,1.00000000000000000e+00,1.67500000000000000e+01,1.00000000000000000e+00,1.00000000000000000e+00,2.50000000000000000e+00],"tree_param":{"num_deleted":"4","num_feature":"33","num_nodes":"11","size_leaf_vector":"0"}},{"base_weights":[-1.20075845718383789e+00,1.03167027235031128e-01,-1.33255517482757568e+00,-1.41266691684722900e+00,-1.57237812876701355e-01,-3.89126777648925781e-01,-1.45824277400970459e+00],"default_left":[true,false,true,true,false,true,true],"id":1,"leaf_child_counts":[0,0,0,0,0,0,0],"left_children":[1,-1,3,-1,-1,-1,-1],"loss_changes":[3.93938636779785156e+00,0.00000000000000000e+00,1.67645263671875000e+00,3.07319641113281250e-01,0.00000000000000000e+00,0.00000000000000000e+00,0.00000000000000000e+00],"parents":[2147483647,0,0,2,2,3,3],"right_children":[2,-1,4,-1,-1,-1,-1],"split_conditions":[4.17434024810791016e+00,3.09501085430383682e-02,1.07764458656311035e+00,-4.23800081014633179e-01,-4.71713468432426453e-02,-1.16738036274909973e-01,-4.37472850084304810e-01],"split_indices":[0,0,32,14,0,2147483647,2147483647],"sum_hessian":[2.11230297088623047e+01,1.95899689197540283e+00,1.91640338897705078e+01,1.77520732879638672e+01,1.41195917129516602e+00,1.16336011886596680e+00,1.65887145996093750e+01],"tree_param":{"num_deleted":"2","num_feature":"33","num_nodes":"7","size_leaf_vector":"0"}},{"base_weights":[-1.00745832920074463e+00,4.94409687817096710e-02,-1.15723383426666260e+00,-4.87269163131713867e-01,6.17886364459991455e-01,-1.20243513584136963e+00,-2.27911666035652161e-01,-2.98962682485580444e-01,-1.25503039360046387e+00],"default_left":[true,true,true,false,false,true,false,true,true],"id":2,"leaf_child_counts":[0,0,0,0,0,0,0,0,0],"left_children":[1,3,5,-1,-1,-1,-1,-1,-1],"loss_changes":[3.14981079101562500e+00,1.33348977565765381e+00,4.46474075317382812e-01,0.00000000000000000e+00,0.00000000000000000e+00,3.90939712524414062e-01,0.00000000000000000e+00,0.00000000000000000e+00,0.00000000000000000e+00],"parents":[2147483647,0,0,1,1,2,2,5,5],"right_children":[2,4,6,-1,-1,-1,-1,-1,-1],"split_conditions":[5.31307029724121094e+00,2.20564633607864380e-01,3.56129302978515625e+01,-1.46180748939514160e-01,1.85365915298461914e-01,-3.60730558633804321e-01,-6.83735013008117676e-02,-8.96888077259063721e-02,-3.76509130001068115e-01],"split_indices":[1,11,5,0,0,11,0,2147483647,2147483647],"sum_hessian":[1.85365924835205078e+01,2.38395738601684570e+00,1.61526355743408203e+01,1.29965949058532715e+00,1.08429789543151855e+00,1.51231746673583984e+01,1.02946114540100098e+00,1.19966888427734375e+00,1.39235057830810547e+01],"tree_param":{"num_deleted":"2","num_feature":"33","num_nodes":"9","size_leaf_vector":"0"}},{"base_weights":[-8.32579791545867920e-01,-6.04454986751079559e-02,-9.96160507202148438e-01,4.77908134460449219e-01,-7.44778811931610107e-01,-1.80707618594169617e-01,-1.04789185523986816e+00,-1.10155260562896729e+00,-2.04136610031127930e-01,-1.17151618003845215e+00,-1.93262353539466858e-01],"default_left":[true,true,true,false,false,false,true,true,false,false,false],"id":3,"leaf_child_counts":[0,0,0,0,0,0,0,0,0,0,0],"left_children":[1,3,5,-1,-1,-1,7,9,-1,-1,-1],"loss_changes":[2.10220718383789062e+00,1.85080194473266602e+00,4.03872489929199219e-01,0.00000000000000000e+00,0.00000000000000000e+00,0.00000000000000000e+00,3.64434242248535156e-01,5.36782264709472656e-01,0.00000000000000000e+00,0.00000000000000000e+00,0.00000000000000000e+00],"parents":[2147483647,0,0,1,1,2,2,6,6,7,7],"right_children":[2,4,6,-1,-1,-1,8,10,-1,-1,-1],"split_conditions":[5.31307029724121094e+00,3.41535110473632812e+01,1.74132746178656816e-03,1.43372446298599243e-01,-2.23433658480644226e-01,-5.42122870683670044e-02,1.09639012813568115e+00,5.75178444385528564e-01,-6.12409859895706177e-02,-3.51454854011535645e-01,-5.79787082970142365e-02],"split_indices":[1,5,13,0,0,0,19,18,0,0,0],"sum_hessian":[1.61204566955566406e+01,3.05757856369018555e+00,1.30628776550292969e+01,1.88014459609985352e+00,1.17743420600891113e+00,1.04729592800140381e+00,1.20155811309814453e+01,1.10098457336425781e+01,1.00573599338531494e+00,9.95335769653320312e+00,1.05648827552795410e+00],"tree_param":{"num_deleted":"0","num_feature":"33","num_nodes":"11","size_leaf_vector":"0"}},{"base_weights":[-7.29944109916687012e-01,1.80978134274482727e-01,-8.56267631053924561e-01,-1.76532253623008728e-01,-9.56742644309997559e-01,-1.51528045535087585e-01,-1.02238404750823975e+00,-1.09848284721374512e+00,-1.55848145484924316e-01],"default_left":[true,false,false,false,false,false,true,false,false],"id":4,"leaf_child_counts":[0,0,0,0,0,0,0,0,0],"left_children":[1,-1,3,-1,5,-1,7,-1,-1],"loss_changes":[1.88161945343017578e+00,0.00000000000000000e+00,7.43011474609375000e-01,0.00000000000000000e+00,4.47971343994140625e-01,0.00000000000000000e+00,5.12800216674804688e-01,0.00000000000000000e+00,0.00000000000000000e+00],"parents":[2147483647,0,0,2,2,4,4,6,6],"right_children":[2,-1,4,-1,6,-1,8,-1,-1],"split_conditions":[4.17434024810791016e+00,5.42934425175189972e-02,2.48957023620605469e+01,-5.29596768319606781e-02,3.38622207641601562e+01,-4.54584136605262756e-02,2.95966625213623047e+01,-3.29544872045516968e-01,-4.67544458806514740e-02],"split_indices":[0,0,6,0,5,0,6,0,0],"sum_hessian":[1.40051355361938477e+01,1.65295791625976562e+00,1.23521776199340820e+01,1.94574785232543945e+00,1.04064302444458008e+01,1.03376722335815430e+00,9.37266254425048828e+00,8.36994743347167969e+00,1.00271582603454590e+00],"tree_param":{"num_deleted":"0","num_feature":"33","num_nodes":"9","size_leaf_vector":"0"}},{"base_weights":[-5.45311510562896729e-01,4.11754578351974487e-01,-6.93268418312072754e-01,-8.12207221984863281e-01,2.46636539697647095e-01,-2.47090861201286316e-01,-9.28546905517578125e-01,1.90351024270057678e-01,-5.96760451793670654e-01,-1.01519083976745605e+00,-1.55581057071685791e-01],"default_left":[true,false,true,false,false,true,true,false,false,false,false],"id":5,"leaf_child_counts":[0,0,0,0,0,0,0,0,0,0,0],"left_children":[1,-1,3,5,-1,7,9,-1,-1,-1,-1],"loss_changes":[2.17115044593811035e+00,0.00000000000000000e+00,1.53133058547973633e+00,4.80729103088378906e-01,0.00000000000000000e+00,6.04089379310607910e-01,4.17689323425292969e-01,0.00000000000000000e+00,0.00000000000000000e+00,0.00000000000000000e+00,0.00000000000000000e+00],"parents":[2147483647,0,0,2,2,3,3,5,5,6,6],"right_children":[2,-1,4,6,-1,8,10,-1,-1,-1,-1],"split_conditions":[4.17434024810791016e+00,1.23526379466056824e-01,1.07764458656311035e+00,3.41331443786621094e+01,7.39909633994102478e-02,6.98227342218160629e-03,6.61935448646545410e-01,5.71053102612495422e-02,-1.79028138518333435e-01,-3.04557263851165771e-01,-4.66743186116218567e-02],"split_indices":[0,0,32,5,0,19,18,0,0,0,0],"sum_hessian":[1.23166227340698242e+01,1.41040658950805664e+00,1.09062166213989258e+01,9.80173397064208984e+00,1.10448288917541504e+00,2.20668792724609375e+00,7.59504556655883789e+00,1.18271720409393311e+00,1.02397084236145020e+00,6.54772233963012695e+00,1.04732322692871094e+00],"tree_param":{"num_deleted":"0","num_feature":"33","num_nodes":"11","size_leaf_vector":"0"}},{"base_weights":[-7.08855569362640381e-01,-9.12223637104034424e-01,1.71846106648445129e-01,-2.00735226273536682e-01,-1.03132879734039307e+00,3.54651153087615967e-01,-9.96510833501815796e-02],"default_left":[true,true,false,false,false,true,true],"id":6,"leaf_child_counts":[0,0,0,0,0,0,0],"left_children":[1,3,-1,-1,-1,-1,-1],"loss_changes":[2.25515747070312500e+00,6.12986564636230469e-01,1.86187386512756348e-01,0.00000000000000000e+00,0.00000000000000000e+00,0.00000000000000000e+00,0.00000000000000000e+00],"parents":[2147483647,0,0,1,1,2,2],"right_children":[2,4,-1,-1,-1,-1,-1],"split_conditions":[9.05218124389648438e-01,4.10132980346679688e+00,5.15538342297077179e-02,-6.02205693721771240e-02,-3.09398651123046875e-01,1.06395348906517029e-01,-2.98953261226415634e-02],"split_indices":[3,0,6,0,0,2147483647,2147483647],"sum_hessian":[1.07159023284912109e+01,8.67655467987060547e+00,2.03934693336486816e+00,1.62927246093750000e+00,7.04728221893310547e+00,1.03570473194122314e+00,1.00364232063293457e+00],"tree_param":{"num_deleted":"2","num_feature":"33","num_nodes":"7","size_leaf_vector":"0"}},{"base_weights":[-5.25552272796630859e-01,-9.28441226482391357e-01,-1.45194202661514282e-01,-4.46031630039215088e-01,4.48802769184112549e-01,7.51970633864402771e-02,-7.91572511196136475e-01],"default_left":[true,false,true,true,false,false,false],"id":7,"leaf_child_counts":[0,0,0,0,0,0,0],"left_children":[1,-1,3,5,-1,-1,-1],"loss_changes":[1.53450012207031250e+00,0.00000000000000000e+00,1.41329336166381836e+00,9.61479187011718750e-01,0.00000000000000000e+00,0.00000000000000000e+00,0.00000000000000000e+00],"parents":[2147483647,0,0,2,2,3,3],"right_children":[2,-1,4,6,-1,-1,-1],"split_conditions":[5.28976142406463623e-01,-2.78532385826110840e-01,5.42259737849235535e-02,6.32977951318025589e-03,1.34640842676162720e-01,2.25591193884611130e-02,-2.37471759319305420e-01],"split_indices":[3,0,30,22,0,0,0],"sum_hessian":[9.89325237274169922e+00,4.10457324981689453e+00,5.78867864608764648e+00,4.00791788101196289e+00,1.78076052665710449e+00,1.90966939926147461e+00,2.09824848175048828e+00],"tree_param":{"num_deleted":"0","num_feature":"33","num_nodes":"7","size_leaf_vector":"0"}},{"base_weights":[-3.17997545003890991e-01,-5.81832051277160645e-01,4.61995661258697510e-01,-9.48754772543907166e-02,-9.61481809616088867e-01,5.15388846397399902e-01,-4.55018401145935059e-01,-6.02032840251922607e-01,-6.96113556623458862e-02],"default_left":[true,true,false,true,false,false,true,true,true],"id":8,"leaf_child_counts":[0,0,0,0,0,0,0,0,0],"left_children":[1,3,-1,5,-1,-1,-1,-1,-1],"loss_changes":[2.12853550910949707e+00,1.23903036117553711e+00,0.00000000000000000e+00,1.17116606235504150e+00,0.00000000000000000e+00,0.00000000000000000e+00,1.40039801597595215e-01,0.00000000000000000e+00,0.00000000000000000e+00],"parents":[2147483647,0,0,1,1,3,3,6,6],"right_children":[2,4,-1,6,-1,-1,-1,-1,-1],"split_conditions":[9.89850461483001709e-02,2.37118303775787354e-01,1.38598710298538208e-01,4.34747028350830078e+00,-2.88444548845291138e-01,1.54616653919219971e-01,-1.36505529284477234e-01,-1.80609852075576782e-01,-2.08834074437618256e-02],"split_indices":[31,25,0,0,0,0,1,2147483647,2147483647],"sum_hessian":[8.03707504272460938e+00,6.19549083709716797e+00,1.84158420562744141e+00,3.26173710823059082e+00,2.93375372886657715e+00,1.05053389072418213e+00,2.21120309829711914e+00,1.19376754760742188e+00,1.01743566989898682e+00],"tree_param":{"num_deleted":"2","num_feature":"33","num_nodes":"9","size_leaf_vector":"0"}},{"base_weights":[-3.76728713512420654e-01,2.24593386054039001e-01,-5.57450056076049805e-01,-7.35774576663970947e-01,2.52919226884841919e-01,-3.46642620861530304e-02,-8.77876520156860352e-01],"default_left":[false,false,true,true,false,false,false],"id":9,"leaf_child_counts":[0,0,0,0,0,0,0],"left_children":[1,-1,3,5,-1,-1,-1],"loss_changes":[1.09126174449920654e+00,0.00000000000000000e+00,1.21536922454833984e+00,5.76684474945068359e-01,0.00000000000000000e+00,0.00000000000000000e+00,0.00000000000000000e+00],"parents":[2147483647,0,0,2,2,3,3],"right_children":[2,-1,4,6,-1,-1,-1],"split_conditions":[3.40919075012207031e+01,6.73780217766761780e-02,9.88601684570312500e-01,4.27478027343750000e+00,7.58757740259170532e-02,-1.03992791846394539e-02,-2.63362973928451538e-01],"split_indices":[5,0,32,0,0,0,0],"sum_hessian":[7.88972711563110352e+00,1.76712703704833984e+00,6.12260055541992188e+00,5.09375286102294922e+00,1.02884733676910400e+00,1.06805646419525146e+00,4.02569627761840820e+00],"tree_param":{"num_deleted":"0","num_feature":"33","num_nodes":"7","size_leaf_vector":"0"}},{"base_weights":[-3.78776639699935913e-01,4.17038470506668091e-01,-6.01164400577545166e-01,-8.05726528167724609e-01,-2.09418267011642456e-01,3.58845531940460205e-01,-6.26073896884918213e-01],"default_left":[true,false,true,false,true,false,false],"id":10,"leaf_child_counts":[0,0,0,0,0,0,0],"left_children":[1,-1,3,-1,5,-1,-1],"loss_changes":[1.49653410911560059e+00,0.00000000000000000e+00,3.04990530014038086e-01,0.00000000000000000e+00,1.02473640441894531e+00,0.00000000000000000e+00,0.00000000000000000e+00],"parents":[2147483647,0,0,2,2,4,4],"right_children":[2,-1,4,-1,6,-1,-1],"split_conditions":[5.31307029724121094e+00,1.25111550092697144e-01,7.04324126243591309e-01,-2.41717964410781860e-01,9.17594075202941895e-01,1.07653662562370300e-01,-1.87822178006172180e-01],"split_indices":[1,0,3,0,3,0,0],"sum_hessian":[6.03937578201293945e+00,1.12790155410766602e+00,4.91147422790527344e+00,2.53236603736877441e+00,2.37910842895507812e+00,1.06514191627502441e+00,1.31396651268005371e+00],"tree_param":{"num_deleted":"0","num_feature":"33","num_nodes":"7","size_leaf_vector":"0"}},{"base_weights":[-1.36433199048042297e-01,-4.41733568906784058e-01,4.81374472379684448e-01,1.28745332360267639e-01,-8.67033302783966064e-01,1.10904121398925781e+00,-3.51045906543731689e-01,-4.54052805900573730e-01,7.49210536479949951e-01],"default_left":[true,true,true,true,false,false,false,false,false],"id":11,"leaf_child_counts":[0,0,0,0,0,0,0,0,0],"left_children":[1,3,5,7,-1,-1,-1,-1,-1],"loss_changes":[1.73067522048950195e+00,1.54503190517425537e+00,2.03009366989135742e+00,1.56747019290924072e+00,0.00000000000000000e+00,0.00000000000000000e+00,0.00000000000000000e+00,0.00000000000000000e+00,0.00000000000000000e+00],"parents":[2147483647,0,0,1,1,2,2,3,3],"right_children":[2,4,6,8,-1,-1,-1,-1,-1],"split_conditions":[7.54991099238395691e-02,6.32977951318025589e-03,1.67808979749679565e-01,3.38450279235839844e+01,-2.60109990835189819e-01,3.32712382078170776e-01,-1.05313777923583984e-01,-1.36215850710868835e-01,2.24763169884681702e-01],"split_indices":[17,22,17,5,0,0,0,0,0],"sum_hessian":[7.04824972152709961e+00,4.90791606903076172e+00,2.14033365249633789e+00,2.39399576187133789e+00,2.51392030715942383e+00,1.03078544139862061e+00,1.10954821109771729e+00,1.37276971340179443e+00,1.02122592926025391e+00],"tree_param":{"num_deleted":"0","num_feature":"33","num_nodes":"9","size_leaf_vector":"0"}},{"base_weights":[-4.45460051298141479e-01,-7.30279088020324707e-01,2.74281114339828491e-01,-8.80444288253784180e-01,-9.88117530941963196e-02],"default_left":[true,true,false,false,false],"id":12,"leaf_child_counts":[0,0,0,0,0],"left_children":[1,3,-1,-1,-1],"loss_changes":[1.71564090251922607e+00,4.41102027893066406e-01,0.00000000000000000e+00,0.00000000000000000e+00,0.00000000000000000e+00],"parents":[2147483647,0,0,1,1],"right_children":[2,4,-1,-1,-1],"split_conditions":[7.54991099238395691e-02,1.16149997711181641e+00,8.22843387722969055e-02,-2.64133304357528687e-01,-2.96435263007879257e-02],"split_indices":[17,2,0,0,0],"sum_hessian":[6.39204359054565430e+00,4.56924247741699219e+00,1.82280123233795166e+00,3.37287688255310059e+00,1.19636547565460205e+00],"tree_param":{"num_deleted":"0","num_feature":"33","num_nodes":"5","size_leaf_vector":"0"}},{"base_weights":[-1.08652137219905853e-01,-4.26948338747024536e-01,3.92838895320892334e-01,3.11893969774246216e-01,-7.72129356861114502e-01,-2.28867940604686737e-02,6.37339353561401367e-01],"default_left":[true,true,true,false,false,true,true],"id":13,"leaf_child_counts":[0,0,0,0,0,0,0],"left_children":[1,3,-1,-1,-1,-1,-1],"loss_changes":[1.23775184154510498e+00,1.40886592864990234e+00,3.32080155611038208e-01,0.00000000000000000e+00,0.00000000000000000e+00,0.00000000000000000e+00,0.00000000000000000e+00],"parents":[2147483647,0,0,1,1,2,2],"right_children":[2,4,-1,-1,-1,-1,-1],"split_conditions":[7.39499986171722412e-01,1.61499992827884853e-05,1.17851674556732178e-01,9.35681909322738647e-02,-2.31638818979263306e-01,-6.86603831127285957e-03,1.91201820969581604e-01],"split_indices":[2,8,30,0,0,2147483647,2147483647],"sum_hessian":[5.70349550247192383e+00,3.57994651794433594e+00,2.12354874610900879e+00,1.17065429687500000e+00,2.40929222106933594e+00,1.12207353115081787e+00,1.00147521495819092e+00],"tree_param":{"num_deleted":"2","num_feature":"33","num_nodes":"7","size_leaf_vector":"0"}},{"base_weights":[1.30936242640018463e-02,-3.68017822504043579e-01,5.28973221778869629e-01,1.61151140928268433e-01,-7.63592183589935303e-01,6.65831044316291809e-02,7.16032028198242188e-01],"default_left":[true,true,true,false,false,true,true],"id":14,"leaf_child_counts":[0,0,0,0,0,0,0],"left_children":[1,3,-1,-1,-1,-1,-1],"loss_changes":[1.44958496093750000e+00,1.01491284370422363e+00,2.22376704216003418e-01,0.00000000000000000e+00,0.00000000000000000e+00,0.00000000000000000e+00,0.00000000000000000e+00],"parents":[2147483647,0,0,1,1,2,2],"right_children":[2,4,-1,-1,-1,-1,-1],"split_conditions":[6.18768157437443733e-03,4.43440978415310383e-04,1.58691972494125366e-01,4.83453460037708282e-02,-2.29077666997909546e-01,1.99749320745468140e-02,2.14809611439704895e-01],"split_indices":[31,22,1,0,0,2147483647,2147483647],"sum_hessian":[5.38283205032348633e+00,3.26062893867492676e+00,2.12220311164855957e+00,1.64828920364379883e+00,1.61233985424041748e+00,1.00180137157440186e+00,1.12040185928344727e+00],"tree_param":{"num_deleted":"2","num_feature":"33","num_nodes":"7","size_leaf_vector":"0"}},{"base_weights":[-1.59391492605209351e-01,-5.38674056529998779e-01,4.60256248712539673e-01,-2.40994505584239960e-02,-7.42600798606872559e-01,7.67489433288574219e-01,-8.38993117213249207e-02],"default_left":[true,true,true,false,false,false,false],"id":15,"leaf_child_counts":[0,0,0,0,0,0,0],"left_children":[1,3,5,-1,-1,-1,-1],"loss_changes":[1.86084783077239990e+00,4.77174639701843262e-01,5.90181469917297363e-01,0.00000000000000000e+00,0.00000000000000000e+00,0.00000000000000000e+00,0.00000000000000000e+00],"parents":[2147483647,0,0,1,1,2,2],"right_children":[2,4,6,-1,-1,-1,-1],"split_conditions":[6.00064210593700409e-02,4.17935991287231445e+00,1.91050186753273010e-01,-7.22983526065945625e-03,-2.22780242562294006e-01,2.30246841907501221e-01,-2.51697953790426254e-02],"split_indices":[18,0,18,0,0,0,0],"sum_hessian":[5.86285829544067383e+00,3.71785783767700195e+00,2.14500069618225098e+00,1.37257492542266846e+00,2.34528279304504395e+00,1.10863590240478516e+00,1.03636479377746582e+00],"tree_param":{"num_deleted":"0","num_feature":"33","num_nodes":"7","size_leaf_vector":"0"}},{"base_weights":[-4.17789630591869354e-02,-3.36587816476821899e-01,3.30828845500946045e-01,-7.50718235969543457e-01,3.78073066473007202e-01,-2.27598190307617188e-01,7.20133244991302490e-01],"default_left":[true,true,true,false,false,false,false],"id":16,"leaf_child_counts":[0,0,0,0,0,0,0],"left_children":[1,3,5,-1,-1,-1,-1],"loss_changes":[7.46466636657714844e-01,1.38585567474365234e+00,8.28749299049377441e-01,0.00000000000000000e+00,0.00000000000000000e+00,0.00000000000000000e+00,0.00000000000000000e+00],"parents":[2147483647,0,0,1,1,2,2],"right_children":[2,4,6,-1,-1,-1,-1],"split_conditions":[7.54991099238395691e-02,8.32134842872619629e-01,7.17999994754791260e-01,-2.25215479731559753e-01,1.13421924412250519e-01,-6.82794600725173950e-02,2.16039985418319702e-01],"split_indices":[17,3,2,0,0,0,0],"sum_hessian":[4.78174591064453125e+00,2.72353982925415039e+00,2.05820608139038086e+00,1.69238555431365967e+00,1.03115427494049072e+00,1.01608431339263916e+00,1.04212188720703125e+00],"tree_param":{"num_deleted":"0","num_feature":"33","num_nodes":"7","size_leaf_vector":"0"}},{"base_weights":[-3.85905712842941284e-01,1.21011063456535339e-01,-7.58586645126342773e-01],"default_left":[true,false,false],"id":17,"leaf_child_counts":[0,0,0],"left_children":[1,-1,-1],"loss_changes":[1.01927208900451660e+00,0.00000000000000000e+00,0.00000000000000000e+00],"parents":[2147483647,0,0],"right_children":[2,-1,-1],"split_conditions":[3.69857609272003174e-01,3.63033190369606018e-02,-2.27576002478599548e-01],"split_indices":[24,0,0],"sum_hessian":[3.90939831733703613e+00,1.94251072406768799e+00,1.96688747406005859e+00],"tree_param":{"num_deleted":"0","num_feature":"33","num_nodes":"3","size_leaf_vector":"0"}},{"base_weights":[-4.48102504014968872e-03,2.61381149291992188e-01,-5.80320358276367188e-01,6.14716053009033203e-01,-1.46841570734977722e-01],"default_left":[true,true,false,false,false],"id":18,"leaf_child_counts":[0,0,0,0,0],"left_children":[1,3,-1,-1,-1],"loss_changes":[1.04504680633544922e+00,7.65546202659606934e-01,0.00000000000000000e+00,0.00000000000000000e+00,0.00000000000000000e+00],"parents":[2147483647,0,0,1,1],"right_children":[2,4,-1,-1,-1],"split_conditions":[9.26643753051757812e+01,5.59370279312133789e-01,-1.74096107482910156e-01,1.84414818882942200e-01,-4.40524742007255554e-02],"split_indices":[4,12,0,0,0],"sum_hessian":[4.83538675308227539e+00,3.68166637420654297e+00,1.15372025966644287e+00,1.70236170291900635e+00,1.97930467128753662e+00],"tree_param":{"num_deleted":"0","num_feature":"33","num_nodes":"5","size_leaf_vector":"0"}},{"base_weights":[-1.93670853972434998e-01,-5.25417506694793701e-01,1.94039404392242432e-01,-6.25248551368713379e-01,-1.59866228699684143e-01,5.41135668754577637e-01,-2.21889510750770569e-01],"default_left":[true,true,true,true,true,false,false],"id":19,"leaf_child_counts":[0,0,0,0,0,0,0],"left_children":[1,-1,5,-1,-1,-1,-1],"loss_changes":[7.74263679981231689e-01,1.26816034317016602e-02,5.73462307453155518e-01,0.00000000000000000e+00,0.00000000000000000e+00,0.00000000000000000e+00,0.00000000000000000e+00],"parents":[2147483647,0,0,1,1,2,2],"right_children":[2,-1,6,-1,-1,-1,-1],"split_conditions":[7.57828354835510254e-03,-1.57625257968902588e-01,3.07991132140159607e-02,-1.87574580311775208e-01,-4.79598715901374817e-02,1.62340700626373291e-01,-6.65668547153472900e-02],"split_indices":[19,24,22,2147483647,2147483647,0,0],"sum_hessian":[4.22705459594726562e+00,2.08652544021606445e+00,2.14052915573120117e+00,1.08090651035308838e+00,1.00561904907226562e+00,1.00272071361541748e+00,1.13780844211578369e+00],"tree_param":{"num_deleted":"2","num_feature":"33","num_nodes":"7","size_leaf_vector":"0"}},{"base_weights":[2.00035333633422852e-01,-2.29357436299324036e-01,6.37120902538299561e-01,-4.97610718011856079e-01,1.64482414722442627e-01],"default_left":[true,true,false,false,false],"id":20,"leaf_child_counts":[0,0,0,0,0],"left_children":[1,3,-1,-1,-1],"loss_changes":[1.13105487823486328e+00,4.39208298921585083e-01,0.00000000000000000e+00,0.00000000000000000e+00,0.00000000000000000e+00],"parents":[2147483647,0,0,1,1],"right_children":[2,4,-1,-1,-1],"split_conditions":[9.77379798889160156e-01,7.81224429607391357e-01,1.91136285662651062e-01,-1.49283215403556824e-01,4.93447259068489075e-02],"split_indices":[26,3,0,0,0],"sum_hessian":[4.24786424636840820e+00,2.38252735137939453e+00,1.86533689498901367e+00,1.26049232482910156e+00,1.12203490734100342e+00],"tree_param":{"num_deleted":"0","num_feature":"33","num_nodes":"5","size_leaf_vector":"0"}},{"base_weights":[1.46975785493850708e-01,5.10610759258270264e-01,-2.43241414427757263e-01,-5.39660751819610596e-01,1.84223026037216187e-01],"default_left":[true,false,true,false,false],"id":21,"leaf_child_counts":[0,0,0,0,0],"left_children":[1,-1,3,-1,-1],"loss_changes":[8.27326655387878418e-01,0.00000000000000000e+00,4.88105386495590210e-01,0.00000000000000000e+00,0.00000000000000000e+00],"parents":[2147483647,0,0,2,2],"right_children":[2,-1,4,-1,-1],"split_conditions":[9.04812011867761612e-03,1.53183236718177795e-01,9.53361868858337402e-01,-1.61898225545883179e-01,5.52669093012809753e-02],"split_indices":[19,0,19,0,0],"sum_hessian":[3.95519137382507324e+00,1.88762485980987549e+00,2.06756663322448730e+00,1.06593751907348633e+00,1.00162899494171143e+00],"tree_param":{"num_deleted":"0","num_feature":"33","num_nodes":"5","size_leaf_vector":"0"}},{"base_weights":[-6.35630562901496887e-02,-4.13953751325607300e-01,3.85461419820785522e-01,-2.77356598526239395e-02,-6.12609744071960449e-01,6.41250908374786377e-01,-6.37454912066459656e-02],"default_left":[true,true,true,true,true,true,true],"id":22,"leaf_child_counts":[0,0,0,0,0,0,0],"left_children":[1,-1,-1,-1,-1,-1,-1],"loss_changes":[1.06234407424926758e+00,2.67285406589508057e-01,3.89356583356857300e-01,0.00000000000000000e+00,0.00000000000000000e+00,0.00000000000000000e+00,0.00000000000000000e+00],"parents":[2147483647,0,0,1,1,2,2],"right_children":[2,-1,-1,-1,-1,-1,-1],"split_conditions":[6.00064210593700409e-02,-1.24186128377914429e-01,1.15638427436351776e-01,-8.32069851458072662e-03,-1.83782935142517090e-01,1.92375287413597107e-01,-1.91236473619937897e-02],"split_indices":[18,0,18,2147483647,2147483647,2147483647,2147483647],"sum_hessian":[4.73799037933349609e+00,2.70515799522399902e+00,2.03283238410949707e+00,1.30590081214904785e+00,1.39925718307495117e+00,1.02286803722381592e+00,1.00996422767639160e+00],"tree_param":{"num_deleted":"4","num_feature":"33","num_nodes":"7","size_leaf_vector":"0"}},{"base_weights":[1.64250414818525314e-02,4.75534200668334961e-01,-2.95730382204055786e-01,-6.29936695098876953e-01,1.11028589308261871e-01],"default_left":[true,false,true,false,false],"id":23,"leaf_child_counts":[0,0,0,0,0],"left_children":[1,-1,3,-1,-1],"loss_changes":[9.18004155158996582e-01,0.00000000000000000e+00,5.92700064182281494e-01,0.00000000000000000e+00,0.00000000000000000e+00],"parents":[2147483647,0,0,2,2],"right_children":[2,-1,4,-1,-1],"split_conditions":[6.32977951318025589e-03,1.42660260200500488e-01,7.48620331287384033e-02,-1.88981011509895325e-01,3.33085767924785614e-02],"split_indices":[22,0,17,0,0],"sum_hessian":[4.42429494857788086e+00,1.57882118225097656e+00,2.84547376632690430e+00,1.26084756851196289e+00,1.58462607860565186e+00],"tree_param":{"num_deleted":"0","num_feature":"33","num_nodes":"5","size_leaf_vector":"0"}},{"base_weights":[-1.96612283587455750e-01,4.85043406486511230e-01,-5.10906875133514404e-01,5.30007332563400269e-02,-7.17794418334960938e-01],"default_left":[false,false,true,false,false],"id":24,"leaf_child_counts":[0,0,0,0,0],"left_children":[1,-1,3,-1,-1],"loss_changes":[1.38362073898315430e+00,0.00000000000000000e+00,5.18185377120971680e-01,0.00000000000000000e+00,0.00000000000000000e+00],"parents":[2147483647,0,0,2,2],"right_children":[2,-1,4,-1,-1],"split_conditions":[2.48957023620605469e+01,1.45513027906417847e-01,5.31307029724121094e+00,1.59002207219600677e-02,-2.15338334441184998e-01],"split_indices":[6,0,1,0,0],"sum_hessian":[4.30155372619628906e+00,1.18600928783416748e+00,3.11554408073425293e+00,1.03588342666625977e+00,2.07966089248657227e+00],"tree_param":{"num_deleted":"0","num_feature":"33","num_nodes":"5","size_leaf_vector":"0"}},{"base_weights":[-1.45131768658757210e-02,-3.20355832576751709e-01,3.68888676166534424e-01,-5.19181907176971436e-01,7.38236084580421448e-02],"default_left":[true,true,false,true,true],"id":25,"leaf_child_counts":[0,0,0,0,0],"left_children":[1,-1,-1,-1,-1],"loss_changes":[7.17259347438812256e-01,3.03006172180175781e-01,0.00000000000000000e+00,0.00000000000000000e+00,0.00000000000000000e+00],"parents":[2147483647,0,0,1,1],"right_children":[2,-1,-1,-1,-1],"split_conditions":[7.81224429607391357e-01,-9.61067527532577515e-02,1.10666610300540924e-01,-1.55754581093788147e-01,2.21470836549997330e-02],"split_indices":[3,22,0,2147483647,2147483647],"sum_hessian":[4.10899209976196289e+00,2.37715530395507812e+00,1.73183691501617432e+00,1.36933517456054688e+00,1.00782024860382080e+00],"tree_param":{"num_deleted":"2","num_feature":"33","num_nodes":"5","size_leaf_vector":"0"}},{"base_weights":[-1.85260653495788574e-01,2.40818038582801819e-01,-5.67074000835418701e-01],"default_left":[true,false,false],"id":26,"leaf_child_counts":[0,0,0],"left_children":[1,-1,-1],"loss_changes":[8.67855906486511230e-01,0.00000000000000000e+00,0.00000000000000000e+00],"parents":[2147483647,0,0],"right_children":[2,-1,-1],"split_conditions":[8.07143189013004303e-03,7.22454115748405457e-02,-1.70122206211090088e-01],"split_indices":[22,0,0],"sum_hessian":[3.49522280693054199e+00,1.82638025283813477e+00,1.66884267330169678e+00],"tree_param":{"num_deleted":"0","num_feature":"33","num_nodes":"3","size_leaf_vector":"0"}},{"base_weights":[9.78366211056709290e-02,-2.83087879419326782e-01,5.08585453033447266e-01,7.96466693282127380e-02,-5.32029569149017334e-01],"default_left":[true,true,false,true,true],"id":27,"leaf_child_counts":[0,0,0,0,0],"left_children":[1,-1,-1,-1,-1],"loss_changes":[9.02107179164886475e-01,3.27395707368850708e-01,0.00000000000000000e+00,0.00000000000000000e+00,0.00000000000000000e+00],"parents":[2147483647,0,0,1,1],"right_children":[2,-1,-1,-1,-1],"split_conditions":[2.33568649291992188e+01,-8.49263668060302734e-02,1.52575641870498657e-01,2.38940026611089706e-02,-1.59608870744705200e-01],"split_indices":[6,0,0,2147483647,2147483647],"sum_hessian":[3.84540510177612305e+00,2.15639019012451172e+00,1.68901491165161133e+00,1.15438592433929443e+00,1.00200414657592773e+00],"tree_param":{"num_deleted":"2","num_feature":"33","num_nodes":"5","size_leaf_vector":"0"}},{"base_weights":[9.13786739110946655e-02,-2.44309604167938232e-01,4.64494377374649048e-01,1.03072702884674072e-01,-5.44485449790954590e-01],"default_left":[true,true,false,false,false],"id":28,"leaf_child_counts":[0,0,0,0,0],"left_children":[1,3,-1,-1,-1],"loss_changes":[7.79473841190338135e-01,4.16326701641082764e-01,0.00000000000000000e+00,0.00000000000000000e+00,0.00000000000000000e+00],"parents":[2147483647,0,0,1,1],"right_children":[2,4,-1,-1,-1],"split_conditions":[5.58134093880653381e-02,1.77966821938753128e-02,1.39348313212394714e-01,3.09218112379312515e-02,-1.63345634937286377e-01],"split_indices":[18,23,0,0,0],"sum_hessian":[4.31728792190551758e+00,2.45435142517089844e+00,1.86293649673461914e+00,1.44209456443786621e+00,1.01225674152374268e+00],"tree_param":{"num_deleted":"0","num_feature":"33","num_nodes":"5","size_leaf_vector":"0"}},{"base_weights":[-6.72007799148559570e-02,2.41835847496986389e-01,-4.53165173530578613e-01,1.89679451286792755e-02,3.68137925863265991e-01],"default_left":[true,true,false,true,true],"id":29,"leaf_child_counts":[0,0,0,0,0],"left_children":[1,-1,-1,-1,-1],"loss_changes":[6.62725687026977539e-01,8.38636010885238647e-02,0.00000000000000000e+00,0.00000000000000000e+00,0.00000000000000000e+00],"parents":[2147483647,0,0,1,1],"right_children":[2,-1,-1,-1,-1],"split_conditions":[7.26415023803710938e+01,7.25507587194442749e-02,-1.35949552059173584e-01,5.69038372486829758e-03,1.10441379249095917e-01],"split_indices":[4,10,0,2147483647,2147483647],"sum_hessian":[3.63738584518432617e+00,2.22737789154052734e+00,1.41000783443450928e+00,1.22173309326171875e+00,1.00564479827880859e+00],"tree_param":{"num_deleted":"2","num_feature":"33","num_nodes":"5","size_leaf_vector":"0"}},{"base_weights":[-8.21569263935089111e-02,4.19228553771972656e-01,-4.14307802915573120e-01,-6.07887744903564453e-01,-1.57451455015689135e-03],"default_left":[false,false,true,true,true],"id":30,"leaf_child_counts":[0,0,0,0,0],"left_children":[1,-1,-1,-1,-1],"loss_changes":[9.01396632194519043e-01,0.00000000000000000e+00,2.49230623245239258e-01,0.00000000000000000e+00,0.00000000000000000e+00],"parents":[2147483647,0,0,2,2],"right_children":[2,-1,-1,-1,-1],"split_conditions":[2.48957023620605469e+01,1.25768572092056274e-01,-1.24292343854904175e-01,-1.82366326451301575e-01,-4.72354382509365678e-04],"split_indices":[6,0,31,2147483647,2147483647],"sum_hessian":[3.36967778205871582e+00,1.23829483985900879e+00,2.13138294219970703e+00,1.12901747226715088e+00,1.00236546993255615e+00],"tree_param":{"num_deleted":"2","num_feature":"33","num_nodes":"5","size_leaf_vector":"0"}},{"base_weights":[2.38396301865577698e-01,-1.08793221414089203e-01,5.58666706085205078e-01,-3.91908794641494751e-01,2.41349279880523682e-01],"default_left":[true,true,false,false,false],"id":31,"leaf_child_counts":[0,0,0,0,0],"left_children":[1,3,-1,-1,-1],"loss_changes":[5.90038180351257324e-01,4.03964310884475708e-01,0.00000000000000000e+00,0.00000000000000000e+00,0.00000000000000000e+00],"parents":[2147483647,0,0,1,1],"right_children":[2,4,-1,-1,-1],"split_conditions":[7.48620331287384033e-02,8.08813333511352539e-01,1.67600020766258240e-01,-1.17572642862796783e-01,7.24047869443893433e-02],"split_indices":[17,3,0,0,0],"sum_hessian":[3.75975799560546875e+00,2.12090086936950684e+00,1.63885700702667236e+00,1.10673880577087402e+00,1.01416206359863281e+00],"tree_param":{"num_deleted":"0","num_feature":"33","num_nodes":"5","size_leaf_vector":"0"}},{"base_weights":[1.17117434740066528e-01,-4.66762751340866089e-01,7.28970944881439209e-01],"default_left":[true,false,false],"id":32,"leaf_child_counts":[0,0,0],"left_children":[1,-1,-1],"loss_changes":[2.00258851051330566e+00,0.00000000000000000e+00,0.00000000000000000e+00],"parents":[2147483647,0,0],"right_children":[2,-1,-1],"split_conditions":[7.36500024795532227e-01,-1.40028834342956543e-01,2.18691289424896240e-01],"split_indices":[2,0,0],"sum_hessian":[3.65314507484436035e+00,1.99064421653747559e+00,1.66250085830688477e+00],"tree_param":{"num_deleted":"0","num_feature":"33","num_nodes":"3","size_leaf_vector":"0"}},{"base_weights":[-4.88748922944068909e-02,3.46462517976760864e-01,-4.38830643892288208e-01],"default_left":[true,false,false],"id":33,"leaf_child_counts":[0,0,0],"left_children":[1,-1,-1],"loss_changes":[8.45676362514495850e-01,0.00000000000000000e+00,0.00000000000000000e+00],"parents":[2147483647,0,0],"right_children":[2,-1,-1],"split_conditions":[5.59370279312133789e-01,1.03938758373260498e-01,-1.31649196147918701e-01],"split_indices":[12,0,0],"sum_hessian":[3.49934864044189453e+00,1.79306828975677490e+00,1.70628023147583008e+00],"tree_param":{"num_deleted":"0","num_feature":"33","num_nodes":"3","size_leaf_vector":"0"}},{"base_weights":[-1.62528604269027710e-02,3.11762571334838867e-01,-3.24793815612792969e-01],"default_left":[true,false,false],"id":34,"leaf_child_counts":[0,0,0],"left_children":[1,-1,-1],"loss_changes":[5.55596828460693359e-01,0.00000000000000000e+00,0.00000000000000000e+00],"parents":[2147483647,0,0],"right_children":[2,-1,-1],"split_conditions":[3.63374859094619751e-01,9.35287773609161377e-02,-9.74381491541862488e-02],"split_indices":[25,0,0],"sum_hessian":[3.48923397064208984e+00,1.68618202209472656e+00,1.80305194854736328e+00],"tree_param":{"num_deleted":"0","num_feature":"33","num_nodes":"3","size_leaf_vector":"0"}},{"base_weights":[1.27537772059440613e-01,-2.50673443078994751e-01,4.46711361408233643e-01],"default_left":[true,false,false],"id":35,"leaf_child_counts":[0,0,0],"left_children":[1,-1,-1],"loss_changes":[6.22227072715759277e-01,0.00000000000000000e+00,0.00000000000000000e+00],"parents":[2147483647,0,0],"right_children":[2,-1,-1],"split_conditions":[2.32691726684570312e+01,-7.52020329236984253e-02,1.34013414382934570e-01],"split_indices":[6,0,0],"sum_hessian":[3.22688293457031250e+00,1.57507872581481934e+00,1.65180420875549316e+00],"tree_param":{"num_deleted":"0","num_feature":"33","num_nodes":"3","size_leaf_vector":"0"}},{"base_weights":[1.65479078888893127e-01,-2.53988236188888550e-01,4.61906403303146362e-01,6.71954452991485596e-01,2.00441591441631317e-02],"default_left":[true,false,true,true,true],"id":36,"leaf_child_counts":[0,0,0,0,0],"left_children":[1,-1,-1,-1,-1],"loss_changes":[7.18875288963317871e-01,0.00000000000000000e+00,2.82555878162384033e-01,0.00000000000000000e+00,0.00000000000000000e+00],"parents":[2147483647,0,0,2,2],"right_children":[2,-1,-1,-1,-1],"split_conditions":[2.80626416206359863e-01,-7.61964768171310425e-02,1.38571932911872864e-01,2.01586350798606873e-01,6.01324811577796936e-03],"split_indices":[11,0,9,2147483647,2147483647],"sum_hessian":[3.83793544769287109e+00,1.64843797683715820e+00,2.18949747085571289e+00,1.13108193874359131e+00,1.05841541290283203e+00],"tree_param":{"num_deleted":"2","num_feature":"33","num_nodes":"5","size_leaf_vector":"0"}},{"base_weights":[5.99203594028949738e-02,-3.26310992240905762e-01,3.02006423473358154e-01,5.57640075683593750e-01,-1.02671436965465546e-01],"default_left":[true,false,true,false,false],"id":37,"leaf_child_counts":[0,0,0,0,0],"left_children":[1,-1,3,-1,-1],"loss_changes":[5.74703097343444824e-01,0.00000000000000000e+00,4.34816569089889526e-01,0.00000000000000000e+00,0.00000000000000000e+00],"parents":[2147483647,0,0,2,2],"right_children":[2,-1,4,-1,-1],"split_conditions":[2.80626416206359863e-01,-9.78933051228523254e-02,2.96493798494338989e-01,1.67292028665542603e-01,-3.08014322072267532e-02],"split_indices":[11,0,9,0,0],"sum_hessian":[4.09250116348266602e+00,1.44276201725006104e+00,2.64973902702331543e+00,1.39226472377777100e+00,1.25747430324554443e+00],"tree_param":{"num_deleted":"0","num_feature":"33","num_nodes":"5","size_leaf_vector":"0"}},{"base_weights":[1.59390360116958618e-01,-2.56455838680267334e-01,4.36312079429626465e-01],"default_left":[false,false,false],"id":38,"leaf_child_counts":[0,0,0],"left_children":[1,-1,-1],"loss_changes":[6.06472492218017578e-01,0.00000000000000000e+00,0.00000000000000000e+00],"parents":[2147483647,0,0],"right_children":[2,-1,-1],"split_conditions":[3.57149505615234375e+01,-7.69367516040802002e-02,1.30893632769584656e-01],"split_indices":[5,0,0],"sum_hessian":[3.29481792449951172e+00,1.34658741950988770e+00,1.94823050498962402e+00],"tree_param":{"num_deleted":"0","num_feature":"33","num_nodes":"3","size_leaf_vector":"0"}},{"base_weights":[5.74832549318671227e-04,-3.11431169509887695e-01,3.13506424427032471e-01],"default_left":[true,false,false],"id":39,"leaf_child_counts":[0,0,0],"left_children":[1,-1,-1],"loss_changes":[5.36430180072784424e-01,0.00000000000000000e+00,0.00000000000000000e+00],"parents":[2147483647,0,0],"right_children":[2,-1,-1],"split_conditions":[7.39499986171722412e-01,-9.34293568134307861e-02,9.40519347786903381e-02],"split_indices":[2,0,0],"sum_hessian":[3.49416255950927734e+00,1.75206983089447021e+00,1.74209272861480713e+00],"tree_param":{"num_deleted":"0","num_feature":"33","num_nodes":"3","size_leaf_vector":"0"}},{"base_weights":[-4.65020872652530670e-02,-3.26272398233413696e-01,3.44204515218734741e-01,-4.66414332389831543e-01,-5.06418338045477867e-03],"default_left":[true,true,false,true,true],"id":40,"leaf_child_counts":[0,0,0,0,0],"left_children":[1,-1,-1,-1,-1],"loss_changes":[6.33391499519348145e-01,1.45796120166778564e-01,0.00000000000000000e+00,0.00000000000000000e+00,0.00000000000000000e+00],"parents":[2147483647,0,0,1,1],"right_children":[2,-1,-1,-1,-1],"split_conditions":[5.42259737849235535e-02,-9.78817269206047058e-02,1.03261359035968781e-01,-1.39924302697181702e-01,-1.51925510726869106e-03],"split_indices":[30,27,0,2147483647,2147483647],"sum_hessian":[3.76713991165161133e+00,2.29132509231567383e+00,1.47581470012664795e+00,1.28055953979492188e+00,1.01076555252075195e+00],"tree_param":{"num_deleted":"2","num_feature":"33","num_nodes":"5","size_leaf_vector":"0"}},{"base_weights":[1.31491690874099731e-01,2.79720306396484375e-01,-1.32879212498664856e-01,-6.12566880881786346e-02,4.87943649291992188e-01],"default_left":[true,true,true,true,true],"id":41,"leaf_child_counts":[0,0,0,0,0],"left_children":[-1,-1,-1,-1,-1],"loss_changes":[2.23693221807479858e-01,2.69290834665298462e-01,0.00000000000000000e+00,0.00000000000000000e+00,0.00000000000000000e+00],"parents":[2147483647,0,0,1,1],"right_children":[-1,-1,-1,-1,-1],"split_conditions":[3.94475087523460388e-02,8.39160978794097900e-02,-3.98637652397155762e-02,-1.83770079165697098e-02,1.46383106708526611e-01],"split_indices":[8,2147483647,2147483647,2147483647,2147483647],"sum_hessian":[3.75980925559997559e+00,2.37187576293945312e+00,1.38793361186981201e+00,1.16687214374542236e+00,1.20500349998474121e+00],"tree_param":{"num_deleted":"4","num_feature":"33","num_nodes":"5","size_leaf_vector":"0"}},{"base_weights":[3.10518220067024231e-02,-2.26988837122917175e-01,2.89565265178680420e-01],"default_left":[true,true,true],"id":42,"leaf_child_counts":[0,0,0],"left_children":[-1,-1,-1],"loss_changes":[3.85060489177703857e-01,0.00000000000000000e+00,0.00000000000000000e+00],"parents":[2147483647,0,0],"right_children":[-1,-1,-1],"split_conditions":[9.31554660201072693e-03,-6.80966526269912720e-02,8.68695825338363647e-02],"split_indices":[26,2147483647,2147483647],"sum_hessian":[3.78709101676940918e+00,1.95630729198455811e+00,1.83078372478485107e+00],"tree_param":{"num_deleted":"2","num_feature":"33","num_nodes":"3","size_leaf_vector":"0"}},{"base_weights":[-1.09748691320419312e-01,3.29848736524581909e-01,-3.77804696559906006e-01,-4.64485108852386475e-01,-9.14824828505516052e-02],"default_left":[false,false,true,true,true],"id":43,"leaf_child_counts":[0,0,0,0,0],"left_children":[1,-1,-1,-1,-1],"loss_changes":[6.52535021305084229e-01,0.00000000000000000e+00,3.81469428539276123e-02,0.00000000000000000e+00,0.00000000000000000e+00],"parents":[2147483647,0,0,2,2],"right_children":[2,-1,-1,-1,-1],"split_conditions":[2.48957023620605469e+01,9.89546254277229309e-02,-1.13341413438320160e-01,-1.39345541596412659e-01,-2.74447463452816010e-02],"split_indices":[6,0,18,2147483647,2147483647],"sum_hessian":[3.48006844520568848e+00,1.23091399669647217e+00,2.24915456771850586e+00,1.24883842468261719e+00,1.00031614303588867e+00],"tree_param":{"num_deleted":"2","num_feature":"33","num_nodes":"5","size_leaf_vector":"0"}},{"base_weights":[-1.15076797083020210e-02,2.53170311450958252e-01,-3.69200855493545532e-01,3.22169698774814606e-02,3.59094142913818359e-01],"default_left":[true,true,false,true,true],"id":44,"leaf_child_counts":[0,0,0,0,0],"left_children":[1,-1,-1,-1,-1],"loss_changes":[5.09224474430084229e-01,6.13843202590942383e-02,0.00000000000000000e+00,0.00000000000000000e+00,0.00000000000000000e+00],"parents":[2147483647,0,0,1,1],"right_children":[2,-1,-1,-1,-1],"split_conditions":[8.71307492256164551e-01,7.59510993957519531e-02,-1.10760264098644257e-01,9.66509152203798294e-03,1.07728250324726105e-01],"split_indices":[12,11,0,2147483647,2147483647],"sum_hessian":[3.39144778251647949e+00,2.11709785461425781e+00,1.27434992790222168e+00,1.10864865779876709e+00,1.00844907760620117e+00],"tree_param":{"num_deleted":"2","num_feature":"33","num_nodes":"5","size_leaf_vector":"0"}},{"base_weights":[-9.99804735183715820e-02,2.11087688803672791e-01,-4.41480845212936401e-01],"default_left":[true,false,false],"id":45,"leaf_child_counts":[0,0,0],"left_children":[1,-1,-1],"loss_changes":[4.98542606830596924e-01,0.00000000000000000e+00,0.00000000000000000e+00],"parents":[2147483647,0,0],"right_children":[2,-1,-1],"split_conditions":[8.71307492256164551e-01,6.33263066411018372e-02,-1.32444262504577637e-01],"split_indices":[14,0,0],"sum_hessian":[2.81579446792602539e+00,1.67339897155761719e+00,1.14239549636840820e+00],"tree_param":{"num_deleted":"0","num_feature":"33","num_nodes":"3","size_leaf_vector":"0"}},{"base_weights":[-1.50890406221151352e-02,-3.77462029457092285e-01,3.57279062271118164e-01],"default_left":[true,false,false],"id":46,"leaf_child_counts":[0,0,0],"left_children":[1,-1,-1],"loss_changes":[7.17039704322814941e-01,0.00000000000000000e+00,0.00000000000000000e+00],"parents":[2147483647,0,0],"right_children":[2,-1,-1],"split_conditions":[6.00064210593700409e-02,-1.13238610327243805e-01,1.07183724641799927e-01],"split_indices":[18,0,0],"sum_hessian":[3.31448841094970703e+00,1.67285573482513428e+00,1.64163267612457275e+00],"tree_param":{"num_deleted":"0","num_feature":"33","num_nodes":"3","size_leaf_vector":"0"}},{"base_weights":[8.55062380433082581e-02,4.40505146980285645e-01,-2.52789050340652466e-01],"default_left":[true,false,false],"id":47,"leaf_child_counts":[0,0,0],"left_children":[1,-1,-1],"loss_changes":[5.94999253749847412e-01,0.00000000000000000e+00,0.00000000000000000e+00],"parents":[2147483647,0,0],"right_children":[2,-1,-1],"split_conditions":[6.32977951318025589e-03,1.32151544094085693e-01,-7.58367180824279785e-02],"split_indices":[22,0,0],"sum_hessian":[3.02719998359680176e+00,1.32970631122589111e+00,1.69749355316162109e+00],"tree_param":{"num_deleted":"0","num_feature":"33","num_nodes":"3","size_leaf_vector":"0"}},{"base_weights":[2.94496770948171616e-02,2.70390391349792480e-01,-2.55249589681625366e-01],"default_left":[true,true,true],"id":48,"leaf_child_counts":[0,0,0],"left_children":[-1,-1,-1],"loss_changes":[3.47332805395126343e-01,0.00000000000000000e+00,0.00000000000000000e+00],"parents":[2147483647,0,0],"right_children":[-1,-1,-1],"split_conditions":[8.83490312844514847e-03,8.11171233654022217e-02,-7.65748769044876099e-02],"split_indices":[4,2147483647,2147483647],"sum_hessian":[3.05733895301818848e+00,1.68315017223358154e+00,1.37418866157531738e+00],"tree_param":{"num_deleted":"2","num_feature":"33","num_nodes":"3","size_leaf_vector":"0"}},{"base_weights":[-5.83124672994017601e-03,-2.82810747623443604e-01,3.94686400890350342e-01],"default_left":[true,false,false],"id":49,"leaf_child_counts":[0,0,0],"left_children":[1,-1,-1],"loss_changes":[5.45845746994018555e-01,0.00000000000000000e+00,0.00000000000000000e+00],"parents":[2147483647,0,0],"right_children":[2,-1,-1],"split_conditions":[9.02223169803619385e-01,-8.48432257771492004e-02,1.18405923247337341e-01],"split_indices":[3,0,0],"sum_hessian":[2.91421532630920410e+00,1.89654171466827393e+00,1.01767361164093018e+00],"tree_param":{"num_deleted":"0","num_feature":"33","num_nodes":"3","size_leaf_vector":"0"}},{"base_weights":[2.06683561205863953e-01,-1.15571074187755585e-01,3.77667814493179321e-01],"default_left":[true,true,true],"id":50,"leaf_child_counts":[0,0,0],"left_children":[-1,-1,-1],"loss_changes":[2.71968156099319458e-01,0.00000000000000000e+00,0.00000000000000000e+00],"parents":[2147483647,0,0],"right_children":[-1,-1,-1],"split_conditions":[6.20050691068172455e-02,-3.46713252365589142e-02,1.13300345838069916e-01],"split_indices":[2,2147483647,2147483647],"sum_hessian":[3.14371562004089355e+00,1.20213353633880615e+00,1.94158208370208740e+00],"tree_param":{"num_deleted":"2","num_feature":"33","num_nodes":"3","size_leaf_vector":"0"}},{"base_weights":[1.48689731955528259e-01,-1.48373454809188843e-01,4.22007113695144653e-01],"default_left":[true,false,false],"id":51,"leaf_child_counts":[0,0,0],"left_children":[1,-1,-1],"loss_changes":[4.21191990375518799e-01,0.00000000000000000e+00,0.00000000000000000e+00],"parents":[2147483647,0,0],"right_children":[2,-1,-1],"split_conditions":[9.77379798889160156e-01,-4.45120371878147125e-02,1.26602143049240112e-01],"split_indices":[26,0,0],"sum_hessian":[3.41638350486755371e+00,1.85613083839416504e+00,1.56025278568267822e+00],"tree_param":{"num_deleted":"0","num_feature":"33","num_nodes":"3","size_leaf_vector":"0"}},{"base_weights":[2.61754766106605530e-02,-1.60557582974433899e-01,2.48870193958282471e-01,-4.01349097490310669e-01,1.72298043966293335e-01],"default_left":[true,true,true,true,true],"id":52,"leaf_child_counts":[0,0,0,0,0],"left_children":[-1,-1,-1,-1,-1],"loss_changes":[2.31386259198188782e-01,3.18550288677215576e-01,0.00000000000000000e+00,0.00000000000000000e+00,0.00000000000000000e+00],"parents":[2147483647,0,0,1,1],"right_children":[-1,-1,-1,-1,-1],"split_conditions":[7.85264372825622559e-03,-4.81672771275043488e-02,7.46610611677169800e-02,-1.20404735207557678e-01,5.16894161701202393e-02],"split_indices":[30,2147483647,2147483647,2147483647,2147483647],"sum_hessian":[3.60336017608642578e+00,2.11169457435607910e+00,1.49166560173034668e+00,1.10589933395385742e+00,1.00579535961151123e+00],"tree_param":{"num_deleted":"4","num_feature":"33","num_nodes":"5","size_leaf_vector":"0"}},{"base_weights":[6.45074173808097839e-02,1.97782054543495178e-01,-2.04636633396148682e-01,4.17340785264968872e-01,-6.79439827799797058e-02],"default_left":[true,true,true,true,true],"id":53,"leaf_child_counts":[0,0,0,0,0],"left_children":[-1,-1,-1,-1,-1],"loss_changes":[2.05529913306236267e-01,2.37576514482498169e-01,0.00000000000000000e+00,0.00000000000000000e+00,0.00000000000000000e+00],"parents":[2147483647,0,0,1,1],"right_children":[-1,-1,-1,-1,-1],"split_conditions":[1.93522255867719650e-02,5.93346171081066132e-02,-6.13909922540187836e-02,1.25202238559722900e-01,-2.03831959515810013e-02],"split_indices":[9,2147483647,2147483647,2147483647,2147483647],"sum_hessian":[3.60150861740112305e+00,2.58607935905456543e+00,1.01542937755584717e+00,1.10362803936004639e+00,1.48245131969451904e+00],"tree_param":{"num_deleted":"4","num_feature":"33","num_nodes":"5","size_leaf_vector":"0"}},{"base_weights":[1.00069105625152588e-01,-1.48028448224067688e-01,3.46103489398956299e-01],"default_left":[true,true,true],"id":54,"leaf_child_counts":[0,0,0],"left_children":[-1,-1,-1],"loss_changes":[3.32385420799255371e-01,0.00000000000000000e+00,0.00000000000000000e+00],"parents":[2147483647,0,0],"right_children":[-1,-1,-1],"split_conditions":[3.00207324326038361e-02,-4.44085374474525452e-02,1.03831052780151367e-01],"split_indices":[2,2147483647,2147483647],"sum_hessian":[3.60599350929260254e+00,1.99380815029144287e+00,1.61218535900115967e+00],"tree_param":{"num_deleted":"2","num_feature":"33","num_nodes":"3","size_leaf_vector":"0"}},{"base_weights":[5.72758615016937256e-02,-1.73297524452209473e-01,2.93540179729461670e-01],"default_left":[true,true,true],"id":55,"leaf_child_counts":[0,0,0],"left_children":[-1,-1,-1],"loss_changes":[2.97836005687713623e-01,0.00000000000000000e+00,0.00000000000000000e+00],"parents":[2147483647,0,0],"right_children":[-1,-1,-1],"split_conditions":[1.71827599406242371e-02,-5.19892610609531403e-02,8.80620554089546204e-02],"split_indices":[26,2147483647,2147483647],"sum_hessian":[3.53346490859985352e+00,1.92314898967742920e+00,1.61031591892242432e+00],"tree_param":{"num_deleted":"2","num_feature":"33","num_nodes":"3","size_leaf_vector":"0"}},{"base_weights":[-1.49520322680473328e-01,-3.92579525709152222e-01,1.28091156482696533e-01],"default_left":[true,true,true],"id":56,"leaf_child_counts":[0,0,0],"left_children":[-1,-1,-1],"loss_changes":[3.65913838148117065e-01,0.00000000000000000e+00,0.00000000000000000e+00],"parents":[2147483647,0,0],"right_children":[-1,-1,-1],"split_conditions":[-4.48560975492000580e-02,-1.17773860692977905e-01,3.84273491799831390e-02],"split_indices":[26,2147483647,2147483647],"sum_hessian":[3.67762994766235352e+00,1.74003303050994873e+00,1.93759679794311523e+00],"tree_param":{"num_deleted":"2","num_feature":"33","num_nodes":"3","size_leaf_vector":"0"}},{"base_weights":[-4.45816814899444580e-02,-2.38284423947334290e-01,1.61931931972503662e-01],"default_left":[true,true,true],"id":57,"leaf_child_counts":[0,0,0],"left_children":[-1,-1,-1],"loss_changes":[2.29882448911666870e-01,0.00000000000000000e+00,0.00000000000000000e+00],"parents":[2147483647,0,0],"right_children":[-1,-1,-1],"split_conditions":[-1.33745046332478523e-02,-7.14853331446647644e-02,4.85795810818672180e-02],"split_indices":[26,2147483647,2147483647],"sum_hessian":[3.78214502334594727e+00,1.87222135066986084e+00,1.90992355346679688e+00],"tree_param":{"num_deleted":"2","num_feature":"33","num_nodes":"3","size_leaf_vector":"0"}},{"base_weights":[-2.45324075222015381e-01,1.54694288969039917e-01,-4.65933382511138916e-01],"default_left":[true,false,false],"id":58,"leaf_child_counts":[0,0,0],"left_children":[1,-1,-1],"loss_changes":[4.34458285570144653e-01,0.00000000000000000e+00,0.00000000000000000e+00],"parents":[2147483647,0,0],"right_children":[2,-1,-1],"split_conditions":[5.31307029724121094e+00,4.64082881808280945e-02,-1.39780014753341675e-01],"split_indices":[1,0,0],"sum_hessian":[3.10640430450439453e+00,1.21041440963745117e+00,1.89598977565765381e+00],"tree_param":{"num_deleted":"0","num_feature":"33","num_nodes":"3","size_leaf_vector":"0"}},{"base_weights":[6.77588731050491333e-02,-1.33646890521049500e-01,3.25033187866210938e-01],"default_left":[true,true,true],"id":59,"leaf_child_counts":[0,0,0],"left_children":[-1,-1,-1],"loss_changes":[2.47172996401786804e-01,0.00000000000000000e+00,0.00000000000000000e+00],"parents":[2147483647,0,0],"right_children":[-1,-1,-1],"split_conditions":[2.03276630491018295e-02,-4.00940701365470886e-02,9.75099578499794006e-02],"split_indices":[3,2147483647,2147483647],"sum_hessian":[2.93182134628295898e+00,1.91399145126342773e+00,1.01782977581024170e+00],"tree_param":{"num_deleted":"2","num_feature":"33","num_nodes":"3","size_leaf_vector":"0"}},{"base_weights":[9.23647210001945496e-02,-1.38892084360122681e-01,3.60052853822708130e-01,-3.96818935871124268e-01,1.96719124913215637e-01],"default_left":[true,true,true,true,true],"id":60,"leaf_child_counts":[0,0,0,0,0],"left_children":[-1,-1,-1,-1,-1],"loss_changes":[3.20355504751205444e-01,3.43346774578094482e-01,0.00000000000000000e+00,0.00000000000000000e+00,0.00000000000000000e+00],"parents":[2147483647,0,0,1,1],"right_children":[-1,-1,-1,-1,-1],"split_conditions":[2.77094170451164246e-02,-4.16676253080368042e-02,1.08015857636928558e-01,-1.19045682251453400e-01,5.90157397091388702e-02],"split_indices":[17,2147483647,2147483647,2147483647,2147483647],"sum_hessian":[3.36714863777160645e+00,2.06464028358459473e+00,1.30250847339630127e+00,1.06431031227111816e+00,1.00032985210418701e+00],"tree_param":{"num_deleted":"4","num_feature":"33","num_nodes":"5","size_leaf_vector":"0"}},{"base_weights":[4.59791198372840881e-02,-2.60892570018768311e-01,2.65192747116088867e-01],"default_left":[true,true,true],"id":61,"leaf_child_counts":[0,0,0],"left_children":[-1,-1,-1],"loss_changes":[3.66480857133865356e-01,0.00000000000000000e+00,0.00000000000000000e+00],"parents":[2147483647,0,0],"right_children":[-1,-1,-1],"split_conditions":[1.37937366962432861e-02,-7.82677754759788513e-02,7.95578286051750183e-02],"split_indices":[0,2147483647,2147483647],"sum_hessian":[3.41938519477844238e+00,1.34559333324432373e+00,2.07379198074340820e+00],"tree_param":{"num_deleted":"2","num_feature":"33","num_nodes":"3","size_leaf_vector":"0"}},{"base_weights":[6.34768158197402954e-02,-2.41774275898933411e-01,2.34431773424148560e-01,-1.06224387884140015e-01,4.79627132415771484e-01],"default_left":[true,true,true,true,true],"id":62,"leaf_child_counts":[0,0,0,0,0],"left_children":[-1,-1,-1,-1,-1],"loss_changes":[2.91712820529937744e-01,0.00000000000000000e+00,3.34502339363098145e-01,0.00000000000000000e+00,0.00000000000000000e+00],"parents":[2147483647,0,0,2,2],"right_children":[-1,-1,-1,-1,-1],"split_conditions":[1.90430451184511185e-02,-7.25322887301445007e-02,7.03295320272445679e-02,-3.18673178553581238e-02,1.43888145685195923e-01],"split_indices":[2,2147483647,2147483647,2147483647,2147483647],"sum_hessian":[3.50391674041748047e+00,1.10916817188262939e+00,2.39474844932556152e+00,1.23948168754577637e+00,1.15526688098907471e+00],"tree_param":{"num_deleted":"4","num_feature":"33","num_nodes":"5","size_leaf_vector":"0"}},{"base_weights":[-1.07497774064540863e-01,-4.29344624280929565e-01,2.20933601260185242e-01],"default_left":[true,false,false],"id":63,"leaf_child_counts":[0,0,0],"left_children":[1,-1,-1],"loss_changes":[5.22457122802734375e-01,0.00000000000000000e+00,0.00000000000000000e+00],"parents":[2147483647,0,0],"right_children":[2,-1,-1],"split_conditions":[2.33568649291992188e+01,-1.28803387284278870e-01,6.62800818681716919e-02],"split_indices":[6,0,0],"sum_hessian":[3.04523968696594238e+00,1.38285267353057861e+00,1.66238701343536377e+00],"tree_param":{"num_deleted":"0","num_feature":"33","num_nodes":"3","size_leaf_vector":"0"}},{"base_weights":[-7.28949531912803650e-02,-3.09971928596496582e-01,2.82146513462066650e-01],"default_left":[true,false,false],"id":64,"leaf_child_counts":[0,0,0],"left_children":[1,-1,-1],"loss_changes":[4.21862751245498657e-01,0.00000000000000000e+00,0.00000000000000000e+00],"parents":[2147483647,0,0],"right_children":[2,-1,-1],"split_conditions":[1.58824726939201355e-01,-9.29915830492973328e-02,8.46439599990844727e-02],"split_indices":[21,0,0],"sum_hessian":[2.97287273406982422e+00,1.85868656635284424e+00,1.11418604850769043e+00],"tree_param":{"num_deleted":"0","num_feature":"33","num_nodes":"3","size_leaf_vector":"0"}},{"base_weights":[-3.94365796819329262e-03,-2.66128778457641602e-01,2.58760154247283936e-01],"default_left":[true,true,true],"id":65,"leaf_child_counts":[0,0,0],"left_children":[-1,-1,-1],"loss_changes":[3.54400724172592163e-01,0.00000000000000000e+00,0.00000000000000000e+00],"parents":[2147483647,0,0],"right_children":[-1,-1,-1],"split_conditions":[-1.18309748359024525e-03,-7.98386335372924805e-02,7.76280462741851807e-02],"split_indices":[6,2147483647,2147483647],"sum_hessian":[3.14560794830322266e+00,1.56783318519592285e+00,1.57777476310729980e+00],"tree_param":{"num_deleted":"2","num_feature":"33","num_nodes":"3","size_leaf_vector":"0"}},{"base_weights":[5.56546896696090698e-02,-2.14064896106719971e-01,2.59909719228744507e-01],"default_left":[true,true,true],"id":66,"leaf_child_counts":[0,0,0],"left_children":[-1,-1,-1],"loss_changes":[2.88332313299179077e-01,0.00000000000000000e+00,0.00000000000000000e+00],"parents":[2147483647,0,0],"right_children":[-1,-1,-1],"split_conditions":[1.66964083909988403e-02,-6.42194747924804688e-02,7.79729187488555908e-02],"split_indices":[1,2147483647,2147483647],"sum_hessian":[3.22378110885620117e+00,1.36856198310852051e+00,1.85521924495697021e+00],"tree_param":{"num_deleted":"2","num_feature":"33","num_nodes":"3","size_leaf_vector":"0"}},{"base_weights":[1.40271008014678955e-01,-9.00277271866798401e-02,3.46910148859024048e-01],"default_left":[true,true,true],"id":67,"leaf_child_counts":[0,0,0],"left_children":[-1,-1,-1],"loss_changes":[2.44329780340194702e-01,0.00000000000000000e+00,0.00000000000000000e+00],"parents":[2147483647,0,0],"right_children":[-1,-1,-1],"split_conditions":[4.20813038945198059e-02,-2.70083192735910416e-02,1.04073047637939453e-01],"split_indices":[26,2147483647,2147483647],"sum_hessian":[3.47791433334350586e+00,1.91167831420898438e+00,1.56623601913452148e+00],"tree_param":{"num_deleted":"2","num_feature":"33","num_nodes":"3","size_leaf_vector":"0"}},{"base_weights":[-8.37581045925617218e-03,1.57375186681747437e-01,-2.68335610628128052e-01,-8.87331068515777588e-02,3.48476499319076538e-01],"default_left":[true,true,true,true,true],"id":68,"leaf_child_counts":[0,0,0,0,0],"left_children":[-1,-1,-1,-1,-1],"loss_changes":[2.35322624444961548e-01,1.89268827438354492e-01,0.00000000000000000e+00,0.00000000000000000e+00,0.00000000000000000e+00],"parents":[2147483647,0,0,1,1],"right_children":[-1,-1,-1,-1,-1],"split_conditions":[-2.51274323090910912e-03,4.72125597298145294e-02,-8.05006846785545349e-02,-2.66199335455894470e-02,1.04542955756187439e-01],"split_indices":[9,2147483647,2147483647,2147483647,2147483647],"sum_hessian":[3.48130798339843750e+00,2.36682915687561035e+00,1.11447870731353760e+00,1.26866471767425537e+00,1.09816443920135498e+00],"tree_param":{"num_deleted":"4","num_feature":"33","num_nodes":"5","size_leaf_vector":"0"}},{"base_weights":[1.00894354283809662e-01,2.39265635609626770e-01,-1.76218375563621521e-01,-2.17432025820016861e-02,4.18372213840484619e-01],"default_left":[true,true,true,true,true],"id":69,"leaf_child_counts":[0,0,0,0,0],"left_children":[-1,-1,-1,-1,-1],"loss_changes":[2.16179102659225464e-01,1.70423880219459534e-01,0.00000000000000000e+00,0.00000000000000000e+00,0.00000000000000000e+00],"parents":[2147483647,0,0,1,1],"right_children":[-1,-1,-1,-1,-1],"split_conditions":[3.02683077752590179e-02,7.17796906828880310e-02,-5.28655163943767548e-02,-6.52296096086502075e-03,1.25511676073074341e-01],"split_indices":[9,2147483647,2147483647,2147483647,2147483647],"sum_hessian":[3.53823518753051758e+00,2.45096588134765625e+00,1.08726930618286133e+00,1.35497975349426270e+00,1.09598612785339355e+00],"tree_param":{"num_deleted":"4","num_feature":"33","num_nodes":"5","size_leaf_vector":"0"}},{"base_weights":[1.07255421578884125e-01,-6.73668459057807922e-02,3.06381911039352417e-01,-4.10121947526931763e-01,3.17532777786254883e-01],"default_left":[true,true,false,false,false],"id":70,"leaf_child_counts":[0,0,0,0,0],"left_children":[1,3,-1,-1,-1],"loss_changes":[1.75147354602813721e-01,5.50695359706878662e-01,0.00000000000000000e+00,0.00000000000000000e+00,0.00000000000000000e+00],"parents":[2147483647,0,0,1,1],"right_children":[2,4,-1,-1,-1],"split_conditions":[6.88359886407852173e-02,3.37932357788085938e+01,9.19145792722702026e-02,-1.23036585748195648e-01,9.52598378062248230e-02],"split_indices":[17,5,0,0,0],"sum_hessian":[3.44345331192016602e+00,2.18714404106140137e+00,1.25630915164947510e+00,1.12224733829498291e+00,1.06489670276641846e+00],"tree_param":{"num_deleted":"0","num_feature":"33","num_nodes":"5","size_leaf_vector":"0"}},{"base_weights":[4.04588729143142700e-02,-2.01594382524490356e-01,1.85139507055282593e-01,-7.57580474019050598e-02,3.52787047624588013e-01],"default_left":[true,true,true,true,true],"id":71,"leaf_child_counts":[0,0,0,0,0],"left_children":[-1,-1,-1,-1,-1],"loss_changes":[1.98151096701622009e-01,0.00000000000000000e+00,1.75246953964233398e-01,0.00000000000000000e+00,0.00000000000000000e+00],"parents":[2147483647,0,0,2,2],"right_children":[-1,-1,-1,-1,-1],"split_conditions":[1.21376626193523407e-02,-6.04783184826374054e-02,5.55418543517589569e-02,-2.27274149656295776e-02,1.05836115777492523e-01],"split_indices":[2,2147483647,2147483647,2147483647,2147483647],"sum_hessian":[3.59240698814392090e+00,1.19678664207458496e+00,2.39562034606933594e+00,1.15159273147583008e+00,1.24402761459350586e+00],"tree_param":{"num_deleted":"4","num_feature":"33","num_nodes":"5","size_leaf_vector":"0"}},{"base_weights":[2.58879009634256363e-02,2.70790845155715942e-01,-1.59221827983856201e-01,-4.54664319753646851e-01,2.04703822731971741e-01],"default_left":[true,false,true,false,false],"id":72,"leaf_child_counts":[0,0,0,0,0],"left_children":[1,-1,3,-1,-1],"loss_changes":[2.53554165363311768e-01,0.00000000000000000e+00,4.45028901100158691e-01,0.00000000000000000e+00,0.00000000000000000e+00],"parents":[2147483647,0,0,2,2],"right_children":[2,-1,4,-1,-1],"split_conditions":[6.32977951318025589e-03,8.12372565269470215e-02,7.36500024795532227e-01,-1.36399298906326294e-01,6.14111497998237610e-02],"split_indices":[22,0,2,0,0],"sum_hessian":[3.64196252822875977e+00,1.36852157115936279e+00,2.27344083786010742e+00,1.11716783046722412e+00,1.15627312660217285e+00],"tree_param":{"num_deleted":"0","num_feature":"33","num_nodes":"5","size_leaf_vector":"0"}},{"base_weights":[-7.36585259437561035e-02,-2.93267786502838135e-01,1.66487976908683777e-01],"default_left":[true,true,true],"id":73,"leaf_child_counts":[0,0,0],"left_children":[-1,-1,-1],"loss_changes":[2.80051648616790771e-01,0.00000000000000000e+00,0.00000000000000000e+00],"parents":[2147483647,0,0],"right_children":[-1,-1,-1],"split_conditions":[-2.20975577831268311e-02,-8.79803374409675598e-02,4.99463938176631927e-02],"split_indices":[2,2147483647,2147483647],"sum_hessian":[3.38439726829528809e+00,1.65224671363830566e+00,1.73215067386627197e+00],"tree_param":{"num_deleted":"2","num_feature":"33","num_nodes":"3","size_leaf_vector":"0"}},{"base_weights":[-8.02679136395454407e-02,-2.52320915460586548e-01,1.97387889027595520e-01,1.93095281720161438e-02,-3.94027143716812134e-01],"default_left":[true,true,true,true,true],"id":74,"leaf_child_counts":[0,0,0,0,0],"left_children":[-1,-1,-1,-1,-1],"loss_changes":[2.54086554050445557e-01,1.26128897070884705e-01,0.00000000000000000e+00,0.00000000000000000e+00,0.00000000000000000e+00],"parents":[2147483647,0,0,1,1],"right_children":[-1,-1,-1,-1,-1],"split_conditions":[-2.40803752094507217e-02,-7.56962746381759644e-02,5.92163689434528351e-02,5.79285854473710060e-03,-1.18208147585391998e-01],"split_indices":[23,2147483647,2147483647,2147483647,2147483647],"sum_hessian":[3.27621865272521973e+00,2.07911419868469238e+00,1.19710445404052734e+00,1.00891137123107910e+00,1.07020270824432373e+00],"tree_param":{"num_deleted":"4","num_feature":"33","num_nodes":"5","size_leaf_vector":"0"}},{"base_weights":[-4.45138029754161835e-02,-2.14607968926429749e-01,2.31571480631828308e-01,-4.27928328514099121e-01,1.18583381175994873e-01],"default_left":[true,true,true,true,true],"id":75,"leaf_child_counts":[0,0,0,0,0],"left_children":[-1,-1,-1,-1,-1],"loss_changes":[2.51198917627334595e-01,2.76349425315856934e-01,0.00000000000000000e+00,0.00000000000000000e+00,0.00000000000000000e+00],"parents":[2147483647,0,0,1,1],"right_children":[-1,-1,-1,-1,-1],"split_conditions":[-1.33541412651538849e-02,-6.43823966383934021e-02,6.94714486598968506e-02,-1.28378510475158691e-01,3.55750173330307007e-02],"split_indices":[21,2147483647,2147483647,2147483647,2147483647],"sum_hessian":[3.29087948799133301e+00,2.17410421371459961e+00,1.11677515506744385e+00,1.15213596820831299e+00,1.02196836471557617e+00],"tree_param":{"num_deleted":"4","num_feature":"33","num_nodes":"5","size_leaf_vector":"0"}},{"base_weights":[-3.25986295938491821e-02,-1.84343621134757996e-01,2.46604144573211670e-01,-4.98637080192565918e-01,2.80386835336685181e-01],"default_left":[true,true,false,false,false],"id":76,"leaf_child_counts":[0,0,0,0,0],"left_children":[1,3,-1,-1,-1],"loss_changes":[2.36485347151756287e-01,6.50059819221496582e-01,0.00000000000000000e+00,0.00000000000000000e+00,0.00000000000000000e+00],"parents":[2147483647,0,0,1,1],"right_children":[2,4,-1,-1,-1],"split_conditions":[9.05218124389648438e-01,7.54991099238395691e-02,7.39812478423118591e-02,-1.49591132998466492e-01,8.41160565614700317e-02],"split_indices":[3,17,0,0,0],"sum_hessian":[3.50876021385192871e+00,2.49337601661682129e+00,1.01538431644439697e+00,1.44391083717346191e+00,1.04946517944335938e+00],"tree_param":{"num_deleted":"0","num_feature":"33","num_nodes":"5","size_leaf_vector":"0"}},{"base_weights":[5.51298409700393677e-02,-1.67069032788276672e-01,2.64381021261215210e-01],"default_left":[true,true,true],"id":77,"leaf_child_counts":[0,0,0],"left_children":[-1,-1,-1],"loss_changes":[2.37241446971893311e-01,0.00000000000000000e+00,0.00000000000000000e+00],"parents":[2147483647,0,0],"right_children":[-1,-1,-1],"split_conditions":[1.65389534085988998e-02,-5.01207113265991211e-02,7.93143063783645630e-02],"split_indices":[26,2147483647,2147483647],"sum_hessian":[3.15248990058898926e+00,1.62671053409576416e+00,1.52577936649322510e+00],"tree_param":{"num_deleted":"2","num_feature":"33","num_nodes":"3","size_leaf_vector":"0"}},{"base_weights":[-1.63272961974143982e-01,1.41368433833122253e-01,-3.82380872964859009e-01],"default_left":[true,true,true],"id":78,"leaf_child_counts":[0,0,0],"left_children":[-1,-1,-1],"loss_changes":[3.13355922698974609e-01,0.00000000000000000e+00,0.00000000000000000e+00],"parents":[2147483647,0,0],"right_children":[-1,-1,-1],"split_conditions":[-4.89818900823593140e-02,4.24105301499366760e-02,-1.14714264869689941e-01],"split_indices":[12,2147483647,2147483647],"sum_hessian":[2.88467264175415039e+00,1.35521721839904785e+00,1.52945542335510254e+00],"tree_param":{"num_deleted":"2","num_feature":"33","num_nodes":"3","size_leaf_vector":"0"}},{"base_weights":[1.06626965105533600e-01,-1.16664372384548187e-01,3.28119069337844849e-01],"default_left":[true,true,true],"id":79,"leaf_child_counts":[0,0,0],"left_children":[-1,-1,-1],"loss_changes":[2.53179013729095459e-01,0.00000000000000000e+00,0.00000000000000000e+00],"parents":[2147483647,0,0],"right_children":[-1,-1,-1],"split_conditions":[3.19880917668342590e-02,-3.49993146955966949e-02,9.84357222914695740e-02],"split_indices":[26,2147483647,2147483647],"sum_hessian":[3.34514880180358887e+00,1.90149116516113281e+00,1.44365751743316650e+00],"tree_param":{"num_deleted":"2","num_feature":"33","num_nodes":"3","size_leaf_vector":"0"}},{"base_weights":[1.05253815650939941e-01,2.58383721113204956e-01,-5.42037673294544220e-02],"default_left":[true,true,true],"id":80,"leaf_child_counts":[0,0,0],"left_children":[-1,-1,-1],"loss_changes":[1.18403218686580658e-01,0.00000000000000000e+00,0.00000000000000000e+00],"parents":[2147483647,0,0],"right_children":[-1,-1,-1],"split_conditions":[3.15761454403400421e-02,7.75151178240776062e-02,-1.62611305713653564e-02],"split_indices":[25,2147483647,2147483647],"sum_hessian":[3.27549481391906738e+00,1.35442519187927246e+00,1.92106962203979492e+00],"tree_param":{"num_deleted":"2","num_feature":"33","num_nodes":"3","size_leaf_vector":"0"}},{"base_weights":[-4.18272279202938080e-02,2.24226042628288269e-01,-2.46748775243759155e-01],"default_left":[true,true,true],"id":81,"leaf_child_counts":[0,0,0],"left_children":[-1,-1,-1],"loss_changes":[2.89091020822525024e-01,0.00000000000000000e+00,0.00000000000000000e+00],"parents":[2147483647,0,0],"right_children":[-1,-1,-1],"split_conditions":[-1.25481691211462021e-02,6.72678127884864807e-02,-7.40246325731277466e-02],"split_indices":[25,2147483647,2147483647],"sum_hessian":[3.28766179084777832e+00,1.38947606086730957e+00,1.89818561077117920e+00],"tree_param":{"num_deleted":"2","num_feature":"33","num_nodes":"3","size_leaf_vector":"0"}},{"base_weights":[4.72577959299087524e-02,-1.87274992465972900e-01,1.82853564620018005e-01,3.39137017726898193e-01,-5.61548881232738495e-02],"default_left":[true,true,true,true,true],"id":82,"leaf_child_counts":[0,0,0,0,0],"left_children":[-1,-1,-1,-1,-1],"loss_changes":[1.65533944964408875e-01,0.00000000000000000e+00,1.35658428072929382e-01,0.00000000000000000e+00,0.00000000000000000e+00],"parents":[2147483647,0,0,2,2],"right_children":[-1,-1,-1,-1,-1],"split_conditions":[1.41773391515016556e-02,-5.61824999749660492e-02,5.48560731112957001e-02,1.01741112768650055e-01,-1.68464668095111847e-02],"split_indices":[11,2147483647,2147483647,2147483647,2147483647],"sum_hessian":[3.12840366363525391e+00,1.00645864009857178e+00,2.12194490432739258e+00,1.02970540523529053e+00,1.09223961830139160e+00],"tree_param":{"num_deleted":"4","num_feature":"33","num_nodes":"5","size_leaf_vector":"0"}},{"base_weights":[-2.01544567942619324e-01,-4.88485664129257202e-01,1.56676217913627625e-01],"default_left":[true,false,false],"id":83,"leaf_child_counts":[0,0,0],"left_children":[1,-1,-1],"loss_changes":[4.83428090810775757e-01,0.00000000000000000e+00,0.00000000000000000e+00],"parents":[2147483647,0,0],"right_children":[2,-1,-1],"split_conditions":[6.00064210593700409e-02,-1.46545708179473877e-01,4.70028668642044067e-02],"split_indices":[18,0,0],"sum_hessian":[2.95856451988220215e+00,1.44080805778503418e+00,1.51775658130645752e+00],"tree_param":{"num_deleted":"0","num_feature":"33","num_nodes":"3","size_leaf_vector":"0"}},{"base_weights":[7.11102783679962158e-02,2.76939600706100464e-01,-2.79160112142562866e-01,6.68601738288998604e-03,4.16571795940399170e-01],"default_left":[true,true,true,true,true],"id":84,"leaf_child_counts":[0,0,0,0,0],"left_children":[-1,-1,-1,-1,-1],"loss_changes":[3.75610113143920898e-01,1.14502638578414917e-01,0.00000000000000000e+00,0.00000000000000000e+00,0.00000000000000000e+00],"parents":[2147483647,0,0,1,1],"right_children":[-1,-1,-1,-1,-1],"split_conditions":[2.13330835103988647e-02,8.30818861722946167e-02,-8.37480351328849792e-02,2.00580526143312454e-03,1.24971546232700348e-01],"split_indices":[9,2147483647,2147483647,2147483647,2147483647],"sum_hessian":[3.13753819465637207e+00,2.10810661315917969e+00,1.02943158149719238e+00,1.07512342929840088e+00,1.03298318386077881e+00],"tree_param":{"num_deleted":"4","num_feature":"33","num_nodes":"5","size_leaf_vector":"0"}},{"base_weights":[-3.73875536024570465e-02,-2.41850048303604126e-01,1.97641894221305847e-01],"default_left":[true,true,true],"id":85,"leaf_child_counts":[0,0,0],"left_children":[-1,-1,-1],"loss_changes":[2.43600636720657349e-01,0.00000000000000000e+00,0.00000000000000000e+00],"parents":[2147483647,0,0],"right_children":[-1,-1,-1],"split_conditions":[-1.12162660807371140e-02,-7.25550204515457153e-02,5.92925697565078735e-02],"split_indices":[6,2147483647,2147483647],"sum_hessian":[3.07454228401184082e+00,1.62866997718811035e+00,1.44587218761444092e+00],"tree_param":{"num_deleted":"2","num_feature":"33","num_nodes":"3","size_leaf_vector":"0"}},{"base_weights":[-1.41177311539649963e-01,1.34867832064628601e-01,-3.32731097936630249e-01],"default_left":[true,true,true],"id":86,"leaf_child_counts":[0,0,0],"left_children":[-1,-1,-1],"loss_changes":[2.55583882331848145e-01,0.00000000000000000e+00,0.00000000000000000e+00],"parents":[2147483647,0,0],"right_children":[-1,-1,-1],"split_conditions":[-4.23531942069530487e-02,4.04603518545627594e-02,-9.98193323612213135e-02],"split_indices":[22,2147483647,2147483647],"sum_hessian":[2.98485636711120605e+00,1.34398603439331055e+00,1.64087033271789551e+00],"tree_param":{"num_deleted":"2","num_feature":"33","num_nodes":"3","size_leaf_vector":"0"}},{"base_weights":[4.05489131808280945e-02,2.18877077102661133e-01,-2.58071541786193848e-01,1.73885410185903311e-03,3.35145771503448486e-01],"default_left":[true,true,true,true,true],"id":87,"leaf_child_counts":[0,0,0,0,0],"left_children":[-1,-1,-1,-1,-1],"loss_changes":[2.77069598436355591e-01,7.85535573959350586e-02,0.00000000000000000e+00,0.00000000000000000e+00,0.00000000000000000e+00],"parents":[2147483647,0,0,1,1],"right_children":[-1,-1,-1,-1,-1],"split_conditions":[1.21646746993064880e-02,6.56631290912628174e-02,-7.74214640259742737e-02,5.21656242199242115e-04,1.00543737411499023e-01],"split_indices":[32,2147483647,2147483647,2147483647,2147483647],"sum_hessian":[3.14222598075866699e+00,2.13456177711486816e+00,1.00766420364379883e+00,1.09832823276519775e+00,1.03623354434967041e+00],"tree_param":{"num_deleted":"4","num_feature":"33","num_nodes":"5","size_leaf_vector":"0"}},{"base_weights":[-4.83646094799041748e-02,3.16193312406539917e-01,-3.63161265850067139e-01],"default_left":[true,false,false],"id":88,"leaf_child_counts":[0,0,0],"left_children":[1,-1,-1],"loss_changes":[5.66999495029449463e-01,0.00000000000000000e+00,0.00000000000000000e+00],"parents":[2147483647,0,0],"right_children":[2,-1,-1],"split_conditions":[3.63374859094619751e-01,9.48579981923103333e-02,-1.08948387205600739e-01],"split_indices":[25,0,0],"sum_hessian":[2.94008350372314453e+00,1.36030852794647217e+00,1.57977497577667236e+00],"tree_param":{"num_deleted":"0","num_feature":"33","num_nodes":"3","size_leaf_vector":"0"}},{"base_weights":[6.58772066235542297e-02,2.06126496195793152e-01,-1.89238071441650391e-01,4.16472464799880981e-01,-1.00202322006225586e-01],"default_left":[true,true,true,true,true],"id":89,"leaf_child_counts":[0,0,0,0,0],"left_children":[-1,-1,-1,-1,-1],"loss_changes":[1.88708811998367310e-01,2.46533364057540894e-01,0.00000000000000000e+00,0.00000000000000000e+00,0.00000000000000000e+00],"parents":[2147483647,0,0,1,1],"right_children":[-1,-1,-1,-1,-1],"split_conditions":[1.97631623595952988e-02,6.18379525840282440e-02,-5.67714236676692963e-02,1.24941743910312653e-01,-3.00606973469257355e-02],"split_indices":[9,2147483647,2147483647,2147483647,2147483647],"sum_hessian":[3.18398332595825195e+00,2.17842364311218262e+00,1.00555956363677979e+00,1.07837724685668945e+00,1.10004651546478271e+00],"tree_param":{"num_deleted":"4","num_feature":"33","num_nodes":"5","size_leaf_vector":"0"}},{"base_weights":[-7.84606393426656723e-03,-2.39882335066795349e-01,2.33622476458549500e-01],"default_left":[true,true,true],"id":90,"leaf_child_counts":[0,0,0],"left_children":[-1,-1,-1],"loss_changes":[2.57125109434127808e-01,0.00000000000000000e+00,0.00000000000000000e+00],"parents":[2147483647,0,0],"right_children":[-1,-1,-1],"split_conditions":[-2.35381931997835636e-03,-7.19647035002708435e-02,7.00867474079132080e-02],"split_indices":[2,2147483647,2147483647],"sum_hessian":[2.58888339996337891e+00,1.32357704639434814e+00,1.26530635356903076e+00],"tree_param":{"num_deleted":"2","num_feature":"33","num_nodes":"3","size_leaf_vector":"0"}},{"base_weights":[2.34098032116889954e-01,4.32027548551559448e-01,-1.10238157212734222e-01],"default_left":[true,true,true],"id":91,"leaf_child_counts":[0,0,0],"left_children":[-1,-1,-1],"loss_changes":[3.13891798257827759e-01,0.00000000000000000e+00,0.00000000000000000e+00],"parents":[2147483647,0,0],"right_children":[-1,-1,-1],"split_conditions":[7.02294111251831055e-02,1.29608273506164551e-01,-3.30714471638202667e-02],"split_indices":[8,2147483647,2147483647],"sum_hessian":[2.90681004524230957e+00,1.68409776687622070e+00,1.22271215915679932e+00],"tree_param":{"num_deleted":"2","num_feature":"33","num_nodes":"3","size_leaf_vector":"0"}},{"base_weights":[-4.22306265681982040e-03,-2.93095588684082031e-01,2.74530529975891113e-01],"default_left":[true,true,true],"id":92,"leaf_child_counts":[0,0,0],"left_children":[-1,-1,-1],"loss_changes":[3.99807125329971313e-01,0.00000000000000000e+00,0.00000000000000000e+00],"parents":[2147483647,0,0],"right_children":[-1,-1,-1],"split_conditions":[-1.26691884361207485e-03,-8.79286825656890869e-02,8.23591649532318115e-02],"split_indices":[2,2147483647,2147483647],"sum_hessian":[2.96580433845520020e+00,1.43120026588439941e+00,1.53460407257080078e+00],"tree_param":{"num_deleted":"2","num_feature":"33","num_nodes":"3","size_leaf_vector":"0"}},{"base_weights":[-1.99544411152601242e-02,-2.06811696290969849e-01,1.65282666683197021e-01],"default_left":[false,true,true],"id":93,"leaf_child_counts":[0,0,0],"left_children":[-1,-1,-1],"loss_changes":[1.66540160775184631e-01,0.00000000000000000e+00,0.00000000000000000e+00],"parents":[2147483647,0,0],"right_children":[-1,-1,-1],"split_conditions":[-5.98633242771029472e-03,-6.20435103774070740e-02,4.95848022401332855e-02],"split_indices":[6,2147483647,2147483647],"sum_hessian":[2.82394385337829590e+00,1.34784257411956787e+00,1.47610127925872803e+00],"tree_param":{"num_deleted":"2","num_feature":"33","num_nodes":"3","size_leaf_vector":"0"}},{"base_weights":[9.09227877855300903e-02,-1.28736004233360291e-01,2.71623522043228149e-01],"default_left":[true,true,true],"id":94,"leaf_child_counts":[0,0,0],"left_children":[-1,-1,-1],"loss_changes":[1.95699900388717651e-01,0.00000000000000000e+00,0.00000000000000000e+00],"parents":[2147483647,0,0],"right_children":[-1,-1,-1],"split_conditions":[2.72768381983041763e-02,-3.86208035051822662e-02,8.14870595932006836e-02],"split_indices":[2,2147483647,2147483647],"sum_hessian":[3.04943346977233887e+00,1.50614523887634277e+00,1.54328811168670654e+00],"tree_param":{"num_deleted":"2","num_feature":"33","num_nodes":"3","size_leaf_vector":"0"}},{"base_weights":[-7.38546699285507202e-02,-2.95039623975753784e-01,2.19935670495033264e-01],"default_left":[true,true,true],"id":95,"leaf_child_counts":[0,0,0],"left_children":[-1,-1,-1],"loss_changes":[3.12827438116073608e-01,0.00000000000000000e+00,0.00000000000000000e+00],"parents":[2147483647,0,0],"right_children":[-1,-1,-1],"split_conditions":[-2.21564024686813354e-02,-8.85118916630744934e-02,6.59807026386260986e-02],"split_indices":[2,2147483647,2147483647],"sum_hessian":[2.81548213958740234e+00,1.60378992557525635e+00,1.21169233322143555e+00],"tree_param":{"num_deleted":"2","num_feature":"33","num_nodes":"3","size_leaf_vector":"0"}},{"base_weights":[-7.05222859978675842e-02,-2.96674281358718872e-01,2.09174945950508118e-01],"default_left":[true,true,true],"id":96,"leaf_child_counts":[0,0,0],"left_children":[-1,-1,-1],"loss_changes":[3.16604822874069214e-01,0.00000000000000000e+00,0.00000000000000000e+00],"parents":[2147483647,0,0],"right_children":[-1,-1,-1],"split_conditions":[-2.11566872894763947e-02,-8.90022888779640198e-02,6.27524852752685547e-02],"split_indices":[2,2147483647,2147483647],"sum_hessian":[3.02421402931213379e+00,1.63860535621643066e+00,1.38560855388641357e+00],"tree_param":{"num_deleted":"2","num_feature":"33","num_nodes":"3","size_leaf_vector":"0"}},{"base_weights":[-6.78028538823127747e-02,-2.83143699169158936e-01,2.31246158480644226e-01],"default_left":[true,true,true],"id":97,"leaf_child_counts":[0,0,0],"left_children":[-1,-1,-1],"loss_changes":[3.07798981666564941e-01,0.00000000000000000e+00,0.00000000000000000e+00],"parents":[2147483647,0,0],"right_children":[-1,-1,-1],"split_conditions":[-2.03408561646938324e-02,-8.49431157112121582e-02,6.93738535046577454e-02],"split_indices":[30,2147483647,2147483647],"sum_hessian":[2.76292872428894043e+00,1.63719487190246582e+00,1.12573385238647461e+00],"tree_param":{"num_deleted":"2","num_feature":"33","num_nodes":"3","size_leaf_vector":"0"}},{"base_weights":[-1.08387850224971771e-01,2.22084701061248779e-01,-3.09220254421234131e-01],"default_left":[true,true,true],"id":98,"leaf_child_counts":[0,0,0],"left_children":[-1,-1,-1],"loss_changes":[3.19399327039718628e-01,0.00000000000000000e+00,0.00000000000000000e+00],"parents":[2147483647,0,0],"right_children":[-1,-1,-1],"split_conditions":[-3.25163565576076508e-02,6.66254162788391113e-02,-9.27660763263702393e-02],"split_indices":[4,2147483647,2147483647],"sum_hessian":[2.77772688865661621e+00,1.00997602939605713e+00,1.76775074005126953e+00],"tree_param":{"num_deleted":"2","num_feature":"33","num_nodes":"3","size_leaf_vector":"0"}},{"base_weights":[-2.68465559929609299e-02,2.85534292459487915e-01,-2.99119383096694946e-01],"default_left":[true,false,false],"id":99,"leaf_child_counts":[0,0,0],"left_children":[1,-1,-1],"loss_changes":[4.25630122423171997e-01,0.00000000000000000e+00,0.00000000000000000e+00],"parents":[2147483647,0,0],"right_children":[2,-1,-1],"split_conditions":[6.32977951318025589e-03,8.56602936983108521e-02,-8.97358208894729614e-02],"split_indices":[22,0,0],"sum_hessian":[3.00011777877807617e+00,1.37447035312652588e+00,1.62564742565155029e+00],"tree_param":{"num_deleted":"0","num_feature":"33","num_nodes":"3","size_leaf_vector":"0"}}]},"name":"gbtree"},"learner_model_param":{"base_score":"0.500000","num_class":"0","num_feature":"33"},"objective":{"name":"binary:logistic","reg_loss_param":{"scale_pos_weight":"1"}}},"version":[1,1,1]}