{"learner":{"attributes":{"scikit_learn":"{\"use_label_encoder\": null, \"n_estimators\": 100, \"objective\": \"binary:logistic\", \"max_depth\": 4, \"max_leaves\": null, \"max_bin\": null, \"grow_policy\": null, \"learning_rate\": null, \"verbosity\": null, \"booster\": null, \"tree_method\": null, \"gamma\": 0.4, \"min_child_weight\": null, \"max_delta_step\": null, \"subsample\": 0.8, \"sampling_method\": null, \"colsample_bytree\": 0.75, \"colsample_bylevel\": null, \"colsample_bynode\": null, \"reg_alpha\": null, \"reg_lambda\": null, \"scale_pos_weight\": null, \"base_score\": null, \"missing\": NaN, \"num_parallel_tree\": null, \"random_state\": null, \"n_jobs\": null, \"monotone_constraints\": null, \"interaction_constraints\": null, \"importance_type\": \"gain\", \"gpu_id\": null, \"validate_parameters\": null, \"predictor\": null, \"enable_categorical\": false, \"feature_types\": null, \"max_cat_to_onehot\": null, \"max_cat_threshold\": null, \"eval_metric\": null, \"early_stopping_rounds\": null, \"callbacks\": null, \"classes_\": [false, true], \"_le\": {\"classes_\": [false, true]}, \"kwargs\": {}, \"n_classes_\": 2, \"_features_count\": 33, \"type\": \"XGBClassifier\", \"_estimator_type\": \"classifier\"}"},"feature_names":[],"feature_types":[],"gradient_booster":{"model":{"gbtree_model_param":{"num_parallel_tree":"1","num_trees":"100","size_leaf_vector":"0"},"tree_info":[0,0,0,0,0,0,0,0,0,0,0,0,0,0,0,0,0,0,0,0,0,0,0,0,0,0,0,0,0,0,0,0,0,0,0,0,0,0,0,0,0,0,0,0,0,0,0,0,0,0,0,0,0,0,0,0,0,0,0,0,0,0,0,0,0,0,0,0,0,0,0,0,0,0,0,0,0,0,0,0,0,0,0,0,0,0,0,0,0,0,0,0,0,0,0,0,0,0,0,0],"trees":[{"base_weights":[-1.628866E0,-1.7974683E0,-7.2727275E-1,-5E-1,-1.84E0,-1.1111112E0,5E-1,-1.887324E0,-5E-1,-0E0,-1.4285715E0],"categories":[],"categories_nodes":[],"categories_segments":[],"categories_sizes":[],"default_left":[1,1,1,1,1,1,0,1,1,0,0],"id":0,"left_children":[1,-1,5,-1,-1,9,-1,-1,-1,-1,-1],"loss_changes":[2.3790054E0,1.6987228E-1,3.1464643E0,0E0,2.453537E-1,1.5873017E0,0E0,0E0,0E0,0E0,0E0],"parents":[2147483647,0,0,1,1,2,2,4,4,5,5],"right_children":[2,-1,6,-1,-1,10,-1,-1,-1,-1,-1],"split_conditions":[9.4E-1,-5.3924054E-1,7.5024545E-2,-1.5E-1,-5.5200005E-1,5.3130703E0,1.5E-1,-5.661972E-1,-1.5E-1,-0E0,-4.2857146E-1],"split_indices":[2,1,31,2147483647,2147483647,1,0,2147483647,2147483647,0,0],"split_type":[0,0,0,0,0,0,0,0,0,0,0],"sum_hessian":[2.325E1,1.875E1,4.5E0,1E0,1.775E1,3.5E0,1E0,1.675E1,1E0,1E0,2.5E0],"tree_param":{"num_deleted":"4","num_feature":"33","num_nodes":"11","size_leaf_vector":"0"}},{"base_weights":[-1.2007585E0,1.0316703E-1,-1.3325552E0,-1.4126669E0,-1.5723781E-1,-3.8912678E-1,-1.4582428E0],"categories":[],"categories_nodes":[],"categories_segments":[],"categories_sizes":[],"default_left":[1,0,1,1,0,1,1],"id":1,"left_children":[1,-1,3,-1,-1,-1,-1],"loss_changes":[3.9393864E0,0E0,1.6764526E0,3.0731964E-1,0E0,0E0,0E0],"parents":[2147483647,0,0,2,2,3,3],"right_children":[2,-1,4,-1,-1,-1,-1],"split_conditions":[4.1743402E0,3.0950109E-2,1.0776446E0,-4.2380008E-1,-4.7171347E-2,-1.1673804E-1,-4.3747285E-1],"split_indices":[0,0,32,14,0,2147483647,2147483647],"split_type":[0,0,0,0,0,0,0],"sum_hessian":[2.112303E1,1.9589969E0,1.9164034E1,1.7752073E1,1.4119592E0,1.1633601E0,1.6588715E1],"tree_param":{"num_deleted":"2","num_feature":"33","num_nodes":"7","size_leaf_vector":"0"}},{"base_weights":[-1.0074583E0,4.944097E-2,-1.1572338E0,-4.8726916E-1,6.1788636E-1,-1.2024351E0,-2.2791167E-1,-2.9896268E-1,-1.2550304E0],"categories":[],"categories_nodes":[],"categories_segments":[],"categories_sizes":[],"default_left":[1,1,1,0,0,1,0,1,1],"id":2,"left_children":[1,3,5,-1,-1,-1,-1,-1,-1],"loss_changes":[3.1498108E0,1.3334898E0,4.4647408E-1,0E0,0E0,3.909397E-1,0E0,0E0,0E0],"parents":[2147483647,0,0,1,1,2,2,5,5],"right_children":[2,4,6,-1,-1,-1,-1,-1,-1],"split_conditions":[5.3130703E0,2.2056463E-1,3.561293E1,-1.4618075E-1,1.8536592E-1,-3.6073056E-1,-6.83735E-2,-8.968881E-2,-3.7650913E-1],"split_indices":[1,11,5,0,0,11,0,2147483647,2147483647],"split_type":[0,0,0,0,0,0,0,0,0],"sum_hessian":[1.8536592E1,2.3839574E0,1.6152636E1,1.2996595E0,1.0842979E0,1.5123175E1,1.0294611E0,1.1996689E0,1.3923506E1],"tree_param":{"num_deleted":"2","num_feature":"33","num_nodes":"9","size_leaf_vector":"0"}},{"base_weights":[-8.325798E-1,-6.04455E-2,-9.961605E-1,4.7790813E-1,-7.447788E-1,-1.8070762E-1,-1.0478919E0,-1.1015526E0,-2.0413661E-1,-1.1715162E0,-1.9326235E-1],"categories":[],"categories_nodes":[],"categories_segments":[],"categories_sizes":[],"default_left":[1,1,1,0,0,0,1,1,0,0,0],"id":3,"left_children":[1,3,5,-1,-1,-1,7,9,-1,-1,-1],"loss_changes":[2.1022072E0,1.850802E0,4.038725E-1,0E0,0E0,0E0,3.6443424E-1,5.3678226E-1,0E0,0E0,0E0],"parents":[2147483647,0,0,1,1,2,2,6,6,7,7],"right_children":[2,4,6,-1,-1,-1,8,10,-1,-1,-1],"split_conditions":[5.3130703E0,3.415351E1,1.7413275E-3,1.4337245E-1,-2.2343366E-1,-5.4212287E-2,1.0963901E0,5.7517844E-1,-6.1240986E-2,-3.5145485E-1,-5.797871E-2],"split_indices":[1,5,13,0,0,0,19,18,0,0,0],"split_type":[0,0,0,0,0,0,0,0,0,0,0],"sum_hessian":[1.6120457E1,3.0575786E0,1.3062878E1,1.8801446E0,1.1774342E0,1.0472959E0,1.2015581E1,1.1009846E1,1.005736E0,9.953358E0,1.0564883E0],"tree_param":{"num_deleted":"0","num_feature":"33","num_nodes":"11","size_leaf_vector":"0"}},{"base_weights":[-7.299441E-1,1.8097813E-1,-8.5626763E-1,-1.7653225E-1,-9.5674264E-1,-1.5152805E-1,-1.022384E0,-1.0984828E0,-1.5584815E-1],"categories":[],"categories_nodes":[],"categories_segments":[],"categories_sizes":[],"default_left":[1,0,0,0,0,0,1,0,0],"id":4,"left_children":[1,-1,3,-1,5,-1,7,-1,-1],"loss_changes":[1.8816195E0,0E0,7.430115E-1,0E0,4.4797134E-1,0E0,5.128002E-1,0E0,0E0],"parents":[2147483647,0,0,2,2,4,4,6,6],"right_children":[2,-1,4,-1,6,-1,8,-1,-1],"split_conditions":[4.1743402E0,5.4293443E-2,2.4895702E1,-5.2959677E-2,3.386222E1,-4.5458414E-2,2.9596663E1,-3.2954487E-1,-4.6754446E-2],"split_indices":[0,0,6,0,5,0,6,0,0],"split_type":[0,0,0,0,0,0,0,0,0],"sum_hessian":[1.4005136E1,1.6529579E0,1.2352178E1,1.9457479E0,1.040643E1,1.0337672E0,9.372663E0,8.369947E0,1.0027158E0],"tree_param":{"num_deleted":"0","num_feature":"33","num_nodes":"9","size_leaf_vector":"0"}},{"base_weights":[-5.453115E-1,4.1175458E-1,-6.932684E-1,-8.122072E-1,2.4663654E-1,-2.4709086E-1,-9.285469E-1,1.9035102E-1,-5.9676045E-1,-1.0151908E0,-1.5558106E-1],"categories":[],"categories_nodes":[],"categories_segments":[],"categories_sizes":[],"default_left":[1,0,1,0,0,1,1,0,0,0,0],"id":5,"left_children":[1,-1,3,5,-1,7,9,-1,-1,-1,-1],"loss_changes":[2.1711504E0,0E0,1.5313306E0,4.807291E-1,0E0,6.040894E-1,4.1768932E-1,0E0,0E0,0E0,0E0],"parents":[2147483647,0,0,2,2,3,3,5,5,6,6],"right_children":[2,-1,4,6,-1,8,10,-1,-1,-1,-1],"split_conditions":[4.1743402E0,1.2352638E-1,1.0776446E0,3.4133144E1,7.399096E-2,6.9822734E-3,6.6193545E-1,5.710531E-2,-1.7902814E-1,-3.0455726E-1,-4.667432E-2],"split_indices":[0,0,32,5,0,19,18,0,0,0,0],"split_type":[0,0,0,0,0,0,0,0,0,0,0],"sum_hessian":[1.2316623E1,1.4104066E0,1.0906217E1,9.801734E0,1.1044829E0,2.206688E0,7.5950456E0,1.1827172E0,1.0239708E0,6.5477223E0,1.0473232E0],"tree_param":{"num_deleted":"0","num_feature":"33","num_nodes":"11","size_leaf_vector":"0"}},{"base_weights":[-7.0885557E-1,-9.1222364E-1,1.718461E-1,-2.0073523E-1,-1.0313288E0,3.5465115E-1,-9.965108E-2],"categories":[],"categories_nodes":[],"categories_segments":[],"categories_sizes":[],"default_left":[1,1,0,0,0,1,1],"id":6,"left_children":[1,3,-1,-1,-1,-1,-1],"loss_changes":[2.2551575E0,6.1298656E-1,1.8618739E-1,0E0,0E0,0E0,0E0],"parents":[2147483647,0,0,1,1,2,2],"right_children":[2,4,-1,-1,-1,-1,-1],"split_conditions":[9.052181E-1,4.10133E0,5.1553834E-2,-6.022057E-2,-3.0939865E-1,1.0639535E-1,-2.9895326E-2],"split_indices":[3,0,6,0,0,2147483647,2147483647],"split_type":[0,0,0,0,0,0,0],"sum_hessian":[1.0715902E1,8.676555E0,2.039347E0,1.6292725E0,7.047282E0,1.0357047E0,1.0036423E0],"tree_param":{"num_deleted":"2","num_feature":"33","num_nodes":"7","size_leaf_vector":"0"}},{"base_weights":[-5.255523E-1,-9.284412E-1,-1.451942E-1,-4.4603163E-1,4.4880277E-1,7.519706E-2,-7.915725E-1],"categories":[],"categories_nodes":[],"categories_segments":[],"categories_sizes":[],"default_left":[1,0,1,1,0,0,0],"id":7,"left_children":[1,-1,3,5,-1,-1,-1],"loss_changes":[1.5345001E0,0E0,1.4132934E0,9.614792E-1,0E0,0E0,0E0],"parents":[2147483647,0,0,2,2,3,3],"right_children":[2,-1,4,6,-1,-1,-1],"split_conditions":[5.2897614E-1,-2.785324E-1,5.4225974E-2,6.3297795E-3,1.3464084E-1,2.255912E-2,-2.3747176E-1],"split_indices":[3,0,30,22,0,0,0],"split_type":[0,0,0,0,0,0,0],"sum_hessian":[9.893252E0,4.1045732E0,5.7886786E0,4.007918E0,1.7807605E0,1.9096694E0,2.0982485E0],"tree_param":{"num_deleted":"0","num_feature":"33","num_nodes":"7","size_leaf_vector":"0"}},{"base_weights":[-3.1799755E-1,-5.8183205E-1,4.6199566E-1,-9.487548E-2,-9.614818E-1,5.1538885E-1,-4.550184E-1,-6.0203284E-1,-6.9611356E-2],"categories":[],"categories_nodes":[],"categories_segments":[],"categories_sizes":[],"default_left":[1,1,0,1,0,0,1,1,1],"id":8,"left_children":[1,3,-1,5,-1,-1,-1,-1,-1],"loss_changes":[2.1285355E0,1.2390304E0,0E0,1.1711661E0,0E0,0E0,1.400398E-1,0E0,0E0],"parents":[2147483647,0,0,1,1,3,3,6,6],"right_children":[2,4,-1,6,-1,-1,-1,-1,-1],"split_conditions":[9.8985046E-2,2.371183E-1,1.3859871E-1,4.3474703E0,-2.8844455E-1,1.5461665E-1,-1.3650553E-1,-1.8060985E-1,-2.0883407E-2],"split_indices":[31,25,0,0,0,0,1,2147483647,2147483647],"split_type":[0,0,0,0,0,0,0,0,0],"sum_hessian":[8.037075E0,6.195491E0,1.8415842E0,3.261737E0,2.9337537E0,1.0505339E0,2.211203E0,1.1937675E0,1.0174357E0],"tree_param":{"num_deleted":"2","num_feature":"33","num_nodes":"9","size_leaf_vector":"0"}},{"base_weights":[-3.767287E-1,2.2459339E-1,-5.5745006E-1,-7.357746E-1,2.5291923E-1,-3.4664262E-2,-8.778765E-1],"categories":[],"categories_nodes":[],"categories_segments":[],"categories_sizes":[],"default_left":[0,0,1,1,0,0,0],"id":9,"left_children":[1,-1,3,5,-1,-1,-1],"loss_changes":[1.0912617E0,0E0,1.2153692E0,5.766845E-1,0E0,0E0,0E0],"parents":[2147483647,0,0,2,2,3,3],"right_children":[2,-1,4,6,-1,-1,-1],"split_conditions":[3.4091908E1,6.737802E-2,9.886017E-1,4.2747803E0,7.5875774E-2,-1.0399279E-2,-2.6336297E-1],"split_indices":[5,0,32,0,0,0,0],"split_type":[0,0,0,0,0,0,0],"sum_hessian":[7.889727E0,1.767127E0,6.1226006E0,5.093753E0,1.0288473E0,1.0680565E0,4.0256963E0],"tree_param":{"num_deleted":"0","num_feature":"33","num_nodes":"7","size_leaf_vector":"0"}},{"base_weights":[-3.7877664E-1,4.1703847E-1,-6.011644E-1,-8.057265E-1,-2.0941827E-1,3.5884553E-1,-6.260739E-1],"categories":[],"categories_nodes":[],"categories_segments":[],"categories_sizes":[],"default_left":[1,0,1,0,1,0,0],"id":10,"left_children":[1,-1,3,-1,5,-1,-1],"loss_changes":[1.4965341E0,0E0,3.0499053E-1,0E0,1.0247364E0,0E0,0E0],"parents":[2147483647,0,0,2,2,4,4],"right_children":[2,-1,4,-1,6,-1,-1],"split_conditions":[5.3130703E0,1.2511155E-1,7.043241E-1,-2.4171796E-1,9.175941E-1,1.0765366E-1,-1.8782218E-1],"split_indices":[1,0,3,0,3,0,0],"split_type":[0,0,0,0,0,0,0],"sum_hessian":[6.039376E0,1.1279016E0,4.911474E0,2.532366E0,2.3791084E0,1.0651419E0,1.3139665E0],"tree_param":{"num_deleted":"0","num_feature":"33","num_nodes":"7","size_leaf_vector":"0"}},{"base_weights":[-1.364332E-1,-4.4173357E-1,4.8137447E-1,1.2874533E-1,-8.670333E-1,1.1090412E0,-3.510459E-1,-4.540528E-1,7.4921054E-1],"categories":[],"categories_nodes":[],"categories_segments":[],"categories_sizes":[],"default_left":[1,1,1,1,0,0,0,0,0],"id":11,"left_children":[1,3,5,7,-1,-1,-1,-1,-1],"loss_changes":[1.7306752E0,1.5450319E0,2.0300937E0,1.5674702E0,0E0,0E0,0E0,0E0,0E0],"parents":[2147483647,0,0,1,1,2,2,3,3],"right_children":[2,4,6,8,-1,-1,-1,-1,-1],"split_conditions":[7.549911E-2,6.3297795E-3,1.6780898E-1,3.3845028E1,-2.6011E-1,3.3271238E-1,-1.0531378E-1,-1.3621585E-1,2.2476317E-1],"split_indices":[17,22,17,5,0,0,0,0,0],"split_type":[0,0,0,0,0,0,0,0,0],"sum_hessian":[7.0482497E0,4.907916E0,2.1403337E0,2.3939958E0,2.5139203E0,1.0307854E0,1.1095482E0,1.3727697E0,1.0212259E0],"tree_param":{"num_deleted":"0","num_feature":"33","num_nodes":"9","size_leaf_vector":"0"}},{"base_weights":[-4.4546005E-1,-7.302791E-1,2.742811E-1,-8.804443E-1,-9.881175E-2],"categories":[],"categories_nodes":[],"categories_segments":[],"categories_sizes":[],"default_left":[1,1,0,0,0],"id":12,"left_children":[1,3,-1,-1,-1],"loss_changes":[1.7156409E0,4.4110203E-1,0E0,0E0,0E0],"parents":[2147483647,0,0,1,1],"right_children":[2,4,-1,-1,-1],"split_conditions":[7.549911E-2,1.1615E0,8.228434E-2,-2.641333E-1,-2.9643526E-2],"split_indices":[17,2,0,0,0],"split_type":[0,0,0,0,0],"sum_hessian":[6.3920436E0,4.5692425E0,1.8228012E0,3.372877E0,1.1963655E0],"tree_param":{"num_deleted":"0","num_feature":"33","num_nodes":"5","size_leaf_vector":"0"}},{"base_weights":[-1.0865214E-1,-4.2694834E-1,3.928389E-1,3.1189397E-1,-7.7212936E-1,-2.2886794E-2,6.3733935E-1],"categories":[],"categories_nodes":[],"categories_segments":[],"categories_sizes":[],"default_left":[1,1,1,0,0,1,1],"id":13,"left_children":[1,3,-1,-1,-1,-1,-1],"loss_changes":[1.2377518E0,1.4088659E0,3.3208016E-1,0E0,0E0,0E0,0E0],"parents":[2147483647,0,0,1,1,2,2],"right_children":[2,4,-1,-1,-1,-1,-1],"split_conditions":[7.395E-1,1.615E-5,1.17851675E-1,9.356819E-2,-2.3163882E-1,-6.8660383E-3,1.9120182E-1],"split_indices":[2,8,30,0,0,2147483647,2147483647],"split_type":[0,0,0,0,0,0,0],"sum_hessian":[5.7034955E0,3.5799465E0,2.1235487E0,1.1706543E0,2.4092922E0,1.1220735E0,1.0014752E0],"tree_param":{"num_deleted":"2","num_feature":"33","num_nodes":"7","size_leaf_vector":"0"}},{"base_weights":[1.3093624E-2,-3.6801782E-1,5.289732E-1,1.6115114E-1,-7.635922E-1,6.6583104E-2,7.16032E-1],"categories":[],"categories_nodes":[],"categories_segments":[],"categories_sizes":[],"default_left":[1,1,1,0,0,1,1],"id":14,"left_children":[1,3,-1,-1,-1,-1,-1],"loss_changes":[1.449585E0,1.0149128E0,2.223767E-1,0E0,0E0,0E0,0E0],"parents":[2147483647,0,0,1,1,2,2],"right_children":[2,4,-1,-1,-1,-1,-1],"split_conditions":[6.1876816E-3,4.4344098E-4,1.5869197E-1,4.8345346E-2,-2.2907767E-1,1.9974932E-2,2.1480961E-1],"split_indices":[31,22,1,0,0,2147483647,2147483647],"split_type":[0,0,0,0,0,0,0],"sum_hessian":[5.382832E0,3.260629E0,2.122203E0,1.6482892E0,1.6123399E0,1.0018014E0,1.1204019E0],"tree_param":{"num_deleted":"2","num_feature":"33","num_nodes":"7","size_leaf_vector":"0"}},{"base_weights":[-1.593915E-1,-5.3867406E-1,4.6025625E-1,-2.409945E-2,-7.426008E-1,7.6748943E-1,-8.389931E-2],"categories":[],"categories_nodes":[],"categories_segments":[],"categories_sizes":[],"default_left":[1,1,1,0,0,0,0],"id":15,"left_children":[1,3,5,-1,-1,-1,-1],"loss_changes":[1.8608478E0,4.7717464E-1,5.9018147E-1,0E0,0E0,0E0,0E0],"parents":[2147483647,0,0,1,1,2,2],"right_children":[2,4,6,-1,-1,-1,-1],"split_conditions":[6.000642E-2,4.17936E0,1.9105019E-1,-7.2298353E-3,-2.2278024E-1,2.3024684E-1,-2.5169795E-2],"split_indices":[18,0,18,0,0,0,0],"split_type":[0,0,0,0,0,0,0],"sum_hessian":[5.8628583E0,3.7178578E0,2.1450007E0,1.3725749E0,2.3452828E0,1.1086359E0,1.0363648E0],"tree_param":{"num_deleted":"0","num_feature":"33","num_nodes":"7","size_leaf_vector":"0"}},{"base_weights":[-4.1778963E-2,-3.3658782E-1,3.3082885E-1,-7.5071824E-1,3.7807307E-1,-2.2759819E-1,7.2013324E-1],"categories":[],"categories_nodes":[],"categories_segments":[],"categories_sizes":[],"default_left":[1,1,1,0,0,0,0],"id":16,"left_children":[1,3,5,-1,-1,-1,-1],"loss_changes":[7.4646664E-1,1.3858557E0,8.287493E-1,0E0,0E0,0E0,0E0],"parents":[2147483647,0,0,1,1,2,2],"right_children":[2,4,6,-1,-1,-1,-1],"split_conditions":[7.549911E-2,8.3213484E-1,7.18E-1,-2.2521548E-1,1.13421924E-1,-6.827946E-2,2.1603999E-1],"split_indices":[17,3,2,0,0,0,0],"split_type":[0,0,0,0,0,0,0],"sum_hessian":[4.781746E0,2.7235398E0,2.058206E0,1.6923856E0,1.0311543E0,1.0160843E0,1.0421219E0],"tree_param":{"num_deleted":"0","num_feature":"33","num_nodes":"7","size_leaf_vector":"0"}},{"base_weights":[-3.859057E-1,1.2101106E-1,-7.5858665E-1],"categories":[],"categories_nodes":[],"categories_segments":[],"categories_sizes":[],"default_left":[1,0,0],"id":17,"left_children":[1,-1,-1],"loss_changes":[1.0192721E0,0E0,0E0],"parents":[2147483647,0,0],"right_children":[2,-1,-1],"split_conditions":[3.698576E-1,3.630332E-2,-2.27576E-1],"split_indices":[24,0,0],"split_type":[0,0,0],"sum_hessian":[3.9093983E0,1.9425107E0,1.9668875E0],"tree_param":{"num_deleted":"0","num_feature":"33","num_nodes":"3","size_leaf_vector":"0"}},{"base_weights":[-4.481025E-3,2.6138115E-1,-5.8032036E-1,6.1471605E-1,-1.4684157E-1],"categories":[],"categories_nodes":[],"categories_segments":[],"categories_sizes":[],"default_left":[1,1,0,0,0],"id":18,"left_children":[1,3,-1,-1,-1],"loss_changes":[1.0450468E0,7.655462E-1,0E0,0E0,0E0],"parents":[2147483647,0,0,1,1],"right_children":[2,4,-1,-1,-1],"split_conditions":[9.2664375E1,5.593703E-1,-1.7409611E-1,1.8441482E-1,-4.4052474E-2],"split_indices":[4,12,0,0,0],"split_type":[0,0,0,0,0],"sum_hessian":[4.8353868E0,3.6816664E0,1.1537203E0,1.7023617E0,1.9793047E0],"tree_param":{"num_deleted":"0","num_feature":"33","num_nodes":"5","size_leaf_vector":"0"}},{"base_weights":[-1.9367085E-1,-5.254175E-1,1.940394E-1,-6.2524855E-1,-1.5986623E-1,5.4113567E-1,-2.2188951E-1],"categories":[],"categories_nodes":[],"categories_segments":[],"categories_sizes":[],"default_left":[1,1,1,1,1,0,0],"id":19,"left_children":[1,-1,5,-1,-1,-1,-1],"loss_changes":[7.742637E-1,1.2681603E-2,5.734623E-1,0E0,0E0,0E0,0E0],"parents":[2147483647,0,0,1,1,2,2],"right_children":[2,-1,6,-1,-1,-1,-1],"split_conditions":[7.5782835E-3,-1.5762526E-1,3.0799113E-2,-1.8757458E-1,-4.795987E-2,1.623407E-1,-6.6566855E-2],"split_indices":[19,24,22,2147483647,2147483647,0,0],"split_type":[0,0,0,0,0,0,0],"sum_hessian":[4.2270546E0,2.0865254E0,2.1405292E0,1.0809065E0,1.005619E0,1.0027207E0,1.1378084E0],"tree_param":{"num_deleted":"2","num_feature":"33","num_nodes":"7","size_leaf_vector":"0"}},{"base_weights":[2.0003533E-1,-2.2935744E-1,6.371209E-1,-4.9761072E-1,1.6448241E-1],"categories":[],"categories_nodes":[],"categories_segments":[],"categories_sizes":[],"default_left":[1,1,0,0,0],"id":20,"left_children":[1,3,-1,-1,-1],"loss_changes":[1.1310549E0,4.392083E-1,0E0,0E0,0E0],"parents":[2147483647,0,0,1,1],"right_children":[2,4,-1,-1,-1],"split_conditions":[9.773798E-1,7.812244E-1,1.9113629E-1,-1.4928322E-1,4.9344726E-2],"split_indices":[26,3,0,0,0],"split_type":[0,0,0,0,0],"sum_hessian":[4.2478642E0,2.3825274E0,1.8653369E0,1.2604923E0,1.1220349E0],"tree_param":{"num_deleted":"0","num_feature":"33","num_nodes":"5","size_leaf_vector":"0"}},{"base_weights":[1.4697579E-1,5.1061076E-1,-2.4324141E-1,-5.3966075E-1,1.8422303E-1],"categories":[],"categories_nodes":[],"categories_segments":[],"categories_sizes":[],"default_left":[1,0,1,0,0],"id":21,"left_children":[1,-1,3,-1,-1],"loss_changes":[8.2732666E-1,0E0,4.881054E-1,0E0,0E0],"parents":[2147483647,0,0,2,2],"right_children":[2,-1,4,-1,-1],"split_conditions":[9.04812E-3,1.5318324E-1,9.5336187E-1,-1.6189823E-1,5.526691E-2],"split_indices":[19,0,19,0,0],"split_type":[0,0,0,0,0],"sum_hessian":[3.9551914E0,1.8876249E0,2.0675666E0,1.0659375E0,1.001629E0],"tree_param":{"num_deleted":"0","num_feature":"33","num_nodes":"5","size_leaf_vector":"0"}},{"base_weights":[-6.356306E-2,-4.1395375E-1,3.8546142E-1,-2.773566E-2,-6.1260974E-1,6.412509E-1,-6.374549E-2],"categories":[],"categories_nodes":[],"categories_segments":[],"categories_sizes":[],"default_left":[1,1,1,1,1,1,1],"id":22,"left_children":[1,-1,-1,-1,-1,-1,-1],"loss_changes":[1.0623441E0,2.672854E-1,3.8935658E-1,0E0,0E0,0E0,0E0],"parents":[2147483647,0,0,1,1,2,2],"right_children":[2,-1,-1,-1,-1,-1,-1],"split_conditions":[6.000642E-2,-1.2418613E-1,1.1563843E-1,-8.3206985E-3,-1.8378294E-1,1.9237529E-1,-1.9123647E-2],"split_indices":[18,0,18,2147483647,2147483647,2147483647,2147483647],"split_type":[0,0,0,0,0,0,0],"sum_hessian":[4.7379904E0,2.705158E0,2.0328324E0,1.3059008E0,1.3992572E0,1.022868E0,1.0099642E0],"tree_param":{"num_deleted":"4","num_feature":"33","num_nodes":"7","size_leaf_vector":"0"}},{"base_weights":[1.6425041E-2,4.755342E-1,-2.9573038E-1,-6.299367E-1,1.1102859E-1],"categories":[],"categories_nodes":[],"categories_segments":[],"categories_sizes":[],"default_left":[1,0,1,0,0],"id":23,"left_children":[1,-1,3,-1,-1],"loss_changes":[9.1800416E-1,0E0,5.9270006E-1,0E0,0E0],"parents":[2147483647,0,0,2,2],"right_children":[2,-1,4,-1,-1],"split_conditions":[6.3297795E-3,1.4266026E-1,7.486203E-2,-1.8898101E-1,3.3308577E-2],"split_indices":[22,0,17,0,0],"split_type":[0,0,0,0,0],"sum_hessian":[4.424295E0,1.5788212E0,2.8454738E0,1.2608476E0,1.5846261E0],"tree_param":{"num_deleted":"0","num_feature":"33","num_nodes":"5","size_leaf_vector":"0"}},{"base_weights":[-1.9661228E-1,4.850434E-1,-5.109069E-1,5.3000733E-2,-7.177944E-1],"categories":[],"categories_nodes":[],"categories_segments":[],"categories_sizes":[],"default_left":[0,0,1,0,0],"id":24,"left_children":[1,-1,3,-1,-1],"loss_changes":[1.3836207E0,0E0,5.181854E-1,0E0,0E0],"parents":[2147483647,0,0,2,2],"right_children":[2,-1,4,-1,-1],"split_conditions":[2.4895702E1,1.4551303E-1,5.3130703E0,1.590022E-2,-2.1533833E-1],"split_indices":[6,0,1,0,0],"split_type":[0,0,0,0,0],"sum_hessian":[4.3015537E0,1.1860093E0,3.115544E0,1.0358834E0,2.079661E0],"tree_param":{"num_deleted":"0","num_feature":"33","num_nodes":"5","size_leaf_vector":"0"}},{"base_weights":[-1.4513177E-2,-3.2035583E-1,3.6888868E-1,-5.191819E-1,7.382361E-2],"categories":[],"categories_nodes":[],"categories_segments":[],"categories_sizes":[],"default_left":[1,1,0,1,1],"id":25,"left_children":[1,-1,-1,-1,-1],"loss_changes":[7.1725935E-1,3.0300617E-1,0E0,0E0,0E0],"parents":[2147483647,0,0,1,1],"right_children":[2,-1,-1,-1,-1],"split_conditions":[7.812244E-1,-9.610675E-2,1.1066661E-1,-1.5575458E-1,2.2147084E-2],"split_indices":[3,22,0,2147483647,2147483647],"split_type":[0,0,0,0,0],"sum_hessian":[4.108992E0,2.3771553E0,1.7318369E0,1.3693352E0,1.0078202E0],"tree_param":{"num_deleted":"2","num_feature":"33","num_nodes":"5","size_leaf_vector":"0"}},{"base_weights":[-1.8526065E-1,2.4081804E-1,-5.67074E-1],"categories":[],"categories_nodes":[],"categories_segments":[],"categories_sizes":[],"default_left":[1,0,0],"id":26,"left_children":[1,-1,-1],"loss_changes":[8.678559E-1,0E0,0E0],"parents":[2147483647,0,0],"right_children":[2,-1,-1],"split_conditions":[8.071432E-3,7.224541E-2,-1.701222E-1],"split_indices":[22,0,0],"split_type":[0,0,0],"sum_hessian":[3.4952228E0,1.8263803E0,1.6688427E0],"tree_param":{"num_deleted":"0","num_feature":"33","num_nodes":"3","size_leaf_vector":"0"}},{"base_weights":[9.783662E-2,-2.8308788E-1,5.0858545E-1,7.964667E-2,-5.3202957E-1],"categories":[],"categories_nodes":[],"categories_segments":[],"categories_sizes":[],"default_left":[1,1,0,1,1],"id":27,"left_children":[1,-1,-1,-1,-1],"loss_changes":[9.021072E-1,3.273957E-1,0E0,0E0,0E0],"parents":[2147483647,0,0,1,1],"right_children":[2,-1,-1,-1,-1],"split_conditions":[2.3356865E1,-8.492637E-2,1.5257564E-1,2.3894003E-2,-1.5960887E-1],"split_indices":[6,0,0,2147483647,2147483647],"split_type":[0,0,0,0,0],"sum_hessian":[3.845405E0,2.1563902E0,1.6890149E0,1.1543859E0,1.0020041E0],"tree_param":{"num_deleted":"2","num_feature":"33","num_nodes":"5","size_leaf_vector":"0"}},{"base_weights":[9.1378674E-2,-2.443096E-1,4.6449438E-1,1.030727E-1,-5.4448545E-1],"categories":[],"categories_nodes":[],"categories_segments":[],"categories_sizes":[],"default_left":[1,1,0,0,0],"id":28,"left_children":[1,3,-1,-1,-1],"loss_changes":[7.7947384E-1,4.163267E-1,0E0,0E0,0E0],"parents":[2147483647,0,0,1,1],"right_children":[2,4,-1,-1,-1],"split_conditions":[5.581341E-2,1.7796682E-2,1.3934831E-1,3.0921811E-2,-1.6334563E-1],"split_indices":[18,23,0,0,0],"split_type":[0,0,0,0,0],"sum_hessian":[4.317288E0,2.4543514E0,1.8629365E0,1.4420946E0,1.0122567E0],"tree_param":{"num_deleted":"0","num_feature":"33","num_nodes":"5","size_leaf_vector":"0"}},{"base_weights":[-6.720078E-2,2.4183585E-1,-4.5316517E-1,1.8967945E-2,3.6813793E-1],"categories":[],"categories_nodes":[],"categories_segments":[],"categories_sizes":[],"default_left":[1,1,0,1,1],"id":29,"left_children":[1,-1,-1,-1,-1],"loss_changes":[6.627257E-1,8.38636E-2,0E0,0E0,0E0],"parents":[2147483647,0,0,1,1],"right_children":[2,-1,-1,-1,-1],"split_conditions":[7.26415E1,7.255076E-2,-1.3594955E-1,5.6903837E-3,1.1044138E-1],"split_indices":[4,10,0,2147483647,2147483647],"split_type":[0,0,0,0,0],"sum_hessian":[3.6373858E0,2.227378E0,1.4100078E0,1.2217331E0,1.0056448E0],"tree_param":{"num_deleted":"2","num_feature":"33","num_nodes":"5","size_leaf_vector":"0"}},{"base_weights":[-8.215693E-2,4.1922855E-1,-4.143078E-1,-6.0788774E-1,-1.5745146E-3],"categories":[],"categories_nodes":[],"categories_segments":[],"categories_sizes":[],"default_left":[0,0,1,1,1],"id":30,"left_children":[1,-1,-1,-1,-1],"loss_changes":[9.0139663E-1,0E0,2.4923062E-1,0E0,0E0],"parents":[2147483647,0,0,2,2],"right_children":[2,-1,-1,-1,-1],"split_conditions":[2.4895702E1,1.2576857E-1,-1.24292344E-1,-1.8236633E-1,-4.7235438E-4],"split_indices":[6,0,31,2147483647,2147483647],"split_type":[0,0,0,0,0],"sum_hessian":[3.3696778E0,1.2382948E0,2.131383E0,1.1290175E0,1.0023655E0],"tree_param":{"num_deleted":"2","num_feature":"33","num_nodes":"5","size_leaf_vector":"0"}},{"base_weights":[2.383963E-1,-1.0879322E-1,5.586667E-1,-3.919088E-1,2.4134928E-1],"categories":[],"categories_nodes":[],"categories_segments":[],"categories_sizes":[],"default_left":[1,1,0,0,0],"id":31,"left_children":[1,3,-1,-1,-1],"loss_changes":[5.900382E-1,4.039643E-1,0E0,0E0,0E0],"parents":[2147483647,0,0,1,1],"right_children":[2,4,-1,-1,-1],"split_conditions":[7.486203E-2,8.0881333E-1,1.6760002E-1,-1.1757264E-1,7.240479E-2],"split_indices":[17,3,0,0,0],"split_type":[0,0,0,0,0],"sum_hessian":[3.759758E0,2.1209009E0,1.638857E0,1.1067388E0,1.0141621E0],"tree_param":{"num_deleted":"0","num_feature":"33","num_nodes":"5","size_leaf_vector":"0"}},{"base_weights":[1.17117435E-1,-4.6676275E-1,7.2897094E-1],"categories":[],"categories_nodes":[],"categories_segments":[],"categories_sizes":[],"default_left":[1,0,0],"id":32,"left_children":[1,-1,-1],"loss_changes":[2.0025885E0,0E0,0E0],"parents":[2147483647,0,0],"right_children":[2,-1,-1],"split_conditions":[7.365E-1,-1.4002883E-1,2.1869129E-1],"split_indices":[2,0,0],"split_type":[0,0,0],"sum_hessian":[3.653145E0,1.9906442E0,1.6625009E0],"tree_param":{"num_deleted":"0","num_feature":"33","num_nodes":"3","size_leaf_vector":"0"}},{"base_weights":[-4.8874892E-2,3.4646252E-1,-4.3883064E-1],"categories":[],"categories_nodes":[],"categories_segments":[],"categories_sizes":[],"default_left":[1,0,0],"id":33,"left_children":[1,-1,-1],"loss_changes":[8.4567636E-1,0E0,0E0],"parents":[2147483647,0,0],"right_children":[2,-1,-1],"split_conditions":[5.593703E-1,1.0393876E-1,-1.316492E-1],"split_indices":[12,0,0],"split_type":[0,0,0],"sum_hessian":[3.4993486E0,1.7930683E0,1.7062802E0],"tree_param":{"num_deleted":"0","num_feature":"33","num_nodes":"3","size_leaf_vector":"0"}},{"base_weights":[-1.625286E-2,3.1176257E-1,-3.2479382E-1],"categories":[],"categories_nodes":[],"categories_segments":[],"categories_sizes":[],"default_left":[1,0,0],"id":34,"left_children":[1,-1,-1],"loss_changes":[5.555968E-1,0E0,0E0],"parents":[2147483647,0,0],"right_children":[2,-1,-1],"split_conditions":[3.6337486E-1,9.352878E-2,-9.743815E-2],"split_indices":[25,0,0],"split_type":[0,0,0],"sum_hessian":[3.489234E0,1.686182E0,1.803052E0],"tree_param":{"num_deleted":"0","num_feature":"33","num_nodes":"3","size_leaf_vector":"0"}},{"base_weights":[1.2753777E-1,-2.5067344E-1,4.4671136E-1],"categories":[],"categories_nodes":[],"categories_segments":[],"categories_sizes":[],"default_left":[1,0,0],"id":35,"left_children":[1,-1,-1],"loss_changes":[6.222271E-1,0E0,0E0],"parents":[2147483647,0,0],"right_children":[2,-1,-1],"split_conditions":[2.3269173E1,-7.520203E-2,1.3401341E-1],"split_indices":[6,0,0],"split_type":[0,0,0],"sum_hessian":[3.226883E0,1.5750787E0,1.6518042E0],"tree_param":{"num_deleted":"0","num_feature":"33","num_nodes":"3","size_leaf_vector":"0"}},{"base_weights":[1.6547908E-1,-2.5398824E-1,4.619064E-1,6.7195445E-1,2.004416E-2],"categories":[],"categories_nodes":[],"categories_segments":[],"categories_sizes":[],"default_left":[1,0,1,1,1],"id":36,"left_children":[1,-1,-1,-1,-1],"loss_changes":[7.188753E-1,0E0,2.8255588E-1,0E0,0E0],"parents":[2147483647,0,0,2,2],"right_children":[2,-1,-1,-1,-1],"split_conditions":[2.8062642E-1,-7.619648E-2,1.3857193E-1,2.0158635E-1,6.013248E-3],"split_indices":[11,0,9,2147483647,2147483647],"split_type":[0,0,0,0,0],"sum_hessian":[3.8379354E0,1.648438E0,2.1894975E0,1.1310819E0,1.0584154E0],"tree_param":{"num_deleted":"2","num_feature":"33","num_nodes":"5","size_leaf_vector":"0"}},{"base_weights":[5.992036E-2,-3.26311E-1,3.0200642E-1,5.576401E-1,-1.0267144E-1],"categories":[],"categories_nodes":[],"categories_segments":[],"categories_sizes":[],"default_left":[1,0,1,0,0],"id":37,"left_children":[1,-1,3,-1,-1],"loss_changes":[5.747031E-1,0E0,4.3481657E-1,0E0,0E0],"parents":[2147483647,0,0,2,2],"right_children":[2,-1,4,-1,-1],"split_conditions":[2.8062642E-1,-9.7893305E-2,2.964938E-1,1.6729203E-1,-3.0801432E-2],"split_indices":[11,0,9,0,0],"split_type":[0,0,0,0,0],"sum_hessian":[4.092501E0,1.442762E0,2.649739E0,1.3922647E0,1.2574743E0],"tree_param":{"num_deleted":"0","num_feature":"33","num_nodes":"5","size_leaf_vector":"0"}},{"base_weights":[1.5939036E-1,-2.5645584E-1,4.3631208E-1],"categories":[],"categories_nodes":[],"categories_segments":[],"categories_sizes":[],"default_left":[0,0,0],"id":38,"left_children":[1,-1,-1],"loss_changes":[6.064725E-1,0E0,0E0],"parents":[2147483647,0,0],"right_children":[2,-1,-1],"split_conditions":[3.571495E1,-7.693675E-2,1.3089363E-1],"split_indices":[5,0,0],"split_type":[0,0,0],"sum_hessian":[3.294818E0,1.3465874E0,1.9482305E0],"tree_param":{"num_deleted":"0","num_feature":"33","num_nodes":"3","size_leaf_vector":"0"}},{"base_weights":[5.7483255E-4,-3.1143117E-1,3.1350642E-1],"categories":[],"categories_nodes":[],"categories_segments":[],"categories_sizes":[],"default_left":[1,0,0],"id":39,"left_children":[1,-1,-1],"loss_changes":[5.364302E-1,0E0,0E0],"parents":[2147483647,0,0],"right_children":[2,-1,-1],"split_conditions":[7.395E-1,-9.342936E-2,9.4051935E-2],"split_indices":[2,0,0],"split_type":[0,0,0],"sum_hessian":[3.4941626E0,1.7520698E0,1.7420927E0],"tree_param":{"num_deleted":"0","num_feature":"33","num_nodes":"3","size_leaf_vector":"0"}},{"base_weights":[-4.6502087E-2,-3.262724E-1,3.4420452E-1,-4.6641433E-1,-5.0641834E-3],"categories":[],"categories_nodes":[],"categories_segments":[],"categories_sizes":[],"default_left":[1,1,0,1,1],"id":40,"left_children":[1,-1,-1,-1,-1],"loss_changes":[6.333915E-1,1.4579612E-1,0E0,0E0,0E0],"parents":[2147483647,0,0,1,1],"right_children":[2,-1,-1,-1,-1],"split_conditions":[5.4225974E-2,-9.788173E-2,1.0326136E-1,-1.399243E-1,-1.5192551E-3],"split_indices":[30,27,0,2147483647,2147483647],"split_type":[0,0,0,0,0],"sum_hessian":[3.76714E0,2.291325E0,1.4758147E0,1.2805595E0,1.0107656E0],"tree_param":{"num_deleted":"2","num_feature":"33","num_nodes":"5","size_leaf_vector":"0"}},{"base_weights":[1.3149169E-1,2.797203E-1,-1.3287921E-1,-6.1256688E-2,4.8794365E-1],"categories":[],"categories_nodes":[],"categories_segments":[],"categories_sizes":[],"default_left":[1,1,1,1,1],"id":41,"left_children":[-1,-1,-1,-1,-1],"loss_changes":[2.2369322E-1,2.6929083E-1,0E0,0E0,0E0],"parents":[2147483647,0,0,1,1],"right_children":[-1,-1,-1,-1,-1],"split_conditions":[3.944751E-2,8.39161E-2,-3.9863765E-2,-1.8377008E-2,1.463831E-1],"split_indices":[8,2147483647,2147483647,2147483647,2147483647],"split_type":[0,0,0,0,0],"sum_hessian":[3.7598093E0,2.3718758E0,1.3879336E0,1.1668721E0,1.2050035E0],"tree_param":{"num_deleted":"4","num_feature":"33","num_nodes":"5","size_leaf_vector":"0"}},{"base_weights":[3.1051822E-2,-2.2698884E-1,2.8956527E-1],"categories":[],"categories_nodes":[],"categories_segments":[],"categories_sizes":[],"default_left":[1,1,1],"id":42,"left_children":[-1,-1,-1],"loss_changes":[3.850605E-1,0E0,0E0],"parents":[2147483647,0,0],"right_children":[-1,-1,-1],"split_conditions":[9.315547E-3,-6.809665E-2,8.686958E-2],"split_indices":[26,2147483647,2147483647],"split_type":[0,0,0],"sum_hessian":[3.787091E0,1.9563073E0,1.8307837E0],"tree_param":{"num_deleted":"2","num_feature":"33","num_nodes":"3","size_leaf_vector":"0"}},{"base_weights":[-1.0974869E-1,3.2984874E-1,-3.778047E-1,-4.644851E-1,-9.148248E-2],"categories":[],"categories_nodes":[],"categories_segments":[],"categories_sizes":[],"default_left":[0,0,1,1,1],"id":43,"left_children":[1,-1,-1,-1,-1],"loss_changes":[6.52535E-1,0E0,3.8146943E-2,0E0,0E0],"parents":[2147483647,0,0,2,2],"right_children":[2,-1,-1,-1,-1],"split_conditions":[2.4895702E1,9.8954625E-2,-1.1334141E-1,-1.3934554E-1,-2.7444746E-2],"split_indices":[6,0,18,2147483647,2147483647],"split_type":[0,0,0,0,0],"sum_hessian":[3.4800684E0,1.230914E0,2.2491546E0,1.2488384E0,1.0003161E0],"tree_param":{"num_deleted":"2","num_feature":"33","num_nodes":"5","size_leaf_vector":"0"}},{"base_weights":[-1.150768E-2,2.531703E-1,-3.6920086E-1,3.221697E-2,3.5909414E-1],"categories":[],"categories_nodes":[],"categories_segments":[],"categories_sizes":[],"default_left":[1,1,0,1,1],"id":44,"left_children":[1,-1,-1,-1,-1],"loss_changes":[5.092245E-1,6.138432E-2,0E0,0E0,0E0],"parents":[2147483647,0,0,1,1],"right_children":[2,-1,-1,-1,-1],"split_conditions":[8.713075E-1,7.59511E-2,-1.10760264E-1,9.6650915E-3,1.0772825E-1],"split_indices":[12,11,0,2147483647,2147483647],"split_type":[0,0,0,0,0],"sum_hessian":[3.3914478E0,2.1170979E0,1.2743499E0,1.1086487E0,1.0084491E0],"tree_param":{"num_deleted":"2","num_feature":"33","num_nodes":"5","size_leaf_vector":"0"}},{"base_weights":[-9.998047E-2,2.1108769E-1,-4.4148085E-1],"categories":[],"categories_nodes":[],"categories_segments":[],"categories_sizes":[],"default_left":[1,0,0],"id":45,"left_children":[1,-1,-1],"loss_changes":[4.985426E-1,0E0,0E0],"parents":[2147483647,0,0],"right_children":[2,-1,-1],"split_conditions":[8.713075E-1,6.332631E-2,-1.3244426E-1],"split_indices":[14,0,0],"split_type":[0,0,0],"sum_hessian":[2.8157945E0,1.673399E0,1.1423955E0],"tree_param":{"num_deleted":"0","num_feature":"33","num_nodes":"3","size_leaf_vector":"0"}},{"base_weights":[-1.5089041E-2,-3.7746203E-1,3.5727906E-1],"categories":[],"categories_nodes":[],"categories_segments":[],"categories_sizes":[],"default_left":[1,0,0],"id":46,"left_children":[1,-1,-1],"loss_changes":[7.170397E-1,0E0,0E0],"parents":[2147483647,0,0],"right_children":[2,-1,-1],"split_conditions":[6.000642E-2,-1.1323861E-1,1.07183725E-1],"split_indices":[18,0,0],"split_type":[0,0,0],"sum_hessian":[3.3144884E0,1.6728557E0,1.6416327E0],"tree_param":{"num_deleted":"0","num_feature":"33","num_nodes":"3","size_leaf_vector":"0"}},{"base_weights":[8.550624E-2,4.4050515E-1,-2.5278905E-1],"categories":[],"categories_nodes":[],"categories_segments":[],"categories_sizes":[],"default_left":[1,0,0],"id":47,"left_children":[1,-1,-1],"loss_changes":[5.9499925E-1,0E0,0E0],"parents":[2147483647,0,0],"right_children":[2,-1,-1],"split_conditions":[6.3297795E-3,1.3215154E-1,-7.583672E-2],"split_indices":[22,0,0],"split_type":[0,0,0],"sum_hessian":[3.0272E0,1.3297063E0,1.6974936E0],"tree_param":{"num_deleted":"0","num_feature":"33","num_nodes":"3","size_leaf_vector":"0"}},{"base_weights":[2.9449677E-2,2.703904E-1,-2.552496E-1],"categories":[],"categories_nodes":[],"categories_segments":[],"categories_sizes":[],"default_left":[1,1,1],"id":48,"left_children":[-1,-1,-1],"loss_changes":[3.473328E-1,0E0,0E0],"parents":[2147483647,0,0],"right_children":[-1,-1,-1],"split_conditions":[8.834903E-3,8.111712E-2,-7.657488E-2],"split_indices":[4,2147483647,2147483647],"split_type":[0,0,0],"sum_hessian":[3.057339E0,1.6831502E0,1.3741887E0],"tree_param":{"num_deleted":"2","num_feature":"33","num_nodes":"3","size_leaf_vector":"0"}},{"base_weights":[-5.8312467E-3,-2.8281075E-1,3.946864E-1],"categories":[],"categories_nodes":[],"categories_segments":[],"categories_sizes":[],"default_left":[1,0,0],"id":49,"left_children":[1,-1,-1],"loss_changes":[5.4584575E-1,0E0,0E0],"parents":[2147483647,0,0],"right_children":[2,-1,-1],"split_conditions":[9.0222317E-1,-8.4843226E-2,1.1840592E-1],"split_indices":[3,0,0],"split_type":[0,0,0],"sum_hessian":[2.9142153E0,1.8965417E0,1.0176736E0],"tree_param":{"num_deleted":"0","num_feature":"33","num_nodes":"3","size_leaf_vector":"0"}},{"base_weights":[2.0668356E-1,-1.15571074E-1,3.776678E-1],"categories":[],"categories_nodes":[],"categories_segments":[],"categories_sizes":[],"default_left":[1,1,1],"id":50,"left_children":[-1,-1,-1],"loss_changes":[2.7196816E-1,0E0,0E0],"parents":[2147483647,0,0],"right_children":[-1,-1,-1],"split_conditions":[6.200507E-2,-3.4671325E-2,1.13300346E-1],"split_indices":[2,2147483647,2147483647],"split_type":[0,0,0],"sum_hessian":[3.1437156E0,1.2021335E0,1.9415821E0],"tree_param":{"num_deleted":"2","num_feature":"33","num_nodes":"3","size_leaf_vector":"0"}},{"base_weights":[1.4868973E-1,-1.4837345E-1,4.220071E-1],"categories":[],"categories_nodes":[],"categories_segments":[],"categories_sizes":[],"default_left":[1,0,0],"id":51,"left_children":[1,-1,-1],"loss_changes":[4.21192E-1,0E0,0E0],"parents":[2147483647,0,0],"right_children":[2,-1,-1],"split_conditions":[9.773798E-1,-4.4512037E-2,1.2660214E-1],"split_indices":[26,0,0],"split_type":[0,0,0],"sum_hessian":[3.4163835E0,1.8561308E0,1.5602528E0],"tree_param":{"num_deleted":"0","num_feature":"33","num_nodes":"3","size_leaf_vector":"0"}},{"base_weights":[2.6175477E-2,-1.6055758E-1,2.488702E-1,-4.013491E-1,1.7229804E-1],"categories":[],"categories_nodes":[],"categories_segments":[],"categories_sizes":[],"default_left":[1,1,1,1,1],"id":52,"left_children":[-1,-1,-1,-1,-1],"loss_changes":[2.3138626E-1,3.185503E-1,0E0,0E0,0E0],"parents":[2147483647,0,0,1,1],"right_children":[-1,-1,-1,-1,-1],"split_conditions":[7.852644E-3,-4.8167277E-2,7.466106E-2,-1.20404735E-1,5.1689416E-2],"split_indices":[30,2147483647,2147483647,2147483647,2147483647],"split_type":[0,0,0,0,0],"sum_hessian":[3.6033602E0,2.1116946E0,1.4916656E0,1.1058993E0,1.0057954E0],"tree_param":{"num_deleted":"4","num_feature":"33","num_nodes":"5","size_leaf_vector":"0"}},{"base_weights":[6.450742E-2,1.9778205E-1,-2.0463663E-1,4.173408E-1,-6.794398E-2],"categories":[],"categories_nodes":[],"categories_segments":[],"categories_sizes":[],"default_left":[1,1,1,1,1],"id":53,"left_children":[-1,-1,-1,-1,-1],"loss_changes":[2.0552991E-1,2.3757651E-1,0E0,0E0,0E0],"parents":[2147483647,0,0,1,1],"right_children":[-1,-1,-1,-1,-1],"split_conditions":[1.9352226E-2,5.9334617E-2,-6.1390992E-2,1.2520224E-1,-2.0383196E-2],"split_indices":[9,2147483647,2147483647,2147483647,2147483647],"split_type":[0,0,0,0,0],"sum_hessian":[3.6015086E0,2.5860794E0,1.0154294E0,1.103628E0,1.4824513E0],"tree_param":{"num_deleted":"4","num_feature":"33","num_nodes":"5","size_leaf_vector":"0"}},{"base_weights":[1.00069106E-1,-1.4802845E-1,3.461035E-1],"categories":[],"categories_nodes":[],"categories_segments":[],"categories_sizes":[],"default_left":[1,1,1],"id":54,"left_children":[-1,-1,-1],"loss_changes":[3.3238542E-1,0E0,0E0],"parents":[2147483647,0,0],"right_children":[-1,-1,-1],"split_conditions":[3.0020732E-2,-4.4408537E-2,1.0383105E-1],"split_indices":[2,2147483647,2147483647],"split_type":[0,0,0],"sum_hessian":[3.6059935E0,1.9938082E0,1.6121854E0],"tree_param":{"num_deleted":"2","num_feature":"33","num_nodes":"3","size_leaf_vector":"0"}},{"base_weights":[5.727586E-2,-1.7329752E-1,2.9354018E-1],"categories":[],"categories_nodes":[],"categories_segments":[],"categories_sizes":[],"default_left":[1,1,1],"id":55,"left_children":[-1,-1,-1],"loss_changes":[2.97836E-1,0E0,0E0],"parents":[2147483647,0,0],"right_children":[-1,-1,-1],"split_conditions":[1.718276E-2,-5.198926E-2,8.8062055E-2],"split_indices":[26,2147483647,2147483647],"split_type":[0,0,0],"sum_hessian":[3.533465E0,1.923149E0,1.6103159E0],"tree_param":{"num_deleted":"2","num_feature":"33","num_nodes":"3","size_leaf_vector":"0"}},{"base_weights":[-1.4952032E-1,-3.9257953E-1,1.2809116E-1],"categories":[],"categories_nodes":[],"categories_segments":[],"categories_sizes":[],"default_left":[1,1,1],"id":56,"left_children":[-1,-1,-1],"loss_changes":[3.6591384E-1,0E0,0E0],"parents":[2147483647,0,0],"right_children":[-1,-1,-1],"split_conditions":[-4.4856098E-2,-1.1777386E-1,3.842735E-2],"split_indices":[26,2147483647,2147483647],"split_type":[0,0,0],"sum_hessian":[3.67763E0,1.740033E0,1.9375968E0],"tree_param":{"num_deleted":"2","num_feature":"33","num_nodes":"3","size_leaf_vector":"0"}},{"base_weights":[-4.458168E-2,-2.3828442E-1,1.6193193E-1],"categories":[],"categories_nodes":[],"categories_segments":[],"categories_sizes":[],"default_left":[1,1,1],"id":57,"left_children":[-1,-1,-1],"loss_changes":[2.2988245E-1,0E0,0E0],"parents":[2147483647,0,0],"right_children":[-1,-1,-1],"split_conditions":[-1.3374505E-2,-7.148533E-2,4.857958E-2],"split_indices":[26,2147483647,2147483647],"split_type":[0,0,0],"sum_hessian":[3.782145E0,1.8722214E0,1.9099236E0],"tree_param":{"num_deleted":"2","num_feature":"33","num_nodes":"3","size_leaf_vector":"0"}},{"base_weights":[-2.4532408E-1,1.5469429E-1,-4.6593338E-1],"categories":[],"categories_nodes":[],"categories_segments":[],"categories_sizes":[],"default_left":[1,0,0],"id":58,"left_children":[1,-1,-1],"loss_changes":[4.344583E-1,0E0,0E0],"parents":[2147483647,0,0],"right_children":[2,-1,-1],"split_conditions":[5.3130703E0,4.640829E-2,-1.3978001E-1],"split_indices":[1,0,0],"split_type":[0,0,0],"sum_hessian":[3.1064043E0,1.2104144E0,1.8959898E0],"tree_param":{"num_deleted":"0","num_feature":"33","num_nodes":"3","size_leaf_vector":"0"}},{"base_weights":[6.775887E-2,-1.3364689E-1,3.250332E-1],"categories":[],"categories_nodes":[],"categories_segments":[],"categories_sizes":[],"default_left":[1,1,1],"id":59,"left_children":[-1,-1,-1],"loss_changes":[2.47173E-1,0E0,0E0],"parents":[2147483647,0,0],"right_children":[-1,-1,-1],"split_conditions":[2.0327663E-2,-4.009407E-2,9.750996E-2],"split_indices":[3,2147483647,2147483647],"split_type":[0,0,0],"sum_hessian":[2.9318213E0,1.9139915E0,1.0178298E0],"tree_param":{"num_deleted":"2","num_feature":"33","num_nodes":"3","size_leaf_vector":"0"}},{"base_weights":[9.236472E-2,-1.3889208E-1,3.6005285E-1,-3.9681894E-1,1.9671912E-1],"categories":[],"categories_nodes":[],"categories_segments":[],"categories_sizes":[],"default_left":[1,1,1,1,1],"id":60,"left_children":[-1,-1,-1,-1,-1],"loss_changes":[3.203555E-1,3.4334677E-1,0E0,0E0,0E0],"parents":[2147483647,0,0,1,1],"right_children":[-1,-1,-1,-1,-1],"split_conditions":[2.7709417E-2,-4.1667625E-2,1.0801586E-1,-1.1904568E-1,5.901574E-2],"split_indices":[17,2147483647,2147483647,2147483647,2147483647],"split_type":[0,0,0,0,0],"sum_hessian":[3.3671486E0,2.0646403E0,1.3025085E0,1.0643103E0,1.0003299E0],"tree_param":{"num_deleted":"4","num_feature":"33","num_nodes":"5","size_leaf_vector":"0"}},{"base_weights":[4.597912E-2,-2.6089257E-1,2.6519275E-1],"categories":[],"categories_nodes":[],"categories_segments":[],"categories_sizes":[],"default_left":[1,1,1],"id":61,"left_children":[-1,-1,-1],"loss_changes":[3.6648086E-1,0E0,0E0],"parents":[2147483647,0,0],"right_children":[-1,-1,-1],"split_conditions":[1.3793737E-2,-7.8267775E-2,7.955783E-2],"split_indices":[0,2147483647,2147483647],"split_type":[0,0,0],"sum_hessian":[3.4193852E0,1.3455933E0,2.073792E0],"tree_param":{"num_deleted":"2","num_feature":"33","num_nodes":"3","size_leaf_vector":"0"}},{"base_weights":[6.3476816E-2,-2.4177428E-1,2.3443177E-1,-1.0622439E-1,4.7962713E-1],"categories":[],"categories_nodes":[],"categories_segments":[],"categories_sizes":[],"default_left":[1,1,1,1,1],"id":62,"left_children":[-1,-1,-1,-1,-1],"loss_changes":[2.9171282E-1,0E0,3.3450234E-1,0E0,0E0],"parents":[2147483647,0,0,2,2],"right_children":[-1,-1,-1,-1,-1],"split_conditions":[1.9043045E-2,-7.253229E-2,7.032953E-2,-3.1867318E-2,1.4388815E-1],"split_indices":[2,2147483647,2147483647,2147483647,2147483647],"split_type":[0,0,0,0,0],"sum_hessian":[3.5039167E0,1.1091682E0,2.3947484E0,1.2394817E0,1.1552669E0],"tree_param":{"num_deleted":"4","num_feature":"33","num_nodes":"5","size_leaf_vector":"0"}},{"base_weights":[-1.07497774E-1,-4.2934462E-1,2.209336E-1],"categories":[],"categories_nodes":[],"categories_segments":[],"categories_sizes":[],"default_left":[1,0,0],"id":63,"left_children":[1,-1,-1],"loss_changes":[5.224571E-1,0E0,0E0],"parents":[2147483647,0,0],"right_children":[2,-1,-1],"split_conditions":[2.3356865E1,-1.2880339E-1,6.628008E-2],"split_indices":[6,0,0],"split_type":[0,0,0],"sum_hessian":[3.0452397E0,1.3828527E0,1.662387E0],"tree_param":{"num_deleted":"0","num_feature":"33","num_nodes":"3","size_leaf_vector":"0"}},{"base_weights":[-7.289495E-2,-3.0997193E-1,2.821465E-1],"categories":[],"categories_nodes":[],"categories_segments":[],"categories_sizes":[],"default_left":[1,0,0],"id":64,"left_children":[1,-1,-1],"loss_changes":[4.2186275E-1,0E0,0E0],"parents":[2147483647,0,0],"right_children":[2,-1,-1],"split_conditions":[1.5882473E-1,-9.299158E-2,8.464396E-2],"split_indices":[21,0,0],"split_type":[0,0,0],"sum_hessian":[2.9728727E0,1.8586866E0,1.114186E0],"tree_param":{"num_deleted":"0","num_feature":"33","num_nodes":"3","size_leaf_vector":"0"}},{"base_weights":[-3.943658E-3,-2.6612878E-1,2.5876015E-1],"categories":[],"categories_nodes":[],"categories_segments":[],"categories_sizes":[],"default_left":[1,1,1],"id":65,"left_children":[-1,-1,-1],"loss_changes":[3.5440072E-1,0E0,0E0],"parents":[2147483647,0,0],"right_children":[-1,-1,-1],"split_conditions":[-1.1830975E-3,-7.983863E-2,7.7628046E-2],"split_indices":[6,2147483647,2147483647],"split_type":[0,0,0],"sum_hessian":[3.145608E0,1.5678332E0,1.5777748E0],"tree_param":{"num_deleted":"2","num_feature":"33","num_nodes":"3","size_leaf_vector":"0"}},{"base_weights":[5.565469E-2,-2.140649E-1,2.5990972E-1],"categories":[],"categories_nodes":[],"categories_segments":[],"categories_sizes":[],"default_left":[1,1,1],"id":66,"left_children":[-1,-1,-1],"loss_changes":[2.883323E-1,0E0,0E0],"parents":[2147483647,0,0],"right_children":[-1,-1,-1],"split_conditions":[1.6696408E-2,-6.4219475E-2,7.797292E-2],"split_indices":[1,2147483647,2147483647],"split_type":[0,0,0],"sum_hessian":[3.223781E0,1.368562E0,1.8552192E0],"tree_param":{"num_deleted":"2","num_feature":"33","num_nodes":"3","size_leaf_vector":"0"}},{"base_weights":[1.4027101E-1,-9.002773E-2,3.4691015E-1],"categories":[],"categories_nodes":[],"categories_segments":[],"categories_sizes":[],"default_left":[1,1,1],"id":67,"left_children":[-1,-1,-1],"loss_changes":[2.4432978E-1,0E0,0E0],"parents":[2147483647,0,0],"right_children":[-1,-1,-1],"split_conditions":[4.2081304E-2,-2.700832E-2,1.0407305E-1],"split_indices":[26,2147483647,2147483647],"split_type":[0,0,0],"sum_hessian":[3.4779143E0,1.9116783E0,1.566236E0],"tree_param":{"num_deleted":"2","num_feature":"33","num_nodes":"3","size_leaf_vector":"0"}},{"base_weights":[-8.37581E-3,1.5737519E-1,-2.683356E-1,-8.873311E-2,3.484765E-1],"categories":[],"categories_nodes":[],"categories_segments":[],"categories_sizes":[],"default_left":[1,1,1,1,1],"id":68,"left_children":[-1,-1,-1,-1,-1],"loss_changes":[2.3532262E-1,1.8926883E-1,0E0,0E0,0E0],"parents":[2147483647,0,0,1,1],"right_children":[-1,-1,-1,-1,-1],"split_conditions":[-2.5127432E-3,4.721256E-2,-8.0500685E-2,-2.6619934E-2,1.04542956E-1],"split_indices":[9,2147483647,2147483647,2147483647,2147483647],"split_type":[0,0,0,0,0],"sum_hessian":[3.481308E0,2.3668292E0,1.1144787E0,1.2686647E0,1.0981644E0],"tree_param":{"num_deleted":"4","num_feature":"33","num_nodes":"5","size_leaf_vector":"0"}},{"base_weights":[1.00894354E-1,2.3926564E-1,-1.7621838E-1,-2.1743203E-2,4.183722E-1],"categories":[],"categories_nodes":[],"categories_segments":[],"categories_sizes":[],"default_left":[1,1,1,1,1],"id":69,"left_children":[-1,-1,-1,-1,-1],"loss_changes":[2.161791E-1,1.7042388E-1,0E0,0E0,0E0],"parents":[2147483647,0,0,1,1],"right_children":[-1,-1,-1,-1,-1],"split_conditions":[3.0268308E-2,7.177969E-2,-5.2865516E-2,-6.522961E-3,1.2551168E-1],"split_indices":[9,2147483647,2147483647,2147483647,2147483647],"split_type":[0,0,0,0,0],"sum_hessian":[3.5382352E0,2.450966E0,1.0872693E0,1.3549798E0,1.0959861E0],"tree_param":{"num_deleted":"4","num_feature":"33","num_nodes":"5","size_leaf_vector":"0"}},{"base_weights":[1.0725542E-1,-6.7366846E-2,3.063819E-1,-4.1012195E-1,3.1753278E-1],"categories":[],"categories_nodes":[],"categories_segments":[],"categories_sizes":[],"default_left":[1,1,0,0,0],"id":70,"left_children":[1,3,-1,-1,-1],"loss_changes":[1.7514735E-1,5.5069536E-1,0E0,0E0,0E0],"parents":[2147483647,0,0,1,1],"right_children":[2,4,-1,-1,-1],"split_conditions":[6.883599E-2,3.3793236E1,9.191458E-2,-1.23036586E-1,9.525984E-2],"split_indices":[17,5,0,0,0],"split_type":[0,0,0,0,0],"sum_hessian":[3.4434533E0,2.187144E0,1.2563092E0,1.1222473E0,1.0648967E0],"tree_param":{"num_deleted":"0","num_feature":"33","num_nodes":"5","size_leaf_vector":"0"}},{"base_weights":[4.0458873E-2,-2.0159438E-1,1.851395E-1,-7.575805E-2,3.5278705E-1],"categories":[],"categories_nodes":[],"categories_segments":[],"categories_sizes":[],"default_left":[1,1,1,1,1],"id":71,"left_children":[-1,-1,-1,-1,-1],"loss_changes":[1.981511E-1,0E0,1.7524695E-1,0E0,0E0],"parents":[2147483647,0,0,2,2],"right_children":[-1,-1,-1,-1,-1],"split_conditions":[1.2137663E-2,-6.047832E-2,5.5541854E-2,-2.2727415E-2,1.05836116E-1],"split_indices":[2,2147483647,2147483647,2147483647,2147483647],"split_type":[0,0,0,0,0],"sum_hessian":[3.592407E0,1.1967866E0,2.3956203E0,1.1515927E0,1.2440276E0],"tree_param":{"num_deleted":"4","num_feature":"33","num_nodes":"5","size_leaf_vector":"0"}},{"base_weights":[2.5887901E-2,2.7079085E-1,-1.5922183E-1,-4.5466432E-1,2.0470382E-1],"categories":[],"categories_nodes":[],"categories_segments":[],"categories_sizes":[],"default_left":[1,0,1,0,0],"id":72,"left_children":[1,-1,3,-1,-1],"loss_changes":[2.5355417E-1,0E0,4.450289E-1,0E0,0E0],"parents":[2147483647,0,0,2,2],"right_children":[2,-1,4,-1,-1],"split_conditions":[6.3297795E-3,8.123726E-2,7.365E-1,-1.363993E-1,6.141115E-2],"split_indices":[22,0,2,0,0],"split_type":[0,0,0,0,0],"sum_hessian":[3.6419625E0,1.3685216E0,2.2734408E0,1.1171678E0,1.1562731E0],"tree_param":{"num_deleted":"0","num_feature":"33","num_nodes":"5","size_leaf_vector":"0"}},{"base_weights":[-7.3658526E-2,-2.932678E-1,1.6648798E-1],"categories":[],"categories_nodes":[],"categories_segments":[],"categories_sizes":[],"default_left":[1,1,1],"id":73,"left_children":[-1,-1,-1],"loss_changes":[2.8005165E-1,0E0,0E0],"parents":[2147483647,0,0],"right_children":[-1,-1,-1],"split_conditions":[-2.2097558E-2,-8.798034E-2,4.9946394E-2],"split_indices":[2,2147483647,2147483647],"split_type":[0,0,0],"sum_hessian":[3.3843973E0,1.6522467E0,1.7321507E0],"tree_param":{"num_deleted":"2","num_feature":"33","num_nodes":"3","size_leaf_vector":"0"}},{"base_weights":[-8.026791E-2,-2.5232092E-1,1.9738789E-1,1.9309528E-2,-3.9402714E-1],"categories":[],"categories_nodes":[],"categories_segments":[],"categories_sizes":[],"default_left":[1,1,1,1,1],"id":74,"left_children":[-1,-1,-1,-1,-1],"loss_changes":[2.5408655E-1,1.261289E-1,0E0,0E0,0E0],"parents":[2147483647,0,0,1,1],"right_children":[-1,-1,-1,-1,-1],"split_conditions":[-2.4080375E-2,-7.5696275E-2,5.921637E-2,5.7928585E-3,-1.1820815E-1],"split_indices":[23,2147483647,2147483647,2147483647,2147483647],"split_type":[0,0,0,0,0],"sum_hessian":[3.2762187E0,2.0791142E0,1.1971045E0,1.0089114E0,1.0702027E0],"tree_param":{"num_deleted":"4","num_feature":"33","num_nodes":"5","size_leaf_vector":"0"}},{"base_weights":[-4.4513803E-2,-2.1460797E-1,2.3157148E-1,-4.2792833E-1,1.1858338E-1],"categories":[],"categories_nodes":[],"categories_segments":[],"categories_sizes":[],"default_left":[1,1,1,1,1],"id":75,"left_children":[-1,-1,-1,-1,-1],"loss_changes":[2.5119892E-1,2.7634943E-1,0E0,0E0,0E0],"parents":[2147483647,0,0,1,1],"right_children":[-1,-1,-1,-1,-1],"split_conditions":[-1.3354141E-2,-6.43824E-2,6.947145E-2,-1.2837851E-1,3.5575017E-2],"split_indices":[21,2147483647,2147483647,2147483647,2147483647],"split_type":[0,0,0,0,0],"sum_hessian":[3.2908795E0,2.1741042E0,1.1167752E0,1.152136E0,1.0219684E0],"tree_param":{"num_deleted":"4","num_feature":"33","num_nodes":"5","size_leaf_vector":"0"}},{"base_weights":[-3.259863E-2,-1.8434362E-1,2.4660414E-1,-4.9863708E-1,2.8038684E-1],"categories":[],"categories_nodes":[],"categories_segments":[],"categories_sizes":[],"default_left":[1,1,0,0,0],"id":76,"left_children":[1,3,-1,-1,-1],"loss_changes":[2.3648535E-1,6.500598E-1,0E0,0E0,0E0],"parents":[2147483647,0,0,1,1],"right_children":[2,4,-1,-1,-1],"split_conditions":[9.052181E-1,7.549911E-2,7.398125E-2,-1.4959113E-1,8.411606E-2],"split_indices":[3,17,0,0,0],"split_type":[0,0,0,0,0],"sum_hessian":[3.5087602E0,2.493376E0,1.0153843E0,1.4439108E0,1.0494652E0],"tree_param":{"num_deleted":"0","num_feature":"33","num_nodes":"5","size_leaf_vector":"0"}},{"base_weights":[5.512984E-2,-1.6706903E-1,2.6438102E-1],"categories":[],"categories_nodes":[],"categories_segments":[],"categories_sizes":[],"default_left":[1,1,1],"id":77,"left_children":[-1,-1,-1],"loss_changes":[2.3724145E-1,0E0,0E0],"parents":[2147483647,0,0],"right_children":[-1,-1,-1],"split_conditions":[1.6538953E-2,-5.012071E-2,7.931431E-2],"split_indices":[26,2147483647,2147483647],"split_type":[0,0,0],"sum_hessian":[3.15249E0,1.6267105E0,1.5257794E0],"tree_param":{"num_deleted":"2","num_feature":"33","num_nodes":"3","size_leaf_vector":"0"}},{"base_weights":[-1.6327296E-1,1.4136843E-1,-3.8238087E-1],"categories":[],"categories_nodes":[],"categories_segments":[],"categories_sizes":[],"default_left":[1,1,1],"id":78,"left_children":[-1,-1,-1],"loss_changes":[3.1335592E-1,0E0,0E0],"parents":[2147483647,0,0],"right_children":[-1,-1,-1],"split_conditions":[-4.898189E-2,4.241053E-2,-1.14714265E-1],"split_indices":[12,2147483647,2147483647],"split_type":[0,0,0],"sum_hessian":[2.8846726E0,1.3552172E0,1.5294554E0],"tree_param":{"num_deleted":"2","num_feature":"33","num_nodes":"3","size_leaf_vector":"0"}},{"base_weights":[1.06626965E-1,-1.1666437E-1,3.2811907E-1],"categories":[],"categories_nodes":[],"categories_segments":[],"categories_sizes":[],"default_left":[1,1,1],"id":79,"left_children":[-1,-1,-1],"loss_changes":[2.53179E-1,0E0,0E0],"parents":[2147483647,0,0],"right_children":[-1,-1,-1],"split_conditions":[3.198809E-2,-3.4999315E-2,9.843572E-2],"split_indices":[26,2147483647,2147483647],"split_type":[0,0,0],"sum_hessian":[3.3451488E0,1.9014912E0,1.4436575E0],"tree_param":{"num_deleted":"2","num_feature":"33","num_nodes":"3","size_leaf_vector":"0"}},{"base_weights":[1.05253816E-1,2.5838372E-1,-5.4203767E-2],"categories":[],"categories_nodes":[],"categories_segments":[],"categories_sizes":[],"default_left":[1,1,1],"id":80,"left_children":[-1,-1,-1],"loss_changes":[1.1840322E-1,0E0,0E0],"parents":[2147483647,0,0],"right_children":[-1,-1,-1],"split_conditions":[3.1576145E-2,7.751512E-2,-1.626113E-2],"split_indices":[25,2147483647,2147483647],"split_type":[0,0,0],"sum_hessian":[3.2754948E0,1.3544252E0,1.9210696E0],"tree_param":{"num_deleted":"2","num_feature":"33","num_nodes":"3","size_leaf_vector":"0"}},{"base_weights":[-4.1827228E-2,2.2422604E-1,-2.4674878E-1],"categories":[],"categories_nodes":[],"categories_segments":[],"categories_sizes":[],"default_left":[1,1,1],"id":81,"left_children":[-1,-1,-1],"loss_changes":[2.8909102E-1,0E0,0E0],"parents":[2147483647,0,0],"right_children":[-1,-1,-1],"split_conditions":[-1.2548169E-2,6.726781E-2,-7.402463E-2],"split_indices":[25,2147483647,2147483647],"split_type":[0,0,0],"sum_hessian":[3.2876618E0,1.3894761E0,1.8981856E0],"tree_param":{"num_deleted":"2","num_feature":"33","num_nodes":"3","size_leaf_vector":"0"}},{"base_weights":[4.7257796E-2,-1.8727499E-1,1.8285356E-1,3.3913702E-1,-5.6154888E-2],"categories":[],"categories_nodes":[],"categories_segments":[],"categories_sizes":[],"default_left":[1,1,1,1,1],"id":82,"left_children":[-1,-1,-1,-1,-1],"loss_changes":[1.6553394E-1,0E0,1.3565843E-1,0E0,0E0],"parents":[2147483647,0,0,2,2],"right_children":[-1,-1,-1,-1,-1],"split_conditions":[1.4177339E-2,-5.61825E-2,5.4856073E-2,1.0174111E-1,-1.6846467E-2],"split_indices":[11,2147483647,2147483647,2147483647,2147483647],"split_type":[0,0,0,0,0],"sum_hessian":[3.1284037E0,1.0064586E0,2.121945E0,1.0297054E0,1.0922396E0],"tree_param":{"num_deleted":"4","num_feature":"33","num_nodes":"5","size_leaf_vector":"0"}},{"base_weights":[-2.0154457E-1,-4.8848566E-1,1.5667622E-1],"categories":[],"categories_nodes":[],"categories_segments":[],"categories_sizes":[],"default_left":[1,0,0],"id":83,"left_children":[1,-1,-1],"loss_changes":[4.834281E-1,0E0,0E0],"parents":[2147483647,0,0],"right_children":[2,-1,-1],"split_conditions":[6.000642E-2,-1.4654571E-1,4.7002867E-2],"split_indices":[18,0,0],"split_type":[0,0,0],"sum_hessian":[2.9585645E0,1.440808E0,1.5177566E0],"tree_param":{"num_deleted":"0","num_feature":"33","num_nodes":"3","size_leaf_vector":"0"}},{"base_weights":[7.111028E-2,2.769396E-1,-2.791601E-1,6.6860174E-3,4.165718E-1],"categories":[],"categories_nodes":[],"categories_segments":[],"categories_sizes":[],"default_left":[1,1,1,1,1],"id":84,"left_children":[-1,-1,-1,-1,-1],"loss_changes":[3.756101E-1,1.1450264E-1,0E0,0E0,0E0],"parents":[2147483647,0,0,1,1],"right_children":[-1,-1,-1,-1,-1],"split_conditions":[2.1333084E-2,8.3081886E-2,-8.3748035E-2,2.0058053E-3,1.24971546E-1],"split_indices":[9,2147483647,2147483647,2147483647,2147483647],"split_type":[0,0,0,0,0],"sum_hessian":[3.1375382E0,2.1081066E0,1.0294316E0,1.0751234E0,1.0329832E0],"tree_param":{"num_deleted":"4","num_feature":"33","num_nodes":"5","size_leaf_vector":"0"}},{"base_weights":[-3.7387554E-2,-2.4185005E-1,1.976419E-1],"categories":[],"categories_nodes":[],"categories_segments":[],"categories_sizes":[],"default_left":[1,1,1],"id":85,"left_children":[-1,-1,-1],"loss_changes":[2.4360064E-1,0E0,0E0],"parents":[2147483647,0,0],"right_children":[-1,-1,-1],"split_conditions":[-1.1216266E-2,-7.255502E-2,5.929257E-2],"split_indices":[6,2147483647,2147483647],"split_type":[0,0,0],"sum_hessian":[3.0745423E0,1.62867E0,1.4458722E0],"tree_param":{"num_deleted":"2","num_feature":"33","num_nodes":"3","size_leaf_vector":"0"}},{"base_weights":[-1.4117731E-1,1.3486783E-1,-3.327311E-1],"categories":[],"categories_nodes":[],"categories_segments":[],"categories_sizes":[],"default_left":[1,1,1],"id":86,"left_children":[-1,-1,-1],"loss_changes":[2.5558388E-1,0E0,0E0],"parents":[2147483647,0,0],"right_children":[-1,-1,-1],"split_conditions":[-4.2353194E-2,4.046035E-2,-9.981933E-2],"split_indices":[22,2147483647,2147483647],"split_type":[0,0,0],"sum_hessian":[2.9848564E0,1.343986E0,1.6408703E0],"tree_param":{"num_deleted":"2","num_feature":"33","num_nodes":"3","size_leaf_vector":"0"}},{"base_weights":[4.0548913E-2,2.1887708E-1,-2.5807154E-1,1.7388541E-3,3.3514577E-1],"categories":[],"categories_nodes":[],"categories_segments":[],"categories_sizes":[],"default_left":[1,1,1,1,1],"id":87,"left_children":[-1,-1,-1,-1,-1],"loss_changes":[2.770696E-1,7.855356E-2,0E0,0E0,0E0],"parents":[2147483647,0,0,1,1],"right_children":[-1,-1,-1,-1,-1],"split_conditions":[1.2164675E-2,6.566313E-2,-7.7421464E-2,5.2165624E-4,1.0054374E-1],"split_indices":[32,2147483647,2147483647,2147483647,2147483647],"split_type":[0,0,0,0,0],"sum_hessian":[3.142226E0,2.1345618E0,1.0076642E0,1.0983282E0,1.0362335E0],"tree_param":{"num_deleted":"4","num_feature":"33","num_nodes":"5","size_leaf_vector":"0"}},{"base_weights":[-4.836461E-2,3.161933E-1,-3.6316127E-1],"categories":[],"categories_nodes":[],"categories_segments":[],"categories_sizes":[],"default_left":[1,0,0],"id":88,"left_children":[1,-1,-1],"loss_changes":[5.669995E-1,0E0,0E0],"parents":[2147483647,0,0],"right_children":[2,-1,-1],"split_conditions":[3.6337486E-1,9.4858E-2,-1.0894839E-1],"split_indices":[25,0,0],"split_type":[0,0,0],"sum_hessian":[2.9400835E0,1.3603085E0,1.579775E0],"tree_param":{"num_deleted":"0","num_feature":"33","num_nodes":"3","size_leaf_vector":"0"}},{"base_weights":[6.587721E-2,2.061265E-1,-1.8923807E-1,4.1647246E-1,-1.0020232E-1],"categories":[],"categories_nodes":[],"categories_segments":[],"categories_sizes":[],"default_left":[1,1,1,1,1],"id":89,"left_children":[-1,-1,-1,-1,-1],"loss_changes":[1.8870881E-1,2.4653336E-1,0E0,0E0,0E0],"parents":[2147483647,0,0,1,1],"right_children":[-1,-1,-1,-1,-1],"split_conditions":[1.9763162E-2,6.1837953E-2,-5.6771424E-2,1.24941744E-1,-3.0060697E-2],"split_indices":[9,2147483647,2147483647,2147483647,2147483647],"split_type":[0,0,0,0,0],"sum_hessian":[3.1839833E0,2.1784236E0,1.0055596E0,1.0783772E0,1.1000465E0],"tree_param":{"num_deleted":"4","num_feature":"33","num_nodes":"5","size_leaf_vector":"0"}},{"base_weights":[-7.846064E-3,-2.3988234E-1,2.3362248E-1],"categories":[],"categories_nodes":[],"categories_segments":[],"categories_sizes":[],"default_left":[1,1,1],"id":90,"left_children":[-1,-1,-1],"loss_changes":[2.571251E-1,0E0,0E0],"parents":[2147483647,0,0],"right_children":[-1,-1,-1],"split_conditions":[-2.3538193E-3,-7.19647E-2,7.008675E-2],"split_indices":[2,2147483647,2147483647],"split_type":[0,0,0],"sum_hessian":[2.5888834E0,1.323577E0,1.2653064E0],"tree_param":{"num_deleted":"2","num_feature":"33","num_nodes":"3","size_leaf_vector":"0"}},{"base_weights":[2.3409803E-1,4.3202755E-1,-1.1023816E-1],"categories":[],"categories_nodes":[],"categories_segments":[],"categories_sizes":[],"default_left":[1,1,1],"id":91,"left_children":[-1,-1,-1],"loss_changes":[3.138918E-1,0E0,0E0],"parents":[2147483647,0,0],"right_children":[-1,-1,-1],"split_conditions":[7.022941E-2,1.2960827E-1,-3.3071447E-2],"split_indices":[8,2147483647,2147483647],"split_type":[0,0,0],"sum_hessian":[2.90681E0,1.6840978E0,1.2227122E0],"tree_param":{"num_deleted":"2","num_feature":"33","num_nodes":"3","size_leaf_vector":"0"}},{"base_weights":[-4.2230627E-3,-2.930956E-1,2.7453053E-1],"categories":[],"categories_nodes":[],"categories_segments":[],"categories_sizes":[],"default_left":[1,1,1],"id":92,"left_children":[-1,-1,-1],"loss_changes":[3.9980713E-1,0E0,0E0],"parents":[2147483647,0,0],"right_children":[-1,-1,-1],"split_conditions":[-1.2669188E-3,-8.792868E-2,8.2359165E-2],"split_indices":[2,2147483647,2147483647],"split_type":[0,0,0],"sum_hessian":[2.9658043E0,1.4312003E0,1.5346041E0],"tree_param":{"num_deleted":"2","num_feature":"33","num_nodes":"3","size_leaf_vector":"0"}},{"base_weights":[-1.9954441E-2,-2.068117E-1,1.6528267E-1],"categories":[],"categories_nodes":[],"categories_segments":[],"categories_sizes":[],"default_left":[0,1,1],"id":93,"left_children":[-1,-1,-1],"loss_changes":[1.6654016E-1,0E0,0E0],"parents":[2147483647,0,0],"right_children":[-1,-1,-1],"split_conditions":[-5.9863324E-3,-6.204351E-2,4.9584802E-2],"split_indices":[6,2147483647,2147483647],"split_type":[0,0,0],"sum_hessian":[2.8239439E0,1.3478426E0,1.4761013E0],"tree_param":{"num_deleted":"2","num_feature":"33","num_nodes":"3","size_leaf_vector":"0"}},{"base_weights":[9.092279E-2,-1.28736E-1,2.7162352E-1],"categories":[],"categories_nodes":[],"categories_segments":[],"categories_sizes":[],"default_left":[1,1,1],"id":94,"left_children":[-1,-1,-1],"loss_changes":[1.956999E-1,0E0,0E0],"parents":[2147483647,0,0],"right_children":[-1,-1,-1],"split_conditions":[2.7276838E-2,-3.8620804E-2,8.148706E-2],"split_indices":[2,2147483647,2147483647],"split_type":[0,0,0],"sum_hessian":[3.0494335E0,1.5061452E0,1.5432881E0],"tree_param":{"num_deleted":"2","num_feature":"33","num_nodes":"3","size_leaf_vector":"0"}},{"base_weights":[-7.385467E-2,-2.9503962E-1,2.1993567E-1],"categories":[],"categories_nodes":[],"categories_segments":[],"categories_sizes":[],"default_left":[1,1,1],"id":95,"left_children":[-1,-1,-1],"loss_changes":[3.1282744E-1,0E0,0E0],"parents":[2147483647,0,0],"right_children":[-1,-1,-1],"split_conditions":[-2.2156402E-2,-8.851189E-2,6.59807E-2],"split_indices":[2,2147483647,2147483647],"split_type":[0,0,0],"sum_hessian":[2.8154821E0,1.6037899E0,1.2116923E0],"tree_param":{"num_deleted":"2","num_feature":"33","num_nodes":"3","size_leaf_vector":"0"}},{"base_weights":[-7.0522286E-2,-2.9667428E-1,2.0917495E-1],"categories":[],"categories_nodes":[],"categories_segments":[],"categories_sizes":[],"default_left":[1,1,1],"id":96,"left_children":[-1,-1,-1],"loss_changes":[3.1660482E-1,0E0,0E0],"parents":[2147483647,0,0],"right_children":[-1,-1,-1],"split_conditions":[-2.1156687E-2,-8.900229E-2,6.2752485E-2],"split_indices":[2,2147483647,2147483647],"split_type":[0,0,0],"sum_hessian":[3.024214E0,1.6386054E0,1.3856086E0],"tree_param":{"num_deleted":"2","num_feature":"33","num_nodes":"3","size_leaf_vector":"0"}},{"base_weights":[-6.7802854E-2,-2.831437E-1,2.3124616E-1],"categories":[],"categories_nodes":[],"categories_segments":[],"categories_sizes":[],"default_left":[1,1,1],"id":97,"left_children":[-1,-1,-1],"loss_changes":[3.0779898E-1,0E0,0E0],"parents":[2147483647,0,0],"right_children":[-1,-1,-1],"split_conditions":[-2.0340856E-2,-8.4943116E-2,6.937385E-2],"split_indices":[30,2147483647,2147483647],"split_type":[0,0,0],"sum_hessian":[2.7629287E0,1.6371949E0,1.1257339E0],"tree_param":{"num_deleted":"2","num_feature":"33","num_nodes":"3","size_leaf_vector":"0"}},{"base_weights":[-1.0838785E-1,2.220847E-1,-3.0922025E-1],"categories":[],"categories_nodes":[],"categories_segments":[],"categories_sizes":[],"default_left":[1,1,1],"id":98,"left_children":[-1,-1,-1],"loss_changes":[3.1939933E-1,0E0,0E0],"parents":[2147483647,0,0],"right_children":[-1,-1,-1],"split_conditions":[-3.2516357E-2,6.662542E-2,-9.276608E-2],"split_indices":[4,2147483647,2147483647],"split_type":[0,0,0],"sum_hessian":[2.777727E0,1.009976E0,1.7677507E0],"tree_param":{"num_deleted":"2","num_feature":"33","num_nodes":"3","size_leaf_vector":"0"}},{"base_weights":[-2.6846556E-2,2.855343E-1,-2.9911938E-1],"categories":[],"categories_nodes":[],"categories_segments":[],"categories_sizes":[],"default_left":[1,0,0],"id":99,"left_children":[1,-1,-1],"loss_changes":[4.2563012E-1,0E0,0E0],"parents":[2147483647,0,0],"right_children":[2,-1,-1],"split_conditions":[6.3297795E-3,8.566029E-2,-8.973582E-2],"split_indices":[22,0,0],"split_type":[0,0,0],"sum_hessian":[3.0001178E0,1.3744704E0,1.6256474E0],"tree_param":{"num_deleted":"0","num_feature":"33","num_nodes":"3","size_leaf_vector":"0"}}]},"name":"gbtree"},"learner_model_param":{"base_score":"5E-1","boost_from_average":"1","num_class":"0","num_feature":"33","num_target":"1"},"objective":{"name":"binary:logistic","reg_loss_param":{"scale_pos_weight":"1"}}},"version":[1,7,1]}