{"learner":{"attributes":{"scikit_learn":"{\"use_label_encoder\": null, \"n_estimators\": 100, \"objective\": \"reg:squarederror\", \"max_depth\": 4, \"max_leaves\": null, \"max_bin\": null, \"grow_policy\": null, \"learning_rate\": null, \"verbosity\": null, \"booster\": null, \"tree_method\": null, \"gamma\": 0.1, \"min_child_weight\": null, \"max_delta_step\": null, \"subsample\": 0.8, \"sampling_method\": null, \"colsample_bytree\": 0.75, \"colsample_bylevel\": null, \"colsample_bynode\": null, \"reg_alpha\": null, \"reg_lambda\": null, \"scale_pos_weight\": null, \"base_score\": null, \"missing\": NaN, \"num_parallel_tree\": null, \"random_state\": null, \"n_jobs\": null, \"monotone_constraints\": null, \"interaction_constraints\": null, \"importance_type\": \"gain\", \"gpu_id\": null, \"validate_parameters\": null, \"predictor\": null, \"enable_categorical\": false, \"feature_types\": null, \"max_cat_to_onehot\": null, \"max_cat_threshold\": null, \"eval_metric\": null, \"early_stopping_rounds\": null, \"callbacks\": null, \"kwargs\": {}, \"type\": \"XGBRegressor\", \"_estimator_type\": \"classifier\"}"},"feature_names":[],"feature_types":[],"gradient_booster":{"model":{"gbtree_model_param":{"num_parallel_tree":"1","num_trees":"100","size_leaf_vector":"0"},"tree_info":[0,0,0,0,0,0,0,0,0,0,0,0,0,0,0,0,0,0,0,0,0,0,0,0,0,0,0,0,0,0,0,0,0,0,0,0,0,0,0,0,0,0,0,0,0,0,0,0,0,0,0,0,0,0,0,0,0,0,0,0,0,0,0,0,0,0,0,0,0,0,0,0,0,0,0,0,0,0,0,0,0,0,0,0,0,0,0,0,0,0,0,0,0,0,0,0,0,0,0,0],"trees":[{"base_weights":[2.4856382E1,1.373494E1,9.9708336E1,6.9333336E1,1.1506173E1,2.77625E2,9.555555E0,4.75E0,9.925E1,1.60625E1,1.08581085E1,3.4266666E2,4.125E1,7.125E0,2E1,1.0231884E1,1.625E1],"categories":[],"categories_nodes":[],"categories_segments":[],"categories_sizes":[],"default_left":[1,1,1,1,1,1,0,0,0,1,1,0,0,0,0,0,0],"id":0,"left_children":[1,3,5,7,9,11,-1,-1,-1,13,15,-1,-1,-1,-1,-1,-1],"loss_changes":[7.688192E4,9.487255E3,1.8982331E5,5.324917E3,6.4768555E1,4.7361906E4,0E0,0E0,0E0,1.3903125E2,8.359473E1,0E0,0E0,0E0,0E0,0E0,0E0],"parents":[2147483647,0,0,1,1,2,2,3,3,4,4,5,5,9,9,10,10],"right_children":[2,4,6,8,10,12,-1,-1,-1,14,16,-1,-1,-1,-1,-1,-1],"split_conditions":[1.14E0,4.75986E0,1.24E0,4.68587E0,1.048122E-2,6.357861E-1,2.8666668E0,1.4250001E0,2.9775002E1,4.9116558E-1,3.869372E0,1.028E2,1.2375001E1,2.1375E0,6E0,3.0695653E0,4.875E0],"split_indices":[2,1,2,1,27,3,0,0,0,3,13,0,0,0,0,0,0],"split_type":[0,0,0,0,0,0,0,0,0,0,0,0,0,0,0,0,0],"sum_hessian":[9.3E1,8.2E1,1.1E1,2E0,8E1,3E0,8E0,1E0,1E0,7E0,7.3E1,2E0,1E0,3E0,4E0,6.8E1,5E0],"tree_param":{"num_deleted":"0","num_feature":"33","num_nodes":"17","size_leaf_vector":"0"}},{"base_weights":[2.2292023E1,1.32051325E1,8.717803E1,1.0439165E1,6.3840218E1,2.2313126E2,8.304167E0,5.8933334E1,8.387565E0,3.310145E0,1.2271522E2,2.7413333E2,3.50625E1,4.0375E0,8.43625E1,1.4745E1,7.8295817E0],"categories":[],"categories_nodes":[],"categories_segments":[],"categories_sizes":[],"default_left":[1,1,1,1,1,1,0,1,1,0,0,0,0,0,0,0,0],"id":1,"left_children":[1,3,5,7,9,11,-1,13,15,-1,-1,-1,-1,-1,-1,-1,-1],"loss_changes":[5.2503492E4,1.0678018E4,1.16101805E5,7.265966E3,1.3848626E4,2.8755797E4,0E0,3.847252E3,1.5415039E2,0E0,0E0,0E0,0E0,0E0,0E0,0E0,0E0],"parents":[2147483647,0,0,1,1,2,2,3,3,4,4,5,5,7,7,8,8],"right_children":[2,4,6,8,10,12,-1,14,16,-1,-1,-1,-1,-1,-1,-1,-1],"split_conditions":[1.14E0,3.5614822E1,1.24E0,4.7726E0,6.6235E0,6.357861E-1,2.49125E0,3.79387E0,3.665E-5,9.930435E-1,3.6814568E1,8.2240005E1,1.051875E1,1.2112501E0,2.5308752E1,4.4235E0,2.3488746E0],"split_indices":[2,5,2,1,0,3,0,0,14,0,0,0,0,0,0,0,0],"split_type":[0,0,0,0,0,0,0,0,0,0,0,0,0,0,0,0,0],"sum_hessian":[9E1,8E1,1E1,7.7E1,3E0,3E0,7E0,2E0,7.5E1,2E0,1E0,2E0,1E0,1E0,1E0,4E0,7.1E1],"tree_param":{"num_deleted":"0","num_feature":"33","num_nodes":"17","size_leaf_vector":"0"}},{"base_weights":[1.713293E1,1.2577641E2,1.0692122E1,7.0019445E0,2.0262541E2,8.495886E0,5.4140057E1,6.196628E0,3.2902493E1,2.6481159E0,1.0430794E2,2.9803123E1,5.502997E0,9.6729996E1,6.142909E0],"categories":[],"categories_nodes":[],"categories_segments":[],"categories_sizes":[],"default_left":[1,1,1,0,0,1,1,1,1,0,0,0,0,0,0],"id":2,"left_children":[1,3,5,-1,-1,7,9,11,13,-1,-1,-1,-1,-1,-1],"loss_changes":[6.23326E4,4.421972E4,7.841742E3,0E0,0E0,4.509951E3,1.0056745E4,1.1131816E3,1.1361779E4,0E0,0E0,0E0,0E0,0E0,0E0],"parents":[2147483647,0,0,1,1,2,2,5,5,6,6,7,7,8,8],"right_children":[2,4,6,-1,-1,8,10,12,14,-1,-1,-1,-1,-1,-1],"split_conditions":[4.04769E0,3.84281E0,3.5614822E1,2.1005836E0,6.0787624E1,6.88058E0,6.6235E0,4.1743402E0,5.87451E0,7.944348E-1,3.1292383E1,8.940937E0,1.6508992E0,2.9019E1,1.8428727E0],"split_indices":[0,0,5,0,0,1,0,0,0,0,0,0,0,0,0],"split_type":[0,0,0,0,0,0,0,0,0,0,0,0,0,0,0],"sum_hessian":[9E1,4E0,8.6E1,2E0,2E0,8.3E1,3E0,7.7E1,6E0,2E0,1E0,1E0,7.6E1,1E0,5E0],"tree_param":{"num_deleted":"0","num_feature":"33","num_nodes":"15","size_leaf_vector":"0"}},{"base_weights":[1.2492128E1,5.9129677E0,5.4763927E1,3.6841574E0,3.8162525E1,1.5469467E2,4.265383E0,4.5674095E0,-3.0838257E1,8.866174E1,3.372285E0,1.8937112E2,2.5332657E1,1.7079736E0,5.259425E0,2.9130594E1,3.4805074E0,5.312613E0,9.546378E-1,8.177562E0,1.755967E0],"categories":[],"categories_nodes":[],"categories_segments":[],"categories_sizes":[],"default_left":[1,1,1,1,1,1,1,1,0,0,1,0,0,0,1,0,0,0,0,0,0],"id":3,"left_children":[1,3,5,7,9,11,13,15,-1,-1,17,-1,-1,-1,19,-1,-1,-1,-1,-1,-1],"loss_changes":[2.4706348E4,5.5377764E3,5.989645E4,2.427751E3,8.485407E3,1.3145992E4,1.3896606E1,1.8742467E3,0E0,0E0,1.3692497E1,0E0,0E0,0E0,4.6981888E1,0E0,0E0,0E0,0E0,0E0,0E0],"parents":[2147483647,0,0,1,1,2,2,3,3,4,4,5,5,6,6,7,7,10,10,14,14],"right_children":[2,4,6,8,10,12,14,16,-1,-1,18,-1,-1,-1,20,-1,-1,-1,-1,-1,-1],"split_conditions":[1.1515E0,1.0889555E0,1.24E0,1.2962291E0,-2.985E-1,6.357861E-1,1.5304999E0,4.75986E0,-9.251477E0,2.6598524E1,5.9143E0,5.681134E1,7.5997972E0,5.123921E-1,1.696E0,8.739179E0,1.0441523E0,1.593784E0,2.8639135E-1,2.4532685E0,5.2679014E-1],"split_indices":[2,19,2,20,2,3,2,1,0,0,1,0,0,0,2,0,0,0,0,0,0],"split_type":[0,0,0,0,0,0,0,0,0,0,0,0,0,0,0,0,0,0,0,0,0],"sum_hessian":[8.9E1,7.8E1,1.1E1,7.4E1,4E0,3E0,8E0,7.3E1,1E0,1E0,3E0,2E0,1E0,3E0,5E0,2E0,7.1E1,1E0,2E0,2E0,3E0],"tree_param":{"num_deleted":"0","num_feature":"33","num_nodes":"21","size_leaf_vector":"0"}},{"base_weights":[9.851005E0,4.5000877E0,4.787122E1,2.696558E0,2.6294191E1,1.5149689E2,8.010305E0,3.4414444E0,-2.6212519E1,1.4080384E0,7.536248E1,2.1532759E1,3.6284034E0,2.3304474E1,2.5660205E0,1.5929556E0,3.3418465E-1,6.542049E0,1.5668467E0],"categories":[],"categories_nodes":[],"categories_segments":[],"categories_sizes":[],"default_left":[1,1,0,1,1,0,1,1,0,1,0,0,0,0,0,0,0,0,0],"id":4,"left_children":[1,3,5,7,9,-1,11,13,-1,15,-1,-1,17,-1,-1,-1,-1,-1,-1],"loss_changes":[1.8094445E4,3.073601E3,4.422322E4,1.7052573E3,7.220613E3,0E0,4.5515698E2,1.2269548E3,0E0,4.6052933E-1,0E0,0E0,3.780278E1,0E0,0E0,0E0,0E0,0E0,0E0],"parents":[2147483647,0,0,1,1,2,2,3,3,4,4,6,6,7,7,9,9,12,12],"right_children":[2,4,6,8,10,-1,12,14,-1,16,-1,-1,18,-1,-1,-1,-1,-1,-1],"split_conditions":[1.1515E0,2.9239836E1,2.445383E1,3.5722115E1,6.6235E0,4.5449066E1,1.2925E0,4.75986E0,-7.8637557E0,6.2406397E0,2.2608746E1,6.459828E0,2.6295546E1,6.9913425E0,7.698062E-1,4.778867E-1,1.002554E-1,1.9626148E0,4.7005403E-1],"split_indices":[2,6,6,5,0,0,2,1,0,1,0,0,6,0,0,0,0,0,0],"split_type":[0,0,0,0,0,0,0,0,0,0,0,0,0,0,0,0,0,0,0],"sum_hessian":[8.9E1,7.9E1,1E1,7.4E1,5E0,2E0,8E0,7.3E1,1E0,4E0,1E0,1E0,7E0,2E0,7.1E1,3E0,1E0,2E0,5E0],"tree_param":{"num_deleted":"0","num_feature":"33","num_nodes":"19","size_leaf_vector":"0"}},{"base_weights":[7.3115015E0,5.1864853E1,3.5116804E0,1.5070598E2,1.027367E1,1.9933156E0,2.710318E1,-1.0465439E1,3.450126E1,3.2032099E0,-1.1081756E1,1.8499234E0,6.4058105E1,-1.649579E1,3.812808E0,2.3953009E0,3.1090286E1,-2.9407843E1,2.1302485E0,-2.873141E-1,4.130818E0],"categories":[],"categories_nodes":[],"categories_segments":[],"categories_sizes":[],"default_left":[1,0,1,0,1,1,1,1,0,1,1,1,0,0,0,0,0,0,0,0,0],"id":5,"left_children":[1,3,5,-1,7,9,11,13,-1,15,17,19,-1,-1,-1,-1,-1,-1,-1,-1,-1],"loss_changes":[1.5054396E4,2.7228129E4,2.954897E3,0E0,3.3758225E3,1.3010535E3,4.547658E3,4.073067E2,0E0,1.5927659E3,1.7575162E3,2.0686092E1,0E0,0E0,0E0,0E0,0E0,0E0,0E0,0E0,0E0],"parents":[2147483647,0,0,1,1,2,2,4,4,5,5,6,6,7,7,9,9,10,10,11,11],"right_children":[2,4,6,-1,8,10,12,14,-1,16,18,20,-1,-1,-1,-1,-1,-1,-1,-1,-1],"split_conditions":[4.1743402E0,3.416751E1,1.1668949E0,4.5211796E1,3.92306E0,6.92223E0,6.30296E0,5.1601896E0,1.0350378E1,6.88058E0,1.4157995E-3,5.84984E0,1.9217432E1,-4.948737E0,1.1438425E0,7.1859026E-1,9.327086E0,-8.822353E0,6.3907456E-1,-8.619423E-2,1.2392454E0],"split_indices":[0,5,32,0,0,1,0,1,0,1,17,0,0,0,0,0,0,0,0,0,0],"split_type":[0,0,0,0,0,0,0,0,0,0,0,0,0,0,0,0,0,0,0,0,0],"sum_hessian":[8.9E1,6E0,8.3E1,1E0,5E0,7.9E1,4E0,3E0,2E0,7.3E1,6E0,3E0,1E0,2E0,1E0,7.2E1,1E0,2E0,4E0,2E0,1E0],"tree_param":{"num_deleted":"0","num_feature":"33","num_nodes":"21","size_leaf_vector":"0"}},{"base_weights":[5.2022223E0,4.3810364E1,2.44814E0,1.2810008E2,1.3324035E0,1.1957796E0,5.4449387E1,3.483839E0,-7.641506E-2,2.2882955E0,-3.6587136E0,2.8273857E1,1.5019271E0,7.051255E-1,-2.2803724E1],"categories":[],"categories_nodes":[],"categories_segments":[],"categories_sizes":[],"default_left":[0,1,1,0,1,1,0,0,0,1,1,0,0,0,0],"id":6,"left_children":[1,3,5,-1,7,9,-1,-1,-1,11,13,-1,-1,-1,-1],"loss_changes":[9.568775E3,2.1312049E4,5.53558E3,0E0,1.542113E1,4.5917917E2,0E0,0E0,0E0,1.3879304E3,1.3528115E3,0E0,0E0,0E0,0E0],"parents":[2147483647,0,0,1,1,2,2,4,4,5,5,9,9,10,10],"right_children":[2,4,6,-1,8,10,-1,-1,-1,12,14,-1,-1,-1,-1],"split_conditions":[2.175695E1,4.40985E0,3.5614822E1,3.8430027E1,5.28522E0,9.7249997E-1,1.6334816E1,1.0451517E0,-2.292452E-2,4.1188602E0,9.8908395E-2,8.482158E0,4.5057815E-1,2.1153766E-1,-6.8411174E0],"split_indices":[6,0,5,0,0,2,0,0,0,0,18,0,0,0,0],"split_type":[0,0,0,0,0,0,0,0,0,0,0,0,0,0,0],"sum_hessian":[9E1,5E0,8.5E1,1E0,4E0,8.4E1,1E0,1E0,3E0,6.9E1,1.5E1,1E0,6.8E1,1.3E1,2E0],"tree_param":{"num_deleted":"0","num_feature":"33","num_nodes":"15","size_leaf_vector":"0"}},{"base_weights":[1.0565135E0,-1.7585713E-1,1.4480528E1,4.2067033E-1,-2.6036873E1,4.6281982E1,3.3257506E0,1.7195133E0,-2.3775885E0,8.821051E0,9.396922E-1,-8.156465E-1,7.23305E0,-5.0453013E-1,-1.0892751E1,3.2859063E0,-1.867319E-1],"categories":[],"categories_nodes":[],"categories_segments":[],"categories_sizes":[],"default_left":[1,1,1,1,0,0,0,1,1,0,1,0,0,0,0,0,0],"id":7,"left_children":[1,3,5,7,-1,-1,9,11,13,-1,15,-1,-1,-1,-1,-1,-1],"loss_changes":[1.5741658E3,1.368512E3,2.683983E3,3.2028967E2,0E0,0E0,8.3495674E1,8.4456134E2,4.410873E2,0E0,1.6470575E1,0E0,0E0,0E0,0E0,0E0,0E0],"parents":[2147483647,0,0,1,1,2,2,3,3,6,6,7,7,8,8,10,10],"right_children":[2,4,6,8,-1,-1,10,12,14,-1,16,-1,-1,-1,-1,-1,-1],"split_conditions":[9.5336187E-1,1.2962291E0,-2.985E-1,5.939659E-1,-7.8110623E0,1.3884595E1,2.7330208E1,2.8062642E-1,1.05E0,2.6463153E0,-1.64E-1,-2.4469396E-1,2.169915E0,-1.5135905E-1,-3.2678254E0,9.8577195E-1,-5.6019574E-2],"split_indices":[19,20,2,10,0,0,6,11,2,0,2,0,0,0,0,0,0],"split_type":[0,0,0,0,0,0,0,0,0,0,0,0,0,0,0,0,0],"sum_hessian":[9.4E1,8.7E1,7E0,8.6E1,1E0,1E0,6E0,5.9E1,2.7E1,1E0,5E0,4.1E1,1.8E1,2.3E1,4E0,1E0,4E0],"tree_param":{"num_deleted":"0","num_feature":"33","num_nodes":"17","size_leaf_vector":"0"}},{"base_weights":[4.002629E0,3.9715958E-1,3.52059E1,8.2907546E-1,-1.664614E1,7.621278E1,2.000327E0,1.330339E1,3.257594E-1,9.365909E1,1.193693E1,3.6091769E0,2.936082E-1,-2.9927301E0,2.2947815E1,-1.1731169E1,6.42934E-1,-3.301525E-2,4.1348776E-1],"categories":[],"categories_nodes":[],"categories_segments":[],"categories_sizes":[],"default_left":[1,1,1,1,0,1,1,1,1,0,0,0,1,0,0,0,0,0,0],"id":8,"left_children":[1,3,5,7,-1,9,11,13,15,-1,-1,-1,17,-1,-1,-1,-1,-1,-1],"loss_changes":[9.773729E3,5.953414E2,1.2102463E4,4.8539105E2,0E0,3.367502E3,1.54154415E1,5.4017676E2,2.981779E2,0E0,0E0,0E0,1.7027336E-1,0E0,0E0,0E0,0E0,0E0,0E0],"parents":[2147483647,0,0,1,1,2,2,3,3,5,5,6,6,7,7,8,8,12,12],"right_children":[2,4,6,8,-1,10,12,14,16,-1,-1,-1,18,-1,-1,-1,-1,-1,-1],"split_conditions":[1.1515E0,1.2E1,1.317E0,4.75986E0,-4.993842E0,6.357861E-1,1.696E0,3.79387E0,4.11574E0,2.8097727E1,3.581079E0,1.0827531E0,4.10665E0,-8.978191E-1,6.8843446E0,-3.5193508E0,1.9288021E-1,-9.9045755E-3,1.2404633E-1],"split_indices":[2,15,2,1,0,3,2,0,0,0,0,0,0,0,0,0,0,0,0],"split_type":[0,0,0,0,0,0,0,0,0,0,0,0,0,0,0,0,0,0,0],"sum_hessian":[8.6E1,7.8E1,8E0,7.7E1,1E0,3E0,5E0,2E0,7.5E1,2E0,1E0,2E0,3E0,1E0,1E0,1E0,7.4E1,1E0,2E0],"tree_param":{"num_deleted":"0","num_feature":"33","num_nodes":"19","size_leaf_vector":"0"}},{"base_weights":[2.6409147E0,3.5549564E1,-1.663318E-1,9.495856E1,9.821638E0,-1.418252E0,1.6136353E1,-9.356177E-2,1.9768024E1,-7.505841E-1,-2.6414337E1,3.6663265E0,3.924324E1,-2.5438204E0,1.5711312E0,2.2938836E-1,-1.8692429E1,7.401452E0,8.821821E-1],"categories":[],"categories_nodes":[],"categories_segments":[],"categories_sizes":[],"default_left":[1,0,1,0,1,1,1,1,0,1,0,1,0,0,0,0,0,0,0],"id":9,"left_children":[1,3,5,-1,7,9,11,13,-1,15,-1,17,-1,-1,-1,-1,-1,-1,-1],"loss_changes":[8.227972E3,9.766643E3,1.7168871E3,0E0,5.9357196E2,1.2819222E3,1.5849823E3,2.031239E1,0E0,1.3581414E3,0E0,4.5466225E1,0E0,0E0,0E0,0E0,0E0,0E0,0E0],"parents":[2147483647,0,0,1,1,2,2,4,4,5,5,6,6,7,7,9,9,11,11],"right_children":[2,4,6,-1,8,10,12,14,-1,16,-1,18,-1,-1,-1,-1,-1,-1,-1],"split_conditions":[4.17936E0,3.416751E1,1.0776446E0,2.8487568E1,3.81404E0,7.23093E0,6.30296E0,3.67276E0,5.9304075E0,3.567097E1,-7.9243016E0,5.26923E0,1.1772972E1,-7.6314616E-1,4.7133937E-1,6.881651E-2,-5.607729E0,2.2204356E0,2.6465464E-1],"split_indices":[0,5,32,0,0,1,0,0,0,5,0,0,0,0,0,0,0,0,0],"split_type":[0,0,0,0,0,0,0,0,0,0,0,0,0,0,0,0,0,0,0],"sum_hessian":[8.8E1,6E0,8.2E1,1E0,5E0,7.7E1,5E0,3E0,2E0,7.6E1,1E0,4E0,1E0,1E0,2E0,7.3E1,3E0,1E0,3E0],"tree_param":{"num_deleted":"0","num_feature":"33","num_nodes":"19","size_leaf_vector":"0"}},{"base_weights":[1.8722686E0,3.9305836E1,-5.827978E-1,8.774913E0,8.071477E1,3.8082348E-4,-2.2452187E1,6.729212E-1,1.6540443E1,6.716557E-1,-1.6557861E1,-2.6373243E-1,1.2731142E0,8.250354E0,2.352269E-1],"categories":[],"categories_nodes":[],"categories_segments":[],"categories_sizes":[],"default_left":[1,1,1,1,0,1,0,1,0,1,0,0,0,0,0],"id":10,"left_children":[1,3,5,7,-1,9,-1,11,-1,13,-1,-1,-1,-1,-1],"loss_changes":[7.466961E3,5.612999E3,9.8204803E2,2.4053464E2,0E0,8.558713E2,0E0,2.0222805E0,0E0,2.4281892E2,0E0,0E0,0E0,0E0,0E0],"parents":[2147483647,0,0,1,1,2,2,3,3,5,5,7,7,9,9],"right_children":[2,4,6,8,-1,10,-1,12,-1,14,-1,-1,-1,-1,-1],"split_conditions":[4.04769E0,3.95043E0,7.23093E0,3.84281E0,2.4214432E1,3.5722115E1,-6.7356563E0,3.7217E0,4.9621334E0,3.665E-5,-4.9673586E0,-7.9119734E-2,3.819343E-1,2.4751062E0,7.056807E-2],"split_indices":[0,0,1,0,0,5,0,0,0,14,0,0,0,0,0],"split_type":[0,0,0,0,0,0,0,0,0,0,0,0,0,0,0],"sum_hessian":[8E1,4E0,7.6E1,3E0,1E0,7.5E1,1E0,2E0,1E0,7.3E1,2E0,1E0,1E0,3E0,7E1],"tree_param":{"num_deleted":"0","num_feature":"33","num_nodes":"15","size_leaf_vector":"0"}},{"base_weights":[2.0144386E0,1.1354865E1,-7.3895134E-2,3.2581513E0,4.8053482E1,9.902251E-1,-1.5595271E1,1.1189046E0,1.1442169E1,6.8607544E1,3.4726777E0,1.6199851E-1,2.0261513E1,-2.4016397E1,-1.975722E0,2.1859927E0,-1.025635E0,-1.9941664E-1,1.736267E1,6.049179E-1,-1.5421179E1,3.3321465E1,-2.929196E0,-4.229145E-1,-2.5406685E0],"categories":[],"categories_nodes":[],"categories_segments":[],"categories_sizes":[],"default_left":[0,0,1,0,1,1,1,1,1,0,0,0,1,0,1,0,0,0,0,0,0,0,0,0,0],"id":11,"left_children":[1,3,5,7,9,11,13,15,17,-1,-1,19,21,-1,23,-1,-1,-1,-1,-1,-1,-1,-1,-1,-1],"loss_changes":[1.8148903E3,4.894784E3,1.2872218E3,2.4981181E2,2.5106982E3,1.1618701E3,5.2601E2,3.1991396E1,2.102345E2,0E0,0E0,4.9937704E2,1.0062136E3,0E0,1.5572748E0,0E0,0E0,0E0,0E0,0E0,0E0,0E0,0E0,0E0,0E0],"parents":[2147483647,0,0,1,1,2,2,3,3,4,4,5,5,6,6,7,7,8,8,11,11,12,12,14,14],"right_children":[2,4,6,8,10,12,14,16,18,-1,-1,20,22,-1,24,-1,-1,-1,-1,-1,-1,-1,-1,-1,-1],"split_conditions":[3.3651802E1,3.3477257E1,6.8849897E0,3.3311165E1,5.8996E0,3.5614822E1,1.1456177E0,4.5932602E-2,6.43223E0,2.0582264E1,1.0418034E0,1.2E1,6.27592E0,-7.2049193E0,7.1118603E0,6.5579784E-1,-3.076905E-1,-5.9824992E-2,5.2088013E0,1.8147537E-1,-4.6263537E0,9.99644E0,-8.787588E-1,-1.2687436E-1,-7.622006E-1],"split_indices":[5,5,1,5,1,5,10,8,1,0,0,15,1,0,1,0,0,0,0,0,0,0,0,0,0],"split_type":[0,0,0,0,0,0,0,0,0,0,0,0,0,0,0,0,0,0,0,0,0,0,0,0,0],"sum_hessian":[9.2E1,1.6E1,7.6E1,1.4E1,2E0,7.2E1,4E0,1.2E1,2E0,1E0,1E0,7E1,2E0,2E0,2E0,8E0,4E0,1E0,1E0,6.9E1,1E0,1E0,1E0,1E0,1E0],"tree_param":{"num_deleted":"0","num_feature":"33","num_nodes":"25","size_leaf_vector":"0"}},{"base_weights":[4.5134556E-1,1.4309489E1,-9.874434E-1,5.8316406E1,1.5190741E0,-5.403529E-1,-1.3325861E1,6.167085E0,-1.5508501E1,-1.2827781E-1,-1.1760979E1,2.2439441E-1,1.4015874E1,-1.3108002E1,1.8986519E-1,-1.5481899E1,-2.1595683E0],"categories":[],"categories_nodes":[],"categories_segments":[],"categories_sizes":[],"default_left":[1,0,1,0,1,1,0,1,0,1,1,0,0,0,0,0,0],"id":12,"left_children":[1,3,5,-1,7,9,-1,11,-1,13,15,-1,-1,-1,-1,-1,-1],"loss_changes":[1.9083296E3,4.9772134E3,4.7272528E2,0E0,7.287971E2,3.9150922E2,0E0,3.2335538E2,0E0,3.452296E2,7.374408E1,0E0,0E0,0E0,0E0,0E0,0E0],"parents":[2147483647,0,0,1,1,2,2,4,4,5,5,7,7,9,9,10,10],"right_children":[2,4,6,-1,8,10,-1,12,-1,14,16,-1,-1,-1,-1,-1,-1],"split_conditions":[4.17936E0,3.416751E1,3.567097E1,1.7494923E1,6.1433107E-1,7.23093E0,-3.9977584E0,3.84281E0,-4.6525507E0,4.2747803E0,6.6957703E0,6.731833E-2,4.2047625E0,-3.9324007E0,5.695956E-2,-4.64457E0,-6.4787054E-1],"split_indices":[0,5,5,0,9,1,0,0,0,0,0,0,0,0,0,0,0],"split_type":[0,0,0,0,0,0,0,0,0,0,0,0,0,0,0,0,0],"sum_hessian":[9.4E1,8E0,8.6E1,1E0,7E0,8.4E1,2E0,6E0,1E0,8.2E1,2E0,4E0,2E0,1E0,8.1E1,1E0,1E0],"tree_param":{"num_deleted":"0","num_feature":"33","num_nodes":"17","size_leaf_vector":"0"}},{"base_weights":[1.7617183E0,1.8500025E1,3.947084E-1,5.0603824E0,4.956894E1,-4.4306237E-1,1.1778458E1,-8.189516E-1,1.12127E1,-1.2360352E-1,-1.3159615E1,2.8162444E0,2.8294762E1,-1.7304357E0,9.577503E-1,1.5832391E-1,-1.13389E1,5.697656E0,-1.0039158E0],"categories":[],"categories_nodes":[],"categories_segments":[],"categories_sizes":[],"default_left":[1,1,1,1,0,1,1,1,0,1,0,1,0,0,0,0,0,0,0],"id":13,"left_children":[1,3,5,7,-1,9,11,13,-1,15,-1,17,-1,-1,-1,-1,-1,-1,-1],"loss_changes":[2.120671E3,2.6720483E3,8.349351E2,2.2621185E2,0E0,3.314915E2,8.084509E2,8.135068E0,0E0,2.579091E2,0E0,6.0757248E1,0E0,0E0,0E0,0E0,0E0,0E0,0E0],"parents":[2147483647,0,0,1,1,2,2,3,3,5,5,6,6,7,7,9,9,11,11],"right_children":[2,4,6,8,-1,10,12,14,-1,16,-1,18,-1,-1,-1,-1,-1,-1,-1],"split_conditions":[4.1743402E0,1.1140876E0,1.0776446E0,3.84281E0,1.4870683E1,7.23093E0,6.30296E0,3.7217E0,3.36381E0,1.2962291E0,-3.9478846E0,3.3249116E0,8.488429E0,-5.1913077E-1,2.873251E-1,4.7497176E-2,-3.40167E0,1.709297E0,-3.0117476E-1],"split_indices":[0,13,32,0,0,1,0,0,0,21,0,11,0,0,0,0,0,0,0],"split_type":[0,0,0,0,0,0,0,0,0,0,0,0,0,0,0,0,0,0,0],"sum_hessian":[9.2E1,6E0,8.6E1,5E0,1E0,8.1E1,5E0,3E0,2E0,8E1,1E0,4E0,1E0,2E0,1E0,7.9E1,1E0,2E0,2E0],"tree_param":{"num_deleted":"0","num_feature":"33","num_nodes":"19","size_leaf_vector":"0"}},{"base_weights":[9.965348E-1,-3.2892153E-1,9.639411E0,-9.46509E-1,1.5632131E1,3.789311E1,1.9936132E-1,-8.154989E0,-3.3265638E-1,-6.023493E-1,2.4050545E1,-5.371088E0,1.4150877E0,7.8235793E-1,-1.735312E1,3.743711E-1,-4.287479E0,-2.0906281E-1,2.2620068E0],"categories":[],"categories_nodes":[],"categories_segments":[],"categories_sizes":[],"default_left":[1,1,0,1,1,0,1,1,1,0,0,0,1,0,0,0,0,0,0],"id":14,"left_children":[1,3,5,7,9,-1,11,13,15,-1,-1,-1,17,-1,-1,-1,-1,-1,-1],"loss_changes":[1.0341887E3,7.935263E2,3.193041E3,3.3800787E2,4.244926E2,0E0,7.532199E1,5.0681778E2,2.0292921E2,0E0,0E0,0E0,1.2852617E1,0E0,0E0,0E0,0E0,0E0,0E0],"parents":[2147483647,0,0,1,1,2,2,3,3,4,4,6,6,7,7,8,8,12,12],"right_children":[2,4,6,8,10,-1,12,14,16,-1,-1,-1,18,-1,-1,-1,-1,-1,-1],"split_conditions":[1.1515E0,1.1668949E0,2.445383E1,5.08473E0,6.19066E0,1.1367933E1,5.2038E0,5.625E-1,2.8677383E1,-1.8070479E-1,7.2151637E0,-1.6113265E0,4.8773944E-2,2.3470739E-1,-5.2059364E0,1.1231134E-1,-1.2862437E0,-6.2718846E-2,6.7860204E-1],"split_indices":[2,32,6,1,1,0,1,2,6,0,0,0,10,0,0,0,0,0,0],"split_type":[0,0,0,0,0,0,0,0,0,0,0,0,0,0,0,0,0,0,0],"sum_hessian":[8.9E1,7.8E1,1.1E1,7.6E1,2E0,2E0,9E0,5E0,7.1E1,1E0,1E0,1E0,8E0,3E0,2E0,6.1E1,1E1,3E0,5E0],"tree_param":{"num_deleted":"0","num_feature":"33","num_nodes":"19","size_leaf_vector":"0"}},{"base_weights":[1.3467927E-1,6.68432E0,-1.0650682E0,3.6449646E1,1.9546793E0,-1.4945148E0,7.6827707E0,7.170247E-1,9.022095E0,-6.4906683E0,-8.401501E-1,-3.3849478E0,2.0442963E1,-5.393125E-1,2.2726367E0,-1.3460958E1,-7.620309E-1,7.03132E-1,-2.4476154E0,-4.565425E0,-5.1199675E-1],"categories":[],"categories_nodes":[],"categories_segments":[],"categories_sizes":[],"default_left":[0,1,1,0,1,0,1,1,0,0,1,1,0,0,0,0,0,0,0,0,0],"id":15,"left_children":[1,3,5,-1,7,9,11,13,-1,15,17,19,-1,-1,-1,-1,-1,-1,-1,-1,-1],"loss_changes":[7.614791E2,2.040442E3,3.1953387E2,0E0,1.1598921E2,2.5282211E2,6.341032E2,2.6632511E1,0E0,3.4911462E2,1.7785585E2,7.836876E0,0E0,0E0,0E0,0E0,0E0,0E0,0E0,0E0,0E0],"parents":[2147483647,0,0,1,1,2,2,4,4,5,5,6,6,7,7,9,9,10,10,11,11],"right_children":[2,4,6,-1,8,10,12,14,-1,16,18,20,-1,-1,-1,-1,-1,-1,-1,-1,-1],"split_conditions":[3.3651802E1,4.2091503E0,1.1668949E0,1.0934895E1,4.675266E-1,2.3658566E1,6.18416E0,3.71136E-4,2.7066286E0,3.4174255E1,3.548535E-1,4.71647E0,6.1328893E0,-1.6179375E-1,6.81791E-1,-4.0382876E0,-2.2860928E-1,2.109396E-1,-7.3428464E-1,-1.3696275E0,-1.5359902E-1],"split_indices":[5,0,32,0,18,6,0,16,0,5,24,0,0,0,0,0,0,0,0,0,0],"split_type":[0,0,0,0,0,0,0,0,0,0,0,0,0,0,0,0,0,0,0,0,0],"sum_hessian":[9.5E1,1.4E1,8.1E1,1E0,1.3E1,7.8E1,3E0,1.2E1,1E0,8E0,7E1,2E0,1E0,7E0,5E0,3E0,5E0,3.6E1,3.4E1,1E0,1E0],"tree_param":{"num_deleted":"0","num_feature":"33","num_nodes":"21","size_leaf_vector":"0"}},{"base_weights":[5.48634E-1,1.0812472E-1,9.331788E0,1.4236813E0,-2.059666E0,8.5803825E-1,1.7376518E1,2.7782342E0,-1.7130429E0,-8.279132E-1,-1.3280053E1,-4.3519735E-1,1.7222548E0,1.445875E0,1.3075638E1,-1.1894022E1,-2.4137612E-1,5.6793984E-2,-6.371532E0],"categories":[],"categories_nodes":[],"categories_segments":[],"categories_sizes":[],"default_left":[1,1,1,1,1,1,0,1,1,1,0,0,0,0,0,0,0,0,0],"id":16,"left_children":[1,3,5,7,9,11,-1,13,15,17,-1,-1,-1,-1,-1,-1,-1,-1,-1],"loss_changes":[3.239921E2,2.3393225E2,2.577664E2,2.2145103E2,4.1744824E2,4.1024275E0,0E0,4.7500848E2,2.368572E2,1.4259177E2,0E0,0E0,0E0,0E0,0E0,0E0,0E0,0E0,0E0],"parents":[2147483647,0,0,1,1,2,2,3,3,4,4,5,5,7,7,8,8,9,9],"right_children":[2,4,6,8,10,12,-1,14,16,18,-1,-1,-1,-1,-1,-1,-1,-1,-1],"split_conditions":[1.1668949E0,5.79034E0,6.30296E0,7.153676E-3,7.3568E-1,5.6783E0,5.2129555E0,8.435505E-3,4.11574E0,3.564508E1,-3.9840162E0,-1.305592E-1,5.166764E-1,4.3376252E-1,3.9226916E0,-3.5682068E0,-7.241284E-2,1.7038196E-2,-1.9114597E0],"split_indices":[32,0,0,29,32,0,0,16,0,5,0,0,0,0,0,0,0,0,0],"split_type":[0,0,0,0,0,0,0,0,0,0,0,0,0,0,0,0,0,0,0],"sum_hessian":[8.3E1,8E1,3E0,5E1,3E1,2E0,1E0,3.5E1,1.5E1,2.8E1,2E0,1E0,1E0,3.2E1,3E0,1E0,1.4E1,2.5E1,3E0],"tree_param":{"num_deleted":"0","num_feature":"33","num_nodes":"19","size_leaf_vector":"0"}},{"base_weights":[-5.600745E-1,-1.8956874E-1,-1.0624042E1,1.0720505E1,-4.5335627E-1,-1.2858488E1,-3.0775747E0,-7.270638E0,8.374822E-2,-1.0342785E1,-7.5089675E-1,5.862859E0,-3.1322852E-1],"categories":[],"categories_nodes":[],"categories_segments":[],"categories_sizes":[],"default_left":[1,1,1,0,1,0,0,1,1,0,0,0,0],"id":17,"left_children":[1,3,5,-1,7,-1,-1,9,11,-1,-1,-1,-1],"loss_changes":[3.1493045E2,2.4372935E2,1.101355E1,0E0,3.0085953E2,0E0,0E0,1.12411224E2,1.784877E2,0E0,0E0,0E0,0E0],"parents":[2147483647,0,0,1,1,2,2,4,4,7,7,8,8],"right_children":[2,4,6,-1,8,-1,-1,10,12,-1,-1,-1,-1],"split_conditions":[7.23093E0,4.75986E0,6.6957703E0,3.2161515E0,5.14892E0,-3.8575466E0,-9.2327243E-1,4.2747803E0,3.665E-5,-3.1028357E0,-2.2526903E-1,1.7588577E0,-9.396856E-2],"split_indices":[1,1,0,0,1,0,0,0,14,0,0,0,0],"split_type":[0,0,0,0,0,0,0,0,0,0,0,0,0],"sum_hessian":[8.4E1,8.2E1,2E0,1E0,8.1E1,1E0,1E0,5E0,7.6E1,3E0,2E0,4E0,7.2E1],"tree_param":{"num_deleted":"0","num_feature":"33","num_nodes":"13","size_leaf_vector":"0"}},{"base_weights":[7.311007E-1,9.41239E0,-3.1108966E-1,2.3103094E1,2.4450275E-1,-7.0893383E-1,7.8230267E0,3.1070917E1,-4.001875E-1,1.7249975E0,-6.9269466E-1,-3.8395357E-1,-9.030436E0,1.4817024E1,5.526864E-1,-1.3790338E0,1.1206654E0,-1.0929715E1,-2.6159387E0,7.297621E-1,9.926748E-2],"categories":[],"categories_nodes":[],"categories_segments":[],"categories_sizes":[],"default_left":[0,1,1,1,1,1,1,0,0,0,0,1,1,0,1,0,0,0,0,0,0],"id":18,"left_children":[1,3,5,7,9,11,13,-1,-1,-1,-1,15,17,-1,19,-1,-1,-1,-1,-1,-1],"loss_changes":[8.443507E2,1.2494995E3,2.773793E2,7.6151416E2,1.0907508E1,2.1558295E2,1.952058E2,0E0,0E0,0E0,0E0,1.1982555E2,7.9572906E0,0E0,1.6842681E-1,0E0,0E0,0E0,0E0,0E0,0E0],"parents":[2147483647,0,0,1,1,2,2,3,3,4,4,5,5,6,6,11,11,12,12,14,14],"right_children":[2,4,6,8,10,12,14,-1,-1,-1,-1,16,18,-1,20,-1,-1,-1,-1,-1,-1],"split_conditions":[2.3286114E1,9.04812E-3,2.9239836E1,5.93194E0,5.3018E0,7.23093E0,-2.165E-1,9.321276E0,-1.2005625E-1,5.1749927E-1,-2.078084E-1,2.4832219E-2,7.26327E0,4.4451075E0,6.13627E0,-4.1371015E-1,3.3619964E-1,-3.2789147E0,-7.8478163E-1,2.1892864E-1,2.9780246E-2],"split_indices":[6,10,6,1,1,1,2,0,0,0,0,17,1,0,1,0,0,0,0,0,0],"split_type":[0,0,0,0,0,0,0,0,0,0,0,0,0,0,0,0,0,0,0,0,0],"sum_hessian":[9.2E1,9E0,8.3E1,3E0,6E0,8E1,3E0,2E0,1E0,2E0,4E0,7.8E1,2E0,1E0,2E0,4.7E1,3.1E1,1E0,1E0,1E0,1E0],"tree_param":{"num_deleted":"0","num_feature":"33","num_nodes":"21","size_leaf_vector":"0"}},{"base_weights":[1.18774045E-2,6.8247747E0,-7.3602444E-1,-4.153343E0,1.6437937E1,-1.2864838E0,5.3455377E0,-8.283787E-1,-8.726601E0,2.3397333E1,3.999229E0,-8.8881147E-1,-8.222383E0,3.43935E-1,1.1899695E1,-1.4404608E0,5.039339E-1,-4.4850865E-1,-5.730775E0,-4.2895937E-1,1.7177563E0],"categories":[],"categories_nodes":[],"categories_segments":[],"categories_sizes":[],"default_left":[1,1,1,1,1,1,1,1,0,0,0,1,0,1,0,0,0,0,0,0,0],"id":19,"left_children":[1,3,5,7,9,11,13,15,-1,-1,-1,17,-1,19,-1,-1,-1,-1,-1,-1,-1],"loss_changes":[4.6360727E2,1.01808234E3,2.8138443E2,6.880066E1,3.3925818E2,2.023162E2,2.2537636E2,3.9878364E0,0E0,0E0,0E0,1.5306061E2,0E0,6.0459414E0,0E0,0E0,0E0,0E0,0E0,0E0,0E0],"parents":[2147483647,0,0,1,1,2,2,3,3,4,4,5,5,6,6,7,7,11,11,13,13],"right_children":[2,4,6,8,10,12,14,16,-1,-1,-1,18,-1,20,-1,-1,-1,-1,-1,-1,-1],"split_conditions":[4.233E0,3.92306E0,8.817309E-1,3.83969E0,4.04769E0,1E1,5.974668E-1,3.7217E0,-2.6179802E0,7.0192003E0,1.1997688E0,6.88205E0,-2.4667149E0,5.84984E0,3.5699089E0,-4.3213826E-1,1.5118018E-1,-1.345526E-1,-1.7192326E0,-1.2868781E-1,5.153269E-1],"split_indices":[0,0,19,0,0,15,3,0,0,0,0,1,0,0,0,0,0,0,0,0,0],"split_type":[0,0,0,0,0,0,0,0,0,0,0,0,0,0,0,0,0,0,0,0,0],"sum_hessian":[8.9E1,8E0,8.1E1,4E0,4E0,7.5E1,6E0,3E0,1E0,2E0,2E0,7.2E1,3E0,4E0,2E0,2E0,1E0,6.7E1,5E0,3E0,1E0],"tree_param":{"num_deleted":"0","num_feature":"33","num_nodes":"21","size_leaf_vector":"0"}},{"base_weights":[6.819361E-1,5.309884E0,-2.0283696E-1,2.264206E1,2.234943E0,-7.1346884E0,2.9519296E-1,7.0537865E-1,5.5001183E0,-8.472921E0,-8.9087725E-1,8.2342297E-1,-6.7364817E0,-3.515445E-1,3.2887142E0,-5.241394E-3,7.336985E0,-8.9205265E-1,-1.0702527E1,-9.7020596E-2,3.705873E0,-8.735233E0,6.2926245E-1],"categories":[],"categories_nodes":[],"categories_segments":[],"categories_sizes":[],"default_left":[0,1,1,0,0,1,1,1,1,1,0,1,0,0,0,0,0,0,0,0,0,0,0],"id":20,"left_children":[1,3,5,-1,7,9,11,13,15,17,-1,19,21,-1,-1,-1,-1,-1,-1,-1,-1,-1,-1],"loss_changes":[3.573145E2,6.955321E2,2.5757407E2,0E0,6.104618E1,3.423004E1,2.6555087E2,2.846E1,4.0488914E1,5.8062164E1,0E0,1.7546628E2,7.9108215E1,0E0,0E0,0E0,0E0,0E0,0E0,0E0,0E0,0E0,0E0],"parents":[2147483647,0,0,1,1,2,2,4,4,5,5,6,6,7,7,8,8,9,9,11,11,12,12],"right_children":[2,4,6,-1,8,10,12,14,16,18,-1,20,22,-1,-1,-1,-1,-1,-1,-1,-1,-1,-1],"split_conditions":[3.3651802E1,4.2091503E0,5.09894E0,6.7926183E0,3.3311165E1,4.70947E0,6.8849897E0,7.2994204E0,5.09873E0,3.79075E0,-2.6726317E-1,9.052181E-1,7.1665565E1,-1.05463356E-1,9.866143E-1,-1.5724183E-3,2.2010956E0,-2.676158E-1,-3.2107582E0,-2.910618E-2,1.1117619E0,-2.6205702E0,1.8877874E-1],"split_indices":[5,0,1,0,5,0,1,0,0,0,0,3,5,0,0,0,0,0,0,0,0,0,0],"split_type":[0,0,0,0,0,0,0,0,0,0,0,0,0,0,0,0,0,0,0,0,0,0,0],"sum_hessian":[8.6E1,1.3E1,7.3E1,1E0,1.2E1,4E0,6.9E1,9E0,3E0,3E0,1E0,6.5E1,4E0,7E0,2E0,1E0,2E0,1E0,2E0,5E1,1.5E1,3E0,1E0],"tree_param":{"num_deleted":"0","num_feature":"33","num_nodes":"23","size_leaf_vector":"0"}},{"base_weights":[1.0405252E0,4.895039E0,3.4931976E-1,3.4126568E-1,1.21128235E1,7.318356E-2,1.0253632E1,-4.4967037E-1,2.0730278E0,2.6309712E0,1.7557068E1,5.7367415E0,-1.6715246E-1,-9.7244483E-1,-4.6071626E-2,-2.0397034E0,1.0644815E1,-1.1964793E0,1.1996073E0],"categories":[],"categories_nodes":[],"categories_segments":[],"categories_sizes":[],"default_left":[0,1,1,1,1,1,0,1,0,0,0,1,1,0,0,0,0,0,0],"id":21,"left_children":[1,3,5,7,9,11,-1,13,-1,-1,-1,15,17,-1,-1,-1,-1,-1,-1],"loss_changes":[2.274165E2,4.2315234E2,2.016351E2,1.3259598E1,2.1191547E2,1.00323364E2,0E0,1.4321357E0,0E0,0E0,0E0,1.3621437E2,1.0132112E2,0E0,0E0,0E0,0E0,0E0,0E0],"parents":[2147483647,0,0,1,1,2,2,3,3,4,4,5,5,7,7,11,11,12,12],"right_children":[2,4,6,8,10,12,-1,14,-1,-1,-1,16,18,-1,-1,-1,-1,-1,-1],"split_conditions":[3.3651802E1,6.586423E-1,3.5614822E1,2.1790244E-1,4.77E-1,9.2532E-4,3.0760896E0,3.134216E-1,6.2190837E-1,7.892914E-1,5.2671204E0,1.0349999E-1,2.0796502E-1,-2.9173347E-1,-1.3821488E-2,-6.1191106E-1,3.1934447E0,-3.5894382E-1,3.5988218E-1],"split_indices":[5,13,5,11,2,14,0,3,0,0,0,2,22,0,0,0,0,0,0],"split_type":[0,0,0,0,0,0,0,0,0,0,0,0,0,0,0,0,0,0,0],"sum_hessian":[8.5E1,1.2E1,7.3E1,8E0,4E0,7.2E1,1E0,6E0,2E0,2E0,2E0,2E0,7E1,2E0,4E0,1E0,1E0,4E1,3E1],"tree_param":{"num_deleted":"0","num_feature":"33","num_nodes":"19","size_leaf_vector":"0"}},{"base_weights":[-1.3126846E-1,2.341132E-1,-7.7714663E0,5.0924265E-1,-7.3641286E0,-1.9422722E0,-9.067107E0,4.2988424E0,-7.679681E-2,2.4763785E-1,1.5019508E1,-3.2338786E-1,8.715584E0],"categories":[],"categories_nodes":[],"categories_segments":[],"categories_sizes":[],"default_left":[1,0,1,1,0,0,0,1,1,0,0,0,0],"id":22,"left_children":[1,3,5,7,-1,-1,-1,9,11,-1,-1,-1,-1],"loss_changes":[2.4468758E2,1.7935213E2,1.25993805E1,1.8244025E2,0E0,0E0,0E0,4.7402832E2,1.5892332E2,0E0,0E0,0E0,0E0],"parents":[2147483647,0,0,1,1,2,2,3,3,7,7,8,8],"right_children":[2,4,6,8,-1,-1,-1,10,12,-1,-1,-1,-1],"split_conditions":[3.5674347E1,9E0,6.47864E0,5.24349E0,-2.2092388E0,-5.8268166E-1,-2.7201324E0,5.1827297E0,3.5614822E1,7.4291356E-2,4.5058527E0,-9.7016364E-2,2.6146753E0],"split_indices":[5,15,0,1,0,0,0,1,5,0,0,0,0],"split_type":[0,0,0,0,0,0,0,0,0,0,0,0,0],"sum_hessian":[8.6E1,8.3E1,3E0,8.1E1,2E0,1E0,2E0,1E1,7.1E1,8E0,2E0,7E1,1E0],"tree_param":{"num_deleted":"0","num_feature":"33","num_nodes":"13","size_leaf_vector":"0"}},{"base_weights":[1.4685112E-1,1.846257E0,-5.351705E-1,1.4359253E1,7.71367E-1,5.5829487E0,-8.180147E-1,5.067618E0,-5.5607665E-1,6.823021E0,1.5514021E0,-4.6817913E0,-4.0421E-1,-1.2104425E0,8.509259E0,3.8775623E-1,-1.2176116E0,7.939717E-1,-7.6181655E0,7.408249E0,-6.7124E-1],"categories":[],"categories_nodes":[],"categories_segments":[],"categories_sizes":[],"default_left":[1,1,1,0,1,1,1,1,0,0,0,1,1,0,0,0,0,0,0,0,0],"id":23,"left_children":[1,3,5,-1,7,9,11,13,15,-1,-1,17,19,-1,-1,-1,-1,-1,-1,-1,-1],"loss_changes":[1.053009E2,3.3862616E2,1.1704779E2,0E0,1.4539375E2,4.412979E0,9.883507E1,1.3994093E2,1.2959704E1,0E0,0E0,1.0252194E2,1.25970024E2,0E0,0E0,0E0,0E0,0E0,0E0,0E0,0E0],"parents":[2147483647,0,0,1,1,2,2,4,4,5,5,6,6,7,7,8,8,11,11,12,12],"right_children":[2,4,6,-1,8,10,12,14,16,-1,-1,18,20,-1,-1,-1,-1,-1,-1,-1,-1],"split_conditions":[4.4344098E-4,5.25819E0,4.8372803E0,4.307776E0,5.6493008E1,4.75986E0,5.14892E0,2.43E-1,3.4309086E1,2.0469065E0,4.6542063E-1,3.085E-1,6.3297795E-3,-3.6313277E-1,2.5527778E0,1.16326876E-1,-3.652835E-1,2.3819153E-1,-2.2854497E0,2.2224748E0,-2.01372E-1],"split_indices":[22,1,1,0,4,1,1,2,5,0,0,2,22,0,0,0,0,0,0,0,0],"split_type":[0,0,0,0,0,0,0,0,0,0,0,0,0,0,0,0,0,0,0,0,0],"sum_hessian":[8.9E1,2.5E1,6.4E1,1E0,2.4E1,2E0,6.2E1,5E0,1.9E1,1E0,1E0,5E0,5.7E1,2E0,3E0,8E0,1.1E1,2E0,3E0,1E0,5.6E1],"tree_param":{"num_deleted":"0","num_feature":"33","num_nodes":"21","size_leaf_vector":"0"}},{"base_weights":[-3.364938E-1,2.3795795E0,-7.0725685E-1,8.4192295E0,-1.692649E0,-6.791689E0,-5.575345E-1,-2.240181E-2,1.4054451E1,-6.3801785E0,-1.1154788E-1,-1.1369194E0,1.0789073E0,-5.0436497E-2,1.6833782E-2,1.6867809E0,-6.923995E-1,-5.1042657E0,-9.2661357E-1,3.0540109E0,-4.089459E-1],"categories":[],"categories_nodes":[],"categories_segments":[],"categories_sizes":[],"default_left":[0,1,0,0,1,0,1,1,0,0,1,1,1,1,1,0,0,0,0,0,0],"id":24,"left_children":[1,3,5,7,9,-1,11,-1,-1,-1,15,17,19,-1,-1,-1,-1,-1,-1,-1,-1],"loss_changes":[1.0037091E2,3.093888E2,7.5468254E1,2.3816718E2,5.8579964E1,0E0,8.276577E1,4.14891E-3,0E0,0E0,8.479862E0,4.8669098E1,6.88382E1,0E0,0E0,0E0,0E0,0E0,0E0,0E0,0E0],"parents":[2147483647,0,0,1,1,2,2,3,3,4,4,6,6,7,7,10,10,11,11,12,12],"right_children":[2,4,6,8,10,-1,12,-1,-1,-1,16,18,20,-1,-1,-1,-1,-1,-1,-1,-1],"split_conditions":[2.3286114E1,3.876855E-4,2.3658566E1,2.1296638E1,6.78426E-3,-2.0375068E0,1.3123016E-1,-6.7205434E-3,4.2163353E0,-1.9140536E0,5.08816E0,5.05092E0,1.3493607E0,-1.5130949E-2,5.050135E-3,5.060343E-1,-2.0771986E-1,-1.5312798E0,-2.7798408E-1,9.162033E-1,-1.2268377E-1],"split_indices":[6,22,6,6,9,0,31,1,0,0,1,1,26,2147483647,2147483647,0,0,0,0,0,0],"split_type":[0,0,0,0,0,0,0,0,0,0,0,0,0,0,0,0,0,0,0,0,0],"sum_hessian":[9.7E1,1.1E1,8.6E1,4E0,7E0,1E0,8.5E1,2E0,2E0,1E0,6E0,6.3E1,2.2E1,1E0,1E0,1E0,5E0,2E0,6.1E1,9E0,1.3E1],"tree_param":{"num_deleted":"2","num_feature":"33","num_nodes":"21","size_leaf_vector":"0"}},{"base_weights":[2.922194E-1,5.161647E-1,-3.5732946E0,3.9232786E0,2.541791E-1,-5.0888834E0,-8.6660767E-1,6.69055E-1,1.00971985E1,4.2779914E-1,-4.3446684E0,1.2950655E0,-1.7997392E-1,2.0009987E-1,6.0535808E0,-1.3303733E0,-5.1866293E0],"categories":[],"categories_nodes":[],"categories_segments":[],"categories_sizes":[],"default_left":[1,0,1,1,1,0,0,1,0,0,1,0,0,0,0,0,0],"id":25,"left_children":[1,3,5,7,9,-1,-1,11,-1,13,15,-1,-1,-1,-1,-1,-1],"loss_changes":[7.888848E1,7.4875046E1,1.6101055E1,1.1379231E2,6.573481E1,0E0,0E0,2.8905833E0,0E0,9.870562E1,7.13604E-1,0E0,0E0,0E0,0E0,0E0,0E0],"parents":[2147483647,0,0,1,1,2,2,3,3,4,4,7,7,9,9,10,10],"right_children":[2,4,6,8,10,-1,-1,12,-1,14,16,-1,-1,-1,-1,-1,-1],"split_conditions":[1E1,2.1669537E1,3.446383E1,7.825E-1,3.572549E1,-1.5266651E0,-2.5998232E-1,7.4E-2,3.0291598E0,8E0,-8.000001E-3,3.8851967E-1,-5.399218E-2,6.0029965E-2,1.8160743E0,-3.9911202E-1,-1.5559889E0],"split_indices":[15,6,5,2,5,0,0,2,0,15,2,0,0,0,0,0,0],"split_type":[0,0,0,0,0,0,0,0,0,0,0,0,0,0,0,0,0],"sum_hessian":[8.8E1,8.4E1,4E0,5E0,7.9E1,2E0,2E0,4E0,1E0,7.7E1,2E0,2E0,2E0,7.5E1,2E0,1E0,1E0],"tree_param":{"num_deleted":"0","num_feature":"33","num_nodes":"17","size_leaf_vector":"0"}},{"base_weights":[-2.90666E-1,-4.387484E-2,-5.277219E0,-2.0258911E-1,6.4059906E0,-1.1308174E0,-6.2824135E0,-3.8421855E0,3.6379337E-2,-5.4224834E0,1.2395039E0,5.708354E0,-1.9098471E-1],"categories":[],"categories_nodes":[],"categories_segments":[],"categories_sizes":[],"default_left":[1,1,1,1,0,0,0,1,0,0,0,0,0],"id":26,"left_children":[1,3,5,7,-1,-1,-1,9,11,-1,-1,-1,-1],"loss_changes":[1.04372635E2,8.524001E1,9.567497E0,7.058942E1,0E0,0E0,0E0,4.6874115E1,1.0038964E2,0E0,0E0,0E0,0E0],"parents":[2147483647,0,0,1,1,2,2,3,3,7,7,8,8],"right_children":[2,4,6,8,-1,-1,-1,10,12,-1,-1,-1,-1],"split_conditions":[3.5674347E1,3.5614822E1,6.47864E0,5.05092E0,1.9217973E0,-3.3924523E-1,-1.8847241E0,4.54152E0,2.175695E1,-1.6267451E0,3.7185118E-1,1.7125063E0,-5.7295416E-2],"split_indices":[5,5,0,1,0,0,0,0,6,0,0,0,0],"split_type":[0,0,0,0,0,0,0,0,0,0,0,0,0],"sum_hessian":[8.4E1,8.1E1,3E0,8E1,1E0,1E0,2E0,4E0,7.6E1,3E0,1E0,2E0,7.4E1],"tree_param":{"num_deleted":"0","num_feature":"33","num_nodes":"13","size_leaf_vector":"0"}},{"base_weights":[8.061221E-2,3.995292E0,-2.4657075E-1,-1.2291732E0,8.220934E0,-4.5824204E-2,-4.250046E0,1.0049942E1,1.3669548E0,-1.825243E-1,5.4450912E0,-9.61195E-1,-5.025931E0,-2.1077767E-2,-4.3192925E0],"categories":[],"categories_nodes":[],"categories_segments":[],"categories_sizes":[],"default_left":[1,1,1,0,1,1,1,0,0,1,0,0,0,0,0],"id":27,"left_children":[1,3,5,-1,7,9,11,-1,-1,13,-1,-1,-1,-1,-1],"loss_changes":[1.16258606E2,1.6464198E2,6.731469E1,0E0,3.6406097E1,6.179316E1,5.3761826E0,0E0,0E0,5.3338303E1,0E0,0E0,0E0,0E0,0E0],"parents":[2147483647,0,0,1,1,2,2,4,4,5,5,6,6,9,9],"right_children":[2,4,6,-1,8,10,12,-1,-1,14,-1,-1,-1,-1,-1],"split_conditions":[4.17936E0,3.81404E0,3.5674347E1,-3.6875197E-1,4.04769E0,3.5614822E1,6.47864E0,3.0149827E0,4.1008645E-1,7.23093E0,1.6335274E0,-2.883585E-1,-1.5077794E0,-6.3233306E-3,-1.2957878E0],"split_indices":[0,0,5,0,0,5,0,0,0,1,0,0,0,0,0],"split_type":[0,0,0,0,0,0,0,0,0,0,0,0,0,0,0],"sum_hessian":[8.9E1,6E0,8.3E1,3E0,3E0,8E1,3E0,2E0,1E0,7.9E1,1E0,1E0,2E0,7.7E1,2E0],"tree_param":{"num_deleted":"0","num_feature":"33","num_nodes":"15","size_leaf_vector":"0"}},{"base_weights":[1.287206E-1,-2.4627838E-1,2.1451337E0,-4.862403E0,-6.396636E-3,5.277346E0,5.263886E-1,-1.0364327E0,-5.7922482E0,1.7596437E-1,-3.4240663E0,1.648426E-1,6.5142612E0,-6.3450766E-1,1.0410382E0,5.325236E-2,4.6283264E0,-8.1701565E-1,-4.020745E0,-1.0459265E0,2.998743E-1,1.6195726E0,5.761051E-2],"categories":[],"categories_nodes":[],"categories_segments":[],"categories_sizes":[],"default_left":[1,1,1,1,1,1,1,0,0,1,1,0,0,1,1,0,0,0,0,0,0,0,0],"id":28,"left_children":[1,3,5,7,9,11,13,-1,-1,15,17,-1,-1,19,21,-1,-1,-1,-1,-1,-1,-1,-1],"loss_changes":[7.2362816E1,8.966213E1,7.327586E1,8.226967E0,4.9215984E1,3.054483E1,7.2325497E0,0E0,0E0,4.0730404E1,2.937271E0,0E0,0E0,1.8513354E0,4.45827E0,0E0,0E0,0E0,0E0,0E0,0E0,0E0,0E0],"parents":[2147483647,0,0,1,1,2,2,3,3,4,4,5,5,6,6,9,9,10,10,13,13,14,14],"right_children":[2,4,6,8,10,12,14,-1,-1,16,18,-1,-1,20,22,-1,-1,-1,-1,-1,-1,-1,-1],"split_conditions":[1.099E0,4.2747803E0,2.445383E1,3.79075E0,3.5674347E1,1.5078126E-1,1.8031919E-1,-3.1092983E-1,-1.7376746E0,3.5614822E1,6.47864E0,4.9452785E-2,1.9542785E0,2.0225E0,7.865177E-2,1.597571E-2,1.388498E0,-2.451047E-1,-1.2062235E0,-3.1377795E-1,8.9962296E-2,4.8587182E-1,1.7283155E-2],"split_indices":[2,0,6,0,5,3,11,0,0,5,0,0,0,2,7,0,0,0,0,0,0,0,0],"split_type":[0,0,0,0,0,0,0,0,0,0,0,0,0,0,0,0,0,0,0,0,0,0,0],"sum_hessian":[9.4E1,8E1,1.4E1,3E0,7.7E1,4E0,1E1,1E0,2E0,7.4E1,3E0,1E0,3E0,3E0,7E0,7.3E1,1E0,1E0,2E0,2E0,1E0,4E0,3E0],"tree_param":{"num_deleted":"0","num_feature":"33","num_nodes":"23","size_leaf_vector":"0"}},{"base_weights":[1.2510698E-1,-1.7211442E-1,1.9970835E0,6.8230826E-1,-6.300604E-1,3.5085783E0,-9.917418E-2,3.7722487E0,-1.9083561E-2,-1.7606825E-1,-3.3937166E0,-2.2802591E-1,4.16935E0,5.689478E-1,-5.754721E-1,-1.1300329E0,7.4171143E0,-4.1475555E-1,2.7569816E0,-3.8972977E-1,2.8738825E0,-7.192837E-1,-6.719866E0,1.5866089E-1,6.947608E-1,-1.7734337E-1,-6.490672E-1],"categories":[],"categories_nodes":[],"categories_segments":[],"categories_sizes":[],"default_left":[1,1,1,0,1,1,1,0,1,1,1,0,0,1,1,0,0,0,0,0,0,0,0,1,1,1,1],"id":29,"left_children":[1,3,5,7,9,11,13,15,17,19,21,-1,-1,-1,-1,-1,-1,-1,-1,-1,-1,-1,-1,-1,-1,-1,-1],"loss_changes":[4.874979E1,3.0167126E1,3.836975E1,5.8587982E1,6.2136383E1,1.8234009E1,2.2367642E0,9.772237E1,2.6406929E1,2.9792953E1,5.743544E1,0E0,0E0,4.462695E-2,2.0936728E-3,0E0,0E0,0E0,0E0,0E0,0E0,0E0,0E0,0E0,0E0,0E0,0E0],"parents":[2147483647,0,0,1,1,2,2,3,3,4,4,5,5,6,6,7,7,8,8,9,9,10,10,13,13,14,14],"right_children":[2,4,6,8,10,12,14,16,18,20,22,-1,-1,-1,-1,-1,-1,-1,-1,-1,-1,-1,-1,-1,-1,-1,-1],"split_conditions":[2.2062173E0,4.4344098E-4,2.0507699E-1,2.3527483E1,9.4350004E-1,4.4262E0,5.16642E0,2.1296638E1,3.135E-5,7.4756203E0,6.830688E-2,-6.8407774E-2,1.2508051E0,1.7068434E-1,-1.7264163E-1,-3.3900988E-1,2.2251344E0,-1.2442667E-1,8.270945E-1,-1.1691894E-1,8.621648E-1,-2.1578512E-1,-2.0159597E0,4.759827E-2,2.0842825E-1,-5.3203013E-2,-1.9472018E-1],"split_indices":[12,22,8,6,2,0,0,6,21,0,18,0,0,0,0,0,0,0,0,0,0,0,0,2147483647,2147483647,2147483647,2147483647],"split_type":[0,0,0,0,0,0,0,0,0,0,0,0,0,0,0,0,0,0,0,0,0,0,0,0,0,0,0],"sum_hessian":[8.6E1,7.5E1,1.1E1,2.6E1,4.9E1,6E0,5E0,4E0,2.2E1,4.3E1,6E0,1E0,5E0,2E0,3E0,2E0,2E0,2E1,2E0,4.1E1,2E0,4E0,2E0,1E0,1E0,1E0,2E0],"tree_param":{"num_deleted":"4","num_feature":"33","num_nodes":"27","size_leaf_vector":"0"}},{"base_weights":[-9.9422984E-2,-3.993218E-1,2.1179614E0,-3.3515062E0,-2.4280822E-1,5.0501957E0,3.870989E-1,-8.187542E-1,-3.922839E0,5.212436E-1,-8.450583E-1,-3.8394952E-1,9.2651784E-1,2.5590518E-1,4.7713737E0,2.8810214E-2,-1.5103508E0,-7.233372E-1,3.1710672E-1,1.1214881E0,7.331848E-2],"categories":[],"categories_nodes":[],"categories_segments":[],"categories_sizes":[],"default_left":[1,1,1,1,1,0,1,0,0,1,1,1,1,0,0,0,0,0,0,0,0],"id":30,"left_children":[1,3,5,7,9,-1,11,-1,-1,13,15,17,19,-1,-1,-1,-1,-1,-1,-1,-1],"loss_changes":[6.135993E1,3.6612843E1,5.387331E1,2.576332E0,3.63322E1,0E0,3.683081E0,0E0,0E0,3.824927E1,2.5624153E1,1.1810944E0,7.495165E-1,0E0,0E0,0E0,0E0,0E0,0E0,0E0,0E0],"parents":[2147483647,0,0,1,1,2,2,3,3,4,4,6,6,9,9,10,10,11,11,12,12],"right_children":[2,4,6,8,10,-1,12,-1,-1,14,16,18,20,-1,-1,-1,-1,-1,-1,-1,-1],"split_conditions":[1.099E0,4.2747803E0,1.2955E0,3.79075E0,5.49445E0,1.5150588E0,1.8031919E-1,-2.4562627E-1,-1.1768517E0,5.48885E0,4.2288296E-2,6.31463E0,6.6022596E0,7.677156E-2,1.4314122E0,8.643065E-3,-4.5310527E-1,-2.1700116E-1,9.513202E-2,3.3644643E-1,2.1995544E-2],"split_indices":[2,0,2,0,0,0,10,0,0,0,8,1,1,0,0,0,0,0,0,0,0],"split_type":[0,0,0,0,0,0,0,0,0,0,0,0,0,0,0,0,0,0,0,0,0],"sum_hessian":[9E1,8E1,1E1,3E0,7.7E1,3E0,7E0,1E0,2E0,3.4E1,4.3E1,3E0,4E0,3.3E1,1E0,1.9E1,2.4E1,2E0,1E0,3E0,1E0],"tree_param":{"num_deleted":"0","num_feature":"33","num_nodes":"21","size_leaf_vector":"0"}},{"base_weights":[7.9893835E-2,2.1855374E-1,-5.853099E0,4.1600213E0,2.3621729E-2,6.421695E-1,7.3567886E0,-6.722659E-1,1.3897002E0,-6.95941E-1,1.6591952E0,-9.5512855E-1,8.7960184E-1,3.8249002E0,8.244627E-1],"categories":[],"categories_nodes":[],"categories_segments":[],"categories_sizes":[],"default_left":[1,1,0,1,1,1,0,1,0,0,0,0,0,0,0],"id":31,"left_children":[1,3,-1,5,7,9,-1,11,13,-1,-1,-1,-1,-1,-1],"loss_changes":[7.202868E1,6.520878E1,0E0,4.0258705E1,7.888649E1,5.23738E0,0E0,2.4983229E1,3.538756E1,0E0,0E0,0E0,0E0,0E0,0E0],"parents":[2147483647,0,0,1,1,3,3,4,4,5,5,7,7,8,8],"right_children":[2,4,-1,6,8,10,-1,12,14,-1,-1,-1,-1,-1,-1],"split_conditions":[7.23093E0,4.8372803E0,-1.7559297E0,2.3735663E-1,9.5417166E-1,3.98655E0,2.2070367E0,1.1374919E-1,3.360411E1,-2.087823E-1,4.9775857E-1,-2.8653857E-1,2.6388055E-1,1.1474701E0,2.4733882E-1],"split_indices":[1,1,0,8,26,0,0,19,5,0,0,0,0,0,0],"split_type":[0,0,0,0,0,0,0,0,0,0,0,0,0,0,0],"sum_hessian":[8.5E1,8.4E1,1E0,3E0,8.1E1,2E0,1E0,5.4E1,2.7E1,1E0,1E0,4.6E1,8E0,4E0,2.3E1],"tree_param":{"num_deleted":"0","num_feature":"33","num_nodes":"15","size_leaf_vector":"0"}},{"base_weights":[-1.7360952E-1,5.1090593E0,-3.477695E-1,6.253273E0,1.410316E0,-2.3987626E-1,-4.975134E0,6.668108E-1,-6.8922186E-1,-6.5083987E-1,1.5814024E0,-1.4112478E0,-2.3406872E-1],"categories":[],"categories_nodes":[],"categories_segments":[],"categories_sizes":[],"default_left":[1,1,1,0,0,0,0,0,1,0,0,0,0],"id":32,"left_children":[1,3,5,-1,-1,7,-1,9,11,-1,-1,-1,-1],"loss_changes":[8.641949E1,3.877365E0,4.3740105E1,0E0,0E0,3.671959E1,0E0,3.7182606E1,1.9387615E1,0E0,0E0,0E0,0E0],"parents":[2147483647,0,0,1,1,2,2,5,5,7,7,8,8],"right_children":[2,4,6,-1,-1,8,-1,10,12,-1,-1,-1,-1],"split_conditions":[4.8372803E0,4.1188602E0,7.23093E0,1.8759819E0,4.230948E-1,3.4039574E1,-1.4925402E0,3.3311165E1,2.6033207E1,-1.9525197E-1,4.7442076E-1,-4.2337438E-1,-7.022062E-2],"split_indices":[1,0,1,0,0,5,0,5,6,0,0,0,0],"split_type":[0,0,0,0,0,0,0,0,0,0,0,0,0],"sum_hessian":[9.1E1,2E0,8.9E1,1E0,1E0,8.8E1,1E0,2.9E1,5.9E1,1.2E1,1.7E1,2.2E1,3.7E1],"tree_param":{"num_deleted":"0","num_feature":"33","num_nodes":"13","size_leaf_vector":"0"}},{"base_weights":[3.464838E-2,4.8607436E-1,-1.1894073E0,-3.1088355E-1,1.4262214E0,7.213262E-1,-1.7301965E0,1.3267942E-1,-2.5508115E0,2.666958E-1,1.9104611E0,-2.8847948E-1,1.2983489E0,-6.8790656E-1,-2.5994668E0,-3.127352E-1,2.0406961E0,-4.1187263E0,-7.3717284E-1,8.850481E-1,-2.930471E-1,3.5050633E0,4.2242074E-1,-5.193987E-1,8.667946E-2,-1.2241879E0,9.321232E-2,-3.0343351E0,-5.73329E-1],"categories":[],"categories_nodes":[],"categories_segments":[],"categories_sizes":[],"default_left":[1,1,1,1,1,1,1,1,0,1,1,1,0,1,1,0,0,0,0,0,0,0,0,0,0,0,0,0,0],"id":33,"left_children":[1,3,5,7,9,11,13,15,17,19,21,23,-1,25,27,-1,-1,-1,-1,-1,-1,-1,-1,-1,-1,-1,-1,-1,-1],"loss_changes":[4.9204346E1,4.9145134E1,2.6047329E1,3.6106213E1,1.633514E1,3.870632E0,1.54264145E1,2.698381E1,1.4025566E1,3.7205439E0,4.834887E1,3.049154E-1,0E0,4.303104E0,7.0713577E0,0E0,0E0,0E0,0E0,0E0,0E0,0E0,0E0,0E0,0E0,0E0,0E0,0E0,0E0],"parents":[2147483647,0,0,1,1,2,2,3,3,4,4,5,5,6,6,7,7,8,8,9,9,10,10,11,11,13,13,14,14],"right_children":[2,4,6,8,10,12,14,16,18,20,22,24,-1,26,28,-1,-1,-1,-1,-1,-1,-1,-1,-1,-1,-1,-1,-1,-1],"split_conditions":[1.4927089E0,7.4468665E-3,-1.725E-1,1.4329611E-2,2.3968892E-1,2.4341943E0,2.6830711E0,8.6692107E-1,3.3927773E1,2.983019E-2,4.1279748E-1,-3.085E-1,3.895047E-1,2.815926E1,3.6044393E0,-9.3820564E-2,6.1220884E-1,-1.2356179E0,-2.2115186E-1,2.6551443E-1,-8.791413E-2,1.051519E0,1.2672623E-1,-1.5581961E-1,2.600384E-2,-3.6725637E-1,2.7963698E-2,-9.1030055E-1,-1.719987E-1],"split_indices":[27,21,2,22,11,12,27,3,5,8,8,2,0,6,11,0,0,0,0,0,0,0,0,0,0,0,0,0,0],"split_type":[0,0,0,0,0,0,0,0,0,0,0,0,0,0,0,0,0,0,0,0,0,0,0,0,0,0,0,0,0],"sum_hessian":[8.7E1,6.4E1,2.3E1,3.5E1,2.9E1,5E0,1.8E1,3E1,5E0,9E0,2E1,2E0,3E0,9E0,9E0,2.5E1,5E0,2E0,3E0,4E0,5E0,9E0,1.1E1,1E0,1E0,5E0,4E0,7E0,2E0],"tree_param":{"num_deleted":"0","num_feature":"33","num_nodes":"29","size_leaf_vector":"0"}},{"base_weights":[-1.0778142E-1,5.7945085E-1,-4.6074352E-1,-1.430178E0,1.0045738E0,-1.3518046E-1,-2.3629282E0,-1.9015306E0,4.632926E-1,4.789528E0,6.747861E-1,-4.158519E-1,1.1413591E0,-8.288971E-1,-3.4243734E0,-3.481741E-1,-2.2028263E0,2.6722535E-1,2.8495638E0,-6.895592E-1,6.1107975E-1,-6.67956E-1,2.458895E0,-1.6519038E-1,-1.2163048E0,-4.157956E0,-2.4502087E-1],"categories":[],"categories_nodes":[],"categories_segments":[],"categories_sizes":[],"default_left":[1,1,1,1,1,1,1,1,0,0,1,1,1,1,1,0,0,0,0,0,0,0,0,0,0,0,0],"id":34,"left_children":[1,3,5,7,9,11,13,15,-1,-1,17,19,21,23,25,-1,-1,-1,-1,-1,-1,-1,-1,-1,-1,-1,-1],"loss_changes":[2.28257E1,2.8775585E1,3.8076E1,6.235918E0,3.0470343E1,1.9822199E1,1.1816158E1,1.5731316E0,0E0,0E0,2.2283728E1,1.3069918E1,2.5480812E1,1.0847032E0,1.0642807E1,0E0,0E0,0E0,0E0,0E0,0E0,0E0,0E0,0E0,0E0,0E0,0E0],"parents":[2147483647,0,0,1,1,2,2,3,3,4,4,5,5,6,6,7,7,10,10,11,11,12,12,13,13,14,14],"right_children":[2,4,6,8,10,12,14,16,-1,-1,18,20,22,24,26,-1,-1,-1,-1,-1,-1,-1,-1,-1,-1,-1,-1],"split_conditions":[5.31552E0,1.1494933E-2,6.8050003E-1,5.65068E0,4.75986E0,3.395E-1,6.6836214E-1,2.5916988E-1,1.3898778E-1,1.4368584E0,5.1426697E0,1.8081418E-1,8.9929634E-1,5.42914E0,7.690225E-1,-1.0445223E-1,-6.608479E-1,8.016761E-2,8.548692E-1,-2.0686777E-1,1.8332393E-1,-2.003868E-1,7.376685E-1,-4.9557116E-2,-3.6489144E-1,-1.2473869E0,-7.3506266E-2],"split_indices":[0,11,2,1,1,2,23,3,0,0,0,32,3,0,9,0,0,0,0,0,0,0,0,0,0,0,0],"split_type":[0,0,0,0,0,0,0,0,0,0,0,0,0,0,0,0,0,0,0,0,0,0,0,0,0,0,0],"sum_hessian":[9.2E1,3.1E1,6.1E1,5E0,2.6E1,5.3E1,8E0,4E0,1E0,1E0,2.5E1,4.4E1,9E0,4E0,4E0,1E0,3E0,2.2E1,3E0,3.5E1,9E0,4E0,5E0,2E0,2E0,3E0,1E0],"tree_param":{"num_deleted":"0","num_feature":"33","num_nodes":"27","size_leaf_vector":"0"}},{"base_weights":[1.4484122E-1,2.4595858E-1,-1.5222282E0,1.3931653E-1,2.263989E0,-1.8969536E-1,-1.8079376E0,2.0036131E-2,1.8768032E0,-1.7711903E-1,1.053431E0,4.7816133E-1,3.7356853E0],"categories":[],"categories_nodes":[],"categories_segments":[],"categories_sizes":[],"default_left":[1,1,1,0,0,0,0,1,1,0,0,0,0],"id":35,"left_children":[1,3,5,7,-1,-1,-1,9,11,-1,-1,-1,-1],"loss_changes":[1.4702825E1,1.7116348E1,1.5606289E0,1.6127748E1,0E0,0E0,0E0,1.5263279E1,1.1213291E1,0E0,0E0,0E0,0E0],"parents":[2147483647,0,0,1,1,2,2,3,3,7,7,8,8],"right_children":[2,4,6,8,-1,-1,-1,10,12,-1,-1,-1,-1],"split_conditions":[2.9372496E1,2.9019285E1,5.72546E0,8E0,6.791967E-1,-5.690861E-2,-5.423813E-1,1.0975E0,6.8769425E-1,-5.313571E-2,3.160293E-1,1.4344841E-1,1.1207056E0],"split_indices":[6,6,0,28,0,0,0,2,3,0,0,0,0],"split_type":[0,0,0,0,0,0,0,0,0,0,0,0,0],"sum_hessian":[8.4E1,8E1,4E0,7.7E1,3E0,1E0,3E0,7.3E1,4E0,6.2E1,1.1E1,3E0,1E0],"tree_param":{"num_deleted":"0","num_feature":"33","num_nodes":"13","size_leaf_vector":"0"}},{"base_weights":[5.2677166E-2,6.677083E-1,-3.0264038E-1,-5.972747E-1,1.4792346E0,2.6461667E-1,-8.598094E-1,-1.382141E0,1.6414261E-1,1.8981715E0,-2.4099788E-1,-2.6003447E0,5.621262E-1,-2.0288255E0,-4.8302093E-1,6.1896753E-1,-8.0022144E-1,1.0230327E0,4.4866147E0,-2.1017666E0,7.4963593E-1,-7.5514174E-1,-3.1453753E0,-5.835673E-1,8.365625E-1,8.583546E-3,-2.3698244E0,2.4636109E-1,-6.879299E-1],"categories":[],"categories_nodes":[],"categories_segments":[],"categories_sizes":[],"default_left":[1,1,1,1,1,0,1,0,1,1,1,1,1,1,1,0,0,0,0,0,0,0,0,0,0,0,0,0,0],"id":36,"left_children":[1,3,5,7,9,11,13,-1,15,17,19,21,23,25,27,-1,-1,-1,-1,-1,-1,-1,-1,-1,-1,-1,-1,-1,-1],"loss_changes":[2.030696E1,3.578679E1,1.8874947E1,8.59342E0,1.5591503E1,2.7032322E1,1.2234188E1,0E0,4.0042458E0,3.391925E1,1.0792262E1,6.418724E-1,9.291948E0,4.883623E0,3.756446E0,0E0,0E0,0E0,0E0,0E0,0E0,0E0,0E0,0E0,0E0,0E0,0E0,0E0,0E0],"parents":[2147483647,0,0,1,1,2,2,3,3,4,4,5,5,6,6,8,8,9,9,10,10,11,11,12,12,13,13,14,14],"right_children":[2,4,6,8,10,12,14,-1,16,18,20,22,24,26,28,-1,-1,-1,-1,-1,-1,-1,-1,-1,-1,-1,-1,-1,-1],"split_conditions":[3.3898216E1,6.469589E1,3.469825E-4,1.8143442E-1,1.2176847E-2,3.394161E1,2.5287736E-2,-4.146423E-1,3.2864246E1,3.4850335E-3,5.25966E0,6.74387E0,2.4404615E1,4.709357E1,5.0252788E-2,1.8569027E-1,-2.4006644E-1,3.069098E-1,1.3459845E0,-6.3053E-1,2.2489078E-1,-2.2654253E-1,-9.4361264E-1,-1.750702E-1,2.5096875E-1,2.5750638E-3,-7.1094733E-1,7.390833E-2,-2.0637898E-1],"split_indices":[5,4,30,10,16,5,21,0,5,29,1,1,4,4,8,0,0,0,0,0,0,0,0,0,0,0,0,0,0],"split_type":[0,0,0,0,0,0,0,0,0,0,0,0,0,0,0,0,0,0,0,0,0,0,0,0,0,0,0,0,0],"sum_hessian":[9.1E1,3.3E1,5.8E1,1.3E1,2E1,2.9E1,2.9E1,6E0,7E0,1.6E1,4E0,2E0,2.7E1,6E0,2.3E1,5E0,2E0,1.3E1,3E0,1E0,3E0,1E0,1E0,5E0,2.2E1,1E0,5E0,5E0,1.8E1],"tree_param":{"num_deleted":"0","num_feature":"33","num_nodes":"29","size_leaf_vector":"0"}},{"base_weights":[1.4744969E-1,2.53207E-1,-1.4106063E0,1.2768255E-1,1.6695317E0,-2.5905597E0,-1.729896E-1,3.0062842E-1,-5.410918E-1,9.2551196E-1,2.353054E0,-5.847457E-1,5.311394E-1,1.5901138E-1,3.1743767E0,-1.1971701E0,-7.439726E-2,-8.561468E-2,-7.915039E-1],"categories":[],"categories_nodes":[],"categories_segments":[],"categories_sizes":[],"default_left":[1,1,1,1,1,0,1,1,1,0,0,1,0,0,0,0,0,0,0],"id":37,"left_children":[1,3,5,7,9,-1,11,13,15,-1,-1,17,-1,-1,-1,-1,-1,-1,-1],"loss_changes":[1.5516548E1,1.5253984E1,8.313839E0,9.531269E0,1.3820992E0,0E0,1.4702991E0,2.5948402E1,5.116133E0,0E0,0E0,2.4183393E-1,0E0,0E0,0E0,0E0,0E0,0E0,0E0],"parents":[2147483647,0,0,1,1,2,2,3,3,4,4,6,6,7,7,8,8,11,11],"right_children":[2,4,6,8,10,-1,12,14,16,-1,-1,18,-1,-1,-1,-1,-1,-1,-1],"split_conditions":[6.92223E0,2.9184806E-1,1.1456177E0,1.4927089E0,1.1684628E0,-7.77168E-1,7.14126E0,1.3827646E0,7.40638E-1,2.776536E-1,7.059162E-1,6.96878E0,1.5934181E-1,4.7703415E-2,9.5231307E-1,-3.5915107E-1,-2.2319179E-2,-2.5684405E-2,-2.3745118E-1],"split_indices":[1,30,10,27,23,0,1,27,10,0,0,1,0,0,0,0,0,0,0],"split_type":[0,0,0,0,0,0,0,0,0,0,0,0,0,0,0,0,0,0,0],"sum_hessian":[9.1E1,8.6E1,5E0,8E1,6E0,2E0,3E0,6.4E1,1.6E1,4E0,2E0,2E0,1E0,6.2E1,2E0,6E0,1E1,1E0,1E0],"tree_param":{"num_deleted":"0","num_feature":"33","num_nodes":"19","size_leaf_vector":"0"}},{"base_weights":[1.06873564E-1,1.1797347E-2,1.3884363E0,2.0848218E-1,-7.5249654E-1,2.2596848E0,3.8789082E-1,-1.3569273E-1,6.0144395E-1,-4.6281815E-3,-1.8202188E0,-8.2279205E-2,5.7204056E-1,-4.754091E-1,2.0656304E0,3.0259972E0,4.1975892E-1,5.1009196E-1,-5.185769E-1,-2.486976E0,-1.02217354E-1],"categories":[],"categories_nodes":[],"categories_segments":[],"categories_sizes":[],"default_left":[1,1,1,1,1,0,1,1,1,1,1,0,0,0,0,0,0,0,0,0,0],"id":38,"left_children":[1,3,5,7,9,-1,11,13,15,17,19,-1,-1,-1,-1,-1,-1,-1,-1,-1,-1],"loss_changes":[1.0584234E1,1.2483534E1,4.3538322E0,9.007952E0,1.3566343E1,0E0,3.9339375E-1,2.7903738E1,1.2385466E1,3.1744595E0,7.7642155E0,0E0,0E0,0E0,0E0,0E0,0E0,0E0,0E0,0E0,0E0],"parents":[2147483647,0,0,1,1,2,2,3,3,4,4,6,6,7,7,8,8,9,9,10,10],"right_children":[2,4,6,8,10,-1,12,14,16,18,20,-1,-1,-1,-1,-1,-1,-1,-1,-1,-1],"split_conditions":[1.0776446E0,3.5018097E1,7.846698E1,5.4882097E0,5.6895103E0,6.7790544E-1,5.84984E0,2.0087352E-1,5.53878E0,8.3113515E-1,1.3457506E2,-2.4683762E-2,1.7161217E-1,-1.4262274E-1,6.1968917E-1,9.077992E-1,1.2592769E-1,1.530276E-1,-1.5557308E-1,-7.460928E-1,-3.0665208E-2],"split_indices":[32,5,4,0,0,0,0,7,0,25,4,0,0,0,0,0,0,0,0,0,0],"split_type":[0,0,0,0,0,0,0,0,0,0,0,0,0,0,0,0,0,0,0,0,0],"sum_hessian":[8.6E1,8.1E1,5E0,6.5E1,1.6E1,2E0,3E0,3.5E1,3E1,1E1,6E0,1E0,2E0,3.1E1,4E0,1E0,2.9E1,5E0,5E0,4E0,2E0],"tree_param":{"num_deleted":"0","num_feature":"33","num_nodes":"21","size_leaf_vector":"0"}},{"base_weights":[3.8670562E-2,2.184793E0,-1.450066E-1,3.3822827E0,-5.3928757E-1,-1.2924511E0,1.4163971E-2,-7.8730726E-1,-2.1624088E-2,-4.6715546E-1,-3.0624225E0,-1.4767724E-1,8.4916323E-1,-1.7652128E0,-3.551081E-2,2.265104E0,-4.8580933E-1],"categories":[],"categories_nodes":[],"categories_segments":[],"categories_sizes":[],"default_left":[1,1,0,0,1,1,1,0,0,0,0,1,0,0,0,0,0],"id":39,"left_children":[1,3,5,-1,7,9,11,-1,-1,-1,-1,13,15,-1,-1,-1,-1],"loss_changes":[3.5005856E1,2.4658432E1,1.4994736E1,0E0,3.6814737E-1,1.317687E1,9.990423E0,0E0,0E0,0E0,0E0,1.1186173E1,2.3783314E1,0E0,0E0,0E0,0E0],"parents":[2147483647,0,0,1,1,2,2,4,4,5,5,6,6,11,11,12,12],"right_children":[2,4,6,-1,8,10,12,-1,-1,-1,-1,14,16,-1,-1,-1,-1],"split_conditions":[5.24349E0,3.479802E1,2.372064E1,1.0146849E0,4.21621E0,5.3806916E-2,6.6684103E0,-2.3619218E-1,-6.4872266E-3,-1.4014664E-1,-9.187268E-1,5.654348E-3,2.7393597E1,-5.2956384E-1,-1.06532425E-2,6.795312E-1,-1.457428E-1],"split_indices":[1,5,6,0,0,19,1,0,0,0,0,3,6,0,0,0,0],"split_type":[0,0,0,0,0,0,0,0,0,0,0,0,0,0,0,0,0],"sum_hessian":[8.7E1,6E0,8.1E1,4E0,2E0,9E0,7.2E1,1E0,1E0,7E0,2E0,6.1E1,1.1E1,3E0,5.8E1,5E0,6E0],"tree_param":{"num_deleted":"0","num_feature":"33","num_nodes":"17","size_leaf_vector":"0"}},{"base_weights":[-1.0429304E-1,-1.7404012E-1,1.1999118E0,-2.1869197E0,-1.2788849E-1,-3.3694464E-1,3.0842385E-1,-5.218166E-1,2.7710876E-1,2.72005E0,3.9020162E-2],"categories":[],"categories_nodes":[],"categories_segments":[],"categories_sizes":[],"default_left":[1,1,0,0,1,1,1,0,0,0,0],"id":40,"left_children":[1,3,-1,-1,5,7,9,-1,-1,-1,-1],"loss_changes":[8.941423E0,8.266906E0,0E0,0E0,8.404375E0,7.1829195E0,1.9384892E1,0E0,0E0,0E0,0E0],"parents":[2147483647,0,0,1,1,4,4,5,5,6,6],"right_children":[2,4,-1,-1,6,8,10,-1,-1,-1,-1],"split_conditions":[7.4296904E0,1.3388605E-3,3.5997355E-1,-6.5607595E-1,5.4225974E-2,9.9006176E-1,8.1189185E-2,-1.5654498E-1,8.313263E-2,8.1601506E-1,1.1706049E-2],"split_indices":[0,3,0,0,30,27,30,0,0,0,0],"split_type":[0,0,0,0,0,0,0,0,0,0,0],"sum_hessian":[9.5E1,9.1E1,4E0,1E0,9E1,6.1E1,2.9E1,4.7E1,1.4E1,2E0,2.7E1],"tree_param":{"num_deleted":"0","num_feature":"33","num_nodes":"11","size_leaf_vector":"0"}},{"base_weights":[-5.0895553E-2,-1.4813664E0,3.2863162E-2,-2.1314716E0,5.595274E-1,2.6201427E0,-5.9930902E-2,1.206688E-1,-5.1645803E-1,-3.3347216E-2,1.5380402E0,-8.7443435E-1,7.0321006E-1],"categories":[],"categories_nodes":[],"categories_segments":[],"categories_sizes":[],"default_left":[1,1,1,0,0,0,1,1,1,0,0,0,0],"id":41,"left_children":[1,3,5,-1,-1,-1,7,9,11,-1,-1,-1,-1],"loss_changes":[1.0831978E1,7.826597E0,2.0804268E1,0E0,0E0,0E0,6.988008E0,1.336746E1,1.1093607E1,0E0,0E0,0E0,0E0],"parents":[2147483647,0,0,1,1,2,2,6,6,7,7,8,8],"right_children":[2,4,6,-1,-1,-1,8,10,12,-1,-1,-1,-1],"split_conditions":[3.92306E0,5.21017E0,4.04769E0,-6.394415E-1,1.6785823E-1,7.8604287E-1,1.4927089E0,1.184674E0,3.8855038E0,-1.0004165E-2,4.6141207E-1,-2.6233032E-1,2.1096303E-1],"split_indices":[0,1,0,0,0,0,27,25,26,0,0,0,0],"split_type":[0,0,0,0,0,0,0,0,0,0,0,0,0],"sum_hessian":[8.9E1,4E0,8.5E1,3E0,1E0,2E0,8.3E1,6E1,2.3E1,5.5E1,5E0,1.8E1,5E0],"tree_param":{"num_deleted":"0","num_feature":"33","num_nodes":"13","size_leaf_vector":"0"}},{"base_weights":[2.766852E-2,6.107838E-2,-1.589839E0,2.8901112E-1,-2.3885922E-1,9.1363066E-1,9.33053E-3,-1.7770941E0,-7.4966945E-2,1.3285791E0,-6.853803E-2,3.3781263E-1,-3.9266598E-1,-4.583025E-2,-2.3389053E0,-4.6890512E-1,3.6438406E-1],"categories":[],"categories_nodes":[],"categories_segments":[],"categories_sizes":[],"default_left":[1,1,0,0,0,1,1,1,1,0,0,0,0,0,0,0,0],"id":42,"left_children":[1,3,-1,5,7,9,11,13,15,-1,-1,-1,-1,-1,-1,-1,-1],"loss_changes":[5.3390527E0,6.63213E0,0E0,9.599643E0,1.045518E1,7.0193977E0,5.2825456E0,3.7833796E0,6.92087E0,0E0,0E0,0E0,0E0,0E0,0E0,0E0,0E0],"parents":[2147483647,0,0,1,1,3,3,4,4,5,5,6,6,7,7,8,8],"right_children":[2,4,-1,6,8,10,12,14,16,-1,-1,-1,-1,-1,-1,-1,-1],"split_conditions":[1.2E1,1.5570349E-2,-4.7695172E-1,2.543809E1,2.374202E1,1.3865015E-1,3.4223697E-1,5.8481503E0,5.4074013E-1,3.9857373E-1,-2.056141E-2,1.01343796E-1,-1.17799796E-1,-1.3749075E-2,-7.016716E-1,-1.4067154E-1,1.09315224E-1],"split_indices":[15,19,0,6,6,8,11,1,23,0,0,0,0,0,0,0,0],"split_type":[0,0,0,0,0,0,0,0,0,0,0,0,0,0,0,0,0],"sum_hessian":[9.6E1,9.5E1,1E0,5.4E1,4.1E1,1.6E1,3.8E1,3E0,3.8E1,1.1E1,5E0,2.1E1,1.7E1,1E0,2E0,2E1,1.8E1],"tree_param":{"num_deleted":"0","num_feature":"33","num_nodes":"17","size_leaf_vector":"0"}},{"base_weights":[-1.08232684E-1,2.3951602E-1,-3.360625E-1,3.6384266E-2,1.5322825E0,1.01646625E-1,-6.442127E-1,-8.3474076E-1,3.97837E-1,2.3792775E0,1.7452653E-1,6.513832E-1,-3.3754975E-1,-1.6647788E0,-4.0251234E-1,-1.3778435E0,-1.6069222E-2,7.063276E-1,-1.9479486E-1,-3.895569E-2,3.007455E-1,-2.4906795E-3,1.1966933E0,-8.726374E-2,-6.5672046E-1,1.668768E-1,-2.0644853E0,-8.3749384E-1,1.6381198E-1],"categories":[],"categories_nodes":[],"categories_segments":[],"categories_sizes":[],"default_left":[1,1,1,1,1,1,0,1,1,0,1,1,1,1,1,0,0,0,0,1,1,0,0,0,0,0,0,0,0],"id":43,"left_children":[1,3,5,7,9,11,13,15,17,-1,-1,21,23,25,27,-1,-1,-1,-1,-1,-1,-1,-1,-1,-1,-1,-1,-1,-1],"loss_changes":[7.369425E0,9.660521E0,7.61877E0,1.0722817E1,5.334817E0,6.01449E0,7.4700565E0,4.424087E0,4.525302E0,0E0,9.255227E-2,3.9251842E0,1.0610677E0,4.7372627E0,7.034728E0,0E0,0E0,0E0,0E0,0E0,0E0,0E0,0E0,0E0,0E0,0E0,0E0,0E0,0E0],"parents":[2147483647,0,0,1,1,2,2,3,3,4,4,5,5,6,6,7,7,8,8,10,10,11,11,12,12,13,13,14,14],"right_children":[2,4,6,8,10,12,14,16,18,-1,-1,22,24,26,28,-1,-1,-1,-1,-1,-1,-1,-1,-1,-1,-1,-1,-1,-1],"split_conditions":[5.87069E0,9.0222317E-1,1.8307765E-3,1.507188E-2,9.9348927E-1,2.7004394E-1,2.607019E1,3.453466E1,1.5116521E0,7.1378326E-1,5.235796E-2,6.30826E0,3.4728672E1,4.94246E0,1.2847528E-2,-4.1335306E-1,-4.820767E-3,2.118983E-1,-5.843846E-2,-1.1686707E-2,9.022365E-2,-7.472039E-4,3.59008E-1,-2.6179124E-2,-1.9701615E-1,5.006304E-2,-6.193456E-1,-2.5124815E-1,4.9143597E-2],"split_indices":[1,3,19,23,3,3,6,5,14,0,0,1,5,0,20,0,0,0,0,2147483647,2147483647,0,0,0,0,0,0,0,0],"split_type":[0,0,0,0,0,0,0,0,0,0,0,0,0,0,0,0,0,0,0,0,0,0,0,0,0,0,0,0,0],"sum_hessian":[9.1E1,3.6E1,5.5E1,3.2E1,4E0,2.3E1,3.2E1,9E0,2.3E1,2E0,2E0,1E1,1.3E1,5E0,2.7E1,5E0,4E0,1.5E1,8E0,1E0,1E0,5E0,5E0,8E0,5E0,1E0,4E0,1.5E1,1.2E1],"tree_param":{"num_deleted":"2","num_feature":"33","num_nodes":"29","size_leaf_vector":"0"}},{"base_weights":[-1.827724E-2,1.4761779E-1,-5.013762E-1,5.2448653E-2,8.7862253E-1,-1.4186431E0,-4.0228453E-2,8.639143E-1,-3.2400362E-2,1.7430292E0,2.9998207E-1,-1.7953746E0,6.092386E-1,4.195196E-1,-2.1396014E-1,1.5889511E0,1.0415816E-1,-3.0253434E-1,2.678337E-1,3.849268E-2,3.4458143E-1,-2.3838542E0,-7.580514E-1,-7.436609E-2,5.6158257E-1,-5.23053E-1,-1.8468538E-2],"categories":[],"categories_nodes":[],"categories_segments":[],"categories_sizes":[],"default_left":[1,1,1,1,1,1,1,0,1,0,1,1,0,0,1,0,0,0,0,1,1,0,0,0,0,0,0],"id":44,"left_children":[1,3,5,7,9,11,13,15,17,-1,-1,21,-1,23,25,-1,-1,-1,-1,-1,-1,-1,-1,-1,-1,-1,-1],"loss_changes":[7.5273776E0,4.8237534E0,1.0094824E1,4.365671E0,3.478568E0,7.2055473E0,1.4475982E0,3.1396046E0,4.7850275E0,0E0,5.6709647E-2,2.4660206E0,0E0,3.9257693E-1,7.758656E-1,0E0,0E0,0E0,0E0,0E0,0E0,0E0,0E0,0E0,0E0,0E0,0E0],"parents":[2147483647,0,0,1,1,2,2,3,3,4,4,5,5,6,6,7,7,8,8,10,10,11,11,13,13,14,14],"right_children":[2,4,6,8,10,12,14,16,18,-1,-1,22,-1,24,26,-1,-1,-1,-1,-1,-1,-1,-1,-1,-1,-1,-1],"split_conditions":[9.883004E-3,3.6225957E-3,1.5094478E-2,3.876855E-4,3.385334E1,8.0810285E-1,3.3729122E1,3.4580486E1,8.503352E1,5.229088E-1,8.9994624E-2,3.454126E1,1.827716E-1,3.3438786E1,1.0514886E0,4.7668535E-1,3.124745E-2,-9.0760306E-2,8.0350116E-2,1.1547804E-2,1.0337443E-1,-7.1515626E-1,-2.2741543E-1,-2.2309829E-2,1.6847478E-1,-1.569159E-1,-5.540562E-3],"split_indices":[16,29,29,26,5,8,5,5,4,0,1,5,0,5,14,0,0,0,0,2147483647,2147483647,0,0,0,0,0,0],"split_type":[0,0,0,0,0,0,0,0,0,0,0,0,0,0,0,0,0,0,0,0,0,0,0,0,0,0,0],"sum_hessian":[9.2E1,6.9E1,2.3E1,6.2E1,7E0,7E0,1.6E1,5E0,5.7E1,2E0,5E0,6E0,1E0,4E0,1.2E1,2E0,3E0,3E1,2.7E1,1E0,4E0,3E0,3E0,1E0,3E0,4E0,8E0],"tree_param":{"num_deleted":"2","num_feature":"33","num_nodes":"27","size_leaf_vector":"0"}},{"base_weights":[-2.1635804E-2,-3.537267E-1,1.479508E-1,-1.7480075E-1,-1.1060407E0,3.2504466E-1,-1.16365306E-1,3.047213E-1,-4.508606E-1,1.1827717E-1,9.305625E-1,-5.1489383E-1,1.4814343E-1,7.227123E-1,-2.4726233E-2,-7.3936987E-1,5.273824E-1,-7.704044E-1,4.3946105E-1,2.1924126E0,1.4454365E-1,-6.3503087E-1,-6.2942825E-2,-3.0278778E-1,2.0612182E-1],"categories":[],"categories_nodes":[],"categories_segments":[],"categories_sizes":[],"default_left":[0,1,1,1,0,1,1,1,1,1,1,0,1,0,0,0,0,0,0,0,0,0,0,0,0],"id":45,"left_children":[1,3,5,7,-1,9,11,13,15,17,19,21,23,-1,-1,-1,-1,-1,-1,-1,-1,-1,-1,-1,-1],"loss_changes":[4.5014696E0,3.4410934E0,2.5186882E0,3.1820529E0,0E0,3.8963804E0,2.3953924E0,1.2572249E0,4.623413E0,7.4743176E0,7.6178055E0,4.4869375E-1,4.2843083E-1,0E0,0E0,0E0,0E0,0E0,0E0,0E0,0E0,0E0,0E0,0E0,0E0],"parents":[2147483647,0,0,1,1,2,2,3,3,5,5,6,6,7,7,8,8,9,9,10,10,11,11,12,12],"right_children":[2,4,6,8,-1,10,12,14,16,18,20,22,24,-1,-1,-1,-1,-1,-1,-1,-1,-1,-1,-1,-1],"split_conditions":[3.4214745E1,9.2888427E-1,2.660929E-2,9.5E-2,-3.3181223E-1,9.052181E-1,7.268673E-2,3.2904175E-1,7.370918E-1,1.908803E-2,7.0964284E-3,2.8638397E1,5.26946E0,2.168137E-1,-7.41787E-3,-2.2181097E-1,1.5821472E-1,-2.3112133E-1,1.3183832E-1,6.577238E-1,4.3363094E-2,-1.9050927E-1,-1.8882848E-2,-9.083634E-2,6.183655E-2],"split_indices":[5,3,19,2,0,3,32,26,9,23,9,6,1,0,0,0,0,0,0,0,0,0,0,0,0],"split_type":[0,0,0,0,0,0,0,0,0,0,0,0,0,0,0,0,0,0,0,0,0,0,0,0,0],"sum_hessian":[7.8E1,2.6E1,5.2E1,2.2E1,4E0,3.1E1,2.1E1,8E0,1.4E1,2.4E1,7E0,8E0,1.3E1,3E0,5E0,1.1E1,3E0,6E0,1.8E1,2E0,5E0,6E0,2E0,1E0,1.2E1],"tree_param":{"num_deleted":"0","num_feature":"33","num_nodes":"25","size_leaf_vector":"0"}},{"base_weights":[-5.7216033E-2,-5.204961E-1,3.2609817E-2,-9.031391E-3,-1.2861878E0,-3.327511E-2,8.2877475E-1,5.320427E-1,-6.56514E-1,-1.6697845E0,-3.4599623E-1,2.7615035E-1,-2.0018733E-1,1.289931E0,-6.235854E-2,9.2064476E-1,-1.6344102E-1,5.076291E-1,-1.4497861E-1,-3.2292303E-1,3.6754778E-1,1.4628792E0,3.8554335E-1,8.253384E-2,-1.7607164E-1],"categories":[],"categories_nodes":[],"categories_segments":[],"categories_sizes":[],"default_left":[1,1,1,0,1,1,1,1,0,0,0,1,1,1,1,0,0,0,0,0,0,1,1,1,1],"id":46,"left_children":[1,3,5,7,9,11,13,15,-1,-1,-1,17,19,-1,-1,-1,-1,-1,-1,-1,-1,-1,-1,-1,-1],"loss_changes":[3.8455095E0,5.8627477E0,4.1190886E0,3.8526537E0,1.5861874E0,3.8255045E0,2.5461488E0,1.7720696E0,0E0,0E0,0E0,2.608138E0,3.4633956E0,6.164503E-2,6.396035E-2,0E0,0E0,0E0,0E0,0E0,0E0,0E0,0E0,0E0,0E0],"parents":[2147483647,0,0,1,1,2,2,3,3,4,4,5,5,6,6,7,7,11,11,12,12,13,13,14,14],"right_children":[2,4,6,8,10,12,14,16,-1,-1,-1,18,20,-1,-1,-1,-1,-1,-1,-1,-1,-1,-1,-1,-1],"split_conditions":[5.36403E0,5.625E-1,1.0776446E0,5E-1,5.05092E0,5.87069E0,4.658593E-1,3.1083116E-1,-1.969542E-1,-5.009354E-1,-1.0379887E-1,1.0770767E2,2.638709E-1,3.8697934E-1,-1.8707562E-2,2.7619344E-1,-4.903231E-2,1.5228873E-1,-4.3493584E-2,-9.687691E-2,1.1026434E-1,4.3886378E-1,1.1566301E-1,2.4760151E-2,-5.2821495E-2],"split_indices":[1,2,32,15,1,1,9,8,0,0,0,4,31,1,1,0,0,0,0,0,0,2147483647,2147483647,2147483647,2147483647],"split_type":[0,0,0,0,0,0,0,0,0,0,0,0,0,0,0,0,0,0,0,0,0,0,0,0,0],"sum_hessian":[9.1E1,1.4E1,7.7E1,9E0,5E0,7.2E1,5E0,5E0,4E0,3E0,2E0,2.5E1,4.7E1,3E0,2E0,3E0,2E0,1.6E1,9E0,3.9E1,8E0,2E0,1E0,1E0,1E0],"tree_param":{"num_deleted":"4","num_feature":"33","num_nodes":"25","size_leaf_vector":"0"}},{"base_weights":[1.445685E-2,3.071473E-1,-1.4259975E-1,6.6474503E-1,6.5130435E-2,-2.0382121E-1,1.0069199E0,-3.4453075E-3,1.142516E0,-2.6421407E-1,4.604259E-1,1.6416816E-1,-4.082774E-1,3.881041E-1,-2.9624605E-1,3.0416489E-2,1.5812725E0,-4.980329E-1,1.3640404E-2,1.313223E-1,6.974443E-1,-1.437439E0,3.2411796E-1,-2.1748689E-1,-1.0250095E0],"categories":[],"categories_nodes":[],"categories_segments":[],"categories_sizes":[],"default_left":[1,0,1,1,1,1,0,0,1,1,1,1,1,0,0,0,0,0,0,0,0,0,0,0,0],"id":47,"left_children":[1,3,5,7,9,11,-1,13,15,17,19,21,23,-1,-1,-1,-1,-1,-1,-1,-1,-1,-1,-1,-1],"loss_changes":[3.951161E0,2.5530453E0,4.1462474E0,3.8348398E0,2.5952306E0,4.129862E0,0E0,8.0285007E-1,3.3674889E0,7.214371E-1,6.104425E-1,5.589434E0,3.8954062E0,0E0,0E0,0E0,0E0,0E0,0E0,0E0,0E0,0E0,0E0,0E0,0E0],"parents":[2147483647,0,0,1,1,2,2,3,3,4,4,5,5,7,7,8,8,9,9,10,10,11,11,12,12],"right_children":[2,4,6,8,10,12,-1,14,16,18,20,22,24,-1,-1,-1,-1,-1,-1,-1,-1,-1,-1,-1,-1],"split_conditions":[1.2217453E-1,2.664875E1,3.5600365E1,3.365E-1,5.061045E-4,5.3625E0,3.0207598E-1,2.1126854E1,4.016011E-1,3.422959E1,3.3692116E1,5.05092E0,6.3600004E-1,1.16431236E-1,-8.887382E-2,9.124947E-3,4.7438177E-1,-1.4940988E-1,4.0921215E-3,3.939669E-2,2.092333E-1,-4.312317E-1,9.723539E-2,-6.524607E-2,-3.0750287E-1],"split_indices":[24,6,5,2,19,0,0,6,3,5,5,1,2,0,0,0,0,0,0,0,0,0,0,0,0],"split_type":[0,0,0,0,0,0,0,0,0,0,0,0,0,0,0,0,0,0,0,0,0,0,0,0,0],"sum_hessian":[8.4E1,2.9E1,5.5E1,1.1E1,1.8E1,5.3E1,2E0,5E0,6E0,1E1,8E0,1.9E1,3.4E1,2E0,3E0,2E0,4E0,5E0,5E0,4E0,4E0,1E0,1.8E1,2.7E1,7E0],"tree_param":{"num_deleted":"0","num_feature":"33","num_nodes":"25","size_leaf_vector":"0"}},{"base_weights":[-5.4976144E-3,6.996385E-1,-6.2169515E-2,-1.03095815E-1,1.8043162E0,-4.3595648E-1,9.3870675E-3,-3.9478493E-1,2.2295856E-1,-8.069996E-1,-5.6799173E-2,-8.981807E-2,4.055818E-1,5.7320118E-2,2.7711773E-1,-1.6393423E-1,-8.868548E-1,5.202179E-1,-5.07053E-1,-3.005879E-2,-5.3798705E-1,6.911564E-1,-1.3797283E-1],"categories":[],"categories_nodes":[],"categories_segments":[],"categories_sizes":[],"default_left":[1,1,1,1,0,0,1,0,1,1,0,1,1,1,1,0,0,0,0,0,0,0,0],"id":48,"left_children":[1,3,5,7,-1,9,11,-1,-1,15,17,19,21,-1,-1,-1,-1,-1,-1,-1,-1,-1,-1],"loss_changes":[3.7599068E0,6.3933563E0,2.3310742E0,5.635532E-1,0E0,1.9237354E0,2.9449654E0,0E0,1.1028096E-2,2.140789E-1,2.3422112E0,1.5907639E0,2.4237416E0,0E0,0E0,0E0,0E0,0E0,0E0,0E0,0E0,0E0,0E0],"parents":[2147483647,0,0,1,1,2,2,3,3,5,5,6,6,8,8,9,9,10,10,11,11,12,12],"right_children":[2,4,6,8,-1,10,12,-1,-1,16,18,20,22,-1,-1,-1,-1,-1,-1,-1,-1,-1,-1],"split_conditions":[4.04769E0,3.84281E0,-4.135E-1,5.21017E0,5.412949E-1,2.7964676E1,6.0328503E0,-1.1843548E-1,6.688757E-2,6.34538E0,2.9468842E1,6.4336996E0,4.5173567E-2,1.7196037E-2,8.313532E-2,-4.9180273E-2,-2.6605645E-1,1.5606537E-1,-1.5211591E-1,-9.017637E-3,-1.6139612E-1,2.0734693E-1,-4.139185E-2],"split_indices":[0,0,2,1,0,6,0,0,0,0,6,1,8,2147483647,2147483647,0,0,0,0,0,0,0,0],"split_type":[0,0,0,0,0,0,0,0,0,0,0,0,0,0,0,0,0,0,0,0,0,0,0],"sum_hessian":[9.2E1,6E0,8.6E1,4E0,2E0,1.3E1,7.3E1,2E0,2E0,6E0,7E0,5.9E1,1.4E1,1E0,1E0,1E0,5E0,3E0,4E0,5.3E1,6E0,9E0,5E0],"tree_param":{"num_deleted":"2","num_feature":"33","num_nodes":"23","size_leaf_vector":"0"}},{"base_weights":[-6.446006E-2,-8.699274E-1,-3.244257E-3,8.8116325E-2,-1.3709784E0,1.1521082E-1,-2.6845387E-1,3.8594437E-1,-2.5376987E-1,-2.7887154E-1,-1.6420568E0,6.778124E-3,5.1223254E-1,-9.05808E-1,2.9728731E-2,-7.6035E-2,5.577359E-1,1.0221889E0,1.2948072E-1,-1.2959702E-1,-1.1429454E0,-1.8731292E-1,3.9755318E-1],"categories":[],"categories_nodes":[],"categories_segments":[],"categories_sizes":[],"default_left":[1,1,1,1,1,1,1,0,0,0,0,1,1,1,1,0,0,0,0,0,0,0,0],"id":49,"left_children":[1,3,5,7,9,11,13,-1,-1,-1,-1,15,17,19,21,-1,-1,-1,-1,-1,-1,-1,-1],"loss_changes":[4.188301E0,3.000978E0,2.5441628E0,4.0341094E-1,7.2626305E-1,2.4073355E0,4.7781262E0,0E0,0E0,0E0,0E0,2.0956016E0,2.2098873E0,1.3244271E0,1.511465E0,0E0,0E0,0E0,0E0,0E0,0E0,0E0,0E0],"parents":[2147483647,0,0,1,1,2,2,3,3,4,4,5,5,6,6,11,11,12,12,13,13,14,14],"right_children":[2,4,6,8,10,12,14,-1,-1,-1,-1,16,18,20,22,-1,-1,-1,-1,-1,-1,-1,-1],"split_conditions":[5.05092E0,3.085E-1,3.477294E1,4.90147E0,4.76329E0,3.435491E1,4.642958E-1,1.1578331E-1,-7.6130964E-2,-8.366147E-2,-4.9261707E-1,1.0665E0,9.221639E-3,2.2526491E-2,6.3793355E-1,-2.28105E-2,1.6732079E-1,3.066567E-1,3.8844217E-2,-3.8879108E-2,-3.4288365E-1,-5.6193877E-2,1.1926596E-1],"split_indices":[1,2,5,1,1,5,26,0,0,0,0,2,19,14,3,0,0,0,0,0,0,0,0],"split_type":[0,0,0,0,0,0,0,0,0,0,0,0,0,0,0,0,0,0,0,0,0,0,0],"sum_hessian":[8.4E1,5E0,7.9E1,2E0,3E0,5.5E1,2.4E1,1E0,1E0,1E0,2E0,4.4E1,1.1E1,7E0,1.7E1,3.9E1,5E0,4E0,7E0,2E0,5E0,1.1E1,6E0],"tree_param":{"num_deleted":"0","num_feature":"33","num_nodes":"23","size_leaf_vector":"0"}},{"base_weights":[4.0174216E-2,8.29693E-1,-9.057492E-3,-2.37041E-1,1.1556368E0,-9.7457665E-1,2.7722443E-2,1.5358887E0,5.1692325E-1,-1.2461605E0,-2.1570444E-1,7.861978E-2,-6.046317E-1,-4.5213215E-2,3.733711E-1,-1.6677284E-1,-6.5884894E-1],"categories":[],"categories_nodes":[],"categories_segments":[],"categories_sizes":[],"default_left":[1,1,1,0,1,1,1,0,0,0,0,1,1,0,0,1,1],"id":50,"left_children":[1,3,5,-1,7,9,11,-1,-1,-1,-1,13,-1,-1,-1,-1,-1],"loss_changes":[3.3114107E0,2.0124097E0,2.903468E0,0E0,1.7755127E-1,3.4949017E-1,2.590162E0,0E0,0E0,0E0,0E0,2.7178767E0,3.2558918E-2,0E0,0E0,0E0,0E0],"parents":[2147483647,0,0,1,1,2,2,4,4,5,5,6,6,11,11,12,12],"right_children":[2,4,6,-1,8,10,12,-1,-1,-1,-1,14,-1,-1,-1,-1,-1],"split_conditions":[4.90147E0,3.79387E0,5.05092E0,-7.1112305E-2,4.1188602E0,4.5504303E0,2.451468E0,4.607666E-1,1.5507698E-1,-3.7384817E-1,-6.471133E-2,6.000642E-2,-1.8138953E-1,-1.3563965E-2,1.12011336E-1,-5.0031856E-2,-1.976547E-1],"split_indices":[1,0,1,0,0,0,24,0,0,0,0,18,0,0,0,2147483647,2147483647],"split_type":[0,0,0,0,0,0,0,0,0,0,0,0,0,0,0,0,0],"sum_hessian":[8.4E1,4E0,8E1,1E0,3E0,2E0,7.8E1,1E0,2E0,1E0,1E0,7.3E1,5E0,5.2E1,2.1E1,1E0,4E0],"tree_param":{"num_deleted":"2","num_feature":"33","num_nodes":"17","size_leaf_vector":"0"}},{"base_weights":[7.725265E-2,1.3861507E-2,4.7757474E-1,9.232682E-2,-5.210888E-1,1.1022806E0,1.4686383E-1,-1.954922E-1,2.1632417E-1,-2.1620576E-1,-7.827307E-1,2.963589E-1,-2.5091267E-1,-7.4112834E-3,-7.958689E-1,3.2086053E-1,-2.1300001E-1,-2.8804857E-1,7.1504116E-2,-8.785112E-1,-1.998043E-1,-3.516674E-1,-2.4701595E-2],"categories":[],"categories_nodes":[],"categories_segments":[],"categories_sizes":[],"default_left":[1,1,0,1,1,0,0,1,1,1,1,0,1,0,0,0,0,0,0,0,0,1,1],"id":51,"left_children":[1,3,5,7,9,-1,11,13,15,17,19,-1,-1,-1,-1,-1,-1,-1,-1,-1,-1,-1,-1],"loss_changes":[2.2265449E0,3.280189E0,2.3172796E0,2.469128E0,6.284709E-1,0E0,6.095509E-1,2.3654087E0,2.2225826E0,1.4461595E-1,1.03634596E-1,0E0,5.9688747E-2,0E0,0E0,0E0,0E0,0E0,0E0,0E0,0E0,0E0,0E0],"parents":[2147483647,0,0,1,1,2,2,3,3,4,4,6,6,7,7,8,8,9,9,10,10,12,12],"right_children":[2,4,6,8,10,-1,12,14,16,18,20,-1,-1,-1,-1,-1,-1,-1,-1,-1,-1,-1,-1],"split_conditions":[6.66988E0,2.2787392E-1,2.6661926E1,3.1119427E-1,2.7730738E1,3.3068419E-1,3.54758E1,3.4135368E-2,9.5187986E-1,2.0743988E0,9.6149504E-1,8.8907674E-2,-7.5273804E-2,-2.223385E-3,-2.3876067E-1,9.625816E-2,-6.390001E-2,-8.6414576E-2,2.1451235E-2,-2.6355338E-1,-5.9941296E-2,-1.0550023E-1,-7.410479E-3],"split_indices":[1,18,6,3,6,0,5,32,3,11,3,0,1,0,0,0,0,0,0,0,0,2147483647,2147483647],"split_type":[0,0,0,0,0,0,0,0,0,0,0,0,0,0,0,0,0,0,0,0,0,0,0],"sum_hessian":[8.7E1,7.6E1,1.1E1,6.7E1,9E0,3E0,8E0,2E1,4.7E1,5E0,4E0,6E0,2E0,1.6E1,4E0,3.8E1,9E0,4E0,1E0,3E0,1E0,1E0,1E0],"tree_param":{"num_deleted":"2","num_feature":"33","num_nodes":"23","size_leaf_vector":"0"}},{"base_weights":[-1.1568293E-2,-4.475894E-1,3.9864406E-2,-6.976857E-1,-5.7955932E-2,1.0985641E0,1.4182692E-2,-1.384929E-1,-9.426589E-1,-2.3025322E-1,1.3366E-1,-4.8816597E-1,7.348473E-2,-2.814355E-1,-6.394434E-2,-7.564592E-2,-9.849045E-1,-1.0961914E0,1.036963E-1],"categories":[],"categories_nodes":[],"categories_segments":[],"categories_sizes":[],"default_left":[0,1,0,0,1,0,1,0,0,1,0,1,0,1,1,0,0,0,0],"id":52,"left_children":[1,3,5,7,9,-1,11,-1,-1,-1,-1,15,17,-1,-1,-1,-1,-1,-1],"loss_changes":[2.1258626E0,9.3402386E-1,2.2955031E0,6.9137216E-1,1.9585016E-1,0E0,2.538258E0,0E0,0E0,7.5400025E-3,0E0,1.7697275E0,2.79934E0,0E0,0E0,0E0,0E0,0E0,0E0],"parents":[2147483647,0,0,1,1,2,2,3,3,4,4,6,6,9,9,11,11,12,12],"right_children":[2,4,6,8,10,-1,12,-1,-1,-1,-1,16,18,-1,-1,-1,-1,-1,-1],"split_conditions":[2.2833668E1,9.343197E-2,2.3286114E1,2.1280188E1,5.69086E0,3.2956925E-1,5.013824E-2,-4.1547872E-2,-2.827977E-1,-6.907597E-2,4.0098004E-2,2.9776365E-2,2.372064E1,-8.443065E-2,-1.9183302E-2,-2.2693777E-2,-2.9547137E-1,-3.2885742E-1,3.1108892E-2],"split_indices":[6,8,6,6,1,0,27,0,0,0,0,27,6,2147483647,2147483647,0,0,0,0],"split_type":[0,0,0,0,0,0,0,0,0,0,0,0,0,0,0,0,0,0,0],"sum_hessian":[9.3E1,9E0,8.4E1,5E0,4E0,1E0,8.3E1,2E0,3E0,2E0,2E0,8E0,7.5E1,1E0,1E0,5E0,3E0,1E0,7.4E1],"tree_param":{"num_deleted":"2","num_feature":"33","num_nodes":"19","size_leaf_vector":"0"}},{"base_weights":[4.152761E-2,3.1530467E-1,-6.1247826E-2,-4.222029E-1,4.758872E-1,1.564654E-1,-2.315149E-1,-5.749316E-1,9.435606E-2,8.0873E-1,2.0885086E-1,6.6253036E-2,5.942766E-1,-3.8477436E-1,1.3261175E-1,-6.4916295E-1,-1.7611885E-1,1.2862142E0,4.885611E-1,4.8178372E-1,-2.1955132E-2,1.7601232E-1,-2.5680965E-1,6.9670343E-1,9.228468E-2,-9.28553E-1,-2.4983227E-1,5.6922495E-1,-1.5684795E-1],"categories":[],"categories_nodes":[],"categories_segments":[],"categories_sizes":[],"default_left":[1,1,1,1,1,1,1,1,0,1,1,1,1,0,1,1,1,0,0,0,0,0,0,0,0,0,0,0,0],"id":53,"left_children":[1,3,5,7,9,11,13,-1,-1,17,19,21,23,25,27,-1,-1,-1,-1,-1,-1,-1,-1,-1,-1,-1,-1,-1,-1],"loss_changes":[2.5798295E0,3.1616917E0,2.5198736E0,4.4871533E-1,1.6975999E0,1.1455069E0,2.1716478E0,4.0876865E-3,0E0,7.474861E-1,8.295066E-1,9.671391E-1,1.9279218E-1,1.7492399E0,1.6058649E0,0E0,0E0,0E0,0E0,0E0,0E0,0E0,0E0,0E0,0E0,0E0,0E0,0E0,0E0],"parents":[2147483647,0,0,1,1,2,2,3,3,4,4,5,5,6,6,7,7,9,9,10,10,11,11,12,12,13,13,14,14],"right_children":[2,4,6,8,10,12,14,-1,-1,18,20,22,24,26,28,-1,-1,-1,-1,-1,-1,-1,-1,-1,-1,-1,-1,-1,-1],"split_conditions":[4.8822002E0,8.830741E-3,2.1447425E-3,6.31463E0,3.386064E1,8.2073174E-2,2.1178555E0,-1.724795E-1,2.830682E-2,4.10133E0,6.1204183E-1,8.564997E-1,6.3909597E0,3.393672E1,2.451468E0,-1.947489E-1,-5.283566E-2,3.858643E-1,1.4656833E-1,1.4453512E-1,-6.58654E-3,5.28037E-2,-7.70429E-2,2.0901103E-1,2.7685406E-2,-2.785659E-1,-7.494968E-2,1.7076749E-1,-4.7054388E-2],"split_indices":[0,23,19,1,5,31,12,0,0,0,27,27,0,5,24,2147483647,2147483647,0,0,0,0,0,0,0,0,0,0,0,0],"split_type":[0,0,0,0,0,0,0,0,0,0,0,0,0,0,0,0,0,0,0,0,0,0,0,0,0,0,0,0,0],"sum_hessian":[9E1,2.4E1,6.6E1,4E0,2E1,2.9E1,3.7E1,3E0,1E0,8E0,1.2E1,2.5E1,4E0,2.6E1,1.1E1,2E0,1E0,2E0,6E0,5E0,7E0,1.9E1,6E0,3E0,1E0,4E0,2.2E1,4E0,7E0],"tree_param":{"num_deleted":"2","num_feature":"33","num_nodes":"29","size_leaf_vector":"0"}},{"base_weights":[-2.119407E-2,6.4185476E-1,-5.1091813E-2,-1.7892838E-1,9.7509193E-1,-7.991482E-1,-5.9564114E-3,-1.2921251E0,-3.9788563E-2,-6.449024E-2,2.9131916E-1,1.4987469E-1,-2.0955753E-1,7.853869E-2,-2.2244933E-1,-6.854363E-2,4.4211864E-1],"categories":[],"categories_nodes":[],"categories_segments":[],"categories_sizes":[],"default_left":[1,1,1,0,0,1,1,0,1,1,1,0,0,0,0,0,0],"id":54,"left_children":[1,3,5,-1,-1,7,9,-1,11,13,15,-1,-1,-1,-1,-1,-1],"loss_changes":[1.8367468E0,1.2685335E0,2.9664564E0,0E0,0E0,1.8203216E0,1.4804441E0,0E0,1.2800418E-1,1.6215541E0,7.9004407E-1,0E0,0E0,0E0,0E0,0E0,0E0],"parents":[2147483647,0,0,1,1,2,2,5,5,6,6,8,8,9,9,10,10],"right_children":[2,4,6,-1,-1,8,10,-1,12,14,16,-1,-1,-1,-1,-1,-1],"split_conditions":[4.8372803E0,3.79387E0,5.08473E0,-5.3678516E-2,2.925276E-1,4.54152E0,1.0335E0,-3.8763756E-1,5.01297E0,4.2288296E-2,1.6544588E-2,4.4962406E-2,-6.286726E-2,2.356161E-2,-6.6734806E-2,-2.0563088E-2,1.326356E-1],"split_indices":[1,0,1,0,0,0,2,0,0,8,23,0,0,0,0,0,0],"split_type":[0,0,0,0,0,0,0,0,0,0,0,0,0,0,0,0,0],"sum_hessian":[9E1,3E0,8.7E1,1E0,2E0,4E0,8.3E1,2E0,2E0,7E1,1.3E1,1E0,1E0,3.7E1,3.3E1,4E0,9E0],"tree_param":{"num_deleted":"0","num_feature":"33","num_nodes":"17","size_leaf_vector":"0"}},{"base_weights":[1.5881808E-2,4.0401566E-1,-2.0835282E-2,-3.4343958E-2,6.7390025E-1,-6.644962E-2,1.6553088E-1,-1.1901665E-1,1.09837055E-1,7.628441E-2,8.042331E-1,-3.281018E-2,-6.0488796E-1,-3.0057812E-2,3.8932538E-1,-1.5208912E-1,-2.6435852E-2,-7.2255194E-2,5.966513E-1,-1.2998104E-1,2.4642341E-1,-1.8398285E-1,4.975098E-1],"categories":[],"categories_nodes":[],"categories_segments":[],"categories_sizes":[],"default_left":[1,1,1,1,1,1,1,1,1,0,0,1,0,0,1,1,1,0,0,0,0,0,0],"id":55,"left_children":[1,3,5,-1,9,11,13,-1,-1,-1,-1,17,-1,19,21,-1,-1,-1,-1,-1,-1,-1,-1],"loss_changes":[1.3195232E0,9.695964E-1,7.3358184E-1,6.1905213E-2,3.2809448E-1,1.2299343E0,7.5582075E-1,5.1650256E-3,0E0,0E0,0E0,1.6818329E0,0E0,3.0829933E-1,5.8771753E-1,0E0,0E0,0E0,0E0,0E0,0E0,0E0,0E0],"parents":[2147483647,0,0,1,1,2,2,3,3,4,4,5,5,6,6,7,7,11,11,13,13,14,14],"right_children":[2,4,6,-1,10,12,14,-1,-1,-1,-1,18,-1,20,22,-1,-1,-1,-1,-1,-1,-1,-1],"split_conditions":[4.233E0,1.507188E-2,8.5664403E-1,-1.0303188E-2,3.84281E0,3.7254006E-1,4.6249998E-1,-3.5704996E-2,3.2951117E-2,2.2885323E-2,2.4126993E-1,1.0776446E0,-1.814664E-1,2.8745255E1,1.0895908E-1,-4.5626737E-2,-7.930756E-3,-2.1676559E-2,1.789954E-1,-3.8994312E-2,7.392702E-2,-5.519486E-2,1.4925295E-1],"split_indices":[0,23,9,1,0,18,2,2147483647,2147483647,0,0,32,0,6,3,2147483647,2147483647,0,0,0,0,0,0],"split_type":[0,0,0,0,0,0,0,0,0,0,0,0,0,0,0,0,0,0,0,0,0,0,0],"sum_hessian":[9.1E1,7E0,8.4E1,3E0,4E0,6.8E1,1.6E1,2E0,1E0,1E0,3E0,6.5E1,3E0,9E0,7E0,1E0,1E0,6.2E1,3E0,7E0,2E0,1E0,6E0],"tree_param":{"num_deleted":"4","num_feature":"33","num_nodes":"23","size_leaf_vector":"0"}},{"base_weights":[-2.7513256E-2,-3.9259127E-1,2.9314449E-2,-5.3987914E-1,7.3776245E-2,-5.045883E-2,2.308501E-1,8.916807E-2,-6.196808E-1,-6.8758965E-2,1.4420764E-1,-2.3034524E-2,-8.4795856E-1,4.065192E-1,-5.5738546E-2,-2.971573E-1,-7.314164E-1,5.058682E-2,-2.930953E-1,8.544963E-2,6.1107117E-1,-1.8240494E-1,5.421295E-1],"categories":[],"categories_nodes":[],"categories_segments":[],"categories_sizes":[],"default_left":[1,1,0,0,1,1,1,0,1,1,1,1,0,1,1,0,0,0,0,0,0,0,0],"id":56,"left_children":[1,3,5,7,-1,11,13,-1,15,-1,-1,17,-1,19,21,-1,-1,-1,-1,-1,-1,-1,-1],"loss_changes":[2.003177E0,9.3280387E-1,1.3621298E0,5.5724597E-1,5.007138E-2,1.314591E0,1.2309332E0,0E0,1.0699034E-1,0E0,0E0,1.207761E0,0E0,9.3291545E-1,8.561851E-1,0E0,0E0,0E0,0E0,0E0,0E0,0E0,0E0],"parents":[2147483647,0,0,1,1,2,2,3,3,4,4,5,5,6,6,8,8,11,11,13,13,14,14],"right_children":[2,4,6,8,-1,12,14,-1,16,-1,-1,18,-1,20,22,-1,-1,-1,-1,-1,-1,-1,-1],"split_conditions":[5.2797135E-2,1.0565E0,2.8651892E1,3.307425E1,2.2132874E-2,7.23093E0,6.411581E-1,2.6750423E-2,3.876855E-4,-2.062769E-2,4.3262295E-2,2.6834977E-1,-2.543876E-1,1.1009162E-1,3.520632E1,-8.914719E-2,-2.1942493E-1,1.5176047E-2,-8.792859E-2,2.563489E-2,1.8332136E-1,-5.4721482E-2,1.6263886E-1],"split_indices":[27,2,6,5,2,1,3,0,27,2147483647,2147483647,8,0,3,5,0,0,0,0,0,0,0,0],"split_type":[0,0,0,0,0,0,0,0,0,0,0,0,0,0,0,0,0,0,0,0,0,0,0],"sum_hessian":[9.5E1,1.2E1,8.3E1,9E0,3E0,6E1,2.3E1,1E0,8E0,1E0,2E0,5.9E1,1E0,1.4E1,9E0,3E0,5E0,4.7E1,1.2E1,6E0,8E0,8E0,1E0],"tree_param":{"num_deleted":"2","num_feature":"33","num_nodes":"23","size_leaf_vector":"0"}},{"base_weights":[-3.966914E-2,-5.791569E-1,-1.1157602E-2,-1.1629343E-1,-1.2153053E0,3.898942E-3,-7.2076464E-1,-2.2759564E-1,1.0880661E-1,6.504028E-2,-1.1294359E-1,8.9526825E-2,-3.1851792E-1,-3.008513E-1,1.05511546E-1],"categories":[],"categories_nodes":[],"categories_segments":[],"categories_sizes":[],"default_left":[1,1,1,1,0,1,0,0,0,1,1,0,0,0,0],"id":57,"left_children":[1,3,5,7,-1,9,-1,-1,-1,11,13,-1,-1,-1,-1],"loss_changes":[1.5317005E0,1.3309175E0,1.0284964E0,1.2498044E-1,0E0,6.860173E-1,0E0,0E0,0E0,6.202128E-1,1.3863736E0,0E0,0E0,0E0,0E0],"parents":[2147483647,0,0,1,1,2,2,3,3,5,5,9,9,10,10],"right_children":[2,4,6,8,-1,10,-1,-1,-1,12,14,-1,-1,-1,-1],"split_conditions":[3.94731E0,3.83969E0,7.23093E0,3.73067E0,-3.645916E-1,3.4790215E1,-2.162294E-1,-6.827869E-2,3.2641985E-2,1E1,4.215E-1,2.6858049E-2,-9.555538E-2,-9.025539E-2,3.1653464E-2],"split_indices":[0,0,1,0,0,5,0,0,0,15,2,0,0,0,0],"split_type":[0,0,0,0,0,0,0,0,0,0,0,0,0,0,0],"sum_hessian":[9.9E1,4E0,9.5E1,3E0,1E0,9.4E1,1E0,2E0,1E0,6.2E1,3.2E1,5.9E1,3E0,1.7E1,1.5E1],"tree_param":{"num_deleted":"0","num_feature":"33","num_nodes":"15","size_leaf_vector":"0"}},{"base_weights":[-3.695743E-2,5.609968E-1,-6.312254E-2,-8.54373E-2,8.049539E-1,-4.997306E-1,-3.156053E-2,-1.8647328E-1,-1.0330086E0,1.5378642E-1,-1.0279869E-1,-2.8880572E-1,1.1142826E-1,7.53668E-2,3.012048E-1,-2.0568815E-1,2.948451E-2],"categories":[],"categories_nodes":[],"categories_segments":[],"categories_sizes":[],"default_left":[1,1,1,0,0,0,1,1,0,0,1,0,0,0,0,0,0],"id":58,"left_children":[1,3,5,-1,-1,7,9,11,-1,13,15,-1,-1,-1,-1,-1,-1],"loss_changes":[1.4904463E0,6.9958186E-1,1.2244487E0,0E0,0E0,8.0969095E-1,1.1381301E0,1.8460608E-1,0E0,2.5475097E-1,8.499186E-1,0E0,0E0,0E0,0E0,0E0,0E0],"parents":[2147483647,0,0,1,1,2,2,5,5,6,6,7,7,9,9,10,10],"right_children":[2,4,6,-1,-1,8,10,12,-1,14,16,-1,-1,-1,-1,-1,-1],"split_conditions":[4.8372803E0,3.79387E0,5.1347103E0,-2.5631191E-2,2.4148618E-1,6.96892E1,5.57816E0,6.68736E-1,-3.0990258E-1,2E0,5.1327936E-2,-8.664172E-2,3.342848E-2,2.2610042E-2,9.0361446E-2,-6.1706446E-2,8.8453535E-3],"split_indices":[1,0,1,0,0,5,1,3,0,15,21,0,0,0,0,0,0],"split_type":[0,0,0,0,0,0,0,0,0,0,0,0,0,0,0,0,0],"sum_hessian":[9.2E1,3E0,8.9E1,1E0,2E0,5E0,8.4E1,4E0,1E0,2.3E1,6.1E1,3E0,1E0,1.6E1,7E0,3.4E1,2.7E1],"tree_param":{"num_deleted":"0","num_feature":"33","num_nodes":"17","size_leaf_vector":"0"}},{"base_weights":[1.1621603E-2,-6.816098E-1,3.5122428E-2,-1.443572E-1,-8.780575E-1,5.764439E-1,9.23527E-3,6.62206E-1,1.595788E-1,-5.474245E-2,1.649715E-1,-3.597428E-1,-1.9170654E-3,6.710943E-1,3.6610287E-2],"categories":[],"categories_nodes":[],"categories_segments":[],"categories_sizes":[],"default_left":[1,1,1,0,0,1,1,1,1,1,1,0,0,0,0],"id":59,"left_children":[1,3,5,-1,-1,-1,9,-1,-1,11,13,-1,-1,-1,-1],"loss_changes":[1.4901756E0,1.8987215E-1,1.2278446E0,0E0,0E0,3.7330866E-2,8.559412E-1,0E0,0E0,9.821278E-1,1.5995946E0,0E0,0E0,0E0,0E0],"parents":[2147483647,0,0,1,1,2,2,5,5,6,6,9,9,10,10],"right_children":[2,4,6,-1,-1,-1,10,-1,-1,12,14,-1,-1,-1,-1],"split_conditions":[3.92306E0,3.81092E0,4.233E0,-4.3307163E-2,-2.6341724E-1,1.7293318E-1,8.564266E-1,1.986618E-1,4.7873642E-2,3.4157834E-3,7.0964284E-3,-1.07922845E-1,-5.7511963E-4,2.0132829E-1,1.0983086E-2],"split_indices":[0,0,0,0,0,0,3,2147483647,2147483647,12,9,0,0,0,0],"split_type":[0,0,0,0,0,0,0,0,0,0,0,0,0,0,0],"sum_hessian":[8.9E1,2E0,8.7E1,1E0,1E0,3E0,8.4E1,2E0,1E0,6E1,2.4E1,8E0,5.2E1,4E0,2E1],"tree_param":{"num_deleted":"2","num_feature":"33","num_nodes":"15","size_leaf_vector":"0"}},{"base_weights":[4.2524007E-3,1.5719216E-1,-5.9952214E-2,7.935289E-2,7.2750884E-1,-1.5587693E-1,8.825146E-2,1.3607675E-1,-3.6307302E-1,-5.500771E-2,-4.7478804E-1,2.821064E-2,3.964131E-1,2.8321752E-1,-3.681105E-2,9.78117E-2,-2.923878E-1,-7.3668575E-1,-1.179327E-1,-1.080358E-1,9.89947E-2,5.312958E-1,1.743536E-1],"categories":[],"categories_nodes":[],"categories_segments":[],"categories_sizes":[],"default_left":[1,1,1,1,0,1,1,1,0,1,1,1,1,0,0,0,0,0,0,0,0,1,1],"id":60,"left_children":[1,3,5,7,-1,9,11,13,-1,15,17,19,-1,-1,-1,-1,-1,-1,-1,-1,-1,-1,-1],"loss_changes":[8.637151E-1,1.096489E0,8.9517295E-1,6.517123E-1,0E0,1.196279E0,4.5137388E-1,5.7008004E-1,0E0,1.1168875E0,7.5425696E-1,2.2286466E-1,2.7174592E-2,0E0,0E0,0E0,0E0,0E0,0E0,0E0,0E0,0E0,0E0],"parents":[2147483647,0,0,1,1,2,2,3,3,5,5,6,6,7,7,9,9,10,10,11,11,12,12],"right_children":[2,4,6,8,-1,10,12,14,-1,16,18,20,-1,-1,-1,-1,-1,-1,-1,-1,-1,-1,-1],"split_conditions":[2.2544992E-1,2.3815155E-1,8.6773455E-1,3.525435E-2,2.1825266E-1,2.4582379E-1,2.8912619E1,5.86285E0,-1.0892191E-1,5.8562803E0,3.177884E-1,2.9336667E-1,1.1892393E-1,8.496526E-2,-1.1043316E-2,2.934351E-2,-8.771635E-2,-2.2100574E-1,-3.5379812E-2,-3.241074E-2,2.9698411E-2,1.5938874E-1,5.2306082E-2],"split_indices":[26,12,10,8,0,8,6,1,0,0,7,21,0,0,0,0,0,0,0,0,0,2147483647,2147483647],"split_type":[0,0,0,0,0,0,0,0,0,0,0,0,0,0,0,0,0,0,0,0,0,0,0],"sum_hessian":[8.6E1,2.5E1,6.1E1,2.3E1,2E0,3.7E1,2.4E1,2.1E1,2E0,2.9E1,8E0,2.1E1,3E0,1.1E1,1E1,1.8E1,1.1E1,4E0,4E0,7E0,1.4E1,1E0,2E0],"tree_param":{"num_deleted":"2","num_feature":"33","num_nodes":"23","size_leaf_vector":"0"}},{"base_weights":[2.4337377E-2,9.561629E-2,-8.034907E-2,6.0062952E-2,5.2501726E-1,-1.6706927E-1,1.7050238E-1,-3.278874E-1,1.0935945E-1,1.4983432E-1,8.2528305E-1,-3.6795938E-1,-8.2584016E-2,8.459547E-2,4.7183228E-1,1.5504856E-1,-1.6734396E-1,-1.3642097E-1,-4.7959822E-1,2.544509E-3,-4.4501638E-1,1.723659E-1,1.19826E-2],"categories":[],"categories_nodes":[],"categories_segments":[],"categories_sizes":[],"default_left":[0,0,1,1,1,0,1,0,1,0,0,1,1,1,0,0,0,0,0,0,0,1,1],"id":61,"left_children":[1,3,5,7,9,11,13,-1,15,-1,-1,17,19,-1,-1,-1,-1,-1,-1,-1,-1,-1,-1],"loss_changes":[6.792569E-1,7.928643E-1,8.333795E-1,1.0112119E0,3.2696283E-1,4.4483554E-1,2.1894833E-1,0E0,6.074937E-1,0E0,0E0,1.4136219E-1,6.490523E-1,5.529397E-2,0E0,0E0,0E0,0E0,0E0,0E0,0E0,0E0,0E0],"parents":[2147483647,0,0,1,1,2,2,3,3,4,4,5,5,6,6,8,8,11,11,12,12,13,13],"right_children":[2,4,6,8,10,12,14,-1,16,-1,-1,18,20,-1,-1,-1,-1,-1,-1,-1,-1,-1,-1],"split_conditions":[3.499996E1,8E0,8.6669505E-1,3.4157834E-3,5.4858103E0,2.7931585E1,8.5972637E-1,-9.836622E-2,2.2872457E-1,4.49503E-2,2.4758492E-1,5.6176E0,6.42091E-1,2.5378643E-2,1.4154969E-1,4.651457E-2,-5.020319E-2,-4.0926293E-2,-1.4387947E-1,7.633527E-4,-1.3350493E-1,5.1709775E-2,3.59478E-3],"split_indices":[5,28,10,12,0,6,3,0,17,0,0,0,9,3,0,0,0,0,0,0,0,2147483647,2147483647],"split_type":[0,0,0,0,0,0,0,0,0,0,0,0,0,0,0,0,0,0,0,0,0,0,0],"sum_hessian":[8.9E1,5.3E1,3.6E1,5E1,3E0,2.7E1,9E0,5E0,4.5E1,2E0,1E0,7E0,2E1,8E0,1E0,3.9E1,6E0,3E0,4E0,1.7E1,3E0,3E0,5E0],"tree_param":{"num_deleted":"2","num_feature":"33","num_nodes":"23","size_leaf_vector":"0"}},{"base_weights":[1.4325942E-2,-8.435088E-3,4.1660708E-1,4.7032483E-2,-1.794969E-1,4.7758007E-1,8.635759E-2,2.2214592E-2,3.55295E-1,-6.448609E-1,-1.0071745E-1,1.0848381E-1,-1.0002412E-1,4.0190387E-1,8.442974E-2,-4.2148018E-1,-1.931931E-2],"categories":[],"categories_nodes":[],"categories_segments":[],"categories_sizes":[],"default_left":[1,1,1,1,0,1,1,1,1,0,1,0,0,1,1,0,0],"id":62,"left_children":[1,3,-1,7,9,-1,-1,11,-1,-1,15,-1,-1,-1,-1,-1,-1],"loss_changes":[8.5505307E-1,8.529083E-1,5.9438825E-2,5.123362E-1,7.415958E-1,0E0,0E0,6.8575907E-1,2.9191017E-2,0E0,5.140471E-1,0E0,0E0,0E0,0E0,0E0,0E0],"parents":[2147483647,0,0,1,1,2,2,3,3,4,4,7,7,8,8,10,10],"right_children":[2,4,-1,8,10,-1,-1,12,-1,-1,16,-1,-1,-1,-1,-1,-1],"split_conditions":[1.0776446E0,7.12377E-2,1.24982126E-1,4.8350915E-2,2.374202E1,1.4327402E-1,2.590728E-2,5.7540536E-1,1.06588505E-1,-1.9345829E-1,3.189624E-1,3.2545146E-2,-3.0007238E-2,1.2057117E-1,2.5328923E-2,-1.2644406E-1,-5.7957936E-3],"split_indices":[32,32,0,32,6,2147483647,2147483647,3,1,0,11,0,0,2147483647,2147483647,0,0],"split_type":[0,0,0,0,0,0,0,0,0,0,0,0,0,0,0,0,0],"sum_hessian":[9.2E1,8.8E1,4E0,6.7E1,2.1E1,3E0,1E0,6.3E1,4E0,2E0,1.9E1,3.7E1,2.6E1,3E0,1E0,3E0,1.6E1],"tree_param":{"num_deleted":"4","num_feature":"33","num_nodes":"17","size_leaf_vector":"0"}},{"base_weights":[-1.8692645E-3,1.1205778E-1,-5.4282203E-2,-1.9509204E-2,2.754871E-1,-1.2510623E-1,1.2972821E-1,-1.4345741E-1,1.0660669E-1,6.012678E-3,3.5572815E-1,-4.801986E-2,-3.660156E-1,7.531751E-1,4.7239065E-3,-2.6012325E-1,1.8999099E-3,2.2527961E-1,-3.3387564E-2,-3.426997E-2,6.343031E-2,5.054242E-1,1.04947284E-1,1.4826877E-1,-1.4031762E-1,1.1278566E-1,-4.8494762E-1,-2.452528E-1,1.0848721E-1],"categories":[],"categories_nodes":[],"categories_segments":[],"categories_sizes":[],"default_left":[1,1,1,0,1,1,1,1,1,1,1,1,0,0,1,0,0,0,0,1,1,0,0,0,0,0,0,0,0],"id":63,"left_children":[1,3,5,7,9,11,13,15,17,-1,21,23,25,-1,27,-1,-1,-1,-1,-1,-1,-1,-1,-1,-1,-1,-1,-1,-1],"loss_changes":[5.494666E-1,6.289297E-1,8.372684E-1,2.810348E-1,2.7895904E-1,8.3668214E-1,1.3992459E0,1.5311833E-1,1.5704331E-1,1.1425491E-2,3.2236612E-1,6.730167E-1,6.81088E-1,0E0,4.4162136E-1,0E0,0E0,0E0,0E0,0E0,0E0,0E0,0E0,0E0,0E0,0E0,0E0,0E0,0E0],"parents":[2147483647,0,0,1,1,2,2,3,3,4,4,5,5,6,6,7,7,8,8,9,9,10,10,11,11,12,12,14,14],"right_children":[2,4,6,8,10,12,14,16,18,-1,22,24,26,-1,28,-1,-1,-1,-1,-1,-1,-1,-1,-1,-1,-1,-1,-1,-1],"split_conditions":[2.3E-2,6.6335306E-2,8.260623E-1,2.7936176E1,2.4753546E1,5.9169805E-1,7.0964284E-3,3.9783072E-1,1.2813303E-1,1.8038035E-3,1.4414826E-2,4.8541603E0,2.558671E1,2.2595254E-1,1.7E-1,-7.803698E-2,5.69973E-4,6.758389E-2,-1.001627E-2,-1.0280991E-2,1.9029094E-2,1.5162727E-1,3.1484187E-2,4.4480633E-2,-4.209529E-2,3.3835698E-2,-1.454843E-1,-7.357585E-2,3.2546166E-2],"split_indices":[2,18,3,6,6,3,9,12,10,2,20,0,6,0,2,0,0,0,0,2147483647,2147483647,0,0,0,0,0,0,0,0],"split_type":[0,0,0,0,0,0,0,0,0,0,0,0,0,0,0,0,0,0,0,0,0,0,0,0,0,0,0,0,0],"sum_hessian":[9E1,2.8E1,6.2E1,1.6E1,1.2E1,4.5E1,1.7E1,8E0,8E0,3E0,9E0,3.5E1,1E1,2E0,1.5E1,4E0,4E0,4E0,4E0,2E0,1E0,5E0,4E0,1.1E1,2.4E1,2E0,8E0,4E0,1.1E1],"tree_param":{"num_deleted":"2","num_feature":"33","num_nodes":"29","size_leaf_vector":"0"}},{"base_weights":[2.9159104E-2,1.3507724E-1,-5.6669816E-2,9.3873814E-2,5.7075816E-1,1.0187292E-1,-1.3667026E-1,1.474117E-1,-7.717027E-2,-1.4706191E-1,1.9710636E-1,-2.6124954E-1,-6.4906344E-2,5.67103E-2,2.7418554E-1,-1.0932391E-1,2.3578325E-2,2.0677567E-2,-2.6578078E-1,2.606988E-1,-8.057054E-2,-1.1358399E-1,-6.17163E-1,-9.3262576E-2,1.3631852E-1],"categories":[],"categories_nodes":[],"categories_segments":[],"categories_sizes":[],"default_left":[1,1,1,0,0,0,0,1,1,1,1,1,1,0,0,1,1,0,0,0,0,0,0,0,0],"id":64,"left_children":[1,3,5,7,-1,9,11,13,-1,17,19,21,23,-1,-1,-1,-1,-1,-1,-1,-1,-1,-1,-1,-1],"loss_changes":[7.531036E-1,6.10628E-1,5.9736353E-1,3.3188266E-1,0E0,4.082976E-1,2.6019245E-1,2.9491204E-1,3.173258E-2,1.050649E-1,2.3290247E-1,5.0801796E-1,1.3253894E-1,0E0,0E0,0E0,0E0,0E0,0E0,0E0,0E0,0E0,0E0,0E0,0E0],"parents":[2147483647,0,0,1,1,2,2,3,3,5,5,6,6,7,7,8,8,9,9,10,10,11,11,12,12],"right_children":[2,4,6,8,-1,10,12,14,-1,18,20,22,24,-1,-1,-1,-1,-1,-1,-1,-1,-1,-1,-1,-1],"split_conditions":[3.2891232E-1,2.840585E-1,3.3796997E1,3.5301575E1,1.7122746E-1,3.3311165E1,3.444837E1,5.48885E0,-2.3151081E-2,6.48172E0,1.0673932E0,7.15868E-1,4.8355225E-2,1.701309E-2,8.225566E-2,-3.2797176E-2,7.073498E-3,6.20327E-3,-7.9734236E-2,7.820964E-2,-2.4171164E-2,-3.4075197E-2,-1.8514891E-1,-2.7978774E-2,4.089556E-2],"split_indices":[11,9,5,5,0,5,5,0,0,1,22,19,16,0,0,2147483647,2147483647,0,0,0,0,0,0,0,0],"split_type":[0,0,0,0,0,0,0,0,0,0,0,0,0,0,0,0,0,0,0,0,0,0,0,0,0],"sum_hessian":[8.1E1,3.6E1,4.5E1,3.4E1,2E0,1.5E1,3E1,2.6E1,8E0,4E0,1.1E1,1E1,2E1,1.6E1,1E1,6E0,2E0,2E0,2E0,9E0,2E0,8E0,2E0,1.8E1,2E0],"tree_param":{"num_deleted":"2","num_feature":"33","num_nodes":"25","size_leaf_vector":"0"}},{"base_weights":[1.1218567E-2,2.3716958E-2,-2.8217363E-1,3.640231E-2,-2.6763272E-1,-6.808197E-2,7.763599E-2,-3.900385E-1,-9.681797E-2,-1.4346609E-1,2.0710945E-1,4.2958784E-1,5.367722E-2],"categories":[],"categories_nodes":[],"categories_segments":[],"categories_sizes":[],"default_left":[1,1,0,1,1,1,0,1,1,0,0,0,0],"id":65,"left_children":[1,3,-1,5,-1,9,11,-1,-1,-1,-1,-1,-1],"loss_changes":[3.5871762E-1,3.5345867E-1,0E0,3.9303002E-1,4.5872092E-2,5.6908476E-1,5.250425E-1,0E0,0E0,0E0,0E0,0E0,0E0],"parents":[2147483647,0,0,1,1,3,3,4,4,5,5,6,6],"right_children":[2,4,-1,6,-1,10,12,-1,-1,-1,-1,-1,-1],"split_conditions":[2.9372496E1,3.3249116E0,-8.4652096E-2,2.3037367E1,-8.028982E-2,1.6433221E-1,2.4045464E1,-1.17011555E-1,-2.9045392E-2,-4.303983E-2,6.213284E-2,1.2887636E-1,1.6103167E-2],"split_indices":[6,11,0,6,4,7,6,2147483647,2147483647,0,0,0,0],"split_type":[0,0,0,0,0,0,0,0,0,0,0,0,0],"sum_hessian":[9.5E1,9.2E1,3E0,8.9E1,3E0,2.5E1,6.4E1,1E0,2E0,2E1,5E0,3E0,6.1E1],"tree_param":{"num_deleted":"2","num_feature":"33","num_nodes":"13","size_leaf_vector":"0"}},{"base_weights":[-2.3868745E-2,1.7882252E-1,-4.0880576E-2,2.5061083E-1,6.2328577E-2,-1.2566245E-1,1.3117473E-2,-4.1673295E-2,-4.1967037E-1,2.997963E-2,-4.149952E-1,-7.591621E-2,1.6564178E-1,-5.283108E-1,1.16086006E-1,1.8175131E-1,-4.025827E-2],"categories":[],"categories_nodes":[],"categories_segments":[],"categories_sizes":[],"default_left":[1,0,1,1,1,1,1,1,1,1,0,0,0,0,0,0,0],"id":66,"left_children":[1,-1,5,-1,-1,7,9,11,13,15,-1,-1,-1,-1,-1,-1,-1],"loss_changes":[3.1074747E-1,4.2920113E-2,3.7704897E-1,0E0,0E0,7.727022E-1,3.8060546E-1,1.9715078E-1,4.68763E-1,5.403232E-1,0E0,0E0,0E0,0E0,0E0,0E0,0E0],"parents":[2147483647,0,0,1,1,2,2,5,5,6,6,7,7,8,8,9,9],"right_children":[2,-1,6,-1,-1,8,10,12,14,16,-1,-1,-1,-1,-1,-1,-1],"split_conditions":[3.5785627E-2,5.364676E-2,6.568605E-1,7.518325E-2,1.8698573E-2,3.000683E-2,7.23093E0,1.40337E-4,9.853342E-1,1.0035973E0,-1.2449856E-1,-2.2774864E-2,4.9692538E-2,-1.5849324E-1,3.48258E-2,5.4525394E-2,-1.20774815E-2],"split_indices":[3,6,14,2147483647,2147483647,17,1,30,3,14,0,0,0,0,0,0,0],"split_type":[0,0,0,0,0,0,0,0,0,0,0,0,0,0,0,0,0],"sum_hessian":[8.7E1,6E0,8.1E1,3E0,3E0,3.1E1,5E1,2.5E1,6E0,4.9E1,1E0,2.2E1,3E0,5E0,1E0,1.5E1,3.4E1],"tree_param":{"num_deleted":"2","num_feature":"33","num_nodes":"17","size_leaf_vector":"0"}},{"base_weights":[3.6334723E-2,4.8870552E-2,-1.9156285E-1,7.450996E-2,-9.197419E-2,-2.4239993E-1,5.8927536E-3,4.173812E-2,2.8335315E-1,-2.4826595E-1,5.627787E-2,1.877985E-1,1.5381244E-2,1.0587161E-1,5.231075E-1,-8.207569E-2,-4.424944E-1,2.024072E-1,-2.6166439E-2],"categories":[],"categories_nodes":[],"categories_segments":[],"categories_sizes":[],"default_left":[1,1,1,1,1,1,1,1,1,1,1,0,0,0,0,0,0,0,0],"id":67,"left_children":[1,3,-1,7,9,-1,-1,11,13,15,17,-1,-1,-1,-1,-1,-1,-1,-1],"loss_changes":[2.7219522E-1,3.2463652E-1,5.161874E-2,5.0148654E-1,3.383599E-1,0E0,0E0,2.5119132E-1,3.701375E-1,1.8963408E-1,1.0167652E-1,0E0,0E0,0E0,0E0,0E0,0E0,0E0,0E0],"parents":[2147483647,0,0,1,1,2,2,3,3,4,4,7,7,8,8,9,9,10,10],"right_children":[2,4,-1,8,10,-1,-1,12,14,16,18,-1,-1,-1,-1,-1,-1,-1,-1],"split_conditions":[1E1,2.4862501E-1,-5.7468858E-2,7.549911E-2,3.9082342E-1,-7.2719984E-2,1.7678262E-3,5.9040755E-2,7.18E-1,8.2850003E-1,6.333855E-1,5.633955E-2,4.614373E-3,3.1761486E-2,1.5693226E-1,-2.4622709E-2,-1.3274832E-1,6.072216E-2,-7.849932E-3],"split_indices":[15,17,2,17,17,2147483647,2147483647,13,2,2,9,0,0,0,0,0,0,0,0],"split_type":[0,0,0,0,0,0,0,0,0,0,0,0,0,0,0,0,0,0,0],"sum_hessian":[9.1E1,8.7E1,4E0,7.4E1,1.3E1,3E0,1E0,6.5E1,9E0,6E0,7E0,9E0,5.6E1,6E0,3E0,4E0,2E0,2E0,5E0],"tree_param":{"num_deleted":"2","num_feature":"33","num_nodes":"19","size_leaf_vector":"0"}},{"base_weights":[-8.137867E-3,2.104409E-1,-2.5631126E-2,-2.058347E-3,2.9585227E-1,-3.957614E-2,2.1098232E-1,5.855131E-2,-6.1638832E-2,3.664907E-1,1.2659645E-1,-7.422992E-4,-1.15830384E-1,5.527258E-2,2.3609161E-1,1.5934872E-2,-2.2152925E-1,-2.0105997E-1,8.643871E-2],"categories":[],"categories_nodes":[],"categories_segments":[],"categories_sizes":[],"default_left":[1,1,1,1,1,1,1,1,1,1,1,1,1,1,1,0,0,0,0],"id":68,"left_children":[1,3,5,-1,-1,11,-1,-1,-1,-1,-1,15,17,-1,-1,-1,-1,-1,-1],"loss_changes":[3.6099374E-1,1.2765792E-1,2.9541317E-1,1.4442492E-2,1.3383418E-2,2.4569736E-1,6.4994097E-3,0E0,0E0,0E0,0E0,2.0972772E-1,5.0008E-1,0E0,0E0,0E0,0E0,0E0,0E0],"parents":[2147483647,0,0,1,1,2,2,3,3,4,4,5,5,6,6,11,11,12,12],"right_children":[2,4,6,-1,-1,12,-1,-1,-1,-1,-1,16,18,-1,-1,-1,-1,-1,-1],"split_conditions":[4.233E0,3.73067E0,7.41103E0,-6.175041E-4,8.875568E-2,5.8520803E0,6.32947E-2,1.7565394E-2,-1.849165E-2,1.0994721E-1,3.7978936E-2,2.571695E0,1.184674E0,1.6581774E-2,7.0827484E-2,4.7804615E-3,-6.645878E-2,-6.0317993E-2,2.5931614E-2],"split_indices":[0,0,0,0,0,0,0,2147483647,2147483647,2147483647,2147483647,11,25,2147483647,2147483647,0,0,0,0],"split_type":[0,0,0,0,0,0,0,0,0,0,0,0,0,0,0,0,0,0,0],"sum_hessian":[9.2E1,6E0,8.6E1,2E0,4E0,8.2E1,4E0,1E0,1E0,2E0,2E0,5.5E1,2.7E1,1E0,3E0,5.2E1,3E0,1.9E1,8E0],"tree_param":{"num_deleted":"6","num_feature":"33","num_nodes":"19","size_leaf_vector":"0"}},{"base_weights":[-8.919664E-3,2.3736973E-1,-2.29717E-2,1.1815381E-1,3.571167E-1,3.4441482E-2,-6.81991E-2,1.1174024E-1,-7.2165154E-2,5.4164886E-2,-1.1389068E-1,-1.9982763E-2,1.8332468E-1,2.6835504E-1,-1.3545819E-1,1.2282435E-1,2.3735894E-3,-4.5433044E-2,-2.6534593E-1],"categories":[],"categories_nodes":[],"categories_segments":[],"categories_sizes":[],"default_left":[1,1,0,1,1,1,1,1,1,1,1,0,0,0,0,1,1,0,0],"id":69,"left_children":[1,-1,5,-1,-1,7,9,11,13,-1,17,-1,-1,-1,-1,-1,-1,-1,-1],"loss_changes":[3.2039177E-1,2.9184014E-2,2.2825733E-1,0E0,0E0,3.2944557E-1,2.8012806E-1,2.2053766E-1,4.0274435E-1,4.949195E-2,3.6120215E-1,0E0,0E0,0E0,0E0,0E0,0E0,0E0,0E0],"parents":[2147483647,0,0,1,1,2,2,5,5,6,6,7,7,8,8,9,9,10,10],"right_children":[2,-1,6,-1,-1,8,10,12,14,-1,18,-1,-1,-1,-1,-1,-1,-1,-1],"split_conditions":[4.90147E0,7.121092E-2,2.7795105E1,3.5446145E-2,1.0713501E-1,1.5E0,2.4219206E-1,5.85E-6,9.2532E-4,1.6249467E-2,4.9947697E-1,-5.994829E-3,5.4997407E-2,8.050652E-2,-4.0637456E-2,3.6847305E-2,7.1207684E-4,-1.3629914E-2,-7.9603784E-2],"split_indices":[1,7,6,2147483647,2147483647,28,3,18,14,27,9,0,0,0,0,2147483647,2147483647,0,0],"split_type":[0,0,0,0,0,0,0,0,0,0,0,0,0,0,0,0,0,0,0],"sum_hessian":[9E1,4E0,8.6E1,3E0,1E0,3.8E1,4.8E1,2.2E1,1.6E1,1.3E1,3.5E1,8E0,1.4E1,2E0,1.4E1,5E0,8E0,2.5E1,1E1],"tree_param":{"num_deleted":"4","num_feature":"33","num_nodes":"19","size_leaf_vector":"0"}},{"base_weights":[-3.0936318E-4,-6.795113E-2,4.8770137E-2,-7.182268E-3,-1.939544E-1,7.580177E-2,-1.666007E-1,-1.3683787E-1,6.950822E-2,-3.0034897E-1,-3.750165E-2,-1.3651626E-1,1.05023876E-1,-5.6765176E-2,-3.5788918E-1,5.901575E-2,-1.6515668E-1,1.8510754E-1,5.9161982E-3,-4.5250416E-2,-3.3532366E-1,-1.828308E-2,-6.679726E-2,-1.6011715E-2,-2.5168356E-1,1.6608222E-1,2.5583569E-2],"categories":[],"categories_nodes":[],"categories_segments":[],"categories_sizes":[],"default_left":[1,1,1,1,0,1,1,0,1,1,1,1,1,0,0,1,1,0,0,1,1,1,1,1,1,0,0],"id":70,"left_children":[1,3,5,7,9,11,13,-1,17,-1,-1,-1,25,-1,-1,-1,-1,-1,-1,-1,-1,-1,-1,-1,-1,-1,-1],"loss_changes":[2.921387E-1,2.819187E-1,3.0954167E-1,2.6803845E-1,1.8848509E-1,2.997389E-1,1.05745986E-1,6.521027E-2,1.23875186E-1,4.728037E-2,2.1568583E-3,7.923921E-2,1.9462126E-1,0E0,0E0,0E0,0E0,0E0,0E0,0E0,0E0,0E0,0E0,0E0,0E0,0E0,0E0],"parents":[2147483647,0,0,1,1,2,2,3,3,4,4,5,5,6,6,7,7,8,8,9,9,10,10,11,11,12,12],"right_children":[2,4,6,8,10,12,14,-1,18,-1,-1,-1,26,-1,-1,-1,-1,-1,-1,-1,-1,-1,-1,-1,-1,-1,-1],"split_conditions":[3.8028744E-1,3.266843E-2,2.4862501E-1,6.087949E-2,3.506414E1,-4.135E-1,8.595E-1,-4.105136E-2,2.12055E-4,-9.010469E-2,-1.1250496E-2,-4.095488E-2,3.454802E1,-1.7029554E-2,-1.07366756E-1,1.7704725E-2,-4.9547005E-2,5.5532265E-2,1.7748595E-3,-1.35751255E-2,-1.00597106E-1,-5.484924E-3,-2.0039178E-2,-4.8035146E-3,-7.550507E-2,4.9824666E-2,7.675071E-3],"split_indices":[3,32,17,11,5,2,2,5,20,2,5,9,5,0,0,2147483647,2147483647,0,0,2147483647,2147483647,2147483647,2147483647,2147483647,2147483647,0,0],"split_type":[0,0,0,0,0,