{"learner":{"attributes":{"scikit_learn":"{\"n_estimators\": 100, \"objective\": \"reg:squarederror\", \"max_depth\": 6, \"max_leaves\": null, \"max_bin\": null, \"grow_policy\": null, \"learning_rate\": null, \"verbosity\": null, \"booster\": null, \"tree_method\": null, \"gamma\": 0.3, \"min_child_weight\": null, \"max_delta_step\": null, \"subsample\": 0.8, \"sampling_method\": null, \"colsample_bytree\": 0.75, \"colsample_bylevel\": null, \"colsample_bynode\": null, \"reg_alpha\": null, \"reg_lambda\": null, \"scale_pos_weight\": null, \"base_score\": null, \"missing\": NaN, \"num_parallel_tree\": null, \"random_state\": null, \"n_jobs\": null, \"monotone_constraints\": null, \"interaction_constraints\": null, \"importance_type\": \"gain\", \"gpu_id\": null, \"validate_parameters\": null, \"predictor\": null, \"enable_categorical\": false, \"feature_types\": null, \"max_cat_to_onehot\": null, \"max_cat_threshold\": null, \"eval_metric\": null, \"early_stopping_rounds\": null, \"callbacks\": null, \"kwargs\": {}, \"type\": \"XGBRegressor\", \"_estimator_type\": \"regressor\"}"},"feature_names":[],"feature_types":[],"gradient_booster":{"model":{"gbtree_model_param":{"num_parallel_tree":"1","num_trees":"100","size_leaf_vector":"0"},"tree_info":[0,0,0,0,0,0,0,0,0,0,0,0,0,0,0,0,0,0,0,0,0,0,0,0,0,0,0,0,0,0,0,0,0,0,0,0,0,0,0,0,0,0,0,0,0,0,0,0,0,0,0,0,0,0,0,0,0,0,0,0,0,0,0,0,0,0,0,0,0,0,0,0,0,0,0,0,0,0,0,0,0,0,0,0,0,0,0,0,0,0,0,0,0,0,0,0,0,0,0,0],"trees":[{"base_weights":[2.4856382E1,1.373494E1,9.9708336E1,6.9333336E1,1.1506173E1,2.77625E2,9.555555E0,4.75E0,9.925E1,1.2454545E1,9.148149E0,3.4266666E2,4.125E1,1.125E1,1.675E1,9.160714E0,1.3736842E1,2.2625E1,1.1E1,1.6818182E1,8.444445E0],"categories":[],"categories_nodes":[],"categories_segments":[],"categories_sizes":[],"default_left":[1,1,1,1,1,1,0,0,0,1,0,0,0,1,0,0,1,0,0,0,0],"id":0,"left_children":[1,3,5,7,9,11,-1,-1,-1,13,-1,-1,-1,15,17,-1,19,-1,-1,-1,-1],"loss_changes":[7.688192E4,9.487255E3,1.8982331E5,5.324917E3,6.7203125E1,4.7361906E4,0E0,0E0,0E0,9.613672E1,0E0,0E0,0E0,1.1316406E2,8.89375E1,0E0,1.6782568E2,0E0,0E0,0E0,0E0],"parents":[2147483647,0,0,1,1,2,2,3,3,4,4,5,5,9,9,13,13,14,14,16,16],"right_children":[2,4,6,8,10,12,-1,-1,-1,14,-1,-1,-1,16,18,-1,20,-1,-1,-1,-1],"split_conditions":[1.14E0,4.75986E0,1.24E0,3.79387E0,3.4455856E1,6.357861E-1,2.8666668E0,1.4250001E0,2.9775002E1,3.4039223E1,2.7444446E0,1.028E2,1.2375001E1,9.315558E-3,3.41997E1,2.7482142E0,1.9776636E-1,6.7875004E0,3.3000002E0,5.045455E0,2.5333335E0],"split_indices":[2,1,2,0,7,3,0,0,0,7,0,0,0,22,7,0,22,0,0,0,0],"split_type":[0,0,0,0,0,0,0,0,0,0,0,0,0,0,0,0,0,0,0,0,0],"sum_hessian":[9.3E1,8.2E1,1.1E1,2E0,8E1,3E0,8E0,1E0,1E0,5.4E1,2.6E1,2E0,1E0,4.5E1,9E0,2.7E1,1.8E1,3E0,6E0,1E1,8E0],"tree_param":{"num_deleted":"0","num_feature":"35","num_nodes":"21","size_leaf_vector":"0"}},{"base_weights":[2.2410215E1,9.421995E1,1.4353615E1,2.7335E2,3.7659943E1,1.1590604E1,8.417037E1,1.0404924E1,7.961667E1,8.187856E0,4.6392826E1,3.3777776E0,1.2287778E2,5.335417E0,1.3695959E1,1.3527977E1,7.6131616E0,1.3785E2,8.174961E0,5.0638394E0,2.0304167E1,7.171625E0,1.0562469E1,1.2110433E1,4.461706E0],"categories":[],"categories_nodes":[],"categories_segments":[],"categories_sizes":[],"default_left":[1,0,1,0,1,1,1,1,0,1,1,0,0,0,0,1,1,0,0,0,0,0,1,0,0],"id":1,"left_children":[1,3,5,-1,7,9,11,13,-1,15,17,-1,-1,-1,-1,19,21,-1,-1,-1,-1,-1,23,-1,-1],"loss_changes":[5.1294957E4,8.089003E4,1.5035484E4,0E0,8.319845E3,9.212422E3,8.966762E3,2.7029968E1,0E0,1.2717969E2,2.3340172E4,0E0,0E0,0E0,0E0,2.4131055E2,1.5405762E1,0E0,0E0,0E0,0E0,0E0,1.207312E1,0E0,0E0],"parents":[2147483647,0,0,1,1,2,2,4,4,5,5,6,6,7,7,9,9,10,10,15,15,16,16,22,22],"right_children":[2,4,6,-1,8,10,12,14,-1,16,18,-1,-1,-1,-1,20,22,-1,-1,-1,-1,-1,24,-1,-1],"split_conditions":[4.1743402E0,6.772322E1,3.572387E1,8.2005005E1,3.92306E0,6.88058E0,6.6235E0,3.73067E0,2.3885002E1,3.665E-5,5.87451E0,1.0133333E0,3.6863335E1,1.6006252E0,4.108788E0,3.38954E1,8.817686E-1,4.1355003E1,2.4524884E0,1.5191519E0,6.0912504E0,2.1514876E0,2.2139384E-1,3.6331298E0,1.338512E0],"split_indices":[0,7,7,0,0,1,0,0,0,16,0,0,0,0,0,7,34,0,0,0,0,0,10,0,0],"split_type":[0,0,0,0,0,0,0,0,0,0,0,0,0,0,0,0,0,0,0,0,0,0,0,0,0],"sum_hessian":[9E1,8E0,8.2E1,1E0,7E0,8E1,2E0,5E0,2E0,7.4E1,6E0,1E0,1E0,3E0,2E0,5E0,6.9E1,1E0,5E0,3E0,2E0,6.3E1,6E0,4E0,2E0],"tree_param":{"num_deleted":"0","num_feature":"35","num_nodes":"25","size_leaf_vector":"0"}},{"base_weights":[1.7717304E1,1.0036959E1,7.892441E1,7.6049523E0,7.1544815E1,1.8632E2,6.2805867E0,6.0355196E0,1.5229296E1,2.871111E0,1.04446106E2,2.3301334E2,2.3119999E1,8.603524E0,4.938967E0,7.242E1,4.428404E0,5.6620655E0,1.4033007E1,4.628319E0,7.3543463E0,5.8577127E0,1.5593281E0,1.869564E1,3.1384923E0],"categories":[],"categories_nodes":[],"categories_segments":[],"categories_sizes":[],"default_left":[1,1,1,1,1,1,0,0,1,0,0,0,0,1,1,0,0,1,1,0,0,0,0,0,0],"id":2,"left_children":[1,3,5,7,9,11,-1,13,15,-1,-1,-1,-1,17,19,-1,-1,21,23,-1,-1,-1,-1,-1,-1],"loss_changes":[4.1986188E4,1.1722081E4,7.684608E4,8.65355E2,6.4784844E3,2.5094125E4,0E0,1.4899194E2,7.7095327E3,0E0,0E0,0E0,0E0,2.239856E2,3.4785156E0,0E0,0E0,2.1035156E0,2.4610657E2,0E0,0E0,0E0,0E0,0E0,0E0],"parents":[2147483647,0,0,1,1,2,2,3,3,4,4,5,5,7,7,8,8,13,13,14,14,17,17,18,18],"right_children":[2,4,6,8,10,12,-1,14,16,-1,-1,-1,-1,18,20,-1,-1,22,24,-1,-1,-1,-1,-1,-1],"split_conditions":[1.1515E0,3.572387E1,1.24E0,7.395E-1,-4.005E-1,6.357861E-1,1.8841761E0,3.41997E1,7.7250004E-1,8.613333E-1,3.1333834E1,6.990401E1,6.936E0,9.0222317E-1,3.4321628E0,2.1726E1,1.3285213E0,6.655E-1,9.9418396E-1,1.3884957E0,2.206304E0,1.7573138E0,4.6779844E-1,5.608692E0,9.4154775E-1],"split_indices":[2,7,2,2,2,3,0,7,2,0,0,0,0,3,14,0,0,2,3,0,0,0,0,0,0],"split_type":[0,0,0,0,0,0,0,0,0,0,0,0,0,0,0,0,0,0,0,0,0,0,0,0,0],"sum_hessian":[9E1,8.1E1,9E0,7.9E1,2E0,3E0,6E0,6.7E1,1.2E1,1E0,1E0,2E0,1E0,1.8E1,4.9E1,1E0,1.1E1,1.3E1,5E0,4.6E1,3E0,1.2E1,1E0,3E0,2E0],"tree_param":{"num_deleted":"0","num_feature":"35","num_nodes":"25","size_leaf_vector":"0"}},{"base_weights":[1.3627379E1,6.6478836E1,7.6604223E0,1.973955E2,2.5439816E1,5.577511E0,4.6882824E1,6.850087E0,5.413933E1,3.5706964E0,2.9398636E1,3.3243046E0,8.877919E1,2.8607292E0,9.885868E0,4.461276E0,-3.0720806E1,2.3901644E0,8.22205E1,9.810454E0,4.0089984E0,1.3910937E1,2.4398193E0,3.3730278E0,6.2665234E0],"categories":[],"categories_nodes":[],"categories_segments":[],"categories_sizes":[],"default_left":[1,0,1,0,1,1,1,1,0,1,1,0,0,0,0,1,0,0,0,0,1,0,0,0,0],"id":3,"left_children":[1,3,5,-1,7,9,11,13,-1,15,17,-1,-1,-1,-1,19,-1,-1,-1,21,23,-1,-1,-1,-1],"loss_changes":[2.7873355E4,4.333252E4,6.437648E3,0E0,3.897271E3,3.671588E3,7.0046465E3,4.4384094E1,0E0,2.396963E3,8.363306E3,0E0,0E0,0E0,0E0,1.372799E2,0E0,0E0,0E0,1.1717566E2,7.792749E1,0E0,0E0,0E0,0E0],"parents":[2147483647,0,0,1,1,2,2,4,4,5,5,6,6,7,7,9,9,10,10,15,15,19,19,20,20],"right_children":[2,4,6,-1,8,10,12,14,-1,16,18,-1,-1,-1,-1,20,-1,-1,-1,22,24,-1,-1,-1,-1],"split_conditions":[4.1743402E0,2.3174696E1,1.1668949E0,5.921865E1,3.92306E0,6.747603E-1,6.30296E0,3.73067E0,1.62418E1,1.2962291E0,9.165E-1,9.972914E-1,2.6633759E1,8.582188E-1,2.9657605E0,3.665E-5,-9.216242E0,7.1704936E-1,2.4666151E1,2.6301367E1,1.4538625E-1,4.173281E0,7.319458E-1,1.0119084E0,1.8799571E0],"split_indices":[0,6,34,0,0,33,0,0,0,22,2,0,0,0,0,16,0,0,0,6,33,0,0,0,0],"split_type":[0,0,0,0,0,0,0,0,0,0,0,0,0,0,0,0,0,0,0,0,0,0,0,0,0],"sum_hessian":[8.9E1,8E0,8.1E1,1E0,7E0,7.8E1,3E0,5E0,2E0,7.3E1,5E0,2E0,1E0,3E0,2E0,7.2E1,1E0,4E0,1E0,4E0,6.8E1,2E0,2E0,5.5E1,1.3E1],"tree_param":{"num_deleted":"0","num_feature":"35","num_nodes":"25","size_leaf_vector":"0"}},{"base_weights":[1.0969686E1,1.1261073E2,7.3799944E0,1.1299341E0,1.6778616E2,5.855862E0,2.7233824E1,2.396417E0,1.5955347E1,7.546231E1,2.4956644E0,3.2774136E0,-2.6112686E1,3.8884E0,4.5474648E1,7.922127E0,2.8205001E0,7.807942E0,1.9312245E0,8.221568E1,6.5502086E0,2.6928391E0,1.4419639E1,2.177257E0,4.2437763E0,1.9577986E0,1.1055438E1,1.2373745E0,7.9086947E0],"categories":[],"categories_nodes":[],"categories_segments":[],"categories_sizes":[],"default_left":[0,1,1,0,0,1,1,1,1,0,0,1,0,1,1,1,1,1,0,0,1,0,0,0,0,0,0,0,0],"id":4,"left_children":[1,3,5,-1,-1,7,9,11,13,-1,-1,15,-1,17,19,21,23,25,-1,-1,27,-1,-1,-1,-1,-1,-1,-1,-1],"loss_changes":[3.2006332E4,1.8263418E4,2.5033906E3,0E0,0E0,2.8616692E3,6.970176E3,1.6679167E3,7.3035396E3,0E0,0E0,1.0923401E2,0E0,1.0766081E2,8.042215E3,1.31057E2,4.3859924E1,7.334729E1,0E0,0E0,1.9083633E1,0E0,0E0,0E0,0E0,0E0,0E0,0E0,0E0],"parents":[2147483647,0,0,1,1,2,2,5,5,6,6,7,7,8,8,11,11,13,13,14,14,15,15,16,16,17,17,20,20],"right_children":[2,4,6,-1,-1,8,10,12,14,-1,-1,16,-1,18,20,22,24,26,-1,-1,28,-1,-1,-1,-1,-1,-1,-1,-1],"split_conditions":[2.1931564E1,1.1745E0,1.1668949E0,3.3898023E-1,5.033585E1,7.395E-1,-2.985E-1,1.2962291E0,6.883599E-2,2.2638695E1,7.486993E-1,3.665E-5,-7.833806E0,6.1122067E-3,3.8086694E-1,2.2843956E1,1.4538625E-1,3.3685576E-2,5.7936734E-1,2.4664705E1,1.05E0,8.078518E-1,4.325892E0,6.5317714E-1,1.2731329E0,5.873396E-1,3.3166316E0,3.7121236E-1,2.3726084E0],"split_indices":[8,2,34,0,0,2,2,23,19,0,0,16,0,11,10,8,33,12,0,0,2,0,0,0,0,0,0,0,0],"split_type":[0,0,0,0,0,0,0,0,0,0,0,0,0,0,0,0,0,0,0,0,0,0,0,0,0,0,0,0,0],"sum_hessian":[8.9E1,2E0,8.7E1,1E0,1E0,8.2E1,5E0,6.2E1,2E1,1E0,4E0,6.1E1,1E0,1.5E1,5E0,4E0,5.7E1,4E0,1.1E1,2E0,3E0,3E0,1E0,4.1E1,1.6E1,2E0,2E0,1E0,2E0],"tree_param":{"num_deleted":"0","num_feature":"35","num_nodes":"29","size_leaf_vector":"0"}},{"base_weights":[8.734051E0,9.5719124E1,5.6694E0,1.4261824E2,9.60444E-1,4.3176117E0,2.724557E1,2.8635931E1,3.3752632E0,1.9854777E0,6.414297E1,1.8501477E0,4.110375E1,1.7379493E0,1.3785385E1,7.886152E-1,2.7880325E0,2.3876607E0,-2.2195784E1,5.755507E1,3.6529102E0,5.1619782E0,1.5523618E0,9.872782E0,1.8648376E0],"categories":[],"categories_nodes":[],"categories_segments":[],"categories_sizes":[],"default_left":[0,1,1,0,0,1,1,1,1,1,0,0,0,1,1,0,0,0,0,0,1,0,0,0,0],"id":5,"left_children":[1,3,5,-1,-1,7,9,11,13,15,-1,-1,-1,17,19,-1,-1,21,-1,-1,23,-1,-1,-1,-1],"loss_changes":[2.3449426E4,1.3195318E4,2.449009E3,0E0,0E0,1.8283179E3,4.5328037E3,9.2583276E2,1.3737019E3,1.643506E0,0E0,0E0,0E0,1.1725975E3,4.668204E3,0E0,0E0,1.5652103E2,0E0,0E0,9.280467E1,0E0,0E0,0E0,0E0],"parents":[2147483647,0,0,1,1,2,2,5,5,6,6,7,7,8,8,9,9,13,13,14,14,17,17,20,20],"right_children":[2,4,6,-1,-1,8,10,12,14,16,-1,-1,-1,18,20,-1,-1,22,-1,-1,24,-1,-1,-1,-1],"split_conditions":[2.1884733E1,4.10133E0,1.1668949E0,4.2785473E1,2.881332E-1,4.75986E0,6.30296E0,3.79387E0,1.1515E0,5.84984E0,1.9242891E1,5.5504435E-1,1.2331125E1,3.5754547E1,1.176E0,2.3658457E-1,8.364098E-1,3.430931E1,-6.6587353E0,1.7266521E1,5.3130703E0,1.5485935E0,4.6570858E-1,2.9618347E0,5.5945134E-1],"split_indices":[8,0,34,0,0,1,0,0,2,0,0,0,0,7,2,0,0,7,0,0,1,0,0,0,0],"split_type":[0,0,0,0,0,0,0,0,0,0,0,0,0,0,0,0,0,0,0,0,0,0,0,0,0],"sum_hessian":[8.9E1,2E0,8.7E1,1E0,1E0,8.3E1,4E0,2E0,8.1E1,3E0,1E0,1E0,1E0,7.1E1,1E1,2E0,1E0,7E1,1E0,1E0,9E0,1.5E1,5.5E1,1E0,8E0],"tree_param":{"num_deleted":"0","num_feature":"35","num_nodes":"25","size_leaf_vector":"0"}},{"base_weights":[6.2414618E0,4.198461E1,2.7630491E0,3.9249184E0,1.0410913E2,1.4825672E0,5.4521523E1,1.3984506E0,5.9852357E0,7.6453943E0,1.236011E0,9.3842584E-1,6.7299213E0,7.0851666E-1,4.1533957E0,1.1482396E1,1.3182974E0,4.9850577E-1,1.6556059E0,4.9214926E0,5.40504E-1],"categories":[],"categories_nodes":[],"categories_segments":[],"categories_sizes":[],"default_left":[1,1,1,1,0,0,0,0,0,0,1,1,1,1,1,0,0,0,0,0,0],"id":6,"left_children":[1,3,5,7,-1,9,-1,-1,-1,-1,11,13,15,17,19,-1,-1,-1,-1,-1,-1],"loss_changes":[1.1197973E4,1.85069E4,5.4863345E3,2.28619E1,0E0,1.1666731E2,0E0,0E0,0E0,0E0,1.26111916E2,5.471103E1,8.773718E1,1.38932E1,1.1215172E1,0E0,0E0,0E0,0E0,0E0,0E0],"parents":[2147483647,0,0,1,1,2,2,3,3,5,5,10,10,11,11,12,12,13,13,14,14],"right_children":[2,4,6,8,-1,10,-1,-1,-1,-1,12,14,16,18,20,-1,-1,-1,-1,-1,-1],"split_conditions":[4.10133E0,3.92306E0,3.571495E1,3.73067E0,3.123274E1,3.2097557E1,1.6356457E1,4.195352E-1,1.7955707E0,2.2936184E0,8E0,7.4296904E0,6.950062E1,1.2312799E0,7.7776203E0,3.444719E0,3.9548925E-1,1.4955173E-1,4.9668178E-1,1.4764478E0,1.621512E-1],"split_indices":[0,0,7,0,0,7,0,0,0,0,17,0,4,25,0,0,0,0,0,0,0],"split_type":[0,0,0,0,0,0,0,0,0,0,0,0,0,0,0,0,0,0,0,0,0],"sum_hessian":[9E1,7E0,8.3E1,5E0,2E0,8.2E1,1E0,3E0,2E0,2E0,8E1,7.7E1,3E0,7.3E1,4E0,1E0,2E0,6.1E1,1.2E1,3E0,1E0],"tree_param":{"num_deleted":"0","num_feature":"35","num_nodes":"21","size_leaf_vector":"0"}},{"base_weights":[2.1160436E0,2.7139728E0,-2.7044647E1,1.8359649E0,2.8734888E1,1.0441726E1,1.1141475E0,-3.2409592E0,4.6343292E1,1.5991706E0,1.667385E1,2.8168724E0,5.5549043E-1,1.8908986E0,3.619933E-1,4.5319247E0,4.771223E-1,6.739766E-1,-3.5730553E0,6.590168E0,3.323509E-1,2.1214867E0,5.8694415E-2,1.2478424E0,1.7703353E-1],"categories":[],"categories_nodes":[],"categories_segments":[],"categories_sizes":[],"default_left":[1,1,0,1,1,1,0,0,0,1,0,1,1,0,0,1,1,0,0,0,0,0,0,0,0],"id":7,"left_children":[1,3,-1,5,7,9,11,-1,-1,13,-1,15,17,-1,-1,19,21,23,-1,-1,-1,-1,-1,-1,-1],"loss_changes":[1.7298209E3,2.0948213E3,0E0,5.598507E2,1.8393276E3,3.5909094E2,8.0241844E1,0E0,0E0,7.591839E-1,0E0,8.2106384E1,3.469374E1,0E0,0E0,1.0153465E2,6.7559595E0,1.8315704E1,0E0,0E0,0E0,0E0,0E0,0E0,0E0],"parents":[2147483647,0,0,1,1,3,3,4,4,5,5,6,6,9,9,11,11,12,12,15,15,16,16,17,17],"right_children":[2,4,-1,6,8,10,12,-1,-1,14,-1,16,18,-1,-1,20,22,24,-1,-1,-1,-1,-1,-1,-1],"split_conditions":[3.5778534E1,3.572387E1,-8.113395E0,4.1743402E0,6.6235E0,3.83969E0,3.4268105E1,-9.722878E-1,1.3902988E1,5.4047003E0,5.002155E0,3.8414982E-1,5.651061E0,5.672696E-1,1.08598E-1,8.486137E-3,5.44162E-4,2.7354727E1,-1.0719166E0,1.9770504E0,9.970528E-2,6.36446E-1,1.7608326E-2,3.7435275E-1,5.311006E-2],"split_indices":[7,7,0,0,0,0,7,0,0,1,0,13,15,0,0,21,10,6,0,0,0,0,0,0,0],"split_type":[0,0,0,0,0,0,0,0,0,0,0,0,0,0,0,0,0,0,0,0,0,0,0,0,0],"sum_hessian":[9.4E1,9.3E1,1E0,9.1E1,2E0,6E0,8.5E1,1E0,1E0,3E0,3E0,2E1,6.5E1,2E0,1E0,1.1E1,9E0,6.4E1,1E0,7E0,4E0,1E0,8E0,2.9E1,3.5E1],"tree_param":{"num_deleted":"0","num_feature":"35","num_nodes":"25","size_leaf_vector":"0"}},{"base_weights":[4.938521E0,3.5623585E1,2.225756E0,7.191495E0,1.0310806E2,9.527465E-1,2.6493002E1,1.9014982E0,1.682074E1,3.0810535E0,6.304883E-1,4.865985E1,2.8841019E0,2.8579595E0,3.1120428E-1,7.5504265E0,1.019907E0,3.3392668E0,4.124209E-1,1.9597212E0,3.8001537E-1,8.771511E0,-2.1167207E-1,7.067443E-2,1.5468642E0,-3.0294418E-1,5.771961E-1,5.3439474E-1,-6.384926E-1,1.9357184E-1,-3.037098E0,3.3031507E0,6.0792804E-1],"categories":[],"categories_nodes":[],"categories_segments":[],"categories_sizes":[],"default_left":[1,1,1,1,0,1,1,1,0,1,1,0,0,0,0,0,0,0,1,0,1,0,1,1,0,0,0,0,0,0,0,0,0],"id":8,"left_children":[1,3,5,7,-1,9,11,13,-1,15,17,-1,-1,-1,-1,-1,19,21,23,-1,25,-1,27,29,31,-1,-1,-1,-1,-1,-1,-1,-1],"loss_changes":[7.16271E3,1.2689571E4,2.4770461E3,2.7364746E2,0E0,5.1554855E1,1.9529995E3,6.7158623E0,0E0,8.44196E1,3.938086E1,0E0,0E0,0E0,0E0,0E0,4.066311E0,9.830452E1,2.5090654E1,0E0,9.828571E-1,0E0,1.6149535E0,2.0066692E1,2.2727535E1,0E0,0E0,0E0,0E0,0E0,0E0,0E0,0E0],"parents":[2147483647,0,0,1,1,2,2,3,3,5,5,6,6,7,7,9,9,10,10,16,16,17,17,18,18,20,20,22,22,23,23,24,24],"right_children":[2,4,6,8,-1,10,12,14,-1,16,18,-1,-1,-1,-1,-1,20,22,24,-1,26,-1,28,30,32,-1,-1,-1,-1,-1,-1,-1,-1],"split_conditions":[4.04769E0,3.95043E0,6.88058E0,3.92306E0,3.093242E1,5.3165E0,6.59174E0,5.05092E0,5.046222E0,3.1954067E1,3.665E-5,1.4597956E1,8.652306E-1,8.573879E-1,9.336129E-2,2.2651281E0,3.41426E1,3.4580486E1,6.3259E0,5.879164E-1,4.52103E0,2.6314535E0,5.52524E0,5.6197357E0,3.4092995E1,-9.0883255E-2,1.7315884E-1,1.6031843E-1,-1.9154778E-1,5.8071554E-2,-9.111294E-1,9.909452E-1,1.8237841E-1],"split_indices":[0,0,1,0,0,1,0,1,0,7,16,0,0,0,0,0,5,5,1,0,0,0,1,14,5,0,0,0,0,0,0,0,0],"split_type":[0,0,0,0,0,0,0,0,0,0,0,0,0,0,0,0,0,0,0,0,0,0,0,0,0,0,0,0,0,0,0,0,0],"sum_hessian":[8.6E1,6E0,8E1,5E0,1E0,7.7E1,3E0,4E0,1E0,9E0,6.8E1,1E0,2E0,2E0,2E0,2E0,7E0,4E0,6.4E1,2E0,5E0,1E0,3E0,5E1,1.4E1,1E0,4E0,1E0,2E0,4.9E1,1E0,4E0,1E1],"tree_param":{"num_deleted":"0","num_feature":"35","num_nodes":"33","size_leaf_vector":"0"}},{"base_weights":[2.9106147E0,4.4053383E1,9.631533E-1,8.7641846E1,3.0994734E-1,1.1080053E-1,1.8408684E1,-3.2366276E-2,4.9728727E-1,6.83385E-1,-2.3420565E1,-1.696929E0,3.9362762E1,6.668351E0,2.081489E-1,2.384572E-1,-2.7838507E0,5.1198745E-1,1.2654053E1,8.292569E-1,-2.0327768E0,6.076956E-1,1.12431526E-1,6.073293E-1,3.8398926E0,-1.045086E1,-2.1364155E-1],"categories":[],"categories_nodes":[],"categories_segments":[],"categories_sizes":[],"default_left":[0,1,1,0,1,1,1,1,1,1,0,1,0,1,1,0,0,1,0,0,1,1,1,0,0,0,0],"id":9,"left_children":[1,3,5,-1,-1,9,11,-1,-1,13,-1,15,-1,17,19,-1,-1,-1,-1,23,25,-1,-1,-1,-1,-1,-1],"loss_changes":[7.088602E3,7.5996724E3,1.2767584E3,0E0,2.0848238E-1,1.134322E3,1.7519742E3,0E0,0E0,2.318423E2,0E0,6.9746685E0,0E0,2.1462222E2,1.08858665E2,0E0,0E0,8.4638834E-2,0E0,3.8424652E1,2.58099E2,0E0,0E0,0E0,0E0,0E0,0E0],"parents":[2147483647,0,0,1,1,2,2,4,4,5,5,6,6,9,9,11,11,13,13,14,14,17,17,19,19,20,20],"right_children":[2,4,6,-1,-1,10,12,-1,-1,14,-1,16,-1,18,20,-1,-1,-1,-1,24,26,-1,-1,-1,-1,-1,-1],"split_conditions":[2.1884733E1,4.6026697E0,2.990091E1,2.6292555E1,9.298421E-2,3.5754547E1,6.6235E0,-9.7098835E-3,1.491862E-1,4.17936E0,-7.02617E0,6.0033503E0,1.1808829E1,3.81404E0,9.773798E-1,7.153717E-2,-8.3515525E-1,1.5359624E-1,3.796216E0,8E0,1.2639873E0,1.8230867E-1,3.372946E-2,1.821988E-1,1.1519679E0,-3.1352582E0,-6.409247E-2],"split_indices":[8,0,8,0,0,7,0,2147483647,2147483647,0,0,0,0,0,25,0,0,0,0,17,28,2147483647,2147483647,0,0,0,0],"split_type":[0,0,0,0,0,0,0,0,0,0,0,0,0,0,0,0,0,0,0,0,0,0,0,0,0,0,0],"sum_hessian":[8.8E1,3E0,8.5E1,1E0,2E0,8.2E1,3E0,1E0,1E0,8.1E1,1E0,2E0,1E0,5E0,7.6E1,1E0,1E0,3E0,2E0,6E1,1.6E1,2E0,1E0,5.7E1,3E0,2E0,1.4E1],"tree_param":{"num_deleted":"4","num_feature":"35","num_nodes":"27","size_leaf_vector":"0"}},{"base_weights":[1.345662E0,2.5250284E1,-9.033781E-1,4.626806E0,7.4495575E1,-3.7754595E-1,-1.990748E1,1.2399521E1,5.923586E-1,-3.407641E-2,-8.4949665E0,-3.4860182E-1,9.1474915E-1,1.4443955E-1,-6.354355E0,-1.2442516E1,-2.9993343E-1,1.3027391E0,3.5117278E-1,3.6873415E-1,-2.3468742E0,-3.3129787E-1,8.9326555E-1,8.4777164E-1,-5.8241105E0],"categories":[],"categories_nodes":[],"categories_segments":[],"categories_sizes":[],"default_left":[1,1,1,1,0,1,0,0,1,1,1,0,1,1,0,0,0,0,0,1,1,0,0,0,0],"id":10,"left_children":[1,3,5,7,-1,9,-1,-1,11,13,15,-1,17,19,-1,-1,-1,-1,-1,21,23,-1,-1,-1,-1],"loss_changes":[4.3775693E3,6.7645884E3,7.4195667E2,1.8080672E2,0E0,2.0602893E2,0E0,0E0,1.835667E0,8.2153305E1,9.3318985E1,0E0,4.1716146E-1,4.0539337E1,0E0,0E0,0E0,0E0,0E0,2.4530396E1,7.158875E1,0E0,0E0,0E0,0E0],"parents":[2147483647,0,0,1,1,2,2,3,3,5,5,8,8,9,9,10,10,12,12,13,13,19,19,20,20],"right_children":[2,4,6,8,-1,10,-1,-1,12,14,16,-1,18,20,-1,-1,-1,-1,-1,22,24,-1,-1,-1,-1],"split_conditions":[5.25476E0,5.1891003E0,9.985704E-1,4.75986E0,2.2348673E1,6.0902923E-1,-5.9722443E0,3.7198565E0,4.8372803E0,7.23093E0,5.82904E0,-1.0458055E-1,4.90147E0,2.9184806E-1,-1.9063065E0,-3.732755E0,-8.9980036E-2,3.9082175E-1,1.05351835E-1,4.30564E-1,1.1586142E0,-9.938937E-2,2.6797968E-1,2.543315E-1,-1.7472333E0],"split_indices":[1,1,3,1,0,32,0,0,1,1,1,0,1,32,0,0,0,0,0,3,12,0,0,0,0],"split_type":[0,0,0,0,0,0,0,0,0,0,0,0,0,0,0,0,0,0,0,0,0,0,0,0,0],"sum_hessian":[8E1,6E0,7.4E1,5E0,1E0,7.3E1,1E0,1E0,4E0,7.1E1,2E0,1E0,3E0,7E1,1E0,1E0,1E0,1E0,2E0,6.5E1,5E0,2.8E1,3.7E1,3E0,2E0],"tree_param":{"num_deleted":"0","num_feature":"35","num_nodes":"25","size_leaf_vector":"0"}},{"base_weights":[2.7131946E0,3.1804436E1,1.390104E0,6.3321228E1,1.9176102E-1,7.8008264E-1,1.8820696E1,-2.9163837E-2,3.1680536E-1,-1.7682284E-1,1.1878106E1,3.3324364E1,-5.093319E0,2.3880547E-1,-1.6921358E1,-4.6827444E-1,4.2978195E1,6.168928E0,1.0588091E-2,-6.6721135E-1,2.6320505E-1,-1.2861967E0,1.0539589E1,-6.8883743E0,1.8734881E-1,-3.3856225E-1,-9.9090385E-1],"categories":[],"categories_nodes":[],"categories_segments":[],"categories_sizes":[],"default_left":[0,1,1,0,1,1,1,1,1,1,1,0,0,1,0,1,0,1,0,1,0,0,0,0,0,1,1],"id":11,"left_children":[1,3,5,-1,-1,9,11,-1,-1,13,15,-1,-1,17,-1,19,-1,21,23,-1,-1,-1,-1,-1,-1,-1,-1],"loss_changes":[3.5353909E3,3.9731777E3,9.422914E2,0E0,9.211547E-2,9.3663916E2,1.2102543E3,0E0,0E0,5.7472015E2,2.7079404E3,0E0,0E0,1.0955661E2,0E0,1.0487231E0,0E0,1.1130745E2,9.762831E1,1.9642353E-1,0E0,0E0,0E0,0E0,0E0,0E0,0E0],"parents":[2147483647,0,0,1,1,2,2,4,4,5,5,6,6,9,9,10,10,13,13,15,15,17,17,18,18,19,19],"right_children":[2,4,6,-1,-1,10,12,-1,-1,14,16,-1,-1,18,-1,20,-1,22,24,-1,-1,-1,-1,-1,-1,-1,-1],"split_conditions":[2.1884733E1,5.40617E0,2.990091E1,1.8996368E1,5.7528306E-2,6.488185E-1,6.77131E0,-8.749152E-3,9.504161E-2,9.985704E-1,9.165E-1,9.99731E0,-1.5279957E0,4.75986E0,-5.0764074E0,5.525E-1,1.2893459E1,4.68587E0,3.1954067E1,-2.0016341E-1,7.896152E-2,-3.8585904E-1,3.161877E0,-2.0665123E0,5.6204647E-2,-1.0156868E-1,-2.9727116E-1],"split_indices":[8,1,8,0,1,20,1,2147483647,2147483647,3,2,0,0,1,0,2,0,1,7,1,0,0,0,0,0,2147483647,2147483647],"split_type":[0,0,0,0,0,0,0,0,0,0,0,0,0,0,0,0,0,0,0,0,0,0,0,0,0,0,0],"sum_hessian":[9.2E1,3E0,8.9E1,1E0,2E0,8.7E1,2E0,1E0,1E0,8.1E1,6E0,1E0,1E0,8E1,1E0,5E0,1E0,2E0,7.8E1,4E0,1E0,1E0,1E0,1E0,7.7E1,3E0,1E0],"tree_param":{"num_deleted":"4","num_feature":"35","num_nodes":"27","size_leaf_vector":"0"}},{"base_weights":[1.5264198E0,1.3162254E1,-3.144509E-1,5.382306E1,5.2885985E0,2.1808295E-1,-1.4588048E1,-8.7270397E-1,3.6531464E1,-3.685744E-1,2.6244144E0,1.2588625E-1,-5.429303E0,-5.855118E0,-1.9408731E-1,8.786773E0,1.1164508E0,3.9952445E-1,-6.457777E-1,1.3444096E-1,-2.253201E0,3.041422E-1,5.838231E0,1.0792265E0,1.4824894E-1,-9.715654E-2,2.1192124E0,-5.44967E0,2.5331163E-1,4.6445906E-1,-3.85067E-1],"categories":[],"categories_nodes":[],"categories_segments":[],"categories_sizes":[],"default_left":[0,1,1,0,0,1,0,1,0,0,1,1,0,0,1,0,1,0,0,1,1,1,0,0,0,0,0,0,0,0,0],"id":12,"left_children":[1,3,5,-1,7,9,-1,11,-1,13,15,17,-1,-1,19,-1,21,23,-1,25,27,29,-1,-1,-1,-1,-1,-1,-1,-1,-1],"loss_changes":[2.0390452E3,3.8772905E3,6.340788E2,0E0,2.341842E3,1.1531435E2,0E0,5.0735405E1,0E0,6.2047443E1,1.388718E2,2.3695712E0,0E0,0E0,4.427393E1,0E0,5.192194E1,1.2063457E0,0E0,2.6406979E1,7.348837E1,1.6152419E0,0E0,0E0,0E0,0E0,0E0,0E0,0E0,0E0,0E0],"parents":[2147483647,0,0,1,1,2,2,4,4,5,5,7,7,9,9,10,10,11,11,14,14,16,16,17,17,19,19,20,20,21,21],"right_children":[2,4,6,-1,8,10,-1,12,-1,14,16,18,-1,-1,20,-1,22,24,-1,26,28,30,-1,-1,-1,-1,-1,-1,-1,-1,-1],"split_conditions":[2.4045464E1,4.10635E0,3.567097E1,1.614692E1,2.396201E1,1.977255E-1,-4.376415E0,6.87421E0,1.0959439E1,3.2096046E1,1.2347446E-2,2.3601675E-1,-1.628791E0,-1.7565354E0,2.8651892E1,2.6360319E0,9.986342E-1,2.1126854E1,-1.9373332E-1,7.4296904E0,3.8073845E-2,9.1998243E-1,1.7514694E0,3.2376796E-1,4.4474684E-2,-2.9146964E-2,6.3576376E-1,-1.634901E0,7.599349E-2,1.3933772E-1,-1.155201E-1],"split_indices":[6,0,5,0,6,9,0,1,0,7,18,9,0,0,6,0,3,6,0,0,24,3,0,0,0,0,0,0,0,0,0],"split_type":[0,0,0,0,0,0,0,0,0,0,0,0,0,0,0,0,0,0,0,0,0,0,0,0,0,0,0,0,0,0,0],"sum_hessian":[9.4E1,1.2E1,8.2E1,1E0,1.1E1,8E1,2E0,1E1,1E0,6.5E1,1.5E1,9E0,1E0,1E0,6.4E1,2E0,1.3E1,7E0,2E0,5.6E1,8E0,1.2E1,1E0,1E0,6E0,5.1E1,5E0,3E0,5E0,1E1,2E0],"tree_param":{"num_deleted":"0","num_feature":"35","num_nodes":"31","size_leaf_vector":"0"}},{"base_weights":[1.4687506E0,-2.0124479E-1,1.3936102E1,-9.955686E-1,1.238932E1,3.971958E1,-6.9765043E-1,-2.3083869E-1,-1.2267404E1,9.150715E-1,2.9143158E1,5.1200897E1,2.6378174E0,-3.6839511E0,9.1177493E-1,3.7692487E-1,-7.2829404E0,-3.2104254E-1,-1.5173733E1,1.7343693E0,6.384913E-2,-9.110193E-1,-4.6149073E0,2.0291045E0,-1.5416598E-1,4.374626E0,1.9501269E-1,-1.0722298E1,-2.6948324E-1,-2.0059748E1,-6.858479E0,-1.2008238E-1,2.1585608E-1,-5.928726E-1,1.8969376E-1,-1.0786934E0,7.6406326E0,4.97891E-2,4.9624963E0,-5.7762957E-1,1.734047E-1,3.6697388E-2,2.4784327E-1],"categories":[],"categories_nodes":[],"categories_segments":[],"categories_sizes":[],"default_left":[1,1,1,1,1,1,1,1,1,1,0,0,0,1,1,1,1,0,1,0,1,0,0,0,0,1,1,0,1,0,0,1,1,0,1,0,0,0,0,0,0,1,1],"id":13,"left_children":[1,3,5,7,9,11,13,15,17,19,-1,-1,-1,21,23,25,27,-1,29,-1,-1,-1,-1,-1,33,35,37,-1,39,-1,-1,-1,-1,-1,-1,-1,-1,-1,-1,-1,-1,-1,-1],"loss_changes":[1.9391036E3,8.4241626E2,4.17811E3,6.7814105E2,9.345204E2,1.5679312E3,4.1808758E1,3.241959E2,1.6872888E2,2.6788802E0,0E0,0E0,0E0,3.540165E0,7.4588637E0,5.0053036E1,1.4184125E2,0E0,2.4934387E1,0E0,1.0979711E-1,0E0,0E0,0E0,7.158785E-1,6.167363E1,4.683279E1,0E0,5.095866E-1,0E0,0E0,0E0,0E0,0E0,1.7594784E-2,0E0,0E0,0E0,0E0,0E0,0E0,0E0,0E0],"parents":[2147483647,0,0,1,1,2,2,3,3,4,4,5,5,6,6,7,7,8,8,9,9,13,13,14,14,15,15,16,16,18,18,20,20,24,24,25,25,26,26,28,28,34,34],"right_children":[2,4,6,8,10,12,14,16,18,20,-1,-1,-1,22,24,26,28,-1,30,-1,-1,-1,-1,-1,34,36,38,-1,40,-1,-1,-1,-1,-1,-1,-1,-1,-1,-1,-1,-1,-1,-1],"split_conditions":[1.1515E0,1.2425455E0,1.24E0,4.1783217E-1,6.19066E0,6.357861E-1,1.458E0,2.9596663E1,-7.4E-2,5.9143E0,8.742948E0,1.536027E1,7.9134524E-1,6.7487698E0,1.696E0,4.75986E0,1.3599999E-1,-9.631277E-2,5.66048E0,5.203108E-1,1.9154739E-2,-2.733058E-1,-1.3844723E0,6.087314E-1,2.7528917E1,4.68587E0,9.986342E-1,-3.2166893E0,5.58453E0,-6.017925E0,-2.0575438E0,-3.6024716E-2,6.4756826E-2,-1.778618E-1,5.690813E-2,-3.2360804E-1,2.2921898E0,1.4936731E-2,1.4887489E0,-1.7328888E-1,5.202141E-2,1.1009216E-2,7.435298E-2],"split_indices":[2,21,2,32,1,3,2,8,2,1,0,0,0,1,2,1,2,0,1,0,1,0,0,0,6,1,3,0,1,0,0,2147483647,2147483647,0,1,0,0,0,0,0,0,2147483647,2147483647],"split_type":[0,0,0,0,0,0,0,0,0,0,0,0,0,0,0,0,0,0,0,0,0,0,0,0,0,0,0,0,0,0,0,0,0,0,0,0,0,0,0,0,0,0,0],"sum_hessian":[9.2E1,8.2E1,1E1,7.8E1,4E0,3E0,7E0,7.4E1,4E0,3E0,1E0,2E0,1E0,2E0,5E0,6.9E1,5E0,1E0,3E0,1E0,2E0,1E0,1E0,2E0,3E0,2E0,6.7E1,3E0,2E0,1E0,2E0,1E0,1E0,1E0,2E0,1E0,1E0,6.6E1,1E0,1E0,1E0,1E0,1E0],"tree_param":{"num_deleted":"4","num_feature":"35","num_nodes":"43","size_leaf_vector":"0"}},{"base_weights":[1.4518752E0,1.9068663E1,6.252198E-1,3.8069458E1,4.5244217E-2,5.0309975E-2,1.2542022E1,-5.0822735E-2,1.1868906E-1,8.023863E-1,-7.194713E0,2.0824051E-1,2.4771683E1,2.606641E-1,8.551053E0,-1.3370931E0,-1.0441867E1,6.8276983E-1,-1.2857606E0,2.3371613E1,-9.969902E-1,-2.3305955E0,-2.2906049E-1,4.3122348E-1,5.150711E0,-4.9843197E0,-7.0690197E-1,-4.297819E0,1.5358925E0,-4.9098492E-1,1.4739418E-1],"categories":[],"categories_nodes":[],"categories_segments":[],"categories_sizes":[],"default_left":[0,1,1,0,1,1,1,1,1,1,1,0,0,1,1,1,0,1,1,0,1,0,1,0,0,0,0,0,0,0,0],"id":14,"left_children":[1,3,5,-1,-1,9,11,-1,-1,13,15,-1,-1,17,19,21,-1,23,25,-1,27,-1,29,-1,-1,-1,-1,-1,-1,-1,-1],"loss_changes":[1.2987491E3,1.4441179E3,5.954135E2,0E0,2.7198968E-2,4.63473E2,5.981935E2,0E0,0E0,3.2098816E2,1.3820297E2,0E0,0E0,4.8528973E1,7.30838E2,3.869485E0,0E0,6.296475E1,3.0731657E1,0E0,4.0043434E1,0E0,3.681763E-1,0E0,0E0,0E0,0E0,0E0,0E0,0E0,0E0],"parents":[2147483647,0,0,1,1,2,2,4,4,5,5,6,6,9,9,10,10,13,13,14,14,15,15,17,17,18,18,20,20,22,22],"right_children":[2,4,6,-1,-1,10,12,-1,-1,14,16,-1,-1,18,20,22,-1,24,26,-1,28,-1,30,-1,-1,-1,-1,-1,-1,-1,-1],"split_conditions":[2.1884733E1,5.40617E0,1.1668949E0,1.1420837E1,1.3573266E-2,2.9596663E1,6.19066E0,-1.5246821E-2,3.560672E-2,6.88058E0,5.85501E0,6.2472153E-2,7.431505E0,1.4787729E0,6.9286003E0,5.43655E0,-3.1325603E0,9.103695E-1,5.26162E0,7.011484E0,7.07952E0,-6.991787E-1,5.58453E0,1.2936705E-1,1.5452133E0,-1.495296E0,-2.120706E-1,-1.2893457E0,4.6076778E-1,-1.4729548E-1,4.4218257E-2],"split_indices":[8,1,34,0,1,8,1,2147483647,2147483647,1,1,0,0,16,1,1,0,25,1,0,1,0,1,0,0,0,0,0,0,0,0],"split_type":[0,0,0,0,0,0,0,0,0,0,0,0,0,0,0,0,0,0,0,0,0,0,0,0,0,0,0,0,0,0,0],"sum_hessian":[8.9E1,3E0,8.6E1,1E0,2E0,8.3E1,3E0,1E0,1E0,7.6E1,7E0,2E0,1E0,7.2E1,4E0,3E0,4E0,5.7E1,1.5E1,1E0,3E0,1E0,2E0,5.5E1,2E0,1E0,1.4E1,1E0,2E0,1E0,1E0],"tree_param":{"num_deleted":"2","num_feature":"35","num_nodes":"31","size_leaf_vector":"0"}},{"base_weights":[9.4779885E-1,1.6206665E1,2.813121E-1,3.235904E1,3.6195118E-2,-1.8277347E-1,1.065291E1,-5.7609558E-2,1.1190224E-1,3.2934695E-1,-7.4073505E0,1.6659229E-1,2.1055931E1,-1.3972929E-1,1.9865875E1,9.215355E-1,-9.257435E0,1.9603893E-1,-2.1706753E0,3.6321886E0,4.808841E-2,-5.3910744E-1,-3.7123916E0],"categories":[],"categories_nodes":[],"categories_segments":[],"categories_sizes":[],"default_left":[0,1,1,0,1,1,1,1,1,1,1,0,0,1,0,0,0,1,1,0,0,0,0],"id":15,"left_children":[1,3,5,-1,-1,9,11,-1,-1,13,15,-1,-1,17,-1,-1,-1,19,21,-1,-1,-1,-1],"loss_changes":[9.7174493E2,1.0435946E3,4.4958484E2,0E0,2.7751684E-2,3.354264E2,4.3284976E2,0E0,0E0,7.817261E2,1.009859E2,0E0,0E0,5.7707413E1,0E0,0E0,0E0,3.6937088E1,2.8183601E1,0E0,0E0,0E0,0E0],"parents":[2147483647,0,0,1,1,2,2,4,4,5,5,6,6,9,9,10,10,13,13,17,17,18,18],"right_children":[2,4,6,-1,-1,10,12,-1,-1,14,16,-1,-1,18,-1,-1,-1,20,22,-1,-1,-1,-1],"split_conditions":[2.1884733E1,5.40617E0,1.1668949E0,9.707712E0,1.0858536E-2,6.92223E0,6.19066E0,-1.7282868E-2,3.3570673E-2,6.88058E0,5.88458E-1,4.9977686E-2,6.3167796E0,2.8702429E1,5.9597626E0,2.7646065E-1,-2.7772305E0,4.7726E0,4.948259E-1,1.0896566E0,1.4426523E-2,-1.6173224E-1,-1.1137176E0],"split_indices":[8,1,34,0,1,1,1,2147483647,2147483647,1,12,0,0,8,0,0,0,1,3,0,0,0,0],"split_type":[0,0,0,0,0,0,0,0,0,0,0,0,0,0,0,0,0,0,0,0,0,0,0],"sum_hessian":[9.5E1,3E0,9.2E1,1E0,2E0,8.9E1,3E0,1E0,1E0,8.4E1,5E0,2E0,1E0,8.3E1,1E0,1E0,4E0,7.2E1,1.1E1,2E0,7E1,6E0,5E0],"tree_param":{"num_deleted":"2","num_feature":"35","num_nodes":"23","size_leaf_vector":"0"}},{"base_weights":[3.9364975E-2,7.159603E-1,-1.8467361E1,2.5885376E-1,9.564825E0,-2.7615059E1,-8.598471E-2,7.0906776E-1,-4.473214E0,8.2140285E-1,1.7897545E1,2.4986072E-1,1.6885986E1,1.2885844E0,-7.0356503E0,-1.8588448E-1,1.4179888E0,7.1606494E-4,2.5632446E0,2.8505414E0,-2.291201E-1,-1.912899E-1,6.2997203E0],"categories":[],"categories_nodes":[],"categories_segments":[],"categories_sizes":[],"default_left":[1,1,1,1,1,0,0,1,1,1,0,1,0,0,0,0,0,1,1,0,0,0,0],"id":16,"left_children":[1,3,5,7,9,-1,-1,11,13,15,-1,17,-1,-1,-1,-1,-1,19,21,-1,-1,-1,-1],"loss_changes":[1.0650334E3,3.2920377E2,5.0206732E2,1.7147682E2,2.7672485E2,0E0,0E0,5.3806537E2,1.12415726E2,2.0663824E0,0E0,4.1496605E1,0E0,0E0,0E0,0E0,0E0,4.388265E1,7.325084E1,0E0,0E0,0E0,0E0],"parents":[2147483647,0,0,1,1,2,2,3,3,4,4,7,7,8,8,9,9,11,11,17,17,18,18],"right_children":[2,4,6,8,10,-1,-1,12,14,16,-1,18,-1,-1,-1,-1,-1,20,22,-1,-1,-1,-1],"split_conditions":[6.0902923E-1,1.1668949E0,5.62904E0,6.92223E0,6.30296E0,-8.284518E0,-2.5795413E-2,6.88058E0,-1.3949999E-1,5.6783E0,5.3692636E0,8.873057E-1,5.065796E0,3.865753E-1,-2.1106951E0,-5.5765346E-2,4.2539665E-1,3.665E-5,8.9898384E-1,8.5516244E-1,-6.873603E-2,-5.7386972E-2,1.8899162E0],"split_indices":[32,34,0,1,0,0,0,1,2,0,0,10,0,0,0,0,0,16,24,0,0,0,0],"split_type":[0,0,0,0,0,0,0,0,0,0,0,0,0,0,0,0,0,0,0,0,0,0,0],"sum_hessian":[8.3E1,8.1E1,2E0,7.8E1,3E0,1E0,1E0,7.2E1,6E0,2E0,1E0,7.1E1,1E0,2E0,4E0,1E0,1E0,6.5E1,6E0,4E0,6.1E1,4E0,2E0],"tree_param":{"num_deleted":"0","num_feature":"35","num_nodes":"23","size_leaf_vector":"0"}},{"base_weights":[-3.6952674E-1,-1.5554639E1,1.8378486E-1,-2.34728E1,1.40841E-1,4.8841572E-1,-4.6661396E0,3.0792633E-1,4.958172E0,-8.105933E-1,-6.966306E0,5.9193954E0,1.5620442E-1,-1.3897796E0,1.7388964E-1,-3.6454449E0,2.55499E-1,1.4977045E-1,2.7430608E0],"categories":[],"categories_nodes":[],"categories_segments":[],"categories_sizes":[],"default_left":[0,1,1,0,0,1,1,1,0,1,0,0,0,0,0,0,1,0,0],"id":17,"left_children":[1,3,5,-1,-1,7,9,11,-1,13,-1,-1,15,-1,-1,-1,17,-1,-1],"loss_changes":[7.170371E2,3.7614386E2,1.2490626E2,0E0,0E0,6.2205994E1,3.8695152E1,6.4631836E1,0E0,1.9522651E0,0E0,0E0,2.9620132E1,0E0,0E0,0E0,1.9314642E1,0E0,0E0],"parents":[2147483647,0,0,1,1,2,2,5,5,6,6,7,7,9,9,12,12,16,16],"right_children":[2,4,6,-1,-1,8,10,12,-1,14,-1,-1,16,-1,-1,-1,18,-1,-1],"split_conditions":[2.1633327E1,5.6987E0,2.9553074E1,-7.04184E0,4.2252302E-2,1.025629E0,6.18233E0,4.75986E0,1.4874516E0,5.43655E0,-2.089892E0,1.7758187E0,3.2096046E1,-4.169339E-1,5.2166894E-2,-1.0936335E0,4.8442307E-1,4.4931136E-2,8.229183E-1],"split_indices":[8,1,8,0,0,23,1,1,0,1,0,0,7,0,0,0,32,0,0],"split_type":[0,0,0,0,0,0,0,0,0,0,0,0,0,0,0,0,0,0,0],"sum_hessian":[8.4E1,2E0,8.2E1,1E0,1E0,7.8E1,4E0,7.6E1,2E0,2E0,2E0,1E0,7.5E1,1E0,1E0,1E0,7.4E1,7.2E1,2E0],"tree_param":{"num_deleted":"0","num_feature":"35","num_nodes":"19","size_leaf_vector":"0"}},{"base_weights":[5.728505E-1,7.377983E0,-1.5443234E-1,2.751709E1,1.4209588E0,-1.995188E1,3.1877393E-1,-5.099344E-1,4.809092E0,-6.429076E-2,7.9961405E0,-1.9290949E0,6.819196E-1,-3.0735967E-1,4.6916256E0,-1.7705186E-1,1.6257858E1,-2.3799424E0,-5.137E-1,5.527401E-2,8.7237674E-1,-6.1385244E-1,2.110624E0,6.130905E0,1.8689394E-1,-4.1624975E-1,-4.8882294E0,-7.607237E-2,4.863013E0],"categories":[],"categories_nodes":[],"categories_segments":[],"categories_sizes":[],"default_left":[1,0,1,0,1,0,1,1,0,1,1,1,1,1,1,0,0,0,0,0,0,1,1,0,0,0,0,0,0],"id":18,"left_children":[1,3,5,-1,7,-1,9,11,-1,13,15,17,19,21,23,-1,-1,-1,-1,-1,-1,25,27,-1,-1,-1,-1,-1,-1],"loss_changes":[4.6142026E2,1.0406217E3,8.026636E2,0E0,5.4789307E1,0E0,2.4755202E2,1.146408E1,0E0,9.507927E1,2.7297693E2,6.9180584E-1,4.2917693E-1,5.9100986E1,2.4788437E1,0E0,0E0,0E0,0E0,0E0,0E0,5.7089264E1,5.453769E1,0E0,0E0,0E0,0E0,0E0,0E0],"parents":[2147483647,0,0,1,1,2,2,4,4,6,6,7,7,9,9,10,10,11,11,12,12,13,13,14,14,21,21,22,22],"right_children":[2,4,6,-1,8,-1,10,12,-1,14,16,18,20,22,24,-1,-1,-1,-1,-1,-1,26,28,-1,-1,-1,-1,-1,-1],"split_conditions":[4.1743402E0,3.416751E1,4.26976E0,8.255127E0,3.92306E0,-5.985564E0,1.1668949E0,3.69293E0,1.4427277E0,8E0,6.18416E0,3.67276E0,3.73067E0,8.822299E-1,5.91925E0,-5.3115558E-2,4.8773575E0,-7.1398276E-1,-1.5411001E-1,1.6582204E-2,2.6171303E-1,5.4701436E-1,5.05E-1,1.8392717E0,5.6068186E-2,-1.2487493E-1,-1.4664688E0,-2.2821713E-2,1.4589039E0],"split_indices":[0,5,0,0,0,0,34,0,0,17,0,0,0,10,0,0,0,0,0,0,0,22,2,0,0,0,0,0,0],"split_type":[0,0,0,0,0,0,0,0,0,0,0,0,0,0,0,0,0,0,0,0,0,0,0,0,0,0,0,0,0],"sum_hessian":[9.2E1,8E0,8.4E1,1E0,7E0,1E0,8.3E1,5E0,2E0,8E1,3E0,2E0,3E0,7.7E1,3E0,2E0,1E0,1E0,1E0,1E0,2E0,6.9E1,8E0,2E0,1E0,6.7E1,2E0,5E0,3E0],"tree_param":{"num_deleted":"0","num_feature":"35","num_nodes":"29","size_leaf_vector":"0"}},{"base_weights":[6.550461E-1,6.8234625E0,-2.996357E-2,1.8290135E0,2.3389526E1,-4.1008914E-1,7.4850073E0,3.066573E0,-1.2557768E0,-6.201796E0,-1.8507468E-2,7.672205E-1,1.3819183E1,4.19559E0,5.3902626E-1,-2.0229511E0,1.3928604E-1,7.2730327E-1,-1.6959097E1,1.1092291E-1,-4.7981777E0,-5.8552265E-2,1.209383E0,-4.3664503E-1,1.2608343E0,9.2506063E-1,-2.513096E-1,4.2384672E-1,2.6446614E0,-3.3551872E-1,2.0216775E0],"categories":[],"categories_nodes":[],"categories_segments":[],"categories_sizes":[],"default_left":[1,1,1,1,0,1,1,1,1,1,1,1,0,0,0,0,0,1,0,1,0,0,0,0,0,1,1,0,0,0,0],"id":19,"left_children":[1,3,5,7,-1,9,11,13,15,17,19,21,-1,-1,-1,-1,-1,23,-1,25,-1,-1,-1,-1,-1,27,29,-1,-1,-1,-1],"loss_changes":[3.8049268E2,7.018655E2,2.3731337E2,3.4391823E1,0E0,1.7905139E2,1.5960422E2,1.4860329E1,3.4925385E0,3.8502646E2,4.6929817E1,1.1661893E0,0E0,0E0,0E0,0E0,0E0,3.0345476E0,0E0,2.2055607E1,0E0,0E0,0E0,0E0,0E0,1.870249E1,1.0631434E1,0E0,0E0,0E0,0E0],"parents":[2147483647,0,0,1,1,2,2,3,3,5,5,6,6,7,7,8,8,9,9,10,10,11,11,17,17,19,19,25,25,26,26],"right_children":[2,4,6,8,-1,10,12,14,16,18,20,22,-1,-1,-1,-1,-1,24,-1,26,-1,-1,-1,-1,-1,28,30,-1,-1,-1,-1],"split_conditions":[5.24349E0,5.1891003E0,1.1650326E0,7.7515566E-1,7.016858E0,4.3358E0,6.30296E0,4.90147E0,4.19604E0,4.1743402E0,3.5778534E1,5.84984E0,4.1457553E0,1.258677E0,1.6170788E-1,-6.068854E-1,4.1785814E-2,3.7217E0,-5.0877295E0,3.373098E1,-1.4394534E0,-1.756568E-2,3.628149E-1,-1.3099352E-1,3.7825033E-1,1.2452307E0,7.54322E0,1.2715402E-1,7.9339844E-1,-1.0065562E-1,6.0650325E-1],"split_indices":[1,1,34,14,0,0,0,1,0,0,7,0,0,0,0,0,0,0,0,5,0,0,0,0,0,26,0,0,0,0,0],"split_type":[0,0,0,0,0,0,0,0,0,0,0,0,0,0,0,0,0,0,0,0,0,0,0,0,0,0,0,0,0,0,0],"sum_hessian":[8.9E1,8E0,8.1E1,7E0,1E0,7.8E1,3E0,5E0,2E0,4E0,7.4E1,2E0,1E0,3E0,2E0,1E0,1E0,3E0,1E0,7.3E1,1E0,1E0,1E0,1E0,2E0,2.2E1,5.1E1,1.8E1,4E0,5E1,1E0],"tree_param":{"num_deleted":"0","num_feature":"35","num_nodes":"31","size_leaf_vector":"0"}},{"base_weights":[6.4582807E-1,5.368511E0,-3.334332E-1,1.2786733E0,1.6295897E1,-5.8492017E0,2.4781771E-1,4.8445816E0,8.103342E-2,2.2807058E1,-1.618793E0,-1.3973235E1,1.9505844E-1,-1.3820687E-1,6.3622565E0,3.506866E-1,-4.1111803E-1,-2.500863E-1,9.878187E-1,2.4478786E-1,-1.8182496E0,6.521371E-1,1.1746307E1,1.1375904E-1,4.2270583E-1,-5.664673E-1,-1.7051251E-1,-5.3431034E-1,2.2758484E-2,-1.5671808E-2,2.748335E0,-8.2313126E-1,-4.5292277E0,-4.97694E-2,1.0279751E0,-3.3094406E-2,6.723213E-2,1.6168493E-1,-1.6087481E0,3.3972993E0,7.623863E-2,-1.5439605E0,2.0648995E-1],"categories":[],"categories_nodes":[],"categories_segments":[],"categories_sizes":[],"default_left":[0,1,0,1,1,1,1,0,1,0,0,0,1,1,1,1,1,1,0,1,1,1,0,1,1,1,1,0,1,1,1,0,0,0,0,1,1,0,0,0,0,0,0],"id":20,"left_children":[1,3,5,7,9,11,13,-1,15,-1,-1,-1,17,19,21,-1,-1,27,-1,29,31,33,-1,-1,-1,-1,-1,-1,-1,37,39,41,-1,-1,-1,-1,-1,-1,-1,-1,-1,-1,-1],"loss_changes":[4.0414246E2,6.4953143E2,2.3549088E2,5.0855515E1,5.035016E2,3.4645197E2,1.59021E2,0E0,1.4712757E0,0E0,0E0,0E0,2.0115054E0,4.1625725E1,1.1531409E2,7.135677E-2,5.2921772E-2,3.2235625E-1,0E0,3.4602943E1,2.8644775E1,8.4257114E-1,0E0,0E0,0E0,0E0,0E0,0E0,9.676953E-3,1.4104708E1,8.4114685E0,7.740621E0,0E0,0E0,0E0,0E0,0E0,0E0,0E0,0E0,0E0,0E0,0E0],"parents":[2147483647,0,0,1,1,2,2,3,3,4,4,5,5,6,6,8,8,12,12,13,13,14,14,15,15,16,16,17,17,19,19,20,20,21,21,28,28,29,29,30,30,31,31],"right_children":[2,4,6,8,10,12,14,-1,16,-1,-1,-1,18,20,22,-1,-1,28,-1,30,32,34,-1,-1,-1,-1,-1,-1,-1,38,40,42,-1,-1,-1,-1,-1,-1,-1,-1,-1,-1,-1],"split_conditions":[2.4069412E1,1.1515E0,3.3458977E1,9.2532E-4,5.87451E0,5.64431E0,1.1668949E0,1.4533745E0,7.4190295E-1,6.842118E0,-4.8563793E-1,-4.191971E0,6.61755E0,2.8651892E1,6.30296E0,1.0520599E-1,-1.2333541E-1,4.92669E0,2.9634562E-1,8.822299E-1,6.7130003E0,5.84984E0,3.5238924E0,3.4127712E-2,1.2681176E-1,-1.6994019E-1,-5.1153757E-2,-1.602931E-1,6.8275454E-3,2.8881204E-1,5.91088E0,3.5378914E1,-1.3587683E0,-1.4930821E-2,3.0839252E-1,-9.928322E-3,2.016964E-2,4.850548E-2,-4.8262444E-1,1.0191898E0,2.2871591E-2,-4.6318814E-1,6.1946988E-2],"split_indices":[6,2,7,16,0,1,34,0,3,0,0,0,0,6,0,0,1,0,0,10,1,0,0,2147483647,2147483647,2147483647,2147483647,0,0,32,0,7,0,0,0,2147483647,2147483647,0,0,0,0,0,0],"split_type":[0,0,0,0,0,0,0,0,0,0,0,0,0,0,0,0,0,0,0,0,0,0,0,0,0,0,0,0,0,0,0,0,0,0,0,0,0,0,0,0,0,0,0],"sum_hessian":[8.6E1,1.4E1,7.2E1,1.1E1,3E0,6E0,6.6E1,2E0,9E0,2E0,1E0,2E0,4E0,6.3E1,3E0,6E0,3E0,3E0,1E0,5.2E1,1.1E1,2E0,1E0,2E0,4E0,1E0,2E0,1E0,2E0,4.8E1,4E0,9E0,2E0,1E0,1E0,1E0,1E0,4.4E1,4E0,3E0,1E0,5E0,4E0],"tree_param":{"num_deleted":"6","num_feature":"35","num_nodes":"43","size_leaf_vector":"0"}},{"base_weights":[5.7265866E-1,5.344366E0,-1.9845E-1,9.3954575E-1,1.8245646E1,-1.2319246E1,1.3182086E-1,2.8370222E-2,4.5700626E0,-1.3991748E-1,9.98436E0,-4.029239E-1,2.0915768E-1,-4.448635E0,-1.8287586E-2,-5.0479937E-1,-9.958649E-2,-3.284645E-2,2.549661E-1,-3.8348886E-1,8.868912E-1,1.0825634E-2,3.0162907E-1,4.6538007E-2,-1.0738587E0,3.864665E0,3.700379E-1],"categories":[],"categories_nodes":[],"categories_segments":[],"categories_sizes":[],"default_left":[0,1,0,1,0,0,1,0,0,0,0,1,0,0,1,1,1,1,1,0,1,1,1,0,0,0,0],"id":21,"left_children":[1,3,5,7,-1,-1,9,11,-1,13,-1,-1,-1,-1,19,-1,-1,-1,-1,23,25,-1,-1,-1,-1,-1,-1],"loss_changes":[3.1749802E2,6.6479126E2,3.0185986E2,3.295073E1,0E0,0E0,1.9951811E2,7.860277E-1,0E0,3.817567E1,0E0,4.243672E-2,8.597553E-2,0E0,2.4141329E1,0E0,0E0,0E0,6.50886E-2,1.5487611E1,3.0890442E1,0E0,0E0,0E0,0E0,0E0,0E0],"parents":[2147483647,0,0,1,1,2,2,3,3,6,6,7,7,9,9,11,11,12,12,14,14,18,18,19,19,20,20],"right_children":[2,4,6,8,-1,-1,10,12,-1,14,-1,-1,-1,-1,20,-1,-1,-1,-1,24,26,-1,-1,-1,-1,-1,-1],"split_conditions":[2.4045464E1,1.1515E0,2.2181534E1,2.3295656E1,5.473694E0,-3.695774E0,3.5614822E1,3.3960682E1,1.3710189E0,3.2096046E1,2.995308E0,-1.2087718E-1,6.274731E-2,-1.3345906E0,5.492176E-3,-1.5143982E-1,-2.9875947E-2,-9.853936E-3,7.6489836E-2,3.0104889E1,7.153676E-3,3.2476904E-3,9.0488724E-2,1.3961403E-2,-3.2215762E-1,1.1593995E0,1.1101138E-1],"split_indices":[6,2,8,8,0,0,5,7,0,7,0,2,5,0,31,2147483647,2147483647,2147483647,2147483647,8,31,2147483647,2147483647,0,0,0,0],"split_type":[0,0,0,0,0,0,0,0,0,0,0,0,0,0,0,0,0,0,0,0,0,0,0,0,0,0,0],"sum_hessian":[8.5E1,1.1E1,7.4E1,9E0,2E0,1E0,7.3E1,8E0,1E0,7.2E1,1E0,2E0,6E0,1E0,7.1E1,1E0,1E0,1E0,5E0,5.1E1,2E1,1E0,4E0,3.2E1,1.9E1,2E0,1.8E1],"tree_param":{"num_deleted":"6","num_feature":"35","num_nodes":"27","size_leaf_vector":"0"}},{"base_weights":[1.6191405E-1,-6.805723E0,4.0592578E-1,-1.0471359E1,2.6277447E-1,1.3723206E1,8.401525E-2,2.8791544E-1,-4.065967E0,7.934663E-2,8.48671E0,-1.886242E-1,2.5146623E0,-3.7813396E0,-8.620677E-2,5.391654E-1,8.17157E0],"categories":[],"categories_nodes":[],"categories_segments":[],"categories_sizes":[],"default_left":[0,1,0,0,0,0,1,1,0,1,0,0,1,0,0,0,0],"id":22,"left_children":[1,3,5,-1,-1,-1,7,9,-1,11,-1,13,15,-1,-1,-1,-1],"loss_changes":[1.5067873E2,8.0483246E1,3.6323972E2,0E0,0E0,0E0,7.2249954E1,1.3783763E2,0E0,5.2681812E1,0E0,2.6534863E1,8.499579E1,0E0,0E0,0E0,0E0],"parents":[2147483647,0,0,1,1,2,2,6,6,7,7,9,9,11,11,12,12],"right_children":[2,4,6,-1,-1,-1,8,10,-1,12,-1,14,16,-1,-1,-1,-1],"split_conditions":[2.1476933E1,4.9767E0,2.1884733E1,-3.141408E0,7.883234E-2,4.116962E0,3.5674347E1,3.5614822E1,-1.2197902E0,6.6193545E-1,2.5460129E0,3.1954067E1,9.165E-1,-1.1344019E0,-2.5862033E-2,1.6174962E-1,2.451471E0],"split_indices":[8,0,8,0,0,0,5,5,0,20,0,7,2,0,0,0,0],"split_type":[0,0,0,0,0,0,0,0,0,0,0,0,0,0,0,0,0],"sum_hessian":[8.6E1,2E0,8.4E1,1E0,1E0,1E0,8.3E1,8E1,3E0,7.9E1,1E0,7.2E1,7E0,1E0,7.1E1,6E0,1E0],"tree_param":{"num_deleted":"0","num_feature":"35","num_nodes":"17","size_leaf_vector":"0"}},{"base_weights":[2.642981E-1,4.3488016E0,-1.325733E-1,1.1664734E1,1.6372778E0,-8.900656E0,8.2899116E-2,4.8771667E-1,3.007454E0,-2.1541052E-1,2.2522695E0,-2.213912E-1,7.2034144E-1,1.1952283E0,-4.3245706E-1,5.565752E0,3.709807E-2,2.9977522E0,-5.5321283E-3,-4.0998907E0,-3.091662E-1,7.3633366E0,8.649969E-2,-1.3436152E0,8.5810643E-1,8.730259E-1,3.4149857E0,1.8788338E-1,-3.2604727E-1,-4.205722E-1,2.0591447E0,1.5737038E0,2.8578115E-1],"categories":[],"categories_nodes":[],"categories_segments":[],"categories_sizes":[],"default_left":[1,0,1,0,1,0,0,1,0,0,0,0,0,1,0,1,0,1,1,0,1,0,0,0,1,0,0,0,0,0,0,0,0],"id":23,"left_children":[1,3,5,-1,7,-1,9,11,-1,13,15,-1,-1,17,19,21,23,25,27,-1,29,-1,-1,-1,31,-1,-1,-1,-1,-1,-1,-1,-1],"loss_changes":[1.4646857E2,1.3960016E2,1.5754808E2,0E0,9.558922E0,0E0,5.355098E1,9.842577E-1,0E0,2.2867609E1,7.319285E1,0E0,0E0,2.1660576E1,2.7670757E1,3.876075E1,9.088005E0,5.646591E-1,4.9520707E-1,0E0,1.7488194E1,0E0,0E0,0E0,1.5980372E0,0E0,0E0,0E0,0E0,0E0,0E0,0E0,0E0],"parents":[2147483647,0,0,1,1,2,2,4,4,6,6,7,7,9,9,10,10,13,13,14,14,15,15,16,16,17,17,18,18,20,20,24,24],"right_children":[2,4,6,-1,8,-1,10,12,-1,14,16,-1,-1,18,20,22,24,26,28,-1,30,-1,-1,-1,32,-1,-1,-1,-1,-1,-1,-1,-1],"split_conditions":[4.1743402E0,3.416751E1,4.233E0,3.4994204E0,3.92306E0,-2.6701968E0,3.5614822E1,3.69293E0,9.022362E-1,2.3767937E1,3.0318975E1,-6.6417366E-2,2.1610244E-1,2.8152425E-2,2.4178726E1,6.4688777E-3,7.177737E1,1.74E-1,2.9634312E-1,-1.2299672E0,1.025629E0,2.209001E0,2.5949908E-2,-4.0308458E-1,5.84758E0,2.619078E-1,1.0244957E0,5.6365017E-2,-9.781419E-2,-1.2617166E-1,6.1774343E-1,4.7211114E-1,8.5734345E-2],"split_indices":[0,5,0,0,0,0,5,0,0,8,8,0,0,12,8,9,5,2,10,0,23,0,0,0,0,0,0,0,0,0,0,0,0],"split_type":[0,0,0,0,0,0,0,0,0,0,0,0,0,0,0,0,0,0,0,0,0,0,0,0,0,0,0,0,0,0,0,0,0],"sum_hessian":[8.9E1,7E0,8.2E1,1E0,6E0,1E0,8.1E1,4E0,2E0,7.2E1,9E0,1E0,3E0,9E0,6.3E1,3E0,6E0,3E0,6E0,1E0,6.2E1,2E0,1E0,2E0,4E0,1E0,2E0,4E0,2E0,6E1,2E0,1E0,3E0],"tree_param":{"num_deleted":"0","num_feature":"35","num_nodes":"33","size_leaf_vector":"0"}},{"base_weights":[1.1594105E-1,2.5723557E0,-3.2408467E-1,6.062165E0,2.2123471E-1,-2.4646485E0,-6.633259E-2,6.3128734E-1,1.1282613E1,1.0202402E0,-3.4849072E0,-7.144407E0,-1.0694517E-1,7.793238E-2,-3.6027577E0,8.338518E-1,1.1796951E-2,3.014605E-1,3.3852386E0,-5.275179E-1,6.2965775E-1,1.5881721E0,-1.2919019E-1,-1.1043358E0,-4.299801E0,5.5151796E-1,4.1122437E-2,-7.795941E-1,-9.960238E-2,8.4329605E-2,8.60157E-1,2.6887605E0,1.6994914E-1,-2.0627508E0,-3.6535934E-2,7.127447E-1,2.6019415E-1,1.1062622E-1,-4.2088825E-2,-1.5996933E-2,-1.3340664E-1,5.402155E-1,-2.5696692E-1,-4.2210236E-1,3.6222118E-1],"categories":[],"categories_nodes":[],"categories_segments":[],"categories_sizes":[],"default_left":[0,0,0,0,1,1,1,1,0,1,0,0,1,0,1,0,0,0,0,1,1,1,1,0,0,1,1,0,1,0,0,0,1,0,1,1,1,1,1,1,1,0,0,0,0],"id":24,"left_children":[1,3,5,7,9,11,13,15,-1,17,-1,-1,19,21,23,-1,-1,25,-1,27,29,31,33,-1,-1,-1,-1,-1,-1,-1,-1,-1,41,-1,43,-1,-1,-1,-1,-1,-1,-1,-1,-1,-1],"loss_changes":[1.0676046E2,1.21733284E2,4.6182236E1,1.6298712E2,3.3167717E1,9.853728E1,3.9054626E1,4.9211E-1,0E0,1.42787E1,0E0,0E0,2.5007215E0,2.3352726E1,4.760971E-1,0E0,0E0,4.9811608E-1,0E0,4.616872E-1,3.045565E-1,1.3590965E1,1.1748708E1,0E0,0E0,2.424717E-3,3.3573616E-2,0E0,6.3445643E-3,0E0,0E0,0E0,9.2918074E-1,0E0,9.992725E0,0E0,0E0,0E0,0E0,0E0,0E0,0E0,0E0,0E0,0E0],"parents":[2147483647,0,0,1,1,2,2,3,3,4,4,5,5,6,6,7,7,9,9,12,12,13,13,14,14,17,17,19,19,20,20,21,21,22,22,25,25,26,26,28,28,32,32,34,34],"right_children":[2,4,6,8,10,12,14,16,-1,18,-1,-1,20,22,24,-1,-1,26,-1,28,30,32,34,-1,-1,-1,-1,-1,-1,-1,-1,-1,42,-1,44,-1,-1,-1,-1,-1,-1,-1,-1,-1,-1],"split_conditions":[2.4045464E1,3.362317E1,3.3562637E1,3.330134E1,6.87421E0,5.36942E0,3.5735275E1,8.336171E-1,3.384784E0,2.3295656E1,-1.0454721E0,-2.1433222E0,8.086557E-3,3.4268105E1,6.55718E0,2.5015557E-1,3.5390856E-3,3.4245087E1,1.0155716E0,6.0911903E0,6.2695503E0,5.4031646E-1,1.3388605E-3,-3.3130074E-1,-1.2899404E0,1.654554E-1,1.2336732E-2,-2.3387824E-1,-2.9880716E-2,2.5298882E-2,2.580471E-1,8.0662817E-1,2.6789965E-2,-6.1882526E-1,1.028778E-2,2.1382342E-1,7.805825E-2,3.3187866E-2,-1.2626648E-2,-4.79908E-3,-4.0021993E-2,1.6206466E-1,-7.709008E-2,-1.2663071E-1,1.0866636E-1],"split_indices":[6,5,7,5,1,1,7,3,0,8,0,0,19,7,1,0,0,5,0,1,1,3,3,0,0,1,3,0,1,0,0,0,10,0,34,2147483647,2147483647,2147483647,2147483647,2147483647,2147483647,0,0,0,0],"split_type":[0,0,0,0,0,0,0,0,0,0,0,0,0,0,0,0,0,0,0,0,0,0,0,0,0,0,0,0,0,0,0,0,0,0,0,0,0,0,0,0,0,0,0,0,0],"sum_hessian":[9.7E1,1.4E1,8.3E1,5E0,9E0,8E0,7.5E1,3E0,2E0,8E0,1E0,2E0,6E0,7.3E1,2E0,2E0,1E0,7E0,1E0,4E0,2E0,8E0,6.5E1,1E0,1E0,3E0,4E0,2E0,2E0,1E0,1E0,4E0,4E0,2E0,6.3E1,1E0,2E0,2E0,2E0,1E0,1E0,2E0,2E0,3.2E1,3.1E1],"tree_param":{"num_deleted":"6","num_feature":"35","num_nodes":"45","size_leaf_vector":"0"}},{"base_weights":[3.1021675E-1,5.329282E0,7.316467E-2,1.1244774E-1,7.030744E0,-9.475984E-2,2.3279514E0,-4.57356E-3,-3.654831E0,6.274849E0,2.8360215E-1,4.165084E-1,-3.7658614E-1,3.6954284E-1,-3.0080318E-2,1.609603E-1,2.548427E0,-1.3962828E-1,-1.2562461E0,1.3878199E0,-8.977696E-2,-5.1285684E-1,6.184645E-1,1.0563159E-1,-1.9547901E0],"categories":[],"categories_nodes":[],"categories_segments":[],"categories_sizes":[],"default_left":[0,1,1,0,0,1,1,1,0,0,1,1,1,1,1,0,0,1,1,0,0,0,0,0,0],"id":25,"left_children":[1,3,5,-1,-1,7,9,11,-1,-1,-1,15,17,-1,-1,19,-1,21,23,-1,-1,-1,-1,-1,-1],"loss_changes":[1.0550049E2,3.4714394E1,3.2783115E1,0E0,0E0,2.5989918E1,4.6633465E1,1.2688674E1,0E0,0E0,1.4590645E-1,2.02925E1,8.787613E0,0E0,0E0,1.0891274E1,0E0,1.022015E1,8.768472E0,0E0,0E0,0E0,0E0,0E0,0E0],"parents":[2147483647,0,0,1,1,2,2,5,5,6,6,7,7,10,10,11,11,12,12,15,15,17,17,18,18],"right_children":[2,4,6,-1,-1,8,10,12,-1,-1,-1,16,18,-1,-1,20,-1,22,24,-1,-1,-1,-1,-1,-1],"split_conditions":[2.1884733E1,3.51E-1,1.1668949E0,3.373432E-2,2.1092234E0,3.5754547E1,-2.985E-1,3.7563848E-1,-1.0964494E0,1.8824548E0,8.5080646E-2,2.6770768E-1,2.8604748E1,1.1086286E-1,-9.024096E-3,2.3844534E1,7.6452816E-1,2.7335876E1,3.0410585E-3,4.1634598E-1,-2.693309E-2,-1.5385705E-1,1.8553936E-1,3.168948E-2,-5.8643705E-1],"split_indices":[8,2,34,0,0,7,2,14,0,0,3,12,8,2147483647,2147483647,8,0,6,18,0,0,0,0,0,0],"split_type":[0,0,0,0,0,0,0,0,0,0,0,0,0,0,0,0,0,0,0,0,0,0,0,0,0],"sum_hessian":[8.8E1,3E0,8.5E1,1E0,2E0,8E1,5E0,7.9E1,1E0,1E0,4E0,3.7E1,4.2E1,3E0,1E0,3.4E1,3E0,3.4E1,8E0,5E0,2.9E1,2.3E1,1.1E1,3E0,5E0],"tree_param":{"num_deleted":"2","num_feature":"35","num_nodes":"25","size_leaf_vector":"0"}},{"base_weights":[1.275823E-1,5.281356E-1,-1.941519E0,7.1679993E0,3.3365864E-1,-3.814144E-1,-5.7464266E0,1.860361E-1,5.333618E0,9.0999955E-1,-7.6950634E-1,-7.1034093E0,-8.3773947E-1,3.2637158E-1,-9.423604E-1,1.2688789E0,9.612036E-2,-1.3186598E0,2.4660039E-1,3.7989452E-1,-8.7071896E-1,3.3677578E-1,-1.173205E0,-1.5671489E0,-5.4778767E-1,-1.5719652E-1,4.335982E-1,2.669279E0,2.9725015E-1,-1.1946778E0,-1.11400604E-1,-1.5835558E0,-9.82186E-2],"categories":[],"categories_nodes":[],"categories_segments":[],"categories_sizes":[],"default_left":[0,0,1,0,0,0,1,0,0,1,1,0,0,0,1,0,0,1,1,1,1,0,1,1,1,0,0,0,0,0,0,0,0],"id":26,"left_children":[1,3,5,-1,7,9,11,13,-1,15,17,-1,-1,19,21,-1,-1,-1,25,27,29,-1,31,-1,-1,-1,-1,-1,-1,-1,-1,-1,-1],"loss_changes":[7.147214E1,9.058197E1,8.091298E1,0E0,5.1413334E1,6.213311E0,2.0693207E1,1.1392344E1,0E0,7.542882E-1,5.3471684E0,0E0,0E0,4.3673067E0,2.757361E0,0E0,0E0,2.908554E-1,3.7019667E-1,1.074805E1,6.048758E-1,0E0,2.9323168E0,0E0,0E0,0E0,0E0,0E0,0E0,0E0,0E0,0E0,0E0],"parents":[2147483647,0,0,1,1,2,2,4,4,5,5,6,6,7,7,9,9,10,10,13,13,14,14,17,17,18,18,19,19,20,20,22,22],"right_children":[2,4,6,-1,8,10,12,14,-1,16,18,-1,-1,20,22,-1,-1,-1,26,28,30,-1,32,-1,-1,-1,-1,-1,-1,-1,-1,-1,-1],"split_conditions":[3.5674347E1,2.1884733E1,8.257481E-1,2.1504E0,3.5614822E1,3.4869904E1,6.93301E0,2.874545E1,1.6000855E0,5.86432E0,4.5293838E-2,-2.131023E0,-2.5132185E-1,1E1,5.77612E0,3.806637E-1,2.8836109E-2,-3.9559796E-1,9E-2,3.876855E-4,5.46889E0,1.0103274E-1,1.3209705E-1,-4.701447E-1,-1.6433631E-1,-4.715896E-2,1.3007946E-1,8.0078375E-1,8.9175045E-2,-3.5840335E-1,-3.3420183E-2,-4.7506675E-1,-2.946558E-2],"split_indices":[5,8,25,0,5,7,1,6,0,1,9,0,0,30,1,0,0,1,2,29,1,0,33,2147483647,2147483647,0,0,0,0,0,0,0,0],"split_type":[0,0,0,0,0,0,0,0,0,0,0,0,0,0,0,0,0,0,0,0,0,0,0,0,0,0,0,0,0,0,0,0,0],"sum_hessian":[8.4E1,7.1E1,1.3E1,1E0,7E1,1E1,3E0,6.9E1,1E0,2E0,8E0,2E0,1E0,6.2E1,7E0,1E0,1E0,5E0,3E0,6E1,2E0,1E0,6E0,3E0,2E0,1E0,2E0,1E0,5.9E1,1E0,1E0,4E0,2E0],"tree_param":{"num_deleted":"2","num_feature":"35","num_nodes":"33","size_leaf_vector":"0"}},{"base_weights":[2.8802186E-1,1.7762647E0,1.3691729E-2,5.312252E-2,6.0708394E0,1.7450815E-1,-2.9648352E0,-5.7751E-1,9.2538357E-1,7.0001316E-1,7.627777E0,5.877463E-2,2.8939435E0,5.201352E-1,-1.1205952E0,-3.2916464E-2,2.178642E0,-1.9266176E-1,4.533577E0,-1.2407248E0,-3.2003832E-1,-8.216387E-1,9.6921876E-2,-1.449327E0,-3.455827E-1,1.1326818E0,-3.6664337E-2],"categories":[],"categories_nodes":[],"categories_segments":[],"categories_sizes":[],"default_left":[0,0,1,1,1,1,0,0,0,0,0,1,1,0,1,0,0,0,0,1,1,1,0,0,0,0,0],"id":27,"left_children":[1,3,5,7,9,11,-1,13,-1,-1,-1,15,17,-1,-1,21,-1,-1,-1,-1,-1,23,25,-1,-1,-1,-1],"loss_changes":[3.6719967E1,1.0327977E2,3.7400085E1,6.5852566E0,2.8108627E1,2.3119919E1,0E0,4.755665E0,0E0,0E0,0E0,1.40665655E1,1.605615E1,0E0,8.377409E-2,7.248081E0,0E0,0E0,0E0,0E0,0E0,2.4872856E0,8.481688E0,0E0,0E0,0E0,0E0],"parents":[2147483647,0,0,1,1,2,2,3,3,4,4,5,5,7,7,11,11,12,12,14,14,15,15,21,21,22,22],"right_children":[2,4,6,8,10,12,-1,14,-1,-1,-1,16,18,-1,-1,22,-1,-1,-1,-1,-1,24,26,-1,-1,-1,-1],"split_conditions":[3.3651802E1,3.3311165E1,6.8849897E0,1.8081418E-1,1.16E-1,3.572387E1,-8.894506E-1,2.4088018E1,2.7761507E-1,2.1000396E-1,2.2883332E0,4.31132E-1,6.2229996E0,1.5604058E-1,-3.3617857E-1,3.37184E1,6.5359265E-1,-5.779853E-2,1.3600731E0,-3.7221745E-1,-9.60115E-2,5.4174404E0,3.430931E1,-4.3479812E-1,-1.03674814E-1,3.3980456E-1,-1.0999301E-2],"split_indices":[5,5,1,34,2,7,0,6,0,0,0,32,1,0,1,7,0,0,0,2147483647,2147483647,1,7,0,0,0,0],"split_type":[0,0,0,0,0,0,0,0,0,0,0,0,0,0,0,0,0,0,0,0,0,0,0,0,0,0,0],"sum_hessian":[8.9E1,1.3E1,7.6E1,1E1,3E0,7.3E1,3E0,6E0,4E0,1E0,2E0,7.1E1,2E0,2E0,4E0,6.9E1,2E0,1E0,1E0,3E0,1E0,9E0,6E1,3E0,6E0,6E0,5.4E1],"tree_param":{"num_deleted":"2","num_feature":"35","num_nodes":"27","size_leaf_vector":"0"}},{"base_weights":[9.8984584E-2,-2.19531E0,3.3518767E-1,-6.8097925E0,-7.672758E-1,1.0745626E-1,1.7495543E0,-2.0378916E0,-4.0885606E-3,5.8359173E-3,1.5492979E0,6.102224E0,2.6879805E-1,-2.530365E-1,3.292049E-1,1.2649857E0,-8.6834446E-2,9.853125E-3,3.8535385E0,-4.5518327E-1,6.44102E-1,2.0050857E0,1.032238E-1,-1.593837E-1,1.1137996E0,-2.2779036E-1,1.6499774E-1,-1.6075961E-1,-6.692271E-1,7.130289E-2,7.276847E-1,3.827572E-1,-2.2792149E-1,2.2089338E-1,-3.4589988E-1,1.7429132E0,-3.8677073E-1],"categories":[],"categories_nodes":[],"categories_segments":[],"categories_sizes":[],"default_left":[0,1,1,0,1,1,0,0,1,1,1,0,1,0,0,0,1,1,0,1,1,0,1,1,1,1,1,1,1,1,1,0,0,0,0,0,0],"id":28,"left_children":[1,3,5,-1,7,9,11,-1,13,15,17,-1,19,-1,-1,21,23,-1,-1,-1,-1,-1,31,33,35,-1,-1,-1,-1,-1,-1,-1,-1,-1,-1,-1,-1],"loss_changes":[5.2218193E1,5.4081764E1,2.7834328E1,0E0,7.749411E0,1.1126512E1,7.5702644E1,0E0,5.811371E-1,8.511227E0,1.7698288E1,0E0,3.0103147E0,0E0,0E0,4.092127E0,6.1006684E0,1.8506132E-1,0E0,1.4449364E-1,2.8324676E-1,0E0,3.6493707E-1,4.686716E0,4.4502244E0,0E0,0E0,0E0,0E0,0E0,0E0,0E0,0E0,0E0,0E0,0E0,0E0],"parents":[2147483647,0,0,1,1,2,2,4,4,5,5,6,6,8,8,9,9,10,10,12,12,15,15,16,16,17,17,19,19,20,20,22,22,23,23,24,24],"right_children":[2,4,6,-1,8,10,12,-1,14,16,18,-1,20,-1,-1,22,24,-1,-1,-1,-1,-1,32,34,36,-1,-1,-1,-1,-1,-1,-1,-1,-1,-1,-1,-1],"split_conditions":[3.3295033E1,4.33681E0,1.1515E0,-2.0429378E0,5.3523397E0,1.1668949E0,2.5590996E1,-6.113675E-1,4.9857432E-1,3.665E-5,6.30296E0,1.8306673E0,1.9954085E-1,-7.5910956E-2,9.876147E-2,3.4255684E1,4.770075E-1,2.9559375E-3,1.1560616E0,-1.3655499E-1,1.932306E-1,6.015257E-1,5.29279E0,-1.3949999E-1,6.30836E0,-6.833711E-2,4.9499325E-2,-4.8227888E-2,-2.0076814E-1,2.1390868E-2,2.1830541E-1,1.1482716E-1,-6.837645E-2,6.626802E-2,-1.03769965E-1,5.22874E-1,-1.1603122E-1],"split_indices":[7,0,2,0,0,34,8,0,23,16,0,0,26,0,0,7,32,0,0,0,0,0,0,2,0,2147483647,2147483647,2147483647,2147483647,2147483647,2147483647,0,0,0,0,0,0],"split_type":[0,0,0,0,0,0,0,0,0,0,0,0,0,0,0,0,0,0,0,0,0,0,0,0,0,0,0,0,0,0,0,0,0,0,0,0,0],"sum_hessian":[9.4E1,8E0,8.6E1,1E0,7E0,7.5E1,1.1E1,2E0,5E0,7.1E1,4E0,2E0,9E0,3E0,2E0,4E0,6.7E1,3E0,1E0,3E0,6E0,2E0,2E0,6.4E1,3E0,1E0,2E0,2E0,1E0,1E0,5E0,1E0,1E0,2.1E1,4.3E1,2E0,1E0],"tree_param":{"num_deleted":"6","num_feature":"35","num_nodes":"37","size_leaf_vector":"0"}},{"base_weights":[-1.6638722E-2,1.2690103E-1,-4.078052E0,3.0941179E0,1.8123304E-2,-5.7883234E0,-3.287549E-1,4.0332947E0,6.07882E-1,-6.1546046E-2,3.275505E0,1.2833518E-1,-8.528271E-1,7.459719E-2,1.8375216E0,-3.5179996E-1,-2.906678E0,2.2925723E-1,-3.5056612E-1,-8.799598E-1,3.0206844E-1],"categories":[],"categories_nodes":[],"categories_segments":[],"categories_sizes":[],"default_left":[1,0,1,1,1,0,0,0,0,1,0,1,1,1,0,1,0,0,0,0,0],"id":29,"left_children":[1,3,5,7,9,-1,-1,-1,-1,11,-1,13,15,17,-1,19,-1,-1,-1,-1,-1],"loss_changes":[5.123627E1,2.7379128E1,1.7334003E1,4.553276E0,2.1741215E1,0E0,0E0,0E0,0E0,1.24299E1,0E0,6.016759E0,1.544199E1,4.4202514E0,0E0,5.100667E0,0E0,0E0,0E0,0E0,0E0],"parents":[2147483647,0,0,1,1,2,2,3,3,4,4,9,9,11,11,12,12,13,13,15,15],"right_children":[2,4,6,8,10,-1,-1,-1,-1,12,-1,14,16,18,-1,20,-1,-1,-1,-1,-1],"split_conditions":[5.911264E-1,2.1884733E1,5.62904E0,4.6026697E0,3.5614822E1,-1.736497E0,-9.862647E-2,1.2099885E0,1.8236461E-1,9.09E-1,9.8265153E-1,4.770075E-1,1.1992494E-1,4.125869E-2,5.512565E-1,1.9954085E-1,-8.7200344E-1,6.8777174E-2,-1.0516984E-1,-2.6398796E-1,9.062053E-2],"split_indices":[32,8,0,0,5,0,0,0,0,2,0,32,33,19,0,26,0,0,0,0,0],"split_type":[0,0,0,0,0,0,0,0,0,0,0,0,0,0,0,0,0,0,0,0,0],"sum_hessian":[8.6E1,8.4E1,2E0,2E0,8.2E1,1E0,1E0,1E0,1E0,8.1E1,1E0,6.6E1,1.5E1,6.5E1,1E0,1.3E1,2E0,4.8E1,1.7E1,7E0,6E0],"tree_param":{"num_deleted":"0","num_feature":"35","num_nodes":"21","size_leaf_vector":"0"}},{"base_weights":[-1.4757806E-2,-2.7083957E0,1.0784798E-1,-4.9200745E0,-3.3114466E-1,1.1178216E0,-1.6782838E-1,5.166998E-1,-1.0134168E0,2.7420995E0,3.4185806E-1,-2.6457533E-2,-1.4363863E0,5.363059E-1,4.7691245E0,1.7638321E0,9.6796036E-2,-1.0660049E-1,1.202337E0,2.625351E-1,-1.7632958E0,-4.2801285E-1,2.9704E-1,-7.23077E-1,2.845523E-2,1.7894106E0,-2.7944183E-1,-2.3736498E0,-8.647063E-1,6.577155E-1,1.2465668E-1,-4.3955326E-2,-1.2816858E0,-1.0226959E0,9.22307E-2],"categories":[],"categories_nodes":[],"categories_segments":[],"categories_sizes":[],"default_left":[0,1,0,0,1,0,1,0,0,0,1,1,1,0,0,0,0,0,1,0,1,0,0,0,1,0,0,0,0,0,0,0,0,0,0],"id":30,"left_children":[1,3,5,-1,7,9,11,-1,-1,13,15,17,19,-1,-1,-1,21,23,25,-1,27,-1,29,31,33,-1,-1,-1,-1,-1,-1,-1,-1,-1,-1],"loss_changes":[3.0345354E1,1.9401608E1,2.4689075E1,0E0,2.2590141E0,2.3009815E1,1.2515595E1,0E0,0E0,2.4269485E1,4.7078733E0,6.4308405E0,4.3506823E0,0E0,0E0,0E0,1.4933044E0,5.0993547E0,3.9796886E0,0E0,1.2382355E0,0E0,5.397557E-1,4.116661E0,3.5132442E0,0E0,0E0,0E0,0E0,0E0,0E0,0E0,0E0,0E0,0E0],"parents":[2147483647,0,0,1,1,2,2,4,4,5,5,6,6,9,9,10,10,11,11,12,12,16,16,17,17,18,18,20,20,22,22,23,23,24,24],"right_children":[2,4,6,-1,8,10,12,-1,-1,14,16,18,20,-1,-1,-1,22,24,26,-1,28,-1,30,32,34,-1,-1,-1,-1,-1,-1,-1,-1,-1,-1],"split_conditions":[2.1476933E1,4.72932E0,2.5726841E1,-1.4760224E0,5.4780397E0,3.3650513E1,2.9596663E1,1.5500994E-1,-3.0402505E-1,3.330134E1,3.876855E-4,4.8442307E-1,5.0890503E0,1.6089177E-1,1.4307374E0,5.2914965E-1,3.388762E1,3.4446205E1,6.30836E0,7.8760535E-2,2.6485699E1,-1.2840386E-1,3.450809E1,1.5E0,4.88873E0,5.368232E-1,-8.3832555E-2,-7.1209496E-1,-2.594119E-1,1.9731466E-1,3.7397005E-2,-1.3186598E-2,-3.8450578E-1,-3.0680877E-1,2.7669212E-2],"split_indices":[8,0,8,0,0,5,8,0,0,5,28,32,0,0,0,0,7,7,0,0,4,0,7,17,1,0,0,0,0,0,0,0,0,0,0],"split_type":[0,0,0,0,0,0,0,0,0,0,0,0,0,0,0,0,0,0,0,0,0,0,0,0,0,0,0,0,0,0,0,0,0,0,0],"sum_hessian":[9E1,3E0,8.7E1,1E0,2E0,1.8E1,6.9E1,1E0,1E0,5E0,1.3E1,6.3E1,6E0,3E0,2E0,1E0,1.2E1,6E1,3E0,1E0,5E0,3E0,9E0,1E1,5E1,2E0,1E0,2E0,3E0,2E0,7E0,5E0,5E0,2E0,4.8E1],"tree_param":{"num_deleted":"0","num_feature":"35","num_nodes":"35","size_leaf_vector":"0"}},{"base_weights":[1.2000983E-1,-2.3021364E0,2.3529387E-1,-4.182063E0,-2.8147316E-1,8.95665E-1,-4.8512425E-2,4.3919468E-1,-8.614044E-1,3.1000123E0,4.541625E-1,-1.7093424E-1,1.6775212E0,4.7706318E-1,3.8153076E0,3.22545E-2,1.5738748E0,7.320419E-2,-9.841002E-1,2.9410362E-1,2.913887E0,6.000163E-1,-3.319807E-1,2.5410068E0,4.5505714E-1,1.8807125E-1,-6.856324E-1,-2.384523E0,-3.2552108E-1,8.532747E-2,7.8882635E-1,-9.916687E-1,-7.5197965E-2,2.8026608E-1,-6.8869996E-1,2.2673988E-1,-9.1345483E-1,-5.374117E-1,-2.8210895E0,2.4227302E-1,-9.417698E-1],"categories":[],"categories_nodes":[],"categories_segments":[],"categories_sizes":[],"default_left":[0,1,1,0,1,0,1,0,0,0,1,1,1,0,0,0,1,0,1,0,0,1,1,0,0,0,0,1,0,0,0,0,0,0,0,0,0,0,0,0,0],"id":31,"left_children":[1,3,5,-1,7,9,11,-1,-1,13,15,17,19,-1,-1,21,23,25,27,-1,-1,29,31,-1,-1,33,35,37,39,-1,-1,-1,-1,-1,-1,-1,-1,-1,-1,-1,-1],"loss_changes":[2.455587E1,1.401766E1,1.55991E1,0E0,1.6321377E0,2.292271E1,1.2753693E1,0E0,0E0,5.6845894E0,1.0342379E1,1.1189444E1,5.9846573E0,0E0,0E0,3.7147741E0,5.3359623E0,3.9642222E0,1.1213545E1,0E0,0E0,6.129403E-1,1.7887899E0,0E0,0E0,3.345536E0,1.4542696E0,1.7094631E0,3.727189E0,0E0,0E0,0E0,0E0,0E0,0E0,0E0,0E0,0E0,0E0,0E0,0E0],"parents":[2147483647,0,0,1,1,2,2,4,4,5,5,6,6,9,9,10,10,11,11,12,12,15,15,16,16,17,17,18,18,21,21,22,22,25,25,26,26,27,27,28,28],"right_children":[2,4,6,-1,8,10,12,-1,-1,14,16,18,20,-1,-1,22,24,26,28,-1,-1,30,32,-1,-1,34,36,38,40,-1,-1,-1,-1,-1,-1,-1,-1,-1,-1,-1,-1],"split_conditions":[2.1476933E1,4.72932E0,3.373098E1,-1.254619E0,5.4780397E0,2.4072027E1,1.1650326E0,1.317584E-1,-2.5842133E-1,3.3137856E1,9.55165E-2,1.2510437E-1,6.30296E0,1.4311896E-1,1.1445923E0,2.7587822E1,1.2176847E-2,2.863546E1,1.6366887E-1,8.823109E-2,8.7416613E-1,2.716135E-4,5.2119102E0,7.623021E-1,1.3651715E-1,1E1,3.515464E1,5.2237196E0,3.4382072E1,2.5598241E-2,2.3664792E-1,-2.975006E-1,-2.255939E-2,8.4079824E-2,-2.0661E-1,6.802197E-2,-2.7403647E-1,-1.6122352E-1,-8.463269E-1,7.268191E-2,-2.8253093E-1],"split_indices":[8,0,5,0,0,6,34,0,0,5,9,33,0,0,0,6,18,6,33,0,0,9,0,0,0,30,5,0,5,0,0,0,0,0,0,0,0,0,0,0,0],"split_type":[0,0,0,0,0,0,0,0,0,0,0,0,0,0,0,0,0,0,0,0,0,0,0,0,0,0,0,0,0,0,0,0,0,0,0,0,0,0,0,0,0],"sum_hessian":[8.5E1,3E0,8.2E1,1E0,2E0,2.4E1,5.8E1,1E0,1E0,3E0,2.1E1,5.5E1,3E0,1E0,2E0,1.6E1,5E0,4.3E1,1.2E1,2E0,1E0,6E0,1E1,2E0,3E0,3.8E1,5E0,3E0,9E0,2E0,4E0,2E0,8E0,3.5E1,3E0,1E0,4E0,1E0,2E0,5E0,4E0],"tree_param":{"num_deleted":"0","num_feature":"35","num_nodes":"41","size_leaf_vector":"0"}},{"base_weights":[1.7716158E-2,1.603278E-1,-1.3152944E0,2.2394554E-1,-2.5599718E0,-2.555186E0,1.8765621E-1,6.459361E-2,1.0770257E0,-4.567995E-1,-2.9655828E0,7.35487E-1,-1.3317323E-1,1.2521462E0,-8.485974E-2,2.4315324E0,2.0485242E-1,-4.6486855E-3,-1.7446518E-1,2.0195518E0,-2.0147324E-2,9.616923E-2,-5.9100866E-1,7.76207E-1,3.276347E0,-4.220581E-2,5.2422667E-1,2.8516896E0,5.142301E-1,-2.3025322E-1,1.2663905E-1,-1.6157365E-1,7.3365724E-1,-8.301532E-1,-1.3078022E-1,1.093092E-1,-2.3015721E-1],"categories":[],"categories_nodes":[],"categories_segments":[],"categories_sizes":[],"default_left":[1,1,1,1,0,1,1,1,1,0,0,0,1,1,1,1,1,1,1,1,1,1,1,0,0,1,0,0,0,1,1,0,0,0,0,1,1],"id":32,"left_children":[1,3,5,7,-1,9,11,13,15,-1,-1,-1,-1,19,21,23,25,-1,-1,27,-1,31,33,-1,-1,-1,-1,-1,-1,-1,-1,-1,-1,-1,-1,-1,-1],"loss_changes":[1.7700338E1,1.5110274E1,1.725096E1,1.1213448E1,0E0,2.9511795E0,9.7674847E-1,1.2707602E1,1.4859632E1,0E0,0E0,0E0,2.041708E-2,7.851609E0,5.9210043E0,4.449091E0,7.3226166E-1,0E0,0E0,4.796753E0,1.5252177E-1,8.005324E0,1.7624717E0,0E0,0E0,1.9602306E-1,0E0,0E0,0E0,0E0,0E0,0E0,0E0,0E0,0E0,0E0,0E0],"parents":[2147483647,0,0,1,1,2,2,3,3,5,5,6,6,7,7,8,8,12,12,13,13,14,14,15,15,16,16,19,19,20,20,21,21,22,22,25,25],"right_children":[2,4,6,8,-1,10,12,14,16,-1,-1,-1,-1,20,22,24,26,-1,-1,28,-1,32,34,-1,-1,-1,-1,-1,-1,-1,-1,-1,-1,-1,-1,-1,-1],"split_conditions":[2.8881204E-1,7.23093E0,7.398175E-1,9.6183455E-1,-7.679916E-1,1.9886786E-1,8.762583E-2,5.24349E0,1.2912173E0,-1.3703986E-1,-8.896749E-1,2.206461E-1,-3.995197E-2,3.415351E1,4.125869E-2,3.0941705E-3,1.3078537E0,-1.3946057E-3,-5.2339558E-2,6.087307E-1,-6.0441974E-3,8.86055E-5,2.8838882E-1,2.328621E-1,9.8290414E-1,-1.2661744E-2,1.57268E-1,8.555069E-1,1.5426902E-1,-6.907597E-2,3.7991717E-2,-4.8472095E-2,2.2009718E-1,-2.4904598E-1,-3.923407E-2,3.2792762E-2,-6.904717E-2],"split_indices":[32,1,10,25,0,10,3,1,25,0,0,0,1,7,19,33,24,2147483647,2147483647,3,1,32,9,0,0,3,0,0,0,2147483647,2147483647,0,0,0,0,2147483647,2147483647],"split_type":[0,0,0,0,0,0,0,0,0,0,0,0,0,0,0,0,0,0,0,0,0,0,0,0,0,0,0,0,0,0,0,0,0,0,0,0,0],"sum_hessian":[9.1E1,8.3E1,8E0,8.2E1,1E0,4E0,4E0,7E1,1.2E1,1E0,3E0,1E0,3E0,7E0,6.3E1,4E0,8E0,1E0,2E0,4E0,3E0,4.7E1,1.6E1,2E0,2E0,5E0,3E0,2E0,2E0,1E0,2E0,3.4E1,1.3E1,1E1,6E0,3E0,2E0],"tree_param":{"num_deleted":"6","num_feature":"35","num_nodes":"37","size_leaf_vector":"0"}},{"base_weights":[8.0950156E-2,2.3430407E-1,-4.8829848E-1,-5.7172548E-2,5.628437E-1,-2.6584315E-1,-1.5861124E0,-2.688448E-1,9.186396E-1,1.5603584E0,2.8338268E-1,4.2109857E-3,-9.148153E-1,-1.3713169E-1,-2.1759758E0,1.385226E0,2.2239327E-1,2.2610884E0,4.695387E-1,1.7128906E0,1.6252121E-1,-7.11745E-1,2.9017228E-1,-1.1766392E0,-3.4805298E-1,-4.1149375E-1,1.1301905E-1,3.9349875E-1,-1.4546156E-1,5.3786343E-1,1.3228226E-1,-6.5435015E-2,3.3405146E-1,1.5465736E-2,6.983657E-1,2.0183778E-1,-9.7338855E-1,6.574627E-1,-1.0507613E-1,1.8988872E-1,-1.7164166E-1,4.312183E-1,-1.9835536E-1,-1.4430809E-1,1.0823689E-1,1.432333E-1,8.356654E-1],"categories":[],"categories_nodes":[],"categories_segments":[],"categories_sizes":[],"default_left":[1,1,1,1,1,1,0,1,1,1,1,0,1,1,0,0,0,0,1,0,1,0,1,0,0,0,1,0,0,1,1,1,1,0,1,0,0,0,0,0,0,0,0,1,1,1,1],"id":33,"left_children":[1,3,5,7,9,11,-1,13,15,17,19,21,23,25,-1,-1,27,-1,-1,-1,31,-1,33,-1,-1,35,37,-1,-1,-1,-1,39,41,-1,-1,-1,-1,-1,-1,-1,-1,-1,-1,-1,-1,-1,-1],"loss_changes":[7.7965026E0,6.7354918E0,4.218418E0,8.095962E0,8.757113E0,2.9832315E0,0E0,7.739819E0,1.9659486E0,4.2889233E0,4.386475E0,2.868093E0,3.3242655E-1,2.1740947E0,0E0,0E0,3.090068E-1,0E0,2.1021962E-2,0E0,1.0384946E0,0E0,1.1105332E0,0E0,0E0,5.3658834E0,2.0876727E0,0E0,0E0,0E0,0E0,3.5799775E-1,8.6151886E-1,1.1937627E-1,1.8518281E-1,0E0,0E0,0E0,0E0,0E0,0E0,0E0,0E0,0E0,0E0,0E0,0E0],"parents":[2147483647,0,0,1,1,2,2,3,3,4,4,5,5,7,7,8,8,9,9,10,10,11,11,12,12,13,13,16,16,18,18,20,20,22,22,25,25,26,26,31,31,32,32,33,33,34,34],"right_children":[2,4,6,8,10,12,-1,14,16,18,20,22,24,26,-1,-1,28,-1,-1,-1,32,-1,34,-1,-1,36,38,-1,-1,-1,-1,40,42,-1,-1,-1,-1,-1,-1,-1,-1,-1,-1,-1,-1,-1,-1],"split_conditions":[9.883004E-3,3.3845028E1,2.9553074E1,2.2533543E-1,4.450109E1,1.0642646E-1,-4.7583374E-1,7.15868E-1,1.011735E0,1.6133636E-2,4.10635E0,2.6999554E1,4.077567E1,9.634279E-2,-6.5279275E-1,4.1556782E-1,6.787588E1,6.7832655E-1,1.4086162E-1,5.138672E-1,1.4505185E-3,-2.1352352E-1,2.8019669E-2,-3.5299176E-1,-1.044159E-1,2.7082989E1,2.3568314E-1,1.1804963E-1,-4.3638468E-2,1.6135904E-1,3.968468E-2,1.2406713E-2,9.568341E-1,4.639721E-3,2.0950972E-1,6.0551334E-2,-2.9201657E-1,1.9723882E-1,-3.152284E-2,5.6966618E-2,-5.14925E-2,1.2936549E-1,-5.950661E-2,-4.329243E-2,3.247107E-2,4.296999E-2,2.5069964E-1],"split_indices":[18,7,8,10,4,20,0,21,11,23,0,6,4,13,0,0,5,0,0,0,23,0,31,0,0,6,26,0,0,2147483647,2147483647,27,10,5,0,0,0,0,0,0,0,0,0,2147483647,2147483647,2147483647,2147483647],"split_type":[0,0,0,0,0,0,0,0,0,0,0,0,0,0,0,0,0,0,0,0,0,0,0,0,0,0,0,0,0,0,0,0,0,0,0,0,0,0,0,0,0,0,0,0,0,0,0],"sum_hessian":[8.7E1,6.9E1,1.8E1,3.7E1,3.2E1,1.6E1,2E0,3.1E1,6E0,6E0,2.6E1,1.2E1,4E0,3E1,1E0,3E0,3E0,3E0,3E0,1E0,2.5E1,3E0,9E0,2E0,2E0,1.4E1,1.6E1,2E0,1E0,2E0,1E0,1.1E1,1.4E1,6E0,3E0,7E0,7E0,4E0,1.2E1,3E0,8E0,1.2E1,2E0,2E0,4E0,1E0,2E0],"tree_param":{"num_deleted":"6","num_feature":"35","num_nodes":"47","size_leaf_vector":"0"}},{"base_weights":[-1.1312617E-1,-1.7261205E0,-4.018058E-2,-3.3176994E0,-8.969434E-2,8.4604764E-1,-1.2511607E-1,5.4356E-1,-6.7810154E-1,-5.084362E-1,1.3822817E0,-8.4746934E-2,-1.173377E0,-6.380925E-1,-1.2456179E-1,1.9715322E0,5.947733E-1,-5.121975E-2,-1.383461E0,-1.8495793E0,8.951378E-2,-8.475078E-2,4.6869582E-1,8.3313726E-2,-2.2278665E-1,1.4017105E-2,5.7886124E-1],"categories":[],"categories_nodes":[],"categories_segments":[],"categories_sizes":[],"default_left":[0,1,1,0,1,1,1,0,0,1,1,1,1,1,1,0,0,1,0,0,0,0,1,0,0,1,1],"id":34,"left_children":[1,3,5,-1,7,9,11,-1,-1,-1,15,17,19,-1,-1,-1,-1,21,-1,-1,-1,23,-1,-1,-1,-1,-1],"loss_changes":[1.08731E1,1.0120427E1,6.880354E0,0E0,1.4864231E0,6.513365E0,3.4129024E0,0E0,0E0,6.983328E-2,1.6116228E0,3.45606E0,2.7274718E0,0E0,0E0,0E0,0E0,1.4343867E0,0E0,0E0,0E0,1.7816799E0,2.4233532E-1,0E0,0E0,0E0,0E0],"parents":[2147483647,0,0,1,1,2,2,4,4,5,5,6,6,9,9,10,10,11,11,12,12,17,17,21,21,22,22],"right_children":[2,4,6,-1,8,10,12,-1,-1,-1,16,18,20,-1,-1,-1,-1,22,-1,-1,-1,24,-1,-1,-1,-1,-1],"split_conditions":[2.1476933E1,4.72932E0,4.17936E0,-9.953099E-1,5.4780397E0,3.73067E0,7.23093E0,1.6306801E-1,-2.0343047E-1,-1.5253086E-1,3.2659173E-1,1.2962291E0,6.6957703E0,-1.9142777E-1,-3.7368536E-2,5.914597E-1,1.7843199E-1,1.2608328E0,-4.1503832E-1,-5.548738E-1,2.6854135E-2,2.7523048E1,1.4060876E-1,2.4994118E-2,-6.6836E-2,4.205132E-3,1.7365837E-1],"split_indices":[8,0,0,0,0,0,1,0,0,0,14,22,0,2147483647,2147483647,0,0,24,0,0,0,6,0,0,0,2147483647,2147483647],"split_type":[0,0,0,0,0,0,0,0,0,0,0,0,0,0,0,0,0,0,0,0,0,0,0,0,0,0,0],"sum_hessian":[9.2E1,3E0,8.9E1,1E0,2E0,7E0,8.2E1,1E0,1E0,2E0,5E0,8E1,2E0,1E0,1E0,2E0,3E0,7.9E1,1E0,1E0,1E0,7.5E1,4E0,3.4E1,4.1E1,1E0,3E0],"tree_param":{"num_deleted":"4","num_feature":"35","num_nodes":"27","size_leaf_vector":"0"}},{"base_weights":[7.372901E-2,-2.2642872E0,1.5734732E-1,-2.8200445E0,-5.7638645E-1,5.419871E-2,7.085938E-1,-9.593966E-2,4.1623956E-1,1.6610556E0,2.5674972E-1,-2.6780128E-2,-9.0186906E-1,1.2008755E0,1.6097961E-1,2.123394E-1,2.0731812E0,3.8775137E-1,-4.6113253E-1,4.8953778E-1,-1.1219549E-1,6.47583E-2,-1.2456642E0,1.4630511E0,7.608652E-2,-1.3194345E-1,5.9829015E-1,5.188594E-1,9.41515E-2,6.3300264E-1,8.725039E-2,1.4511718E-1,-2.929728E-1,2.931486E-1,-4.1673157E-1,1.0599785E0,2.0161915E-1,3.1518936E-3,1.2343407E-1],"categories":[],"categories_nodes":[],"categories_segments":[],"categories_sizes":[],"default_left":[0,1,1,0,0,1,0,1,1,1,1,1,1,1,0,0,0,1,0,1,0,0,0,0,0,1,1,1,1,0,0,0,0,0,0,0,0,1,1],"id":35,"left_children":[1,3,5,-1,-1,7,9,11,13,15,17,19,21,23,25,-1,-1,-1,-1,29,31,-1,-1,-1,-1,33,35,-1,-1,-1,-1,-1,-1,-1,-1,-1,-1,-1,-1],"loss_changes":[1.6973864E1,1.1887531E0,4.6810007E0,0E0,0E0,3.8992257E0,5.1682596E0,2.8184702E0,4.0126925E0,1.9479933E0,1.1192424E0,2.1717951E0,1.4099543E0,1.363143E0,2.2566123E0,0E0,0E0,2.9758823E-1,0E0,3.4876907E-1,1.9961995E0,0E0,0E0,0E0,0E0,1.4538372E0,1.0682566E0,0E0,1.0269761E-2,0E0,0E0,0E0,0E0,0E0,0E0,0E0,0E0,0E0,0E0],"parents":[2147483647,0,0,1,1,2,2,5,5,6,6,7,7,8,8,9,9,10,10,11,11,12,12,13,13,14,14,17,17,19,19,20,20,25,25,26,26,28,28],"right_children":[2,4,6,-1,-1,8,10,12,14,16,18,20,22,24,26,-1,-1,-1,-1,30,32,-1,-1,-1,-1,34,36,-1,-1,-1,-1,-1,-1,-1,-1,-1,-1,-1,-1],"split_conditions":[2.1476933E1,5.6987E0,1.048E0,-8.4601337E-1,-1.7291594E-1,1.2495238E0,2.445383E1,9.859396E-1,3.1349605E-1,1.1515E0,2.7042227E1,3.5785627E-2,-4.74E-1,6.77131E0,6.132026E1,6.370182E-2,6.219544E-1,1.16325416E-1,-1.3833976E-1,7.9621017E-1,2.702046E1,1.9427491E-2,-3.7369928E-1,4.3891534E-1,2.2825956E-2,5.390638E-1,1.3966304E0,1.5565783E-1,2.824545E-2,1.899008E-1,2.6175117E-2,4.3535154E-2,-8.789185E-2,8.794458E-2,-1.2501948E-1,3.1799355E-1,6.0485747E-2,9.4556814E-4,3.703022E-2],"split_indices":[8,1,2,0,0,13,6,3,24,2,8,3,2,1,8,0,0,1,0,16,6,0,0,0,0,3,12,2147483647,2147483647,0,0,0,0,0,0,0,0,2147483647,2147483647],"split_type":[0,0,0,0,0,0,0,0,0,0,0,0,0,0,0,0,0,0,0,0,0,0,0,0,0,0,0,0,0,0,0,0,0,0,0,0,0,0,0],"sum_hessian":[8.4E1,2E0,8.2E1,1E0,1E0,7E1,1.2E1,5E1,2E1,3E0,9E0,4.7E1,3E0,4E0,1.6E1,1E0,2E0,8E0,1E0,6E0,4.1E1,1E0,2E0,3E0,1E0,1E1,6E0,5E0,3E0,4E0,2E0,1.7E1,2.4E1,4E0,6E0,2E0,4E0,1E0,2E0],"tree_param":{"num_deleted":"4","num_feature":"35","num_nodes":"39","size_leaf_vector":"0"}},{"base_weights":[5.5438466E-2,1.1191425E-1,-9.496229E-1,1.8447037E-1,-7.5401676E-1,-2.397038E0,1.1490345E-2,5.4733646E-1,3.3737216E-2,-1.9148079E0,9.326134E-2,-3.206873E-1,5.0401163E-1,3.474054E-1,1.8310522E0,1.13433525E-1,-4.8850596E-1,-1.20467186E-1,1.7681026E-1,-4.239459E-1,-5.7085037E-2,6.6114765E-1,-9.520006E-2,5.8397163E-2,1.460144E0,1.9037056E-1,-7.4652654E-1,-1.7598152E-2,8.665312E-1,-4.5389748E-1,3.5427684E-1,-2.1276075E-1,1.7728965E-1,7.1144104E-3,2.7844143E-1],"categories":[],"categories_nodes":[],"categories_segments":[],"categories_sizes":[],"default_left":[1,1,1,1,1,0,1,1,1,0,1,1,0,1,0,1,1,1,1,1,1,1,1,1,0,1,0,0,0,0,0,0,0,1,1],"id":36,"left_children":[1,3,5,7,9,-1,11,13,15,-1,-1,-1,-1,21,-1,23,25,-1,-1,-1,-1,27,29,31,-1,-1,-1,-1,-1,-1,-1,-1,-1,-1,-1],"loss_changes":[5.328346E0,5.6680107E0,6.983192E0,4.4666023E0,7.0631685E0,0E0,8.160484E-1,5.523595E0,2.5110435E0,0E0,1.1058378E-1,5.7456642E-2,0E0,3.1179497E0,0E0,3.7688704E0,1.5434299E0,0E0,0E0,0E0,0E0,1.8274913E0,1.7730675E0,1.6818907E0,0E0,4.6437636E-2,0E0,0E0,0E0,0E0,0E0,0E0,0E0,0E0,0E0],"parents":[2147483647,0,0,1,1,2,2,3,3,4,4,6,6,7,7,8,8,10,10,11,11,13,13,15,15,16,16,21,21,22,22,23,23,25,25],"right_children":[2,4,6,8,10,-1,12,14,16,-1,-1,-1,-1,22,-1,24,26,-1,-1,-1,-1,28,30,32,-1,-1,-1,-1,-1,-1,-1,-1,-1,-1,-1],"split_conditions":[5.5318874E-1,6.92223E0,4.81248E0,2.4069412E1,1.5857E-4,-7.1911144E-1,6.43E-1,2.3037367E1,6.6710997E0,-5.744424E-1,2.7978403E-2,-9.6206196E-2,1.512035E-1,7.123885E-1,5.493157E-1,6.6273603E0,4.5578294E-2,-3.614016E-2,5.3043082E-2,-1.2718378E-1,-1.7125512E-2,1.2346053E-1,6.17146E0,1.2966609E-1,4.3804324E-1,5.711117E-2,-2.2395797E-1,-5.279446E-3,2.5995937E-1,-1.3616925E-1,1.06283054E-1,-6.382823E-2,5.3186897E-2,2.1343231E-3,8.353243E-2],"split_indices":[32,1,0,6,32,0,2,6,0,0,0,0,0,3,0,0,3,2147483647,2147483647,2147483647,2147483647,3,0,14,0,0,0,0,0,0,0,0,0,2147483647,2147483647],"split_type":[0,0,0,0,0,0,0,0,0,0,0,0,0,0,0,0,0,0,0,0,0,0,0,0,0,0,0,0,0,0,0,0,0,0,0],"sum_hessian":[9.1E1,8.7E1,4E0,8.1E1,6E0,1E0,3E0,2.3E1,5.8E1,2E0,4E0,2E0,1E0,2.1E1,2E0,5.1E1,7E0,1E0,3E0,1E0,1E0,1.2E1,9E0,5E1,1E0,2E0,5E0,3E0,9E0,5E0,4E0,1.5E1,3.5E1,1E0,1E0],"tree_param":{"num_deleted":"6","num_feature":"35","num_nodes":"35","size_leaf_vector":"0"}},{"base_weights":[4.511139E-3,5.0088365E-2,-1.3643093E0,1.054758E-1,-7.42915E-1,-2.0374823E0,-8.981705E-3,7.425785E-2,1.3638916E0,-1.5318464E0,3.451228E-2,-1.2532336E-1,2.866314E-1,-1.3445616E-1,1.3565381E-1,-3.5186425E-2,-4.719463E-1,1.3158949E-2,5.000812E-1,-2.2278285E-1,1.0941973E-1,-7.615902E-1,8.050609E-2,-1.2363008E-1,7.8391045E-1,6.822287E-1,-1.37172425E-2],"categories":[],"categories_nodes":[],"categories_segments":[],"categories_sizes":[],"default_left":[1,1,1,1,0,0,0,0,0,0,1,0,1,1,1,1,1,0,1,0,0,0,0,0,0,0,0],"id":37,"left_children":[1,3,5,7,9,-1,-1,11,-1,-1,-1,15,17,-1,-1,19,21,23,25,-1,-1,-1,-1,-1,-1,-1,-1],"loss_changes":[5.8079433E0,4.031378E0,2.7188091E0,3.2379584E0,3.7328885E0,0E0,0E0,3.5963266E0,0E0,0E0,8.65984E-2,1.3581092E0,2.3866975E0,0E0,0E0,1.0009704E0,1.5014427E0,2.1000915E0,2.161862E0,0E0,0E0,0E0,0E0,0E0,0E0,0E0,0E0],"parents":[2147483647,0,0,1,1,2,2,3,3,4,4,7,7,10,10,11,11,12,12,15,15,16,16,17,17,18,18],"right_children":[2,4,6,8,10,-1,-1,12,-1,-1,-1,16,18,-1,-1,20,22,24,26,-1,-1,-1,-1,-1,-1,-1,-1],"split_conditions":[5.911264E-1,6.92223E0,5.82904E0,6.88058E0,3.0807892E1,-6.112447E-1,-2.6945116E-3,2.7925396E1,4.091675E-1,-4.5955393E-1,1.0353684E-2,2.7453724E1,2.2968382E-1,-4.0336847E-2,4.0696144E-2,5.67959E0,9.270756E-1,1E1,2.262902E0,-6.683486E-2,3.282592E-2,-2.2847706E-1,2.4151826E-2,-3.7089024E-2,2.3517315E-1,2.0466861E-1,-4.115173E-3],"split_indices":[32,1,1,1,8,0,0,6,0,0,1,6,13,2147483647,2147483647,1,14,30,14,0,0,0,0,0,0,0,0],"split_type":[0,0,0,0,0,0,0,0,0,0,0,0,0,0,0,0,0,0,0,0,0,0,0,0,0,0,0],"sum_hessian":[9.1E1,8.9E1,2E0,8.4E1,5E0,1E0,1E0,8.3E1,1E0,2E0,3E0,4.3E1,4E1,1E0,2E0,3.5E1,8E0,1.8E1,2.2E1,1.5E1,2E1,5E0,3E0,1.6E1,2E0,1.6E1,6E0],"tree_param":{"num_deleted":"2","num_feature":"35","num_nodes":"27","size_leaf_vector":"0"}},{"base_weights":[1.0868633E-1,6.584213E-2,6.761093E-1,1.4670259E-2,6.120164E-1,9.1760063E-1,1.2875111E-1,7.5605893E-1,-2.615474E-2,9.314148E-1,-1.2431971E-1,9.6961594E-1,5.769396E-2,-2.7150953E-1,5.317635E-2,1.0272334E0,2.7407026E-1,4.735565E-2,-2.3383522E-1,5.6251314E-2,-5.3934336E-1,8.885274E-1,-1.0872337E-2,-1.3374455E-1,3.271823E-1,-6.694138E-1,-1.270771E-2,1.2846498E-1,-1.9820209E-1],"categories":[],"categories_nodes":[],"categories_segments":[],"categories_sizes":[],"default_left":[1,1,0,1,1,0,0,1,1,1,1,0,0,1,1,1,1,1,1,1,1,0,1,0,0,0,0,0,0],"id":38,"left_children":[1,3,5,7,9,-1,-1,11,13,-1,-1,-1,-1,19,21,-1,-1,-1,-1,23,25,-1,27,-1,-1,-1,-1,-1,-1],"loss_changes":[2.0705216E0,2.2828197E0,6.7495155E-1,2.3200812E0,1.7620852E0,0E0,0E0,5.4062176E-1,1.4353292E0,3.3394814E-2,6.7476764E-2,0E0,0E0,1.6104769E0,3.005836E0,0E0,0E0,0E0,0E0,5.0704074E-1,6.7649055E-1,0E0,1.4088693E0,0E0,0E0,0E0,0E0,0E0,0E0],"parents":[2147483647,0,0,1,1,2,2,3,3,4,4,7,7,8,8,9,9,10,10,13,13,14,14,19,19,20,20,22,22],"right_children":[2,4,6,8,10,-1,-1,12,14,-1,-1,-1,-1,20,22,-1,-1,-1,-1,24,26,-1,28,-1,-1,-1,-1,-1,-1],"split_conditions":[6.88058E0,3.527864E1,2.7596954E1,3.876855E-4,8.36477E-3,2.752802E-1,3.8625337E-2,5.9383097E0,1.2537408E-1,2.7942446E-1,-3.7295915E-2,2.908848E-1,1.7308189E-2,5.77122E0,2.1504256E-1,3.0817002E-1,8.222108E-2,1.4206696E-2,-7.015057E-2,1.7233053E-2,6.5395403E0,2.6655823E-1,6.241053E-1,-4.0123366E-2,9.8154694E-2,-2.0082416E-1,-3.8123133E-3,3.8539495E-2,-5.946063E-2],"split_indices":[1,7,6,29,33,0,0,1,28,3,1,0,0,1,28,2147483647,2147483647,2147483647,2147483647,11,1,0,3,0,0,0,0,0,0],"split_type":[0,0,0,0,0,0,0,0,0,0,0,0,0,0,0,0,0,0,0,0,0,0,0,0,0,0,0,0,0],"sum_hessian":[8.6E1,8.1E1,5E0,7.5E1,6E0,3E0,2E0,3E0,7.2E1,4E0,2E0,2E0,1E0,1.7E1,5.5E1,3E0,1E0,1E0,1E0,8E0,9E0,3E0,5.2E1,5E0,3E0,7E0,2E0,3E1,2.2E1],"tree_param":{"num_deleted":"4","num_feature":"35","num_nodes":"29","size_leaf_vector":"0"}},{"base_weights":[-3.768302E-2,9.765558E-3,-1.0365446E0,4.56049E-2,-9.850448E-1,-1.7021298E0,-2.4730618E-1,6.046203E-1,-5.8069476E-3,-1.5037618E0,2.6194572E-2,-3.440547E-1,-2.6904583E-2,1.0782776E0,1.995018E-1,-1.0428038E-1,2.1600024E-1,-1.0126495E-1,3.0000973E-1,7.804846E-2,-3.3544347E-1,1.0563235E-1,9.533647E-1,-5.756254E-2,2.9756275E-1,-4.0956643E-1,3.199396E-1,5.6746644E-1,-1.030221E-1],"categories":[],"categories_nodes":[],"categories_segments":[],"categories_sizes":[],"default_left":[1,1,1,1,1,0,1,1,1,0,0,1,1,0,1,1,1,1,1,1,1,1,0,0,0,0,0,0,0],"id":39,"left_children":[1,3,5,7,9,-1,-1,13,15,-1,-1,-1,-1,-1,-1,19,21,-1,-1,23,25,27,-1,-1,-1,-1,-1,-1,-1],"loss_changes":[4.180844E0,3.0754573E0,1.6802745E0,2.388932E0,1.6130314E0,0E0,5.471392E-2,1.128093E0,1.7043675E0,0E0,0E0,0E0,0E0,0E0,1.8152769E-1,2.3021564E0,1.8524466E0,0E0,0E0,9.399536E-1,1.2969313E0,2.1784637E0,0E0,0E0,0E0,0E0,0E0,0E0,0E0],"parents":[2147483647,0,0,1,1,2,2,3,3,4,4,6,6,7,7,8,8,14,14,15,15,16,16,19,19,20,20,21,21],"right_children":[2,4,6,8,10,-1,-1,14,16,-1,-1,-1,-1,-1,-1,20,22,-1,-1,24,26,28,-1,-1,-1,-1,-1,-1,-1],"split_conditions":[5.5318874E-1,7.23093E0,4.81248E0,4.2831697E0,6.6957703E0,-5.1063895E-1,-7.419186E-2,3.416751E1,6.98227E-2,-4.5112854E-1,7.858372E-3,-1.0321642E-1,-8.071375E-3,3.234833E-1,5.985054E-2,5.6300588E-2,3.5481865E1,-3.0379487E-2,9.0002924E-2,2.511135E-4,7.208835E-2,3.352381E1,2.860094E-1,-1.7268764E-2,8.9268826E-2,-1.2286993E-1,9.598189E-2,1.7023994E-1,-3.090663E-2],"split_indices":[32,1,0,0,0,0,0,5,20,0,0,2147483647,2147483647,0,1,11,5,2147483647,2147483647,10,18,5,0,0,0,0,0,0,0],"split_type":[0,0,0,0,0,0,0,0,0,0,0,0,0,0,0,0,0,0,0,0,0,0,0,0,0,0,0,0,0],"sum_hessian":[8.7E1,8.4E1,3E0,8.2E1,2E0,1E0,2E0,6E0,7.6E1,1E0,1E0,1E0,1E0,2E0,4E0,5.3E1,2.3E1,1E0,3E0,3E1,2.3E1,2.1E1,2E0,1.9E1,1.1E1,2.1E1,2E0,6E0,1.5E1],"tree_param":{"num_deleted":"4","num_feature":"35","num_nodes":"29","size_leaf_vector":"0"}},{"base_weights":[-5.355234E-2,-2.7206631E-2,-1.2781973E0,-4.1168913E-1,2.8043326E-2,-8.9651205E-2,-1.3479191E0,-4.8940044E-2,2.0165777E-1,1.4757378E-1,-3.5639095E-1,7.2270134E-3,-6.569897E-1,4.5837212E-1,-1.7157555E-2,-1.367631E-1,2.3179379E-1,-3.92519E-1,-1.0593939E-1,1.1207303E-1,-1.6786048E-1,5.5514693E-2,1.0112696E0,-1.0170834E-1,3.5494837E-1,2.2401865E-1,-1.901929E-1,-4.5226452E-1,1.318036E-1,-2.1880579E-1,2.6386815E-1,2.879653E-1,1.1201043E0,-2.0398034E-1,1.0272293E-1,5.222311E-1,1.0191441E-2],"categories":[],"categories_nodes":[],"categories_segments":[],"categories_sizes":[],"default_left":[1,0,0,0,1,1,0,1,1,1,0,1,0,1,1,1,1,1,1,1,1,1,1,1,1,0,0,0,0,0,0,1,1,1,1,1,1],"id":40,"left_children":[1,3,-1,5,7,9,-1,11,13,-1,-1,19,-1,21,23,-1,-1,-1,-1,25,27,29,-1,-1,-1,-1,-1,-1,-1,-1,-1,-1,-1,-1,-1,-1,-1],"loss_changes":[3.062582E0,2.029596E0,0E0,3.497176E0,1.1325649E0,6.853672E-1,0E0,2.0197372E0,1.4683635E0,1.7538196E-1,3.6584735E-3,1.0284601E0,0E0,2.6167257E0,5.080289E-1,0E0,0E0,0E0,0E0,1.2269138E0,1.8493494E0,5.1498085E-1,7.1052074E-2,2.927522E-1,1.6769332E-1,0E0,0E0,0E0,0E0,0E0,0E0,0E0,0E0,0E0,0E0,0E0,0E0],"parents":[2147483647,0,0,1,1,3,3,4,4,5,5,7,7,8,8,9,9,10,10,11,11,13,13,14,14,19,19,20,20,21,21,22,22,23,23,24,24],"right_children":[2,4,-1,6,8,10,-1,12,14,-1,-1,20,-1,22,24,-1,-1,-1,-1,26,28,30,-1,-1,-1,-1,-1,-1,-1,-1,-1,-1,-1,-1,-1,-1,-1],"split_conditions":[7.23093E0,3.3562637E1,-3.834592E-1,3.3097435E1,8.038318E-1,7.5375104E-1,-4.0437576E-1,7.983706E-1,9.8552245E-1,4.4272136E-2,-1.0691729E-1,5.54578E0,-1.9709691E-1,2.4083195E1,4.770075E-1,-4.102893E-2,6.953814E-2,-1.177557E-1,-3.178182E-2,3.5079235E-1,1.572012E-1,2.2139384E-1,3.0338088E-1,-3.0512502E-2,1.0648452E-1,6.72056E-2,-5.705787E-2,-1.3567936E-1,3.954108E-2,-6.564174E-2,7.916045E-2,8.6389594E-2,3.3603132E-1,-6.1194103E-2,3.081688E-2,1.5666933E-1,3.0574324E-3],"split_indices":[1,7,0,7,12,15,0,13,11,0,6,0,0,8,32,2147483647,2147483647,2147483647,2147483647,27,13,10,0,33,0,0,0,0,0,0,0,2147483647,2147483647,2147483647,2147483647,2147483647,2147483647],"split_type":[0,0,0,0,0,0,0,0,0,0,0,0,0,0,0,0,0,0,0,0,0,0,0,0,0,0,0,0,0,0,0,0,0,0,0,0,0],"sum_hessian":[9.5E1,9.4E1,1E0,1.1E1,8.3E1,9E0,2E0,5.8E1,2.5E1,5E0,4E0,5.4E1,4E0,1.1E1,1.4E1,1E0,4E0,3E0,1E0,3.4E1,2E1,7E0,4E0,1.2E1,2E0,2.5E1,9E0,1E1,1E1,3E0,4E0,1E0,3E0,8E0,4E0,1E0,1E0],"tree_param":{"num_deleted":"10","num_feature":"35","num_nodes":"37","size_leaf_vector":"0"}},{"base_weights":[-1.9024605E-2,7.424008E-1,-4.4766102E-2,-1.9119263E-2,-5.785699E-1,1.4434722E-3,-5.816485E-1,-1.2446222E0,5.8321636E-2,-3.998302E-2,2.762335E-1,-1.0864677E0,2.1399498E-1,-2.0841026E-1,2.9589272E-1,5.694151E-3,-5.5099374E-1,8.819885E-1,4.3622546E-2,6.886139E-1,-1.47765E-2,-6.791618E-1,-1.9643848E-1,-1.7393558E-1,1.3062994E-1],"categories":[],"categories_nodes":[],"categories_segments":[],"categories_sizes":[],"default_left":[1,0,1,1,1,1,1,0,1,1,0,0,0,1,1,1,1,0,0,0,0,1,1,1,1],"id":41,"left_children":[1,-1,3,5,7,9,11,-1,-1,15,17,-1,-1,-1,-1,19,-1,-1,-1,-1,-1,-1,-1,-1,-1],"loss_changes":[1.797255E0,0E0,1.1936915E0,9.8404646E-1,1.769401E0,9.558823E-1,1.4374672E0,0E0,2.5177047E-1,1.7070687E0,1.5114833E0,0E0,0E0,0E0,0E0,9.6080256E-1,1.3924241E-1,0E0,1.9308369E-1,0E0,0E0,0E0,0E0,0E0,0E0],"parents":[2147483647,0,0,2,2,3,3,4,4,5,5,6,6,8,8,9,9,10,10,15,15,16,16,18,18],"right_children":[2,-1,4,6,8,10,12,-1,-1,16,18,-1,-1,-1,-1,20,-1,-1,-1,-1,-1,-1,-1,-1,-1],"split_conditions":[3.876855E-4,2.2272025E-1,5.5318874E-1,7.23093E0,4.81248E0,1.125E0,6.6957703E0,-3.7338668E-1,1.749649E-2,9.4E-1,2.445383E1,-3.2594034E-1,6.4198494E-2,-6.252308E-2,8.876782E-2,4.0821E0,-1.6529813E-1,2.6459658E-1,1.3086764E-2,2.0658417E-1,-4.43295E-3,-2.0374854E-1,-5.8931544E-2,-5.2180674E-2,3.9188985E-2],"split_indices":[29,0,32,1,0,2,0,0,0,2,6,0,0,2147483647,2147483647,0,20,0,7,0,0,2147483647,2147483647,2147483647,2147483647],"split_type":[0,0,0,0,0,0,0,0,0,0,0,0,0,0,0,0,0,0,0,0,0,0,0,0,0],"sum_hessian":[8.9E1,2E0,8.7E1,8.4E1,3E0,8.2E1,2E0,1E0,2E0,7.2E1,1E1,1E0,1E0,1E0,1E0,6.7E1,5E0,2E0,8E0,1E0,6.6E1,3E0,2E0,2E0,6E0],"tree_param":{"num_deleted":"6","num_feature":"35","num_nodes":"25","size_leaf_vector":"0"}},{"base_weights":[-3.6188815E-2,-9.112155E-3,-6.634431E-1,1.3680418E-1,-6.396306E-2,-1.057929E0,-1.7930476E-1,5.165374E-2,5.9221816E-1,-1.9756518E-1,7.146658E-2,-2.1715832E-1,-5.179882E-2,2.305928E-1,-1.645155E-1,7.491849E-1,6.065893E-2,-2.9027304E-1,1.5160799E-1,1.4954448E-2,5.05697E-1,5.7373637E-1,1.4336056E-2,-3.9933205E-1,2.6712826E-2,-1.2606362E-1,-5.325909E-1,2.4152136E-1,-7.8754745E-2,1.7133401E-1,-1.9834314E-1,2.0319335E-1,7.06604E-1,6.903527E-1,5.3635597E-2,3.5569572E-1,-7.279587E-2,-4.5608234E-1,-8.616543E-2,-8.0169916E-2,1.2691736E-1,8.2286835E-2,-3.4355703E-1,-7.82747E-1,-1.936698E-1,2.9607105E-1,8.828131E-2,-1.7628988E-2,4.3336177E-1,-2.4623138E-1,2.1210194E-1],"categories":[],"categories_nodes":[],"categories_segments":[],"categories_sizes":[],"default_left":[1,1,1,1,1,0,1,1,1,1,1,1,1,1,1,1,1,1,1,1,1,1,0,1,1,1,1,1,1,1,1,1,1,1,1,1,1,1,1,1,1,0,0,0,0,1,1,0,0,0,0],"id":42,"left_children":[1,3,5,7,9,-1,-1,13,-1,17,19,-1,-1,21,23,-1,-1,25,-1,29,-1,-1,-1,-1,-1,41,43,-1,-1,47,49,-1,-1,-1,-1,-1,-1,-1,-1,-1,-1,-1,-1,-1,-1,-1,-1,-1,-1,-1,-1],"loss_changes":[1.6413977E0,7.6109284E-1,5.742513E-1,9.776559E-1,1.2625837E0,0E0,3.2311156E-3,9.276018E-1,2.8830385E-1,1.1769962E0,8.513127E-1,0E0,0E0,9.564674E-1,5.0460666E-1,0E0,0E0,1.0470045E0,1.8472247E-1,1.1013552E0,9.952319E-2,2.6623356E-1,2.935831E-1,4.956293E-2,8.5145906E-2,8.439375E-1,7.8102016E-1,2.4017662E-2,0E0,9.4839716E-1,3.27403E-1,0E0,0E0,0E0,0E0,0E0,0E0,0E0,0E0,0E0,0E0,0E0,0E0,0E0,0E0,0E0,0E0,0E0,0E0,0E0,0E0],"parents":[2147483647,0,0,1,1,2,2,3,3,4,4,6,6,7,7,8,8,9,9,10,10,13,13,14,14,17,17,18,18,19,19,20,20,21,21,22,22,23,23,24,24,25,25,26,26,27,27,29,29,30,30],"right_children":[2,4,6,8,10,-1,-1,14,-1,18,20,-1,-1,22,24,-1,-1,26,-1,30,-1,-1,-1,-1,-1,42,44,-1,-1,48,50,-1,-1,-1,-1,-1,-1,-1,-1,-1,-1,-1,-1,-1,-1,-1,-1,-1,-1,-1,-1],"split_conditions":[5.5318874E-1,3.3681786E1,4.81248E0,8.408944E-1,3.4044224E1,-3.1737873E-1,-5.379143E-2,3.6147234E-1,1.7766546E-1,3.8335142E-1,1.0774009E0,-6.51475E-2,-1.5539647E-2,5.5443497E0,2.985357E-1,2.2475548E-1,1.819768E-2,5.53529E0,4.5482397E-2,5.55087E0,1.5170911E-1,1.7212091E-1,4.300817E-3,-1.1979962E-1,8.013848E-3,2.392768E1,5.3224397E-1,7.245641E-2,-2.3626424E-2,7.985693E-1,7.54322E0,6.095801E-2,2.119812E-1,2.0710582E-1,1.609068E-2,1.0670872E-1,-2.1838762E-2,-1.3682471E-1,-2.584963E-2,-2.4050975E-2,3.807521E-2,2.4686052E-2,-1.03067115E-1,-2.348241E-1,-5.8100943E-2,8.882132E-2,2.6484394E-2,-5.288697E-3,1.3000853E-1,-7.3869415E-2,6.363058E-2],"split_indices":[32,5,0,24,7,0,0,14,0,10,21,2147483647,2147483647,1,24,2147483647,2147483647,0,9,0,3,3,8,0,6,8,3,2147483647,2147483647,3,0,2147483647,2147483647,2147483647,2147483647,2147483647,2147483647,2147483647,2147483647,2147483647,2147483647,0,0,0,0,2147483647,2147483647,0,0,0,0],"split_type":[0,0,0,0,0,0,0,0,0,0,0,0,0,0,0,0,0,0,0,0,0,0,0,0,0,0,0,0,0,0,0,0,0,0,0,0,0,0,0,0,0,0,0,0,0,0,0,0,0,0,0],"sum_hessian":[9.6E1,9.3E1,3E0,2.5E1,6.8E1,1E0,2E0,2.2E1,3E0,3.4E1,3.4E1,1E0,1E0,1.2E1,1E1,2E0,1E0,2.7E1,7E0,3.1E1,3E0,4E0,8E0,4E0,6E0,1.7E1,1E1,5E0,2E0,1.8E1,1.3E1,2E0,1E0,3E0,1E0,1E0,7E0,3E0,1E0,3E0,3E0,9E0,8E0,5E0,5E0,3E0,2E0,1.1E1,7E0,1.2E1,1E0],"tree_param":{"num_deleted":"18","num_feature":"35","num_nodes":"51","size_leaf_vector":"0"}},{"base_weights":[-4.2046808E-2,-3.0847025E-1,2.2455445E-2,-4.6384186E-1,1.8826428E-1,1.9738041E-1,-4.9226124E-2,-1.3456504E-2,-7.125608E-1,2.2033954E-1,2.9981613E-2,4.3517673E-1,3.0412743E-2,-4.232893E-1,-2.4178564E-3,2.5114727E-1,-2.0854521E-1,-8.9420825E-1,-2.619493E-1,-2.9447556E-2,4.9693573E-1,3.4332734E-1,-1.2908582E-1,-1.8551293E-1,-8.060856E-1,3.530577E-1,-6.0229745E-2,3.1976318E-1,5.695772E-2,5.3295696E-1,1.2239361E-1,3.8583875E-1,8.6640835E-2,-2.1123354E-1,4.694414E-2,-4.937315E-2,-2.0720458E-1,8.686383E-3,4.8906898E-1,-8.8257164E-2,3.428882E-1,-9.334882E-3,-2.9012603E-1,7.3348045E-2,-1.6133785E-2,8.452034E-2,-7.1490765E-2,2.166233E-1,5.9849167E-1,-3.8491093E-2,-4.3887463E-1],"categories":[],"categories_nodes":[],"categories_segments":[],"categories_sizes":[],"default_left":[1,1,1,0,1,1,0,0,1,1,1,1,1,1,0,1,0,0,0,1,1,1,1,0,0,1,1,1,1,1,1,1,1,1,1,1,1,1,1,1,0,1,1,1,1,1,1,1,1,0,0],"id":43,"left_children":[1,3,5,7,-1,11,13,15,17,-1,-1,-1,21,23,25,-1,-1,-1,-1,-1,-1,-1,-1,-1,-1,37,39,-1,-1,-1,-1,-1,-1,-1,-1,-1,-1,-1,-1,49,-1,-1,-1,-1,-1,-1,-1,-1,-1,-1,-1],"loss_changes":[1.5879388E0,1.4765369E0,9.5013344E-1,1.558682E0,1.8778652E-2,8.6025965E-1,9.44476E-1,3.621028E-1,5.024352E-1,0E0,0E0,2.7288616E-1,7.430507E-1,3.9658022E-1,1.0282496E0,2.1760494E-2,0E0,0E0,0E0,0E0,4.2701244E-2,2.1131158E-2,1.545208E-1,4.5351535E-3,0E0,3.236205E-1,5.160916E-1,0E0,0E0,0E0,0E0,0E0,0E0,1.0878974E-1,7.845395E-3,0E0,0E0,2.4282875E-2,1.9411445E-2,6.9851017E-1,0E0,0E0,0E0,0E0,0E0,0E0,0E0,0E0,0E0,0E0,0E0],"parents":[2147483647,0,0,1,1,2,2,3,3,4,4,5,5,6,6,7,7,8,8,11,11,12,12,13,13,14,14,15,15,20,20,21,21,22,22,23,23,25,25,26,26,33,33,34,34,37,37,38,38,39,39],"right_children":[2,4,6,8,-1,12,14,16,18,-1,-1,-1,22,24,26,-1,-1,-1,-1,-1,-1,-1,-1,-1,-1,38,40,-1,-1,-1,-1,-1,-1,-1,-1,-1,-1,-1,-1,50,-1,-1,-1,-1,-1,-1,-1,-1,-1,-1,-1],"split_conditions":[5.46399E0,2.8333616E1,5.92704E0,2.3289572E1,5.6479286E-2,2.4530253E-1,2.3658566E1,3.396379E1,1.0215442E0,6.6101864E-2,8.994484E-3,1.3055302E-1,5.53798E0,6.7179003E0,2.565929E1,7.534418E-2,-6.256357E-2,-2.6826248E-1,-7.858479E-2,-8.834267E-3,1.4908072E-1,1.02998205E-1,-3.872575E-2,-5.565388E-2,-2.4182568E-1,1.264053E-1,4.5504175E-2,9.592896E-2,1.7087318E-2,1.5988709E-1,3.6718085E-2,1.1575163E-1,2.5992252E-2,-6.3370064E-2,1.4083243E-2,-1.4811945E-2,-6.2161375E-2,2.605915E-3,1.467207E-1,4.3540692E-1,1.0286646E-1,-2.8004646E-3,-8.703781E-2,2.2004414E-2,-4.8401356E-3,2.5356103E-2,-2.144723E-2,6.4987E-2,1.795475E-1,-1.1547328E-2,-1.316624E-1],"split_indices":[1,6,1,6,0,15,6,5,15,2147483647,2147483647,0,1,1,6,0,0,0,0,2147483647,2147483647,0,18,5,0,12,31,2147483647,2147483647,2147483647,2147483647,2147483647,2147483647,2147483647,2147483647,2147483647,2147483647,0,15,22,0,2147483647,2147483647,2147483647,2147483647,2147483647,2147483647,2147483647,2147483647,0,0],"split_type":[0,0,0,0,0,0,0,0,0,0,0,0,0,0,0,0,0,0,0,0,0,0,0,0,0,0,0,0,0,0,0,0,0,0,0,0,0,0,0,0,0,0,0,0,0,0,0,0,0,0,0],"sum_hessian":[9.1E1,1.7E1,7.4E1,1.3E1,4E0,2.1E1,5.3E1,5E0,8E0,3E0,1E0,8E0,1.3E1,5E0,4.8E1,2E0,3E0,5E0,3E0,1E0,7E0,4E0,9E0,4E0,1E0,6E0,4.2E1,1E0,1E0,6E0,1E0,3E0,1E0,6E0,3E0,1E0,3E0,2E0,4E0,4E1,2E0,2E0,4E0,2E0,1E0,1E0,1E0,2E0,2E0,3.6E1,4E0],"tree_param":{"num_deleted":"22","num_feature":"35","num_nodes":"51","size_leaf_vector":"0"}},{"base_weights":[1.5075622E-2,-1.7902629E-1,7.070664E-2,-2.973116E-1,1.0001741E-1,2.8094864E-1,1.8662384E-3,-1.8174607E-1,-4.0342277E-1,3.1140137E-1,-1.363709E-1,3.879712E-1,-7.490425E-2,7.739098E-2,-1.3794784E-1,-1.9390988E-1,-4.221773E-2,-5.007057E-1,-1.0681025E-1,3.5972342E-1,8.321762E-2,-1.4527638E-4,-2.7252388E-1,5.1224786E-1,6.1823655E-2,-1.1120129E-1,3.5141945E-2,-2.9094663E-1,1.06751606E-1,-2.9085082E-1,4.4040203E-2,-1.3531637E-1,-5.5822396E-1,-2.1546364E-2,2.132845E-2,7.045698E-2,5.5350715E-1,8.902105E-2,1.4018376E-2,1.6550326E-1,-1.1222315E-1,-5.3099203E-1,-1.3442385E-1,-7.576724E-2,2.4269319E-1,1.5082073E-1,5.849904E-1,1.9285679E-2,1.7418861E-3,1.15912326E-1,5.4012364E-1,-2.9149652E-1,5.3640176E-2,2.175808E-2,-2.960453E-1,-1.5933093E-1,8.876133E-2,7.392025E-2,2.7431074E-1],"categories":[],"categories_nodes":[],"categories_segments":[],"categories_sizes":[],"default_left":[1,1,1,0,1,1,1,1,1,1,1,1,1,1,1,1,1,1,1,1,1,1,1,1,1,1,1,0,1,0,1,1,1,1,1,1,1,1,1,1,1,0,1,1,1,1,1,1,1,0,0,1,1,1,1,1,1,1,1],"id":44,"left_children":[1,3,5,-1,9,11,13,-1,-1,-1,-1,23,-1,27,29,-1,-1,-1,-1,-1,-1,-1,-1,-1,-1,-1,-1,-1,39,41,-1,-1,-1,-1,-1,-1,-1,-1,-1,49,-1,-1,-1,-1,-1,-1,-1,-1,-1,-1,-1,-1,-1,-1,-1,-1,-1,-1,-1],"loss_changes":[1.0168805E0,7.2287846E-1,1.0560153E0,1.1062145E-1,3.9224696E-1,7.145779E-1,6.020036E-1,7.088363E-3,1.48507E-1,1.4169872E-2,7.41505E-2,5.357864E-1,2.3879582E-2,4.3120006E-1,5.693394E-1,0E0,0E0,2.9546022E-2,0E0,0E0,0E0,1.8382338E-3,0E0,1.4328146E-1,5.252963E-3,0E0,0E0,0E0,4.6885285E-1,3.4183216E-1,2.563893E-1,0E0,0E0,0E0,0E0,0E0,2.587223E-2,0E0,1.6039849E-4,4.5757073E-1,2.5351495E-1,0E0,2.0838018E-1,1.1038273E-1,1.0676384E-3,0E0,0E0,0E0,0E0,0E0,0E0,0E0,0E0,0E0,0E0,0E0,0E0,0E0,0E0],"parents":[2147483647,0,0,1,1,2,2,3,3,4,4,5,5,6,6,7,7,8,8,9,9,10,10,11,11,12,12,13,13,14,14,17,17,21,21,23,23,24,24,28,28,29,29,30,30,36,36,38,38,39,39,40,40,42,42,43,43,44,44],"right_children":[2,4,6,-1,10,12,14,-1,-1,-1,-1,24,-1,28,30,-1,-1,-1,-1,-1,-1,-1,-1,-1,-1,-1,-1,-1,40,42,-1,-1,-1,-1,-1,-1,-1,-1,-1,50,-1,-1,-1,-1,-1,-1,-1,-1,-1,-1,-1,-1,-1,-1,-1,-1,-1,-1,-1],"split_conditions":[1.5950965E-2,7.562418E-1,5.51691E0,-8.9193486E-2,5.68894E0,1.5116521E0,4.7710825E-2,-5.4523822E-2,-1.2102684E-1,9.3420416E-2,-4.0911272E-2,1.2176847E-2,-2.2471275E-2,5.57816E0,3.295238E-1,-5.8172967E-2,-1.266532E-2,-1.5021172E-1,-3.2043077E-2,1.0791703E-1,2.4965288E-2,-4.3582917E-5,-8.1757165E-2,1.5367436E-1,1.8547097E-2,-3.3360388E-2,1.0542584E-2,-8.728399E-2,9.935637E-1,3.4555046E1,1.32120615E-2,-4.0594913E-2,-1.6746719E-1,-6.4639095E-3,6.398535E-3,2.1137096E-2,1.6605215E-1,2.6706316E-2,4.2055133E-3,7.7480197E-1,-3.3666946E-2,-1.5929762E-1,-4.0327158E-2,-2.2730174E-2,7.280796E-2,4.524622E-2,1.7549711E-1,5.7857037E-3,5.2256585E-4,3.47737E-2,1.620371E-1,-8.7448955E-2,1.6092053E-2,6.5274243E-3,-8.8813595E-2,-4.779928E-2,2.66284E-2,2.2176076E-2,8.229323E-2],"split_indices":[25,3,1,7,0,16,9,2147483647,2147483647,1,1,18,0,1,9,2147483647,2147483647,2147483647,2147483647,2147483647,2147483647,2147483647,2147483647,2,0,2147483647,2147483647,0,11,5,31,2147483647,2147483647,2147483647,2147483647,2147483647,2147483647,2147483647,2147483647,11,13,0,20,2147483647,2147483647,2147483647,2147483647,2147483647,2147483647,0,0,2147483647,2147483647,2147483647,2147483647,2147483647,2147483647,2147483647,2147483647],"split_type":[0,0,0,0,0,0,0,0,0,0,0,0,0,0,0,0,0,0,0,0,0,0,0,0,0,0,0,0,0,0,0,0,0,0,0,0,0,0,0,0,0,0,0,0,0,0,0,0,0,0,0,0,0,0,0,0,0,0,0],"sum_hessian":[9.2E1,2E1,7.2E1,1.4E1,6E0,1.7E1,5.5E1,8E0,6E0,3E0,3E0,1.3E1,4E0,3.6E1,1.9E1,7E0,1E0,4E0,2E0,2E0,1E0,2E0,1E0,9E0,4E0,3E0,1E0,2E0,3.4E1,1E1,9E0,1E0,3E0,1E0,1E0,1E0,8E0,2E0,2E0,2.7E1,7E0,3E0,7E0,6E0,3E0,1E0,7E0,1E0,1E0,2.5E1,2E0,3E0,4E0,4E0,3E0,4E0,2E0,1E0,2E0],"tree_param":{"num_deleted":"34","num_feature":"35","num_nodes":"59","size_leaf_vector":"0"}},{"base_weights":[-2.947928E-3,2.1068675E-2,-3.626074E-1,1.6703549E-1,-3.8789447E-2,-6.6358596E-1,5.924034E-2,-6.368554E-2,2.7895102E-1,-3.8934326E-1,-1.7819239E-2,-5.567074E-3,9.4427586E-2,-1.1991342E-2,-1.4584541E-1,-1.5897274E-1,3.5855258E-1,-5.3786945E-1,-4.614544E-2,8.458403E-2,-9.573444E-2,-2.905631E-2,1.4759064E-2,-2.1345711E-1,4.2400813E-1,-1.7039776E-3,2.4658704E-1,-1.3101932E-1,2.655026E-1,-3.801473E-2,-1.0905266E-3,4.694414E-1,-3.787899E-2,8.623374E-2,-1.6263914E-1,3.9730072E-2,2.704623E-1,-3.7029707E-3,-2.2627515E-1],"categories":[],"categories_nodes":[],"categories_segments":[],"categories_sizes":[],"default_left":[1,1,1,0,1,0,1,1,1,1,1,1,1,1,1,0,1,1,1,1,1,1,1,0,1,1,1,1,0,1,1,1,1,1,1,1,1,0,0],"id":45,"left_children":[1,3,5,7,9,-1,-1,-1,15,-1,19,-1,-1,-1,-1,-1,23,-1,-1,25,27,-1,-1,-1,-1,-1,-1,37,-1,-1,-1,-1,-1,-1,-1,-1,-1,-1,-1],"loss_changes":[6.9002575E-1,6.6177666E-1,6.741467E-1,5.858329E-1,3.9002627E-1,0E0,7.3668687E-3,3.2228626E-2,5.798913E-1,1.2810138E-1,4.229937E-1,0E0,0E0,3.167813E-3,0E0,0E0,5.772432E-1,0E0,0E0,3.2193527E-1,4.171722E-1,9.606611E-4,0E0,0E0,2.6960254E-1,2.4046133E-1,2.8764635E-2,3.387356E-1,0E0,0E0,0E0,0E0,0E0,0E0,0E0,0E0,0E0,0E0,0E0],"parents":[2147483647,0,0,1,1,2,2,3,3,4,4,6,6,7,7,8,8,9,9,10,10,13,13,16,16,19,19,20,20,21,21,24,24,25,25,26,26,27,27],"right_children":[2,4,6,8,10,-1,-1,-1,16,-1,20,-1,-1,-1,-1,-1,24,-1,-1,26,28,-1,-1,-1,-1,-1,-1,38,-1,-1,-1,-1,-1,-1,-1,-1,-1,-1,-1],"split_conditions":[6.9286003E0,2.4069412E1,2.5862663E1,2.2716E1,1.449152E-3,-1.990758E-1,1.7772103E-2,-1.9105662E-2,9.821239E-2,-1.1680298E-1,8.4240735E-2,-1.6701223E-3,2.8328277E-2,-3.5974027E-3,-4.3753624E-2,-4.7691826E-2,4.68587E0,-1.6136084E-1,-1.3843632E-2,1.6617115E-3,9.943563E-1,-8.716893E-3,4.4277194E-3,-6.403714E-2,1.2720245E-1,-5.111933E-4,7.3976114E-2,6.0282117E-3,7.965078E-2,-1.1404419E-2,-3.27158E-4,1.4083242E-1,-1.1363697E-2,2.5870124E-2,-4.8791744E-2,1.1919023E-2,8.113869E-2,-1.1108912E-3,-6.7882545E-2],"split_indices":[1,6,6,6,29,0,1,8,3,1,11,2147483647,2147483647,2147483647,2147483647,0,1,2147483647,2147483647,10,3,2147483647,2147483647,0,7,24,12,18,0,2147483647,2147483647,2147483647,2147483647,2147483647,2147483647,2147483647,2147483647,0,0],"split_type":[0,0,0,0,0,0,0,0,0,0,0,0,0,0,0,0,0,0,0,0,0,0,0,0,0,0,0,0,0,0,0,0,0,0,0,0,0,0,0],"sum_hessian":[7.8E1,7.4E1,4E0,2.1E1,5.3E1,2E0,2E0,7E0,1.4E1,2E0,5.1E1,1E0,1E0,5E0,2E0,2E0,1.2E1,1E0,1E0,2.2E1,2.9E1,3E0,2E0,1E0,1.1E1,1.5E1,7E0,2.7E1,2E0,2E0,1E0,1E1,1E0,1E1,5E0,1E0,6E0,1.2E1,1.5E1],"tree_param":{"num_deleted":"16","num_feature":"35","num_nodes":"39","size_leaf_vector":"0"}},{"base_weights":[-1.9242349E-3,-2.2369506E-2,2.9485288E-1,1.9145847E-3,-2.6241422E-1,6.196976E-1,1.0594444E-1,-1.7701368E-1,2.7088784E-2,-6.189725E-1,-4.039939E-2,-3.278637E-2,1.4882374E-1,-2.1817589E-1,-8.243243E-3,-7.122476E-2,9.666777E-2,-1.4243476E-1,4.622698E-2,-2.4866922E-1,-2.3612976E-3,8.274078E-3,-2.0638943E-2,2.0189675E-2,-2.8676838E-1,2.0490178E-1,-1.1040514E-2,7.127126E-2,-1.4452934E-2,-3.52602E-2,1.2163448E-1,-9.26342E-2,-4.2354888E-1,2.792458E-1,4.9187064E-2,1.2541749E-1,-1.8733187E-1],"categories":[],"categories_nodes":[],"categories_segments":[],"categories_sizes":[],"default_left":[1,1,1,1,0,0,1,1,1,0,0,1,1,1,1,1,1,1,1,1,1,1,1,1,1,1,1,1,1,1,1,1,1,1,1,0,0],"id":46,"left_children":[1,3,5,7,9,-1,-1,-1,15,-1,-1,-1,-1,-1,-1,23,25,-1,-1,-1,-1,-1,-1,-1,-1,-1,35,-1,-1,-1,-1,-1,-1,-1,-1,-1,-1],"loss_changes":[5.648231E-1,5.076487E-1,3.0254185E-1,3.6514512E-1,6.082836E-1,0E0,3.462279E-2,6.767115E-2,4.9256462E-1,0E0,5.961805E-2,0E0,0E0,5.2060068E-2,7.849995E-4,5.969037E-1,4.9188566E-1,0E0,7.1088187E-3,0E0,0E0,0E0,0E0,1.2804109E-1,1.9974881E-1,2.293703E-1,5.527347E-1,0E0,0E0,0E0,0E0,0E0,0E0,0E0,0E0,0E0,0E0],"parents":[2147483647,0,0,1,1,2,2,3,3,4,4,6,6,7,7,8,8,10,10,13,13,14,14,15,15,16,16,18,18,23,23,24,24,25,25,26,26],"right_children":[2,4,6,8,10,-1,-1,-1,16,-1,-1,-1,-1,-1,-1,24,26,-1,-1,-1,-1,-1,-1,-1,-1,-1,36,-1,-1,-1,-1,-1,-1,-1,-1,-1,-1],"split_conditions":[1.1524043E0,4.2516744E-1,-2.985E-1,4.67521E0,2.5516754E1,1.8590927E-1,3.1783335E-2,-5.3104106E-2,7.2E-2,-1.8569174E-1,-1.2119818E-2,-9.835911E-3,4.4647124E-2,-6.545277E-2,-2.472973E-3,-1.38E-1,1.6882785E-3,-4.273043E-2,1.3868094E-2,-7.460077E-2,-7.083893E-4,2.4822236E-3,-6.191683E-3,6.0569025E-3,-8.603051E-2,6.147054E-2,7.9737656E-2,2.138138E-2,-4.3358803E-3,-1.05780605E-2,3.6490347E-2,-2.7790261E-2,-1.2706468E-1,8.377374E-2,1.475612E-2,3.7625246E-2,-5.619956E-2],"split_indices":[34,21,2,0,6,0,0,2,2,0,6,2147483647,2147483647,2147483647,2147483647,2,34,2147483647,2147483647,2147483647,2147483647,2147483647,2147483647,27,3,7,32,2147483647,2147483647,2147483647,2147483647,2147483647,2147483647,2147483647,2147483647,0,0],"split_type":[0,0,0,0,0,0,0,0,0,0,0,0,0,0,0,0,0,0,0,0,0,0,0,0,0,0,0,0,0,0,0,0,0,0,0,0,0],"sum_hessian":[9.1E1,8.6E1,5E0,7.9E1,7E0,1E0,4E0,9E0,7E1,2E0,5E0,1E0,3E0,7E0,2E0,2.9E1,4.1E1,2E0,3E0,6E0,1E0,1E0,1E0,2.1E1,8E0,2E1,2.1E1,2E0,1E0,1.4E1,7E0,4E0,4E0,1.3E1,7E0,1.2E1,9E0],"tree_param":{"num_deleted":"18","num_feature":"35","num_nodes":"37","size_leaf_vector":"0"}},{"base_weights":[-4.1289084E-2,-1.2503976E-1,5.163944E-2,-8.79273E-2,-8.78994E-1,2.6593376E-2,5.26741E-1,7.2902314E-2,-1.505166E-1,2.290802E-1,-1.5877247E-2,-1.026862E-2,1.4565863E-1,-4.3473402E-1,-8.178248E-2,2.7342E-1,-1.8479347E-2,2.2760073E-2,-1.4429355E-1,-5.6012392E-2,3.8042307E-2,2.4190903E-2,1.6187143E-1,-9.99794E-2,-4.8168907E-1,1.6595991E-2,-2.8038344E-1,3.4520555E-1,8.656597E-2,-2.3484105E-2,2.3093128E-1,-1.6449574E-1,-1.4390945E-3,-9.2728615E-2,2.7068138E-2,4.6780903E-2,5.9132576E-3,-2.9517713E-1,7.0638545E-2,-6.92021E-2,-5.2705956E-1,-1.2326183E-1,4.9463134E-2,9.601053E-2,2.8887495E-1],"categories":[],"categories_nodes":[],"categories_segments":[],"categories_sizes":[],"default_left":[1,1,1,1,0,1,0,0,1,1,0,1,1,1,1,1,1,1,1,1,1,1,1,1,1,1,1,1,1,1,1,1,1,1,1,1,1,0,0,0,0,1,1,1,1],"id":47,"left_children":[1,3,5,7,-1,9,-1,-1,13,-1,-1,-1,-1,-1,25,-1,-1,-1,-1,-1,-1,-1,-1,-1,-1,37,39,-1,-1,-1,-1,-1,-1,-1,-1,-1,-1,-1,-1,-1,-1,-1,-1,-1,-1],"loss_changes":[6.6799724E-1,1.1818619E0,4.738686E-1,4.5388642E-1,0E0,3.4762684E-1,0E0,8.016146E-2,5.8958024E-1,8.188984E-2,1.7198063E-1,1.7600307E-2,9.869501E-3,4.615152E-2,5.321808E-1,5.059743E-2,0E0,2.6534432E-1,2.2851065E-2,1.4711604E-2,8.464237E-4,0E0,0E0,0E0,0E0,3.409822E-1,4.323669E-1,0E0,0E0,1.7350265E-1,1.135397E-2,0E0,0E0,0E0,0E0,0E0,0E0,0E0,0E0,0E0,0E0,0E0,0E0,0E0,0E0],"parents":[2147483647,0,0,1,1,2,2,3,3,5,5,7,7,8,8,9,9,10,10,11,11,12,12,13,13,14,14,15,15,17,17,18,18,19,19,20,20,25,25,26,26,29,29,30,30],"right_children":[2,4,6,8,-1,10,-1,-1,14,-1,-1,-1,-1,-1,26,-1,-1,-1,-1,-1,-1,-1,-1,-1,-1,38,40,-1,-1,-1,-1,-1,-1,-1,-1,-1,-1,-1,-1,-1,-1,-1,-1,-1,-1],"split_conditions":[3.3295033E1,3.3097435E1,3.5614292E1,4.89221E0,-2.6369822E-1,5.2797135E-2,1.5802231E-1,2.1870695E-2,1.1911693E-1,6.8724066E-2,-4.7631743E-3,-3.0805862E-3,4.369759E-2,-1.3042021E-1,7.310309E-1,8.2026005E-2,-5.5438043E-3,6.828022E-3,-4.3288067E-2,-1.680372E-2,1.1412692E-2,7.257271E-3,4.856143E-2,-2.9993821E-2,-1.4450672E-1,5.31552E0,6.39793E0,1.0356167E-1,2.5969792E-2,-7.0452318E-3,6.927939E-2,-4.9348723E-2,-4.3172837E-4,-2.7818585E-2,8.120442E-3,1.4034271E-2,1.7739773E-3,-8.8553146E-2,2.1191563E-2,-2.0760631E-2,-1.5811788E-1,-3.697855E-2,1.483894E-2,2.880316E-2,8.6662486E-2],"split_indices":[7,7,5,0,0,28,0,6,15,1,6,2147483647,2147483647,0,26,2147483647,2147483647,2147483647,2147483647,2147483647,2147483647,2147483647,2147483647,2147483647,2147483647,0,1,2147483647,2147483647,2147483647,2147483647,2147483647,2147483647,2147483647,2147483647,2147483647,2147483647,0,0,0,0,2147483647,2147483647,2147483647,2147483647],"split_type":[0,0,0,0,0,0,0,0,0,0,0,0,0,0,0,0,0,0,0,0,0,0,0,0,0,0,0,0,0,0,0,0,0,0,0,0,0,0,0,0,0,0,0,0,0],"sum_hessian":[8.4E1,4.4E1,