{"learner":{"attributes":{"scikit_learn":"{\"n_estimators\": 100, \"objective\": \"binary:logistic\", \"max_depth\": 4, \"learning_rate\": null, \"verbosity\": null, \"booster\": null, \"tree_method\": null, \"gamma\": 0.1, \"min_child_weight\": null, \"max_delta_step\": null, \"subsample\": 0.8, \"colsample_bytree\": 0.75, \"colsample_bylevel\": null, \"colsample_bynode\": null, \"reg_alpha\": null, \"reg_lambda\": null, \"scale_pos_weight\": null, \"base_score\": null, \"missing\": NaN, \"num_parallel_tree\": null, \"kwargs\": {}, \"random_state\": null, \"n_jobs\": null, \"monotone_constraints\": null, \"interaction_constraints\": null, \"importance_type\": \"gain\", \"gpu_id\": null, \"validate_parameters\": null, \"classes_\": [false, true], \"n_classes_\": 2, \"_le\": {\"classes_\": [false, true]}, \"_features_count\": 33, \"type\": \"XGBClassifier\"}"},"gradient_booster":{"model":{"gbtree_model_param":{"num_trees":"100","size_leaf_vector":"0"},"tree_info":[0,0,0,0,0,0,0,0,0,0,0,0,0,0,0,0,0,0,0,0,0,0,0,0,0,0,0,0,0,0,0,0,0,0,0,0,0,0,0,0,0,0,0,0,0,0,0,0,0,0,0,0,0,0,0,0,0,0,0,0,0,0,0,0,0,0,0,0,0,0,0,0,0,0,0,0,0,0,0,0,0,0,0,0,0,0,0,0,0,0,0,0,0,0,0,0,0,0,0,0],"trees":[{"base_weights":[-1.62886595726013184e+00,-1.79746830463409424e+00,-7.27272748947143555e-01,-5.00000000000000000e-01,-1.84000003337860107e+00,-1.11111116409301758e+00,5.00000000000000000e-01,-1.88732397556304932e+00,-5.00000000000000000e-01,-0.00000000000000000e+00,-1.42857146263122559e+00],"default_left":[true,true,true,false,false,true,false,false,false,false,false],"id":0,"leaf_child_counts":[0,0,0,0,0,0,0,0,0,0,0],"left_children":[1,3,5,-1,7,9,-1,-1,-1,-1,-1],"loss_changes":[2.37900543212890625e+00,1.69872283935546875e-01,3.14646434783935547e+00,0.00000000000000000e+00,2.45353698730468750e-01,1.58730173110961914e+00,0.00000000000000000e+00,0.00000000000000000e+00,0.00000000000000000e+00,0.00000000000000000e+00,0.00000000000000000e+00],"parents":[2147483647,0,0,1,1,2,2,4,4,5,5],"right_children":[2,4,6,-1,8,10,-1,-1,-1,-1,-1],"split_conditions":[9.39999997615814209e-01,4.90147018432617188e+00,7.50245451927185059e-02,-1.50000005960464478e-01,8.00000000000000000e+00,5.31307029724121094e+00,1.50000005960464478e-01,-5.66197216510772705e-01,-1.50000005960464478e-01,-0.00000000000000000e+00,-4.28571462631225586e-01],"split_indices":[2,1,31,0,15,1,0,0,0,0,0],"sum_hessian":[2.32500000000000000e+01,1.87500000000000000e+01,4.50000000000000000e+00,1.00000000000000000e+00,1.77500000000000000e+01,3.50000000000000000e+00,1.00000000000000000e+00,1.67500000000000000e+01,1.00000000000000000e+00,1.00000000000000000e+00,2.50000000000000000e+00],"tree_param":{"num_deleted":"0","num_feature":"33","num_nodes":"11","size_leaf_vector":"0"}},{"base_weights":[-1.21528792381286621e+00,7.09480345249176025e-02,-1.34478211402893066e+00,-1.42683863639831543e+00,-1.44788116216659546e-01],"default_left":[true,false,true,false,false],"id":1,"leaf_child_counts":[0,0,0,0,0],"left_children":[1,-1,3,-1,-1],"loss_changes":[3.78292846679687500e+00,0.00000000000000000e+00,1.77894592285156250e+00,0.00000000000000000e+00,0.00000000000000000e+00],"parents":[2147483647,0,0,2,2],"right_children":[2,-1,4,-1,-1],"split_conditions":[4.17434024810791016e+00,2.12844107300043106e-02,1.07764458656311035e+00,-4.28051620721817017e-01,-4.34364378452301025e-02],"split_indices":[0,0,32,0,0],"sum_hessian":[2.11392765045166016e+01,1.97492384910583496e+00,1.91643524169921875e+01,1.77608146667480469e+01,1.40353727340698242e+00],"tree_param":{"num_deleted":"0","num_feature":"33","num_nodes":"5","size_leaf_vector":"0"}},{"base_weights":[-1.02051103115081787e+00,2.75420099496841431e-01,-1.12290179729461670e+00,-1.25369966030120850e+00,-5.28219699859619141e-01,-1.30127692222595215e+00,-3.68068218231201172e-01,2.77558416128158569e-01,-8.01392018795013428e-01,-2.14431002736091614e-01,-9.28642988204956055e-01],"default_left":[true,false,true,true,true,false,false,false,true,false,false],"id":2,"leaf_child_counts":[0,0,0,0,0,0,0,0,0,0,0],"left_children":[1,-1,3,5,7,-1,-1,-1,9,-1,-1],"loss_changes":[2.91105079650878906e+00,0.00000000000000000e+00,7.66569137573242188e-01,1.24813079833984375e-01,1.33178961277008057e+00,0.00000000000000000e+00,0.00000000000000000e+00,0.00000000000000000e+00,1.01212024688720703e-01,0.00000000000000000e+00,0.00000000000000000e+00],"parents":[2147483647,0,0,2,2,3,3,4,4,8,8],"right_children":[2,-1,4,6,8,-1,-1,-1,10,-1,-1],"split_conditions":[4.17434024810791016e+00,8.26260298490524292e-02,9.05218124389648438e-01,6.71152973175048828e+00,5.51039028167724609e+00,-3.90383094549179077e-01,-1.10420472919940948e-01,8.32675248384475708e-02,6.27591991424560547e+00,-6.43293038010597229e-02,-2.78592914342880249e-01],"split_indices":[0,0,3,1,0,0,0,0,1,0,0],"sum_hessian":[1.86077690124511719e+01,1.23879480361938477e+00,1.73689746856689453e+01,1.33291082382202148e+01,4.03986644744873047e+00,1.22041625976562500e+01,1.12494552135467529e+00,1.01876175403594971e+00,3.02110481262207031e+00,1.01667368412017822e+00,2.00443100929260254e+00],"tree_param":{"num_deleted":"0","num_feature":"33","num_nodes":"11","size_leaf_vector":"0"}},{"base_weights":[-8.60900998115539551e-01,-3.90364825725555420e-02,-1.02951431274414062e+00,-4.78469878435134888e-01,6.24052047729492188e-01,-1.07707810401916504e+00,-2.35825747251510620e-01,-1.13175427913665771e+00,-2.04813435673713684e-01,-2.79248654842376709e-01,-1.18674910068511963e+00],"default_left":[true,true,true,false,false,true,false,true,false,false,false],"id":3,"leaf_child_counts":[0,0,0,0,0,0,0,0,0,0,0],"left_children":[1,3,5,-1,-1,7,-1,9,-1,-1,-1],"loss_changes":[2.35449218750000000e+00,1.45862782001495361e+00,2.85808563232421875e-01,0.00000000000000000e+00,0.00000000000000000e+00,3.98240089416503906e-01,0.00000000000000000e+00,2.41064071655273438e-01,0.00000000000000000e+00,0.00000000000000000e+00,0.00000000000000000e+00],"parents":[2147483647,0,0,1,1,2,2,5,5,7,7],"right_children":[2,4,6,-1,-1,8,-1,10,-1,-1,-1],"split_conditions":[5.31307029724121094e+00,3.88199165463447571e-02,6.61935448646545410e-01,-1.43540963530540466e-01,1.87215626239776611e-01,1.48562908172607422e+00,-7.07477256655693054e-02,3.66499989468138665e-05,-6.14440329372882843e-02,-8.37745964527130127e-02,-3.56024742126464844e-01],"split_indices":[1,30,18,0,0,10,0,13,0,0,0],"sum_hessian":[1.62804698944091797e+01,2.98114061355590820e+00,1.32993297576904297e+01,1.96039533615112305e+00,1.02074527740478516e+00,1.22105293273925781e+01,1.08879995346069336e+00,1.12103414535522461e+01,1.00018858909606934e+00,1.04766261577606201e+00,1.01626787185668945e+01],"tree_param":{"num_deleted":"0","num_feature":"33","num_nodes":"11","size_leaf_vector":"0"}},{"base_weights":[-7.26432025432586670e-01,6.07982799410820007e-02,-9.07017052173614502e-01,4.90902841091156006e-01,-5.08060574531555176e-01,-1.63994438480585814e-03,-1.03228056430816650e+00,-1.10573089122772217e+00,-1.56779065728187561e-01],"default_left":[true,true,false,false,false,false,true,false,false],"id":4,"leaf_child_counts":[0,0,0,0,0,0,0,0,0],"left_children":[1,3,5,-1,-1,-1,7,-1,-1],"loss_changes":[2.19190406799316406e+00,1.16488969326019287e+00,1.39198112487792969e+00,0.00000000000000000e+00,0.00000000000000000e+00,0.00000000000000000e+00,5.20734786987304688e-01,0.00000000000000000e+00,0.00000000000000000e+00],"parents":[2147483647,0,0,1,1,2,2,6,6],"right_children":[2,4,6,-1,-1,-1,8,-1,-1],"split_conditions":[5.31307029724121094e+00,5.92815756797790527e-01,2.40720272064208984e+01,1.47270858287811279e-01,-1.52418181300163269e-01,-4.91983315441757441e-04,2.91261005401611328e+01,-3.31719279289245605e-01,-4.70337234437465668e-02],"split_indices":[1,12,6,0,0,0,6,0,0],"sum_hessian":[1.40304498672485352e+01,2.74171733856201172e+00,1.12887325286865234e+01,1.63930535316467285e+00,1.10241186618804932e+00,1.49515688419342041e+00,9.79357528686523438e+00,8.79292297363281250e+00,1.00065231323242188e+00],"tree_param":{"num_deleted":"0","num_feature":"33","num_nodes":"9","size_leaf_vector":"0"}},{"base_weights":[-5.59590458869934082e-01,4.45943951606750488e-01,-7.16478466987609863e-01,-8.39093685150146484e-01,2.73920774459838867e-01,-9.55180108547210693e-01,-3.28982681035995483e-01,-2.20501765608787537e-01,-1.03790938854217529e+00,2.76279687881469727e-01,-6.95732176303863525e-01],"default_left":[true,false,true,true,false,true,true,false,false,false,false],"id":5,"leaf_child_counts":[0,0,0,0,0,0,0,0,0,0,0],"left_children":[1,-1,3,5,-1,7,9,-1,-1,-1,-1],"loss_changes":[2.44111537933349609e+00,0.00000000000000000e+00,1.68918371200561523e+00,3.33559513092041016e-01,0.00000000000000000e+00,2.80838012695312500e-01,9.80986475944519043e-01,0.00000000000000000e+00,0.00000000000000000e+00,0.00000000000000000e+00,0.00000000000000000e+00],"parents":[2147483647,0,0,2,2,3,3,5,5,6,6],"right_children":[2,-1,4,6,-1,8,10,-1,-1,-1,-1],"split_conditions":[4.17434024810791016e+00,1.33783191442489624e-01,1.07764458656311035e+00,7.51145482063293457e-02,8.21762382984161377e-02,3.87685489840805531e-04,3.24478328227996826e-01,-6.61505311727523804e-02,-3.11372816562652588e-01,8.28839093446731567e-02,-2.08719655871391296e-01],"split_indices":[0,0,32,17,0,25,8,0,0,0,0],"sum_hessian":[1.24486274719238281e+01,1.43148052692413330e+00,1.10171470642089844e+01,9.93938541412353516e+00,1.07776153087615967e+00,7.38604259490966797e+00,2.55334281921386719e+00,1.11850345134735107e+00,6.26753902435302734e+00,1.05647575855255127e+00,1.49686717987060547e+00],"tree_param":{"num_deleted":"0","num_feature":"33","num_nodes":"11","size_leaf_vector":"0"}},{"base_weights":[-6.96112692356109619e-01,-8.74504566192626953e-01,1.43082840368151665e-02,-1.58797815442085266e-01,-1.05058467388153076e+00,-2.60007649660110474e-01,3.20085227489471436e-01,-3.28595876693725586e-01,8.74728932976722717e-02],"default_left":[true,true,true,true,false,false,false,false,false],"id":6,"leaf_child_counts":[0,0,0,0,0,0,0,0,0],"left_children":[1,3,5,7,-1,-1,-1,-1,-1],"loss_changes":[1.49728393554687500e+00,1.01530075073242188e+00,3.62991154193878174e-01,1.55454471707344055e-01,0.00000000000000000e+00,0.00000000000000000e+00,0.00000000000000000e+00,0.00000000000000000e+00,0.00000000000000000e+00],"parents":[2147483647,0,0,1,1,2,2,3,3],"right_children":[2,4,6,8,-1,-1,-1,-1,-1],"split_conditions":[9.05218124389648438e-01,2.17569503784179688e+01,1.19530320167541504e+00,2.51857012510299683e-01,-3.15175414085388184e-01,-7.80022963881492615e-02,9.60255712270736694e-02,-9.85787659883499146e-02,2.62418687343597412e-02],"split_indices":[3,6,26,11,0,0,0,0,0],"sum_hessian":[1.07157144546508789e+01,8.38037490844726562e+00,2.33533954620361328e+00,2.03018856048583984e+00,6.35018634796142578e+00,1.30989766120910645e+00,1.02544200420379639e+00,1.00380241870880127e+00,1.02638614177703857e+00],"tree_param":{"num_deleted":"0","num_feature":"33","num_nodes":"9","size_leaf_vector":"0"}},{"base_weights":[-5.33457040786743164e-01,-9.21237826347351074e-01,-1.72667101025581360e-01,-4.52967405319213867e-01,5.24715363979339600e-01,7.73855596780776978e-02,-6.55376017093658447e-01,-7.72055208683013916e-01,-1.65379479527473450e-01],"default_left":[true,false,true,true,false,false,true,false,false],"id":7,"leaf_child_counts":[0,0,0,0,0,0,0,0,0],"left_children":[1,-1,3,5,-1,-1,7,-1,-1],"loss_changes":[1.37700843811035156e+00,0.00000000000000000e+00,1.59002733230590820e+00,6.38067364692687988e-01,0.00000000000000000e+00,0.00000000000000000e+00,1.04764223098754883e-01,0.00000000000000000e+00,0.00000000000000000e+00],"parents":[2147483647,0,0,2,2,3,3,6,6],"right_children":[2,-1,4,6,-1,-1,8,-1,-1],"split_conditions":[5.28976142406463623e-01,-2.76371359825134277e-01,7.39499986171722412e-01,6.32977951318025589e-03,1.57414615154266357e-01,2.32156682759523392e-02,5.42259737849235535e-02,-2.31616571545600891e-01,-4.96138446033000946e-02],"split_indices":[3,0,2,22,0,0,30,0,0],"sum_hessian":[9.97923183441162109e+00,4.06101751327514648e+00,5.91821432113647461e+00,4.47146463394165039e+00,1.44674968719482422e+00,1.40575861930847168e+00,3.06570601463317871e+00,2.01116752624511719e+00,1.05453848838806152e+00],"tree_param":{"num_deleted":"0","num_feature":"33","num_nodes":"9","size_leaf_vector":"0"}},{"base_weights":[-3.48257541656494141e-01,-6.12459480762481689e-01,4.65511739253997803e-01,7.79533684253692627e-02,-7.84723818302154541e-01,-1.41366958618164062e-01,-8.86307239532470703e-01],"default_left":[true,true,false,false,true,false,false],"id":8,"leaf_child_counts":[0,0,0,0,0,0,0],"left_children":[1,3,-1,-1,5,-1,-1],"loss_changes":[2.29066562652587891e+00,9.50054645538330078e-01,0.00000000000000000e+00,0.00000000000000000e+00,2.71519660949707031e-01,0.00000000000000000e+00,0.00000000000000000e+00],"parents":[2147483647,0,0,1,1,4,4],"right_children":[2,4,-1,-1,6,-1,-1],"split_conditions":[9.89850461483001709e-02,4.17935991287231445e+00,1.39653533697128296e-01,2.33860109001398087e-02,8.44005681574344635e-03,-4.24100905656814575e-02,-2.65892177820205688e-01],"split_indices":[31,0,0,0,26,0,0],"sum_hessian":[8.32820415496826172e+00,6.47377777099609375e+00,1.85442602634429932e+00,1.40204489231109619e+00,5.07173299789428711e+00,1.01773810386657715e+00,4.05399465560913086e+00],"tree_param":{"num_deleted":"0","num_feature":"33","num_nodes":"7","size_leaf_vector":"0"}},{"base_weights":[-3.94039303064346313e-01,-7.92930245399475098e-01,-1.17889985442161560e-01,1.26646250486373901e-01,-6.34527683258056641e-01,-2.89164155721664429e-01,7.23702490329742432e-01,-5.32727956771850586e-01,1.13156251609325409e-01],"default_left":[true,false,true,true,false,true,false,false,false],"id":9,"leaf_child_counts":[0,0,0,0,0,0,0,0,0],"left_children":[1,-1,3,5,-1,7,-1,-1,-1],"loss_changes":[8.96123647689819336e-01,0.00000000000000000e+00,8.99442255496978760e-01,1.50869750976562500e+00,0.00000000000000000e+00,4.32632595300674438e-01,0.00000000000000000e+00,0.00000000000000000e+00,0.00000000000000000e+00],"parents":[2147483647,0,0,2,2,3,3,5,5],"right_children":[2,-1,4,6,-1,8,-1,-1,-1],"split_conditions":[4.76763546466827393e-01,-2.37879082560539246e-01,3.72439533472061157e-01,9.82738614082336426e-01,-1.90358310937881470e-01,3.43549118041992188e+01,2.17110753059387207e-01,-1.59818395972251892e-01,3.39468754827976227e-02],"split_indices":[3,0,9,26,0,5,0,0,0],"sum_hessian":[7.98385095596313477e+00,2.50052356719970703e+00,5.48332738876342773e+00,4.23409795761108398e+00,1.24922931194305420e+00,2.79986190795898438e+00,1.43423604965209961e+00,1.54212474822998047e+00,1.25773715972900391e+00],"tree_param":{"num_deleted":"0","num_feature":"33","num_nodes":"9","size_leaf_vector":"0"}},{"base_weights":[-3.94625663757324219e-01,4.79443609714508057e-01,-6.20194494724273682e-01,-2.16993436217308044e-01,-8.09145808219909668e-01,1.96157619357109070e-01,-5.67963242530822754e-01],"default_left":[true,false,false,true,false,false,false],"id":10,"leaf_child_counts":[0,0,0,0,0,0,0],"left_children":[1,-1,3,5,-1,-1,-1],"loss_changes":[1.70088875293731689e+00,0.00000000000000000e+00,2.88727045059204102e-01,5.91536700725555420e-01,0.00000000000000000e+00,0.00000000000000000e+00,0.00000000000000000e+00],"parents":[2147483647,0,0,2,2,3,3],"right_children":[2,-1,4,6,-1,-1,-1],"split_conditions":[4.17434024810791016e+00,1.43833085894584656e-01,3.43841476440429688e+01,5.53709983825683594e+00,-2.42743745446205139e-01,5.88472895324230194e-02,-1.70388981699943542e-01],"split_indices":[0,0,5,0,0,0,0],"sum_hessian":[6.11868762969970703e+00,1.02425563335418701e+00,5.09443187713623047e+00,2.31113505363464355e+00,2.78329682350158691e+00,1.26413357257843018e+00,1.04700160026550293e+00],"tree_param":{"num_deleted":"0","num_feature":"33","num_nodes":"7","size_leaf_vector":"0"}},{"base_weights":[-1.53606772422790527e-01,-4.48237299919128418e-01,4.31738793849945068e-01,2.12966147810220718e-02,-8.35308969020843506e-01,1.05324423313140869e+00,-3.43156874179840088e-01,-4.65223610401153564e-01,5.80924630165100098e-01],"default_left":[true,true,true,true,false,false,false,false,false],"id":11,"leaf_child_counts":[0,0,0,0,0,0,0,0,0],"left_children":[1,3,5,7,-1,-1,-1,-1,-1],"loss_changes":[1.61047720909118652e+00,1.10022425651550293e+00,1.93157684803009033e+00,1.26850855350494385e+00,0.00000000000000000e+00,0.00000000000000000e+00,0.00000000000000000e+00,0.00000000000000000e+00,0.00000000000000000e+00],"parents":[2147483647,0,0,1,1,2,2,3,3],"right_children":[2,4,6,8,-1,-1,-1,-1,-1],"split_conditions":[7.54991099238395691e-02,6.32977951318025589e-03,1.67808979749679565e-01,7.75977134704589844e-01,-2.50592708587646484e-01,3.15973281860351562e-01,-1.02947063744068146e-01,-1.39567092061042786e-01,1.74277395009994507e-01],"split_indices":[17,22,17,3,0,0,0,0,0],"sum_hessian":[7.21610927581787109e+00,4.95584583282470703e+00,2.26026368141174316e+00,2.66638755798339844e+00,2.28945827484130859e+00,1.05494034290313721e+00,1.20532321929931641e+00,1.51660108566284180e+00,1.14978647232055664e+00],"tree_param":{"num_deleted":"0","num_feature":"33","num_nodes":"9","size_leaf_vector":"0"}},{"base_weights":[-4.01123315095901489e-01,-6.89635455608367920e-01,2.67423629760742188e-01,-8.57038497924804688e-01,-6.70820623636245728e-02],"default_left":[true,true,false,false,false],"id":12,"leaf_child_counts":[0,0,0,0,0],"left_children":[1,3,-1,-1,-1],"loss_changes":[1.56504642963409424e+00,4.92717504501342773e-01,0.00000000000000000e+00,0.00000000000000000e+00,0.00000000000000000e+00],"parents":[2147483647,0,0,1,1],"right_children":[2,4,-1,-1,-1],"split_conditions":[7.54991099238395691e-02,1.16149997711181641e+00,8.02270919084548950e-02,-2.57111549377441406e-01,-2.01246198266744614e-02],"split_indices":[17,2,0,0,0],"sum_hessian":[6.15778398513793945e+00,4.27944231033325195e+00,1.87834179401397705e+00,3.07573461532592773e+00,1.20370781421661377e+00],"tree_param":{"num_deleted":"0","num_feature":"33","num_nodes":"5","size_leaf_vector":"0"}},{"base_weights":[-1.37286379933357239e-01,-4.40572172403335571e-01,3.42344164848327637e-01,1.60655498504638672e-01,-7.43576765060424805e-01,-1.28080472350120544e-01,6.63478374481201172e-01],"default_left":[true,true,true,false,false,false,false],"id":13,"leaf_child_counts":[0,0,0,0,0,0,0],"left_children":[1,3,5,-1,-1,-1,-1],"loss_changes":[1.13595056533813477e+00,9.54926609992980957e-01,5.66309332847595215e-01,0.00000000000000000e+00,0.00000000000000000e+00,0.00000000000000000e+00,0.00000000000000000e+00],"parents":[2147483647,0,0,1,1,2,2],"right_children":[2,4,6,-1,-1,-1,-1],"split_conditions":[7.39499986171722412e-01,1.61499992827884853e-05,8.41443717479705811e-01,4.81966510415077209e-02,-2.23073035478591919e-01,-3.84241417050361633e-02,1.99043527245521545e-01],"split_indices":[2,8,26,0,0,0,0],"sum_hessian":[5.77222919464111328e+00,3.58607387542724609e+00,2.18615531921386719e+00,1.35910439491271973e+00,2.22696948051452637e+00,1.13081037998199463e+00,1.05534493923187256e+00],"tree_param":{"num_deleted":"0","num_feature":"33","num_nodes":"7","size_leaf_vector":"0"}},{"base_weights":[2.62007582932710648e-02,-3.47349971532821655e-01,4.97768253087997437e-01,2.52541333436965942e-01,-6.18429005146026611e-01,6.40604496002197266e-01,1.25679418444633484e-01],"default_left":[true,false,true,false,false,true,true],"id":14,"leaf_child_counts":[0,0,0,0,0,0,0],"left_children":[1,3,-1,-1,-1,-1,-1],"loss_changes":[1.30307579040527344e+00,8.34126532077789307e-01,9.20529961585998535e-02,0.00000000000000000e+00,0.00000000000000000e+00,0.00000000000000000e+00,0.00000000000000000e+00],"parents":[2147483647,0,0,1,1,2,2],"right_children":[2,4,-1,-1,-1,-1,-1],"split_conditions":[6.18768157437443733e-03,2.41173553466796875e+01,1.49330481886863708e-01,7.57624059915542603e-02,-1.85528710484504700e-01,1.92181363701820374e-01,3.77038270235061646e-02],"split_indices":[31,6,9,0,0,2147483647,2147483647],"sum_hessian":[5.41582679748535156e+00,3.16895961761474609e+00,2.24686741828918457e+00,1.00758457183837891e+00,2.16137504577636719e+00,1.10213828086853027e+00,1.14472913742065430e+00],"tree_param":{"num_deleted":"2","num_feature":"33","num_nodes":"7","size_leaf_vector":"0"}},{"base_weights":[-1.19761288166046143e-01,-4.85846489667892456e-01,4.26454752683639526e-01,7.73023813962936401e-02,-7.38360762596130371e-01,7.43210911750793457e-01,-1.24641329050064087e-01],"default_left":[true,true,true,false,false,false,false],"id":15,"leaf_child_counts":[0,0,0,0,0,0,0],"left_children":[1,3,5,-1,-1,-1,-1],"loss_changes":[1.57348203659057617e+00,7.05293774604797363e-01,6.64220511913299561e-01,0.00000000000000000e+00,0.00000000000000000e+00,0.00000000000000000e+00,0.00000000000000000e+00],"parents":[2147483647,0,0,1,1,2,2],"right_children":[2,4,6,-1,-1,-1,-1],"split_conditions":[6.00064210593700409e-02,4.17935991287231445e+00,1.91050186753273010e-01,2.31907144188880920e-02,-2.21508234739303589e-01,2.22963288426399231e-01,-3.73924002051353455e-02],"split_indices":[18,0,18,0,0,0,0],"sum_hessian":[5.83276462554931641e+00,3.55838513374328613e+00,2.27437949180603027e+00,1.31641972064971924e+00,2.24196553230285645e+00,1.22288882732391357e+00,1.05149066448211670e+00],"tree_param":{"num_deleted":"0","num_feature":"33","num_nodes":"7","size_leaf_vector":"0"}},{"base_weights":[-4.74459417164325714e-02,-3.20728272199630737e-01,2.81528413295745850e-01,-7.10482478141784668e-01,3.55483859777450562e-01,7.12818324565887451e-01,-3.18549841642379761e-01],"default_left":[true,true,true,false,false,false,false],"id":16,"leaf_child_counts":[0,0,0,0,0,0,0],"left_children":[1,3,5,-1,-1,-1,-1],"loss_changes":[6.19042575359344482e-01,1.22246646881103516e+00,1.05558383464813232e+00,0.00000000000000000e+00,0.00000000000000000e+00,0.00000000000000000e+00,0.00000000000000000e+00],"parents":[2147483647,0,0,1,1,2,2],"right_children":[2,4,6,-1,-1,-1,-1],"split_conditions":[7.54991099238395691e-02,9.05218124389648438e-01,3.05468261241912842e-01,-2.13144749402999878e-01,1.06645159423351288e-01,2.13845506310462952e-01,-9.55649539828300476e-02],"split_indices":[17,3,8,0,0,0,0],"sum_hessian":[4.88132953643798828e+00,2.68005061149597168e+00,2.20127916336059570e+00,1.66798162460327148e+00,1.01206886768341064e+00,1.17145323753356934e+00,1.02982592582702637e+00],"tree_param":{"num_deleted":"0","num_feature":"33","num_nodes":"7","size_leaf_vector":"0"}},{"base_weights":[-3.77627164125442505e-01,2.59162187576293945e-01,-6.56217098236083984e-01],"default_left":[true,false,false],"id":17,"leaf_child_counts":[0,0,0],"left_children":[1,-1,-1],"loss_changes":[1.04698693752288818e+00,0.00000000000000000e+00,0.00000000000000000e+00],"parents":[2147483647,0,0],"right_children":[2,-1,-1],"split_conditions":[2.32861137390136719e+01,7.77486562728881836e-02,-1.96865141391754150e-01],"split_indices":[6,0,0],"sum_hessian":[3.94309401512145996e+00,1.22127974033355713e+00,2.72181415557861328e+00],"tree_param":{"num_deleted":"0","num_feature":"33","num_nodes":"3","size_leaf_vector":"0"}},{"base_weights":[1.97625756263732910e-02,2.61491388082504272e-01,-5.51921725273132324e-01,5.23603379726409912e-01,-1.54748067259788513e-01,1.46161571145057678e-01,6.73529148101806641e-01],"default_left":[true,true,false,true,false,true,true],"id":18,"leaf_child_counts":[0,0,0,0,0,0,0],"left_children":[1,3,-1,-1,-1,-1,-1],"loss_changes":[9.64881002902984619e-01,6.10357046127319336e-01,0.00000000000000000e+00,8.29308032989501953e-02,0.00000000000000000e+00,0.00000000000000000e+00,0.00000000000000000e+00],"parents":[2147483647,0,0,1,1,3,3],"right_children":[2,4,-1,-1,-1,-1,-1],"split_conditions":[9.26643753051757812e+01,6.72053992748260498e-01,-1.65576517581939697e-01,1.57081022858619690e-01,-4.64244224131107330e-02,4.38484735786914825e-02,2.02058747410774231e-01],"split_indices":[4,12,0,2,0,2147483647,2147483647],"sum_hessian":[4.93778848648071289e+00,3.85173177719116211e+00,1.08605682849884033e+00,2.20516800880432129e+00,1.64656388759613037e+00,1.18835306167602539e+00,1.01681482791900635e+00],"tree_param":{"num_deleted":"2","num_feature":"33","num_nodes":"7","size_leaf_vector":"0"}},{"base_weights":[-1.57350286841392517e-01,-4.96114820241928101e-01,3.01377117633819580e-01,-6.34290158748626709e-01,-8.24102014303207397e-02],"default_left":[true,true,false,false,false],"id":19,"leaf_child_counts":[0,0,0,0,0],"left_children":[1,3,-1,-1,-1],"loss_changes":[9.73155498504638672e-01,1.43604755401611328e-01,0.00000000000000000e+00,0.00000000000000000e+00,0.00000000000000000e+00],"parents":[2147483647,0,0,1,1],"right_children":[2,4,-1,-1,-1],"split_conditions":[7.39499986171722412e-01,1.06788635253906250e+00,9.04131382703781128e-02,-1.90287053585052490e-01,-2.47230622917413712e-02],"split_indices":[2,13,0,0,0],"sum_hessian":[4.30009555816650391e+00,2.42658782005310059e+00,1.87350761890411377e+00,1.41933953762054443e+00,1.00724840164184570e+00],"tree_param":{"num_deleted":"0","num_feature":"33","num_nodes":"5","size_leaf_vector":"0"}},{"base_weights":[2.10042819380760193e-01,-3.91244322061538696e-01,4.49719429016113281e-01,6.41264140605926514e-01,-8.50828438997268677e-02],"default_left":[true,false,false,false,false],"id":20,"leaf_child_counts":[0,0,0,0,0],"left_children":[1,-1,3,-1,-1],"loss_changes":[9.41901564598083496e-01,0.00000000000000000e+00,4.91498053073883057e-01,0.00000000000000000e+00,0.00000000000000000e+00],"parents":[2147483647,0,0,2,2],"right_children":[2,-1,4,-1,-1],"split_conditions":[3.33111648559570312e+01,-1.17373302578926086e-01,3.48227005004882812e+01,1.92379251122474670e-01,-2.55248546600341797e-02],"split_indices":[5,0,5,0,0],"sum_hessian":[4.31488275527954102e+00,1.04952049255371094e+00,3.26536202430725098e+00,2.25768303871154785e+00,1.00767910480499268e+00],"tree_param":{"num_deleted":"0","num_feature":"33","num_nodes":"5","size_leaf_vector":"0"}},{"base_weights":[9.53902304172515869e-02,-2.22642406821250916e-01,4.41114842891693115e-01,1.84722661972045898e-01,-4.89298313856124878e-01],"default_left":[true,false,false,false,false],"id":21,"leaf_child_counts":[0,0,0,0,0],"left_children":[1,3,-1,-1,-1],"loss_changes":[6.39036476612091064e-01,4.40873324871063232e-01,0.00000000000000000e+00,0.00000000000000000e+00,0.00000000000000000e+00],"parents":[2147483647,0,0,1,1],"right_children":[2,4,-1,-1,-1],"split_conditions":[6.00064210593700409e-02,3.44851989746093750e+01,1.32334455847740173e-01,5.54168000817298889e-02,-1.46789506077766418e-01],"split_indices":[18,5,0,0,0],"sum_hessian":[3.91875624656677246e+00,2.22655582427978516e+00,1.69220030307769775e+00,1.00242805480957031e+00,1.22412788867950439e+00],"tree_param":{"num_deleted":"0","num_feature":"33","num_nodes":"5","size_leaf_vector":"0"}},{"base_weights":[-4.35812249779701233e-02,-4.61885184049606323e-01,2.20260456204414368e-01,6.04501605033874512e-01,-3.86822432279586792e-01],"default_left":[true,false,true,false,false],"id":22,"leaf_child_counts":[0,0,0,0,0],"left_children":[1,-1,3,-1,-1],"loss_changes":[7.35814154148101807e-01,0.00000000000000000e+00,1.21359717845916748e+00,0.00000000000000000e+00,0.00000000000000000e+00],"parents":[2147483647,0,0,2,2],"right_children":[2,-1,4,-1,-1],"split_conditions":[2.51857012510299683e-01,-1.38565555214881897e-01,1.49270892143249512e+00,1.81350484490394592e-01,-1.16046734154224396e-01],"split_indices":[11,0,27,0,0],"sum_hessian":[4.74523830413818359e+00,1.54504871368408203e+00,3.20018982887268066e+00,1.96238732337951660e+00,1.23780250549316406e+00],"tree_param":{"num_deleted":"0","num_feature":"33","num_nodes":"5","size_leaf_vector":"0"}},{"base_weights":[1.17635205388069153e-02,5.13988494873046875e-01,-3.29386830329895020e-01,-6.34658098220825195e-01,1.04576520621776581e-01],"default_left":[true,false,true,false,false],"id":23,"leaf_child_counts":[0,0,0,0,0],"left_children":[1,-1,3,-1,-1],"loss_changes":[1.09949505329132080e+00,0.00000000000000000e+00,5.75404882431030273e-01,0.00000000000000000e+00,0.00000000000000000e+00],"parents":[2147483647,0,0,2,2],"right_children":[2,-1,4,-1,-1],"split_conditions":[6.32977951318025589e-03,1.54196560382843018e-01,2.96028936281800270e-03,-1.90397441387176514e-01,3.13729569315910339e-02],"split_indices":[22,0,29,0,0],"sum_hessian":[4.42911958694458008e+00,1.58666896820068359e+00,2.84245061874389648e+00,1.39715397357940674e+00,1.44529664516448975e+00],"tree_param":{"num_deleted":"0","num_feature":"33","num_nodes":"5","size_leaf_vector":"0"}},{"base_weights":[-2.10227519273757935e-01,1.53974786400794983e-01,-6.98566496372222900e-01,3.76252561807632446e-01,-1.99107974767684937e-01],"default_left":[true,true,false,false,false],"id":24,"leaf_child_counts":[0,0,0,0,0],"left_children":[1,3,-1,-1,-1],"loss_changes":[1.07130455970764160e+00,3.82821917533874512e-01,0.00000000000000000e+00,0.00000000000000000e+00,0.00000000000000000e+00],"parents":[2147483647,0,0,1,1],"right_children":[2,4,-1,-1,-1],"split_conditions":[8.71307492256164551e-01,5.83884000778198242e+00,-2.09569960832595825e-01,1.12875774502754211e-01,-5.97323961555957794e-02],"split_indices":[12,1,0,0,0],"sum_hessian":[4.41872501373291016e+00,2.92325997352600098e+00,1.49546492099761963e+00,1.75365328788757324e+00,1.16960668563842773e+00],"tree_param":{"num_deleted":"0","num_feature":"33","num_nodes":"5","size_leaf_vector":"0"}},{"base_weights":[-4.69656176865100861e-02,-3.96654963493347168e-01,2.58901536464691162e-01,-2.39492639899253845e-01,5.76947569847106934e-01],"default_left":[true,false,true,false,false],"id":25,"leaf_child_counts":[0,0,0,0,0],"left_children":[1,-1,3,-1,-1],"loss_changes":[6.56169295310974121e-01,0.00000000000000000e+00,6.71625077724456787e-01,0.00000000000000000e+00,0.00000000000000000e+00],"parents":[2147483647,0,0,2,2],"right_children":[2,-1,4,-1,-1],"split_conditions":[7.05038845539093018e-01,-1.18996493518352509e-01,3.43064498901367188e+01,-7.18477964401245117e-02,1.73084273934364319e-01],"split_indices":[3,0,5,0,0],"sum_hessian":[4.17466878890991211e+00,1.80931198596954346e+00,2.36535668373107910e+00,1.01764428615570068e+00,1.34771239757537842e+00],"tree_param":{"num_deleted":"0","num_feature":"33","num_nodes":"5","size_leaf_vector":"0"}},{"base_weights":[-1.41497805714607239e-01,2.56625264883041382e-01,-5.26117920875549316e-01],"default_left":[true,false,false],"id":26,"leaf_child_counts":[0,0,0],"left_children":[1,-1,-1],"loss_changes":[8.10782074928283691e-01,0.00000000000000000e+00,0.00000000000000000e+00],"parents":[2147483647,0,0],"right_children":[2,-1,-1],"split_conditions":[8.07143189013004303e-03,7.69875794649124146e-02,-1.57835379242897034e-01],"split_indices":[22,0,0],"sum_hessian":[3.41313886642456055e+00,1.84065067768096924e+00,1.57248806953430176e+00],"tree_param":{"num_deleted":"0","num_feature":"33","num_nodes":"3","size_leaf_vector":"0"}},{"base_weights":[5.67861832678318024e-02,-1.91478088498115540e-01,3.30378383398056030e-01,8.16579088568687439e-02,-3.69255810976028442e-01],"default_left":[true,true,false,false,false],"id":27,"leaf_child_counts":[0,0,0,0,0],"left_children":[1,3,-1,-1,-1],"loss_changes":[3.92764538526535034e-01,1.84389352798461914e-01,0.00000000000000000e+00,0.00000000000000000e+00,0.00000000000000000e+00],"parents":[2147483647,0,0,1,1],"right_children":[2,4,-1,-1,-1],"split_conditions":[9.77379798889160156e-01,5.57742004394531250e+01,9.91135165095329285e-02,2.44973730295896530e-02,-1.10776744782924652e-01],"split_indices":[26,4,0,0,0],"sum_hessian":[3.85113310813903809e+00,2.17637252807617188e+00,1.67476046085357666e+00,1.07122576236724854e+00,1.10514688491821289e+00],"tree_param":{"num_deleted":"0","num_feature":"33","num_nodes":"5","size_leaf_vector":"0"}},{"base_weights":[9.04429927468299866e-02,-2.46623769402503967e-01,4.65450018644332886e-01,1.12398639321327209e-01,-5.50451874732971191e-01],"default_left":[true,true,false,false,false],"id":28,"leaf_child_counts":[0,0,0,0,0],"left_children":[1,3,-1,-1,-1],"loss_changes":[7.72246778011322021e-01,4.31967556476593018e-01,0.00000000000000000e+00,0.00000000000000000e+00,0.00000000000000000e+00],"parents":[2147483647,0,0,1,1],"right_children":[2,4,-1,-1,-1],"split_conditions":[5.58134093880653381e-02,1.77966821938753128e-02,1.39635011553764343e-01,3.37195917963981628e-02,-1.65135562419891357e-01],"split_indices":[18,23,0,0,0],"sum_hessian":[4.20129156112670898e+00,2.39286589622497559e+00,1.80842554569244385e+00,1.38560557365417480e+00,1.00726032257080078e+00],"tree_param":{"num_deleted":"0","num_feature":"33","num_nodes":"5","size_leaf_vector":"0"}},{"base_weights":[-6.96919485926628113e-02,2.47976362705230713e-01,-4.47116106748580933e-01,-9.10056009888648987e-02,4.82463330030441284e-01],"default_left":[true,true,false,false,false],"id":29,"leaf_child_counts":[0,0,0,0,0],"left_children":[1,3,-1,-1,-1],"loss_changes":[6.59604907035827637e-01,2.92568802833557129e-01,0.00000000000000000e+00,0.00000000000000000e+00,0.00000000000000000e+00],"parents":[2147483647,0,0,1,1],"right_children":[2,4,-1,-1,-1],"split_conditions":[7.26415023803710938e+01,3.43729019165039062e+01,-1.34134843945503235e-01,-2.73016821593046188e-02,1.44739001989364624e-01],"split_indices":[4,5,0,0,0],"sum_hessian":[3.57673358917236328e+00,2.12834048271179199e+00,1.44839310646057129e+00,1.12046074867248535e+00,1.00787973403930664e+00],"tree_param":{"num_deleted":"0","num_feature":"33","num_nodes":"5","size_leaf_vector":"0"}},{"base_weights":[-5.93246333301067352e-02,-4.33485984802246094e-01,4.26185846328735352e-01],"default_left":[true,false,false],"id":30,"leaf_child_counts":[0,0,0],"left_children":[1,-1,-1],"loss_changes":[9.47994947433471680e-01,0.00000000000000000e+00,0.00000000000000000e+00],"parents":[2147483647,0,0],"right_children":[2,-1,-1],"split_conditions":[9.38499987125396729e-01,-1.30045801401138306e-01,1.27855762839317322e-01],"split_indices":[2,0,0],"sum_hessian":[3.20154380798339844e+00,1.86862885951995850e+00,1.33291494846343994e+00],"tree_param":{"num_deleted":"0","num_feature":"33","num_nodes":"3","size_leaf_vector":"0"}},{"base_weights":[1.74270525574684143e-01,-1.42976447939872742e-01,4.54547911882400513e-01],"default_left":[true,false,false],"id":31,"leaf_child_counts":[0,0,0],"left_children":[1,-1,-1],"loss_changes":[4.85046029090881348e-01,0.00000000000000000e+00,0.00000000000000000e+00],"parents":[2147483647,0,0],"right_children":[2,-1,-1],"split_conditions":[9.54171657562255859e-01,-4.28929366171360016e-02,1.36364385485649109e-01],"split_indices":[26,0,0],"sum_hessian":[3.72413277626037598e+00,1.97664093971252441e+00,1.74749171733856201e+00],"tree_param":{"num_deleted":"0","num_feature":"33","num_nodes":"3","size_leaf_vector":"0"}},{"base_weights":[5.48965893685817719e-02,-4.32572513818740845e-01,5.49625694751739502e-01],"default_left":[true,false,false],"id":32,"leaf_child_counts":[0,0,0],"left_children":[1,-1,-1],"loss_changes":[1.32844090461730957e+00,0.00000000000000000e+00,0.00000000000000000e+00],"parents":[2147483647,0,0],"right_children":[2,-1,-1],"split_conditions":[7.36500024795532227e-01,-1.29771754145622253e-01,1.64887711405754089e-01],"split_indices":[2,0,0],"sum_hessian":[3.52257704734802246e+00,1.83759033679962158e+00,1.68498671054840088e+00],"tree_param":{"num_deleted":"0","num_feature":"33","num_nodes":"3","size_leaf_vector":"0"}},{"base_weights":[-1.01041309535503387e-01,2.77419477701187134e-01,-4.42048043012619019e-01],"default_left":[true,false,false],"id":33,"leaf_child_counts":[0,0,0],"left_children":[1,-1,-1],"loss_changes":[6.94351434707641602e-01,0.00000000000000000e+00,0.00000000000000000e+00],"parents":[2147483647,0,0],"right_children":[2,-1,-1],"split_conditions":[5.59370279312133789e-01,8.32258462905883789e-02,-1.32614418864250183e-01],"split_indices":[12,0,0],"sum_hessian":[3.42994737625122070e+00,1.71407651901245117e+00,1.71587085723876953e+00],"tree_param":{"num_deleted":"0","num_feature":"33","num_nodes":"3","size_leaf_vector":"0"}},{"base_weights":[-8.98851081728935242e-02,2.58782863616943359e-01,-3.85813951492309570e-01],"default_left":[true,false,false],"id":34,"leaf_child_counts":[0,0,0],"left_children":[1,-1,-1],"loss_changes":[5.60974299907684326e-01,0.00000000000000000e+00,0.00000000000000000e+00],"parents":[2147483647,0,0],"right_children":[2,-1,-1],"split_conditions":[3.63374859094619751e-01,7.76348635554313660e-02,-1.15744188427925110e-01],"split_indices":[25,0,0],"sum_hessian":[3.46916270256042480e+00,1.65028941631317139e+00,1.81887328624725342e+00],"tree_param":{"num_deleted":"0","num_feature":"33","num_nodes":"3","size_leaf_vector":"0"}},{"base_weights":[1.61697074770927429e-01,-1.46231144666671753e-01,4.59235727787017822e-01],"default_left":[true,false,false],"id":35,"leaf_child_counts":[0,0,0],"left_children":[1,-1,-1],"loss_changes":[4.35017287731170654e-01,0.00000000000000000e+00,0.00000000000000000e+00],"parents":[2147483647,0,0],"right_children":[2,-1,-1],"split_conditions":[1.07323974370956421e-01,-4.38693463802337646e-02,1.37770727276802063e-01],"split_indices":[18,0,0],"sum_hessian":[3.01506781578063965e+00,1.73156750202178955e+00,1.28350031375885010e+00],"tree_param":{"num_deleted":"0","num_feature":"33","num_nodes":"3","size_leaf_vector":"0"}},{"base_weights":[1.54463469982147217e-01,-1.79349109530448914e-01,3.66184800863265991e-01,5.52055001258850098e-01,4.57146670669317245e-03],"default_left":[true,false,true,false,false],"id":36,"leaf_child_counts":[0,0,0,0,0],"left_children":[1,-1,3,-1,-1],"loss_changes":[3.89602124691009521e-01,0.00000000000000000e+00,2.08075016736984253e-01,0.00000000000000000e+00,0.00000000000000000e+00],"parents":[2147483647,0,0,2,2],"right_children":[2,-1,4,-1,-1],"split_conditions":[2.80626416206359863e-01,-5.38047365844249725e-02,3.37773246765136719e+01,1.65616512298583984e-01,1.37144001200795174e-03],"split_indices":[11,0,5,0,0],"sum_hessian":[3.58331942558288574e+00,1.45002400875091553e+00,2.13329529762268066e+00,1.06119406223297119e+00,1.07210123538970947e+00],"tree_param":{"num_deleted":"0","num_feature":"33","num_nodes":"5","size_leaf_vector":"0"}},{"base_weights":[5.67638352513313293e-02,-2.13247135281562805e-01,3.44562917947769165e-01,6.08791485428810120e-02,-3.86694580316543579e-01],"default_left":[true,true,false,false,false],"id":37,"leaf_child_counts":[0,0,0,0,0],"left_children":[1,3,-1,-1,-1],"loss_changes":[4.46864873170852661e-01,1.70783534646034241e-01,0.00000000000000000e+00,0.00000000000000000e+00,0.00000000000000000e+00],"parents":[2147483647,0,0,1,1],"right_children":[2,4,-1,-1,-1],"split_conditions":[6.00064210593700409e-02,2.23920881748199463e-01,1.03368878364562988e-01,1.82637460529804230e-02,-1.16008378565311432e-01],"split_indices":[18,27,0,0,0],"sum_hessian":[3.80495524406433105e+00,2.09679722785949707e+00,1.70815789699554443e+00,1.06407594680786133e+00,1.03272128105163574e+00],"tree_param":{"num_deleted":"0","num_feature":"33","num_nodes":"5","size_leaf_vector":"0"}},{"base_weights":[1.77859231829643250e-01,-3.73119488358497620e-02,3.84974002838134766e-01],"default_left":[true,false,false],"id":38,"leaf_child_counts":[0,0,0],"left_children":[1,-1,-1],"loss_changes":[1.94015800952911377e-01,0.00000000000000000e+00,0.00000000000000000e+00],"parents":[2147483647,0,0],"right_children":[2,-1,-1],"split_conditions":[9.66758131980895996e-01,-1.11935846507549286e-02,1.15492202341556549e-01],"split_indices":[23,0,0],"sum_hessian":[3.03121566772460938e+00,1.88879680633544922e+00,1.14241886138916016e+00],"tree_param":{"num_deleted":"0","num_feature":"33","num_nodes":"3","size_leaf_vector":"0"}},{"base_weights":[-2.07484383136034012e-02,3.15227627754211426e-01,-2.64459788799285889e-01,6.33880449458956718e-03,-4.00391280651092529e-01],"default_left":[true,false,true,false,false],"id":39,"leaf_child_counts":[0,0,0,0,0],"left_children":[1,-1,3,-1,-1],"loss_changes":[4.44239079952239990e-01,0.00000000000000000e+00,1.16581887006759644e-01,0.00000000000000000e+00,0.00000000000000000e+00],"parents":[2147483647,0,0,2,2],"right_children":[2,-1,4,-1,-1],"split_conditions":[3.37773246765136719e+01,9.45682898163795471e-02,1.86615390703082085e-03,1.90164137165993452e-03,-1.20117388665676117e-01],"split_indices":[5,0,8,0,0],"sum_hessian":[3.40728974342346191e+00,1.30911743640899658e+00,2.09817218780517578e+00,1.01984190940856934e+00,1.07833039760589600e+00],"tree_param":{"num_deleted":"0","num_feature":"33","num_nodes":"5","size_leaf_vector":"0"}},{"base_weights":[-6.65731355547904968e-02,-4.13730263710021973e-01,1.66474968194961548e-01,3.97963076829910278e-01,-1.21203392744064331e-01],"default_left":[true,false,true,false,false],"id":40,"leaf_child_counts":[0,0,0,0,0],"left_children":[1,-1,3,-1,-1],"loss_changes":[4.52883929014205933e-01,0.00000000000000000e+00,2.84846186637878418e-01,0.00000000000000000e+00,0.00000000000000000e+00],"parents":[2147483647,0,0,2,2],"right_children":[2,-1,4,-1,-1],"split_conditions":[2.70621329545974731e-01,-1.24119080603122711e-01,2.92074158787727356e-02,1.19388930499553680e-01,-3.63610200583934784e-02],"split_indices":[11,0,32,0,0],"sum_hessian":[3.74644875526428223e+00,1.19340634346008301e+00,2.55304241180419922e+00,1.20225477218627930e+00,1.35078763961791992e+00],"tree_param":{"num_deleted":"0","num_feature":"33","num_nodes":"5","size_leaf_vector":"0"}},{"base_weights":[1.00630976259708405e-01,3.36339473724365234e-01,-9.72545817494392395e-02,1.39737620949745178e-01,-3.16705018281936646e-01],"default_left":[true,false,true,false,false],"id":41,"leaf_child_counts":[0,0,0,0,0],"left_children":[1,-1,3,-1,-1],"loss_changes":[2.51756489276885986e-01,0.00000000000000000e+00,2.17370882630348206e-01,0.00000000000000000e+00,0.00000000000000000e+00],"parents":[2147483647,0,0,2,2],"right_children":[2,-1,4,-1,-1],"split_conditions":[3.63374859094619751e-01,1.00901849567890167e-01,1.42702266573905945e-01,4.19212877750396729e-02,-9.50115099549293518e-02],"split_indices":[25,0,8,0,0],"sum_hessian":[3.69619178771972656e+00,1.36756730079650879e+00,2.32862448692321777e+00,1.29420530796051025e+00,1.03441917896270752e+00],"tree_param":{"num_deleted":"0","num_feature":"33","num_nodes":"5","size_leaf_vector":"0"}},{"base_weights":[2.93499082326889038e-02,-1.77635192871093750e-01,2.17194154858589172e-01],"default_left":[true,false,false],"id":42,"leaf_child_counts":[0,0,0],"left_children":[1,-1,-1],"loss_changes":[2.17005833983421326e-01,0.00000000000000000e+00,0.00000000000000000e+00],"parents":[2147483647,0,0],"right_children":[2,-1,-1],"split_conditions":[9.52998161315917969e-01,-5.32905608415603638e-02,6.51582479476928711e-02],"split_indices":[26,0,0],"sum_hessian":[3.58899450302124023e+00,1.73335897922515869e+00,1.85563552379608154e+00],"tree_param":{"num_deleted":"0","num_feature":"33","num_nodes":"3","size_leaf_vector":"0"}},{"base_weights":[-1.50998920202255249e-01,1.53222620487213135e-01,-4.77410495281219482e-01],"default_left":[false,false,false],"id":43,"leaf_child_counts":[0,0,0],"left_children":[1,-1,-1],"loss_changes":[5.06283104419708252e-01,0.00000000000000000e+00,0.00000000000000000e+00],"parents":[2147483647,0,0],"right_children":[2,-1,-1],"split_conditions":[2.77951049804687500e+01,4.59667891263961792e-02,-1.43223151564598083e-01],"split_indices":[6,0,0],"sum_hessian":[3.36180043220520020e+00,2.01467299461364746e+00,1.34712731838226318e+00],"tree_param":{"num_deleted":"0","num_feature":"33","num_nodes":"3","size_leaf_vector":"0"}},{"base_weights":[-2.50857044011354446e-02,2.17545703053474426e-01,-3.57739686965942383e-01,2.53041740506887436e-02,3.04921388626098633e-01],"default_left":[true,true,false,true,true],"id":44,"leaf_child_counts":[0,0,0,0,0],"left_children":[1,-1,-1,-1,-1],"loss_changes":[4.16841149330139160e-01,4.35265451669692993e-02,0.00000000000000000e+00,0.00000000000000000e+00,0.00000000000000000e+00],"parents":[2147483647,0,0,1,1],"right_children":[2,-1,-1,-1,-1],"split_conditions":[8.71307492256164551e-01,6.52637109160423279e-02,-1.07321910560131073e-01,7.59125268086791039e-03,9.14764180779457092e-02],"split_indices":[12,12,0,2147483647,2147483647],"sum_hessian":[3.20030665397644043e+00,2.05063962936401367e+00,1.14966702461242676e+00,1.04376947879791260e+00,1.00687015056610107e+00],"tree_param":{"num_deleted":"2","num_feature":"33","num_nodes":"5","size_leaf_vector":"0"}},{"base_weights":[-1.11455813050270081e-01,2.59937196969985962e-01,-3.49907517433166504e-01],"default_left":[true,false,false],"id":45,"leaf_child_counts":[0,0,0],"left_children":[1,-1,-1],"loss_changes":[4.14742380380630493e-01,0.00000000000000000e+00,0.00000000000000000e+00],"parents":[2147483647,0,0],"right_children":[2,-1,-1],"split_conditions":[3.87961149215698242e-01,7.79811590909957886e-02,-1.04972258210182190e-01],"split_indices":[26,0,0],"sum_hessian":[2.65617632865905762e+00,1.00334441661834717e+00,1.65283203125000000e+00],"tree_param":{"num_deleted":"0","num_feature":"33","num_nodes":"3","size_leaf_vector":"0"}},{"base_weights":[-5.06272763013839722e-02,-3.47078919410705566e-01,2.45441347360610962e-01],"default_left":[true,false,false],"id":46,"leaf_child_counts":[0,0,0],"left_children":[1,-1,-1],"loss_changes":[4.54581201076507568e-01,0.00000000000000000e+00,0.00000000000000000e+00],"parents":[2147483647,0,0],"right_children":[2,-1,-1],"split_conditions":[6.00064210593700409e-02,-1.04123681783676147e-01,7.36324042081832886e-02],"split_indices":[18,0,0],"sum_hessian":[3.20865368843078613e+00,1.51719939708709717e+00,1.69145441055297852e+00],"tree_param":{"num_deleted":"0","num_feature":"33","num_nodes":"3","size_leaf_vector":"0"}},{"base_weights":[7.80813172459602356e-02,3.97309213876724243e-01,-2.49284356832504272e-01],"default_left":[true,false,false],"id":47,"leaf_child_counts":[0,0,0],"left_children":[1,-1,-1],"loss_changes":[5.02757728099822998e-01,0.00000000000000000e+00,0.00000000000000000e+00],"parents":[2147483647,0,0],"right_children":[2,-1,-1],"split_conditions":[6.32977951318025589e-03,1.19192771613597870e-01,-7.47853070497512817e-02],"split_indices":[22,0,0],"sum_hessian":[2.86314129829406738e+00,1.34141552448272705e+00,1.52172589302062988e+00],"tree_param":{"num_deleted":"0","num_feature":"33","num_nodes":"3","size_leaf_vector":"0"}},{"base_weights":[1.10460221767425537e-02,2.64330297708511353e-01,-2.73181378841400146e-01],"default_left":[true,false,false],"id":48,"leaf_child_counts":[0,0,0],"left_children":[1,-1,-1],"loss_changes":[3.58374297618865967e-01,0.00000000000000000e+00,0.00000000000000000e+00],"parents":[2147483647,0,0],"right_children":[2,-1,-1],"split_conditions":[6.57901763916015625e+01,7.92990922927856445e-02,-8.19544196128845215e-02],"split_indices":[4,0,0],"sum_hessian":[2.97503590583801270e+00,1.61016750335693359e+00,1.36486852169036865e+00],"tree_param":{"num_deleted":"0","num_feature":"33","num_nodes":"3","size_leaf_vector":"0"}},{"base_weights":[-1.25892804935574532e-02,-2.51637876033782959e-01,2.49739393591880798e-01],"default_left":[true,false,false],"id":49,"leaf_child_counts":[0,0,0],"left_children":[1,-1,-1],"loss_changes":[2.98576146364212036e-01,0.00000000000000000e+00,0.00000000000000000e+00],"parents":[2147483647,0,0],"right_children":[2,-1,-1],"split_conditions":[1.12797665596008301e+00,-7.54913687705993652e-02,7.49218240380287170e-02],"split_indices":[13,0,0],"sum_hessian":[2.75912785530090332e+00,1.46494317054748535e+00,1.29418480396270752e+00],"tree_param":{"num_deleted":"0","num_feature":"33","num_nodes":"3","size_leaf_vector":"0"}},{"base_weights":[1.92428588867187500e-01,-8.91150683164596558e-02,3.30987930297851562e-01],"default_left":[true,false,false],"id":50,"leaf_child_counts":[0,0,0],"left_children":[1,-1,-1],"loss_changes":[1.86381533741950989e-01,0.00000000000000000e+00,0.00000000000000000e+00],"parents":[2147483647,0,0],"right_children":[2,-1,-1],"split_conditions":[3.39500010013580322e-01,-2.67345216125249863e-02,9.92963835597038269e-02],"split_indices":[2,0,0],"sum_hessian":[3.02162170410156250e+00,1.11429405212402344e+00,1.90732777118682861e+00],"tree_param":{"num_deleted":"0","num_feature":"33","num_nodes":"3","size_leaf_vector":"0"}},{"base_weights":[1.88808590173721313e-01,-4.55917418003082275e-03,3.82921904325485229e-01,5.05204265937209129e-03,-1.19147012010216713e-02],"default_left":[true,true,false,true,true],"id":51,"leaf_child_counts":[0,0,0,0,0],"left_children":[1,-1,-1,-1,-1],"loss_changes":[1.53166905045509338e-01,2.72928300546482205e-04,0.00000000000000000e+00,0.00000000000000000e+00,0.00000000000000000e+00],"parents":[2147483647,0,0,1,1],"right_children":[2,-1,-1,-1,-1],"split_conditions":[7.54991099238395691e-02,-1.36775232385843992e-03,1.14876575767993927e-01,1.51561282109469175e-03,-3.57441045343875885e-03],"split_indices":[17,6,0,2147483647,2147483647],"sum_hessian":[3.03410267829895020e+00,2.00916600227355957e+00,1.02493643760681152e+00,1.00679075717926025e+00,1.00237536430358887e+00],"tree_param":{"num_deleted":"2","num_feature":"33","num_nodes":"5","size_leaf_vector":"0"}},{"base_weights":[9.53538157045841217e-03,1.43271282315254211e-01,-2.12020203471183777e-01,-1.38981863856315613e-01,3.57306271791458130e-01],"default_left":[true,true,false,false,false],"id":52,"leaf_child_counts":[0,0,0,0,0],"left_children":[1,3,-1,-1,-1],"loss_changes":[1.60954654216766357e-01,2.51730412244796753e-01,0.00000000000000000e+00,0.00000000000000000e+00,0.00000000000000000e+00],"parents":[2147483647,0,0,1,1],"right_children":[2,4,-1,-1,-1],"split_conditions":[5.76656007766723633e+00,5.14266967773437500e+00,-6.36060610413551331e-02,-4.16945591568946838e-02,1.07191883027553558e-01],"split_indices":[0,0,0,0,0],"sum_hessian":[3.40696954727172852e+00,2.34488439559936523e+00,1.06208527088165283e+00,1.16251099109649658e+00,1.18237328529357910e+00],"tree_param":{"num_deleted":"0","num_feature":"33","num_nodes":"5","size_leaf_vector":"0"}},{"base_weights":[4.13357503712177277e-02,2.13383346796035767e-01,-1.21715076267719269e-01],"default_left":[true,false,false],"id":53,"leaf_child_counts":[0,0,0],"left_children":[1,-1,-1],"loss_changes":[1.48799031972885132e-01,0.00000000000000000e+00,0.00000000000000000e+00],"parents":[2147483647,0,0],"right_children":[2,-1,-1],"split_conditions":[6.32977951318025589e-03,6.40150085091590881e-02,-3.65145243704319000e-02],"split_indices":[22,0,0],"sum_hessian":[3.37847089767456055e+00,1.49368035793304443e+00,1.88479042053222656e+00],"tree_param":{"num_deleted":"0","num_feature":"33","num_nodes":"3","size_leaf_vector":"0"}},{"base_weights":[1.07418350875377655e-01,-1.19327761232852936e-01,3.31801116466522217e-01],"default_left":[true,false,false],"id":54,"leaf_child_counts":[0,0,0],"left_children":[1,-1,-1],"loss_changes":[2.58653104305267334e-01,0.00000000000000000e+00,0.00000000000000000e+00],"parents":[2147483647,0,0],"right_children":[2,-1,-1],"split_conditions":[7.36500024795532227e-01,-3.57983298599720001e-02,9.95403379201889038e-02],"split_indices":[2,0,0],"sum_hessian":[3.30560135841369629e+00,1.87701332569122314e+00,1.42858791351318359e+00],"tree_param":{"num_deleted":"0","num_feature":"33","num_nodes":"3","size_leaf_vector":"0"}},{"base_weights":[5.91720603406429291e-02,-1.05087012052536011e-01,2.85927087068557739e-01,-4.16919797658920288e-01,2.59595155715942383e-01],"default_left":[true,true,false,false,false],"id":55,"leaf_child_counts":[0,0,0,0,0],"left_children":[1,3,-1,-1,-1],"loss_changes":[1.85888141393661499e-01,4.67315584421157837e-01,0.00000000000000000e+00,0.00000000000000000e+00,0.00000000000000000e+00],"parents":[2147483647,0,0,1,1],"right_children":[2,4,-1,-1,-1],"split_conditions":[9.05218124389648438e-01,1.67643046006560326e-03,8.57781320810317993e-02,-1.25075951218605042e-01,7.78785496950149536e-02],"split_indices":[3,17,0,0,0],"sum_hessian":[3.18403363227844238e+00,2.15762972831726074e+00,1.02640378475189209e+00,1.08587610721588135e+00,1.07175362110137939e+00],"tree_param":{"num_deleted":"0","num_feature":"33","num_nodes":"5","size_leaf_vector":"0"}},{"base_weights":[-1.43998250365257263e-01,-3.83159309625625610e-01,5.54650276899337769e-02,2.82354980707168579e-01,-1.97291135787963867e-01],"default_left":[true,false,true,false,false],"id":56,"leaf_child_counts":[0,0,0,0,0],"left_children":[1,-1,3,-1,-1],"loss_changes":[2.24087491631507874e-01,0.00000000000000000e+00,2.38757446408271790e-01,0.00000000000000000e+00,0.00000000000000000e+00],"parents":[2147483647,0,0,2,2],"right_children":[2,-1,4,-1,-1],"split_conditions":[2.80626416206359863e-01,-1.14947795867919922e-01,1.17425113916397095e-01,8.47065001726150513e-02,-5.91873414814472198e-02],"split_indices":[11,0,18,0,0],"sum_hessian":[3.25197505950927734e+00,1.06002688407897949e+00,2.19194817543029785e+00,1.09336769580841064e+00,1.09858047962188721e+00],"tree_param":{"num_deleted":"0","num_feature":"33","num_nodes":"5","size_leaf_vector":"0"}},{"base_weights":[-5.04890456795692444e-02,2.01100483536720276e-01,-1.99840039014816284e-01,-4.14723128080368042e-01,8.85035321116447449e-02],"default_left":[false,false,true,false,false],"id":57,"leaf_child_counts":[0,0,0,0,0],"left_children":[1,-1,3,-1,-1],"loss_changes":[2.03276813030242920e-01,0.00000000000000000e+00,2.36533880233764648e-01,0.00000000000000000e+00,0.00000000000000000e+00],"parents":[2147483647,0,0,2,2],"right_children":[2,-1,4,-1,-1],"split_conditions":[2.40454635620117188e+01,6.03301487863063812e-02,6.18768157437443733e-03,-1.24416939914226532e-01,2.65510603785514832e-02],"split_indices":[6,0,31,0,0],"sum_hessian":[3.34033966064453125e+00,1.11521172523498535e+00,2.22512793540954590e+00,1.02383649349212646e+00,1.20129144191741943e+00],"tree_param":{"num_deleted":"0","num_feature":"33","num_nodes":"5","size_leaf_vector":"0"}},{"base_weights":[-2.36315920948982239e-01,1.96989923715591431e-01,-4.73532021045684814e-01],"default_left":[true,false,false],"id":58,"leaf_child_counts":[0,0,0],"left_children":[1,-1,-1],"loss_changes":[4.76288884878158569e-01,0.00000000000000000e+00,0.00000000000000000e+00],"parents":[2147483647,0,0],"right_children":[2,-1,-1],"split_conditions":[5.31307029724121094e+00,5.90969808399677277e-02,-1.42059609293937683e-01],"split_indices":[1,0,0],"sum_hessian":[2.72622418403625488e+00,1.02447116374969482e+00,1.70175290107727051e+00],"tree_param":{"num_deleted":"0","num_feature":"33","num_nodes":"3","size_leaf_vector":"0"}},{"base_weights":[6.93201497197151184e-02,-2.19758033752441406e-01,2.91406542062759399e-01],"default_left":[false,false,false],"id":59,"leaf_child_counts":[0,0,0],"left_children":[1,-1,-1],"loss_changes":[2.92498230934143066e-01,0.00000000000000000e+00,0.00000000000000000e+00],"parents":[2147483647,0,0],"right_children":[2,-1,-1],"split_conditions":[3.43729019165039062e+01,-6.59274160861968994e-02,8.74219685792922974e-02],"split_indices":[5,0,0],"sum_hessian":[2.55853796005249023e+00,1.11616659164428711e+00,1.44237136840820312e+00],"tree_param":{"num_deleted":"0","num_feature":"33","num_nodes":"3","size_leaf_vector":"0"}},{"base_weights":[7.80786275863647461e-02,2.61729747056961060e-01,-1.30634874105453491e-01],"default_left":[true,false,false],"id":60,"leaf_child_counts":[0,0,0],"left_children":[1,-1,-1],"loss_changes":[1.86459407210350037e-01,0.00000000000000000e+00,0.00000000000000000e+00],"parents":[2147483647,0,0],"right_children":[2,-1,-1],"split_conditions":[2.40454635620117188e+01,7.85189270973205566e-02,-3.91904637217521667e-02],"split_indices":[6,0,0],"sum_hessian":[2.97251534461975098e+00,1.44607293605804443e+00,1.52644240856170654e+00],"tree_param":{"num_deleted":"0","num_feature":"33","num_nodes":"3","size_leaf_vector":"0"}},{"base_weights":[6.59855604171752930e-02,-1.96930289268493652e-01,2.69095987081527710e-01],"default_left":[true,false,false],"id":61,"leaf_child_counts":[0,0,0],"left_children":[1,-1,-1],"loss_changes":[2.59901702404022217e-01,0.00000000000000000e+00,0.00000000000000000e+00],"parents":[2147483647,0,0],"right_children":[2,-1,-1],"split_conditions":[6.49158596992492676e-01,-5.90790882706642151e-02,8.07287991046905518e-02],"split_indices":[3,0,0],"sum_hessian":[2.87462306022644043e+00,1.26612174510955811e+00,1.60850119590759277e+00],"tree_param":{"num_deleted":"0","num_feature":"33","num_nodes":"3","size_leaf_vector":"0"}},{"base_weights":[4.96720932424068451e-02,-1.36323526501655579e-01,2.27721244096755981e-01],"default_left":[true,false,false],"id":62,"leaf_child_counts":[0,0,0],"left_children":[1,-1,-1],"loss_changes":[1.64195135235786438e-01,0.00000000000000000e+00,0.00000000000000000e+00],"parents":[2147483647,0,0],"right_children":[2,-1,-1],"split_conditions":[7.39499986171722412e-01,-4.08970601856708527e-02,6.83163776993751526e-02],"split_indices":[2,0,0],"sum_hessian":[3.02071189880371094e+00,1.59200417995452881e+00,1.42870771884918213e+00],"tree_param":{"num_deleted":"0","num_feature":"33","num_nodes":"3","size_leaf_vector":"0"}},{"base_weights":[-5.71396760642528534e-02,-3.15769493579864502e-01,2.08279222249984741e-01],"default_left":[true,false,false],"id":63,"leaf_child_counts":[0,0,0],"left_children":[1,-1,-1],"loss_changes":[3.07367622852325439e-01,0.00000000000000000e+00,0.00000000000000000e+00],"parents":[2147483647,0,0],"right_children":[2,-1,-1],"split_conditions":[5.48885011672973633e+00,-9.47308540344238281e-02,6.24837689101696014e-02],"split_indices":[0,0,0],"sum_hessian":[2.51953601837158203e+00,1.18000841140747070e+00,1.33952760696411133e+00],"tree_param":{"num_deleted":"0","num_feature":"33","num_nodes":"3","size_leaf_vector":"0"}},{"base_weights":[-1.23815104365348816e-01,-2.78735429048538208e-01,1.28853499889373779e-01],"default_left":[true,false,false],"id":64,"leaf_child_counts":[0,0,0],"left_children":[1,-1,-1],"loss_changes":[1.71470090746879578e-01,0.00000000000000000e+00,0.00000000000000000e+00],"parents":[2147483647,0,0],"right_children":[2,-1,-1],"split_conditions":[2.12023817002773285e-02,-8.36206302046775818e-02,3.86560522019863129e-02],"split_indices":[30,0,0],"sum_hessian":[2.46300292015075684e+00,1.46288728713989258e+00,1.00011551380157471e+00],"tree_param":{"num_deleted":"0","num_feature":"33","num_nodes":"3","size_leaf_vector":"0"}},{"base_weights":[4.62273173034191132e-02,2.81738996505737305e-01,-2.10723072290420532e-01],"default_left":[true,false,false],"id":65,"leaf_child_counts":[0,0,0],"left_children":[1,-1,-1],"loss_changes":[2.82645195722579956e-01,0.00000000000000000e+00,0.00000000000000000e+00],"parents":[2147483647,0,0],"right_children":[2,-1,-1],"split_conditions":[2.40454635620117188e+01,8.45217034220695496e-02,-6.32169246673583984e-02],"split_indices":[6,0,0],"sum_hessian":[2.68961381912231445e+00,1.35301530361175537e+00,1.33659851551055908e+00],"tree_param":{"num_deleted":"0","num_feature":"33","num_nodes":"3","size_leaf_vector":"0"}},{"base_weights":[3.91350127756595612e-02,1.88072443008422852e-01,-1.29707485437393188e-01],"default_left":[false,false,false],"id":66,"leaf_child_counts":[0,0,0],"left_children":[1,-1,-1],"loss_changes":[1.17620036005973816e-01,0.00000000000000000e+00,0.00000000000000000e+00],"parents":[2147483647,0,0],"right_children":[2,-1,-1],"split_conditions":[2.73302078247070312e+01,5.64217343926429749e-02,-3.89122478663921356e-02],"split_indices":[6,0,0],"sum_hessian":[2.70723128318786621e+00,1.37788987159729004e+00,1.32934153079986572e+00],"tree_param":{"num_deleted":"0","num_feature":"33","num_nodes":"3","size_leaf_vector":"0"}},{"base_weights":[1.68768048286437988e-01,-3.83690260350704193e-02,3.42553108930587769e-01],"default_left":[true,false,false],"id":67,"leaf_child_counts":[0,0,0],"left_children":[1,-1,-1],"loss_changes":[1.49843603372573853e-01,0.00000000000000000e+00,0.00000000000000000e+00],"parents":[2147483647,0,0],"right_children":[2,-1,-1],"split_conditions":[6.00064210593700409e-02,-1.15107083693146706e-02,1.02765940129756927e-01],"split_indices":[18,0,0],"sum_hessian":[2.79750943183898926e+00,1.63178062438964844e+00,1.16572880744934082e+00],"tree_param":{"num_deleted":"0","num_feature":"33","num_nodes":"3","size_leaf_vector":"0"}},{"base_weights":[-3.52106876671314240e-02,1.83379709720611572e-01,-1.92990213632583618e-01],"default_left":[true,false,false],"id":68,"leaf_child_counts":[0,0,0],"left_children":[1,-1,-1],"loss_changes":[1.73796176910400391e-01,0.00000000000000000e+00,0.00000000000000000e+00],"parents":[2147483647,0,0],"right_children":[2,-1,-1],"split_conditions":[6.32977951318025589e-03,5.50139136612415314e-02,-5.78970648348331451e-02],"split_indices":[22,0,0],"sum_hessian":[3.01302790641784668e+00,1.19508469104766846e+00,1.81794321537017822e+00],"tree_param":{"num_deleted":"0","num_feature":"33","num_nodes":"3","size_leaf_vector":"0"}},{"base_weights":[9.77324917912483215e-02,2.82097667455673218e-01,-8.88209789991378784e-02],"default_left":[true,false,false],"id":69,"leaf_child_counts":[0,0,0],"left_children":[1,-1,-1],"loss_changes":[1.60043299198150635e-01,0.00000000000000000e+00,0.00000000000000000e+00],"parents":[2147483647,0,0],"right_children":[2,-1,-1],"split_conditions":[6.32977951318025589e-03,8.46293047070503235e-02,-2.66462955623865128e-02],"split_indices":[22,0,0],"sum_hessian":[2.92473244667053223e+00,1.21340572834014893e+00,1.71132671833038330e+00],"tree_param":{"num_deleted":"0","num_feature":"33","num_nodes":"3","size_leaf_vector":"0"}},{"base_weights":[9.94660705327987671e-02,-4.07834202051162720e-02,2.42820531129837036e-01],"default_left":[true,true,true],"id":70,"leaf_child_counts":[0,0,0],"left_children":[-1,-1,-1],"loss_changes":[8.75857323408126831e-02,0.00000000000000000e+00,0.00000000000000000e+00],"parents":[2147483647,0,0],"right_children":[-1,-1,-1],"split_conditions":[2.98398230224847794e-02,-1.22350268065929413e-02,7.28461593389511108e-02],"split_indices":[17,2147483647,2147483647],"sum_hessian":[2.86377429962158203e+00,1.80923390388488770e+00,1.05454051494598389e+00],"tree_param":{"num_deleted":"2","num_feature":"33","num_nodes":"3","size_leaf_vector":"0"}},{"base_weights":[4.45385389029979706e-02,-1.01927079260349274e-01,2.36888453364372253e-01],"default_left":[true,false,false],"id":71,"leaf_child_counts":[0,0,0],"left_children":[1,-1,-1],"loss_changes":[1.36801749467849731e-01,0.00000000000000000e+00,0.00000000000000000e+00],"parents":[2147483647,0,0],"right_children":[2,-1,-1],"split_conditions":[1.14681959152221680e+00,-3.05781252682209015e-02,7.10665360093116760e-02],"split_indices":[13,0,0],"sum_hessian":[2.99878621101379395e+00,1.96932852268218994e+00,1.02945768833160400e+00],"tree_param":{"num_deleted":"0","num_feature":"33","num_nodes":"3","size_leaf_vector":"0"}},{"base_weights":[1.47453304380178452e-02,1.94607377052307129e-01,-1.34366393089294434e-01],"default_left":[true,false,false],"id":72,"leaf_child_counts":[0,0,0],"left_children":[1,-1,-1],"loss_changes":[1.35816216468811035e-01,0.00000000000000000e+00,0.00000000000000000e+00],"parents":[2147483647,0,0],"right_children":[2,-1,-1],"split_conditions":[6.32977951318025589e-03,5.83822168409824371e-02,-4.03099209070205688e-02],"split_indices":[22,0,0],"sum_hessian":[3.08909010887145996e+00,1.26187539100646973e+00,1.82721471786499023e+00],"tree_param":{"num_deleted":"0","num_feature":"33","num_nodes":"3","size_leaf_vector":"0"}},{"base_weights":[-6.20737187564373016e-02,-2.61942118406295776e-01,1.57259359955787659e-01],"default_left":[true,false,false],"id":73,"leaf_child_counts":[0,0,0],"left_children":[1,-1,-1],"loss_changes":[2.06921473145484924e-01,0.00000000000000000e+00,0.00000000000000000e+00],"parents":[2147483647,0,0],"right_children":[2,-1,-1],"split_conditions":[7.39499986171722412e-01,-7.85826370120048523e-02,4.71778102219104767e-02],"split_indices":[2,0,0],"sum_hessian":[2.78050017356872559e+00,1.35316002368927002e+00,1.42734014987945557e+00],"tree_param":{"num_deleted":"0","num_feature":"33","num_nodes":"3","size_leaf_vector":"0"}},{"base_weights":[-9.79071035981178284e-02,-2.43478372693061829e-01,1.33129045367240906e-01],"default_left":[true,false,false],"id":74,"leaf_child_counts":[0,0,0],"left_children":[1,-1,-1],"loss_changes":[1.58486858010292053e-01,0.00000000000000000e+00,0.00000000000000000e+00],"parents":[2147483647,0,0],"right_children":[2,-1,-1],"split_conditions":[8.50773930549621582e-01,-7.30435177683830261e-02,3.99387143552303314e-02],"split_indices":[10,0,0],"sum_hessian":[2.74857187271118164e+00,1.65311992168426514e+00,1.09545183181762695e+00],"tree_param":{"num_deleted":"0","num_feature":"33","num_nodes":"3","size_leaf_vector":"0"}},{"base_weights":[-3.26207838952541351e-02,1.43636226654052734e-01,-1.73766478896141052e-01],"default_left":[true,false,false],"id":75,"leaf_child_counts":[0,0,0],"left_children":[1,-1,-1],"loss_changes":[1.19362711906433105e-01,0.00000000000000000e+00,0.00000000000000000e+00],"parents":[2147483647,0,0],"right_children":[2,-1,-1],"split_conditions":[3.37773246765136719e+01,4.30908687412738800e-02,-5.21299466490745544e-02],"split_indices":[5,0,0],"sum_hessian":[2.79467248916625977e+00,1.23491525650024414e+00,1.55975723266601562e+00],"tree_param":{"num_deleted":"0","num_feature":"33","num_nodes":"3","size_leaf_vector":"0"}},{"base_weights":[1.93431111983954906e-03,-1.58698245882987976e-01,2.33667880296707153e-01],"default_left":[true,false,false],"id":76,"leaf_child_counts":[0,0,0],"left_children":[1,-1,-1],"loss_changes":[1.82801142334938049e-01,0.00000000000000000e+00,0.00000000000000000e+00],"parents":[2147483647,0,0],"right_children":[2,-1,-1],"split_conditions":[9.05218124389648438e-01,-4.76094745099544525e-02,7.01003670692443848e-02],"split_indices":[3,0,0],"sum_hessian":[2.91464209556579590e+00,1.90754425525665283e+00,1.00709795951843262e+00],"tree_param":{"num_deleted":"0","num_feature":"33","num_nodes":"3","size_leaf_vector":"0"}},{"base_weights":[7.96946808695793152e-02,-1.15177012979984283e-01,2.29190170764923096e-01],"default_left":[true,false,false],"id":77,"leaf_child_counts":[0,0,0],"left_children":[1,-1,-1],"loss_changes":[1.29753768444061279e-01,0.00000000000000000e+00,0.00000000000000000e+00],"parents":[2147483647,0,0],"right_children":[2,-1,-1],"split_conditions":[9.54171657562255859e-01,-3.45531068742275238e-02,6.87570571899414062e-02],"split_indices":[26,0,0],"sum_hessian":[2.54780888557434082e+00,1.20570254325866699e+00,1.34210634231567383e+00],"tree_param":{"num_deleted":"0","num_feature":"33","num_nodes":"3","size_leaf_vector":"0"}},{"base_weights":[-2.09840402007102966e-01,7.77118206024169922e-02,-4.22410070896148682e-01],"default_left":[true,false,false],"id":78,"leaf_child_counts":[0,0,0],"left_children":[1,-1,-1],"loss_changes":[2.43004113435745239e-01,0.00000000000000000e+00,0.00000000000000000e+00],"parents":[2147483647,0,0],"right_children":[2,-1,-1],"split_conditions":[3.69857609272003174e-01,2.33135465532541275e-02,-1.26723021268844604e-01],"split_indices":[24,0,0],"sum_hessian":[2.43849921226501465e+00,1.30609929561614990e+00,1.13240003585815430e+00],"tree_param":{"num_deleted":"0","num_feature":"33","num_nodes":"3","size_leaf_vector":"0"}},{"base_weights":[8.59668850898742676e-02,-8.22294726967811584e-02,2.86342054605484009e-01],"default_left":[true,false,false],"id":79,"leaf_child_counts":[0,0,0],"left_children":[1,-1,-1],"loss_changes":[1.54858499765396118e-01,0.00000000000000000e+00,0.00000000000000000e+00],"parents":[2147483647,0,0],"right_children":[2,-1,-1],"split_conditions":[5.74589930474758148e-02,-2.46688425540924072e-02,8.59026163816452026e-02],"split_indices":[17,0,0],"sum_hessian":[2.89624643325805664e+00,1.89510452747344971e+00,1.00114202499389648e+00],"tree_param":{"num_deleted":"0","num_feature":"33","num_nodes":"3","size_leaf_vector":"0"}},{"base_weights":[9.03565809130668640e-02,-4.56728599965572357e-02,2.06833839416503906e-01],"default_left":[true,true,true],"id":80,"leaf_child_counts":[0,0,0],"left_children":[-1,-1,-1],"loss_changes":[6.99023529887199402e-02,0.00000000000000000e+00,0.00000000000000000e+00],"parents":[2147483647,0,0],"right_children":[-1,-1,-1],"split_conditions":[2.71069761365652084e-02,-1.37018589302897453e-02,6.20501525700092316e-02],"split_indices":[5,2147483647,2147483647],"sum_hessian":[2.81560087203979492e+00,1.57919728755950928e+00,1.23640370368957520e+00],"tree_param":{"num_deleted":"2","num_feature":"33","num_nodes":"3","size_leaf_vector":"0"}},{"base_weights":[5.13603724539279938e-03,2.19997555017471313e-01,-1.71959042549133301e-01],"default_left":[true,false,false],"id":81,"leaf_child_counts":[0,0,0],"left_children":[1,-1,-1],"loss_changes":[1.81286588311195374e-01,0.00000000000000000e+00,0.00000000000000000e+00],"parents":[2147483647,0,0],"right_children":[2,-1,-1],"split_conditions":[3.63374859094619751e-01,6.59992694854736328e-02,-5.15877157449722290e-02],"split_indices":[25,0,0],"sum_hessian":[2.77010703086853027e+00,1.14214134216308594e+00,1.62796568870544434e+00],"tree_param":{"num_deleted":"0","num_feature":"33","num_nodes":"3","size_leaf_vector":"0"}},{"base_weights":[5.37912286818027496e-02,-1.65031850337982178e-01,2.17645809054374695e-01],"default_left":[true,false,false],"id":82,"leaf_child_counts":[0,0,0],"left_children":[1,-1,-1],"loss_changes":[1.66989341378211975e-01,0.00000000000000000e+00,0.00000000000000000e+00],"parents":[2147483647,0,0],"right_children":[2,-1,-1],"split_conditions":[2.66772270202636719e-01,-4.95095588266849518e-02,6.52937442064285278e-02],"split_indices":[10,0,0],"sum_hessian":[2.65556430816650391e+00,1.13398075103759766e+00,1.52158343791961670e+00],"tree_param":{"num_deleted":"0","num_feature":"33","num_nodes":"3","size_leaf_vector":"0"}},{"base_weights":[-1.63559168577194214e-01,-3.74087572097778320e-01,1.64507910609245300e-01],"default_left":[true,false,false],"id":83,"leaf_child_counts":[0,0,0],"left_children":[1,-1,-1],"loss_changes":[3.00503581762313843e-01,0.00000000000000000e+00,0.00000000000000000e+00],"parents":[2147483647,0,0],"right_children":[2,-1,-1],"split_conditions":[7.54991099238395691e-02,-1.12226277589797974e-01,4.93523739278316498e-02],"split_indices":[17,0,0],"sum_hessian":[2.45985341072082520e+00,1.41289043426513672e+00,1.04696297645568848e+00],"tree_param":{"num_deleted":"0","num_feature":"33","num_nodes":"3","size_leaf_vector":"0"}},{"base_weights":[7.80270844697952271e-02,-8.85630324482917786e-02,2.22539603710174561e-01],"default_left":[true,false,false],"id":84,"leaf_child_counts":[0,0,0],"left_children":[1,-1,-1],"loss_changes":[1.05099201202392578e-01,0.00000000000000000e+00,0.00000000000000000e+00],"parents":[2147483647,0,0],"right_children":[2,-1,-1],"split_conditions":[5.48885011672973633e+00,-2.65689101070165634e-02,6.67618811130523682e-02],"split_indices":[0,0,0],"sum_hessian":[2.54694509506225586e+00,1.36294221878051758e+00,1.18400275707244873e+00],"tree_param":{"num_deleted":"0","num_feature":"33","num_nodes":"3","size_leaf_vector":"0"}},{"base_weights":[-5.47976791858673096e-02,-2.61020451784133911e-01,1.80748999118804932e-01],"default_left":[true,false,false],"id":85,"leaf_child_counts":[0,0,0],"left_children":[1,-1,-1],"loss_changes":[2.24363252520561218e-01,0.00000000000000000e+00,0.00000000000000000e+00],"parents":[2147483647,0,0],"right_children":[2,-1,-1],"split_conditions":[3.43549118041992188e+01,-7.83061385154724121e-02,5.42247034609317780e-02],"split_indices":[5,0,0],"sum_hessian":[2.64763212203979492e+00,1.35402572154998779e+00,1.29360640048980713e+00],"tree_param":{"num_deleted":"0","num_feature":"33","num_nodes":"3","size_leaf_vector":"0"}},{"base_weights":[-1.00139655172824860e-01,-3.09558391571044922e-01,1.35076403617858887e-01],"default_left":[true,false,false],"id":86,"leaf_child_counts":[0,0,0],"left_children":[1,-1,-1],"loss_changes":[2.13181018829345703e-01,0.00000000000000000e+00,0.00000000000000000e+00],"parents":[2147483647,0,0],"right_children":[2,-1,-1],"split_conditions":[3.43729019165039062e+01,-9.28675234317779541e-02,4.05229218304157257e-02],"split_indices":[5,0,0],"sum_hessian":[2.47892141342163086e+00,1.14417457580566406e+00,1.33474695682525635e+00],"tree_param":{"num_deleted":"0","num_feature":"33","num_nodes":"3","size_leaf_vector":"0"}},{"base_weights":[7.49028250575065613e-02,2.28639855980873108e-01,-1.04789078235626221e-01],"default_left":[true,false,false],"id":87,"leaf_child_counts":[0,0,0],"left_children":[1,-1,-1],"loss_changes":[1.22882716357707977e-01,0.00000000000000000e+00,0.00000000000000000e+00],"parents":[2147483647,0,0],"right_children":[2,-1,-1],"split_conditions":[8.07143189013004303e-03,6.85919597744941711e-02,-3.14367264509201050e-02],"split_indices":[22,0,0],"sum_hessian":[2.58091187477111816e+00,1.24410617351531982e+00,1.33680570125579834e+00],"tree_param":{"num_deleted":"0","num_feature":"33","num_nodes":"3","size_leaf_vector":"0"}},{"base_weights":[-6.72782957553863525e-02,2.43277162313461304e-01,-3.33795964717864990e-01],"default_left":[true,false,false],"id":88,"leaf_child_counts":[0,0,0],"left_children":[1,-1,-1],"loss_changes":[3.57662171125411987e-01,0.00000000000000000e+00,0.00000000000000000e+00],"parents":[2147483647,0,0],"right_children":[2,-1,-1],"split_conditions":[3.63374859094619751e-01,7.29831531643867493e-02,-1.00138790905475616e-01],"split_indices":[25,0,0],"sum_hessian":[2.34012556076049805e+00,1.12104570865631104e+00,1.21907997131347656e+00],"tree_param":{"num_deleted":"0","num_feature":"33","num_nodes":"3","size_leaf_vector":"0"}},{"base_weights":[6.44235536456108093e-02,-1.15800045430660248e-01,2.18535631895065308e-01],"default_left":[true,false,false],"id":89,"leaf_child_counts":[0,0,0],"left_children":[1,-1,-1],"loss_changes":[1.25066697597503662e-01,0.00000000000000000e+00,0.00000000000000000e+00],"parents":[2147483647,0,0],"right_children":[2,-1,-1],"split_conditions":[6.00064210593700409e-02,-3.47400158643722534e-02,6.55606910586357117e-02],"split_indices":[18,0,0],"sum_hessian":[2.59177565574645996e+00,1.30927085876464844e+00,1.28250479698181152e+00],"tree_param":{"num_deleted":"0","num_feature":"33","num_nodes":"3","size_leaf_vector":"0"}},{"base_weights":[5.18556386232376099e-02,-1.64039850234985352e-01,2.51477479934692383e-01],"default_left":[true,false,false],"id":90,"leaf_child_counts":[0,0,0],"left_children":[1,-1,-1],"loss_changes":[1.74573123455047607e-01,0.00000000000000000e+00,0.00000000000000000e+00],"parents":[2147483647,0,0],"right_children":[2,-1,-1],"split_conditions":[6.97000026702880859e-01,-4.92119565606117249e-02,7.54432454705238342e-02],"split_indices":[2,0,0],"sum_hessian":[2.09347224235534668e+00,1.09137392044067383e+00,1.00209832191467285e+00],"tree_param":{"num_deleted":"0","num_feature":"33","num_nodes":"3","size_leaf_vector":"0"}},{"base_weights":[2.58601337671279907e-01,3.18751744925975800e-02,3.86253207921981812e-01],"default_left":[true,true,true],"id":91,"leaf_child_counts":[0,0,0],"left_children":[-1,-1,-1],"loss_changes":[8.24493467807769775e-02,0.00000000000000000e+00,0.00000000000000000e+00],"parents":[2147483647,0,0],"right_children":[-1,-1,-1],"split_conditions":[7.75804072618484497e-02,9.56255290657281876e-03,1.15875966846942902e-01],"split_indices":[2,2147483647,2147483647],"sum_hessian":[2.27417540550231934e+00,1.26934993267059326e+00,1.00482535362243652e+00],"tree_param":{"num_deleted":"2","num_feature":"33","num_nodes":"3","size_leaf_vector":"0"}},{"base_weights":[1.93782579153776169e-02,-1.97097182273864746e-01,2.25470557808876038e-01],"default_left":[true,false,false],"id":92,"leaf_child_counts":[0,0,0],"left_children":[1,-1,-1],"loss_changes":[1.93133637309074402e-01,0.00000000000000000e+00,0.00000000000000000e+00],"parents":[2147483647,0,0],"right_children":[2,-1,-1],"split_conditions":[7.39499986171722412e-01,-5.91291561722755432e-02,6.76411688327789307e-02],"split_indices":[2,0,0],"sum_hessian":[2.33290624618530273e+00,1.15907835960388184e+00,1.17382788658142090e+00],"tree_param":{"num_deleted":"0","num_feature":"33","num_nodes":"3","size_leaf_vector":"0"}},{"base_weights":[9.78974066674709320e-03,-1.24450102448463440e-01,1.31928592920303345e-01],"default_left":[true,true,true],"id":93,"leaf_child_counts":[0,0,0],"left_children":[-1,-1,-1],"loss_changes":[6.87311291694641113e-02,0.00000000000000000e+00,0.00000000000000000e+00],"parents":[2147483647,0,0],"right_children":[-1,-1,-1],"split_conditions":[2.93692224659025669e-03,-3.73350307345390320e-02,3.95785793662071228e-02],"split_indices":[1,2147483647,2147483647],"sum_hessian":[2.19059062004089355e+00,1.03458273410797119e+00,1.15600788593292236e+00],"tree_param":{"num_deleted":"2","num_feature":"33","num_nodes":"3","size_leaf_vector":"0"}},{"base_weights":[4.02104593813419342e-02,2.04038828611373901e-01,-1.07365071773529053e-01],"default_left":[true,false,false],"id":94,"leaf_child_counts":[0,0,0],"left_children":[1,-1,-1],"loss_changes":[1.06965586543083191e-01,0.00000000000000000e+00,0.00000000000000000e+00],"parents":[2147483647,0,0],"right_children":[2,-1,-1],"split_conditions":[3.63374859094619751e-01,6.12116493284702301e-02,-3.22095230221748352e-02],"split_indices":[25,0,0],"sum_hessian":[2.51816749572753906e+00,1.01205098628997803e+00,1.50611662864685059e+00],"tree_param":{"num_deleted":"0","num_feature":"33","num_nodes":"3","size_leaf_vector":"0"}},{"base_weights":[-1.01905226707458496e-01,2.01678976416587830e-01,-3.74844014644622803e-01],"default_left":[true,false,false],"id":95,"leaf_child_counts":[0,0,0],"left_children":[1,-1,-1],"loss_changes":[3.36243391036987305e-01,0.00000000000000000e+00,0.00000000000000000e+00],"parents":[2147483647,0,0],"right_children":[2,-1,-1],"split_conditions":[5.83884000778198242e+00,6.05036951601505280e-02,-1.12453207373619080e-01],"split_indices":[1,0,0],"sum_hessian":[2.14561367034912109e+00,1.13938391208648682e+00,1.00622975826263428e+00],"tree_param":{"num_deleted":"0","num_feature":"33","num_nodes":"3","size_leaf_vector":"0"}},{"base_weights":[-1.02705687284469604e-01,1.83056384325027466e-01,-3.39940339326858521e-01],"default_left":[false,false,false],"id":96,"leaf_child_counts":[0,0,0],"left_children":[1,-1,-1],"loss_changes":[2.84977704286575317e-01,0.00000000000000000e+00,0.00000000000000000e+00],"parents":[2147483647,0,0],"right_children":[2,-1,-1],"split_conditions":[3.43841476440429688e+01,5.49169182777404785e-02,-1.01982109248638153e-01],"split_indices":[5,0,0],"sum_hessian":[2.28574562072753906e+00,1.14042067527770996e+00,1.14532482624053955e+00],"tree_param":{"num_deleted":"0","num_feature":"33","num_nodes":"3","size_leaf_vector":"0"}},{"base_weights":[-6.70264288783073425e-02,-3.27230602502822876e-01,2.29396820068359375e-01],"default_left":[true,false,false],"id":97,"leaf_child_counts":[0,0,0],"left_children":[1,-1,-1],"loss_changes":[3.29505741596221924e-01,0.00000000000000000e+00,0.00000000000000000e+00],"parents":[2147483647,0,0],"right_children":[2,-1,-1],"split_conditions":[6.00064210593700409e-02,-9.81691852211952209e-02,6.88190460205078125e-02],"split_indices":[18,0,0],"sum_hessian":[2.29882264137268066e+00,1.16885578632354736e+00,1.12996697425842285e+00],"tree_param":{"num_deleted":"0","num_feature":"33","num_nodes":"3","size_leaf_vector":"0"}},{"base_weights":[-1.34237511083483696e-02,-2.17252522706985474e-01,1.83143541216850281e-01],"default_left":[true,false,false],"id":98,"leaf_child_counts":[0,0,0],"left_children":[1,-1,-1],"loss_changes":[1.67413145303726196e-01,0.00000000000000000e+00,0.00000000000000000e+00],"parents":[2147483647,0,0],"right_children":[2,-1,-1],"split_conditions":[5.48885011672973633e+00,-6.51757568120956421e-02,5.49430660903453827e-02],"split_indices":[0,0,0],"sum_hessian":[2.18535733222961426e+00,1.02120018005371094e+00,1.16415727138519287e+00],"tree_param":{"num_deleted":"0","num_feature":"33","num_nodes":"3","size_leaf_vector":"0"}},{"base_weights":[-5.43633699417114258e-02,2.14831933379173279e-01,-2.90358483791351318e-01],"default_left":[true,false,false],"id":99,"leaf_child_counts":[0,0,0],"left_children":[1,-1,-1],"loss_changes":[2.76887297630310059e-01,0.00000000000000000e+00,0.00000000000000000e+00],"parents":[2147483647,0,0],"right_children":[2,-1,-1],"split_conditions":[6.32977951318025589e-03,6.44495859742164612e-02,-8.71075466275215149e-02],"split_indices":[22,0,0],"sum_hessian":[2.37656426429748535e+00,1.15208184719085693e+00,1.22448229789733887e+00],"tree_param":{"num_deleted":"0","num_feature":"33","num_nodes":"3","size_leaf_vector":"0"}}]},"name":"gbtree"},"learner_model_param":{"base_score":"0.500000","num_class":"0","num_feature":"33"},"objective":{"name":"binary:logistic","reg_loss_param":{"scale_pos_weight":"1"}}},"version":[1,1,1]}