{"learner":{"attributes":{"scikit_learn":"{\"n_estimators\": 100, \"objective\": \"reg:squarederror\", \"max_depth\": 4, \"learning_rate\": null, \"verbosity\": null, \"booster\": null, \"tree_method\": null, \"gamma\": 0.4, \"min_child_weight\": null, \"max_delta_step\": null, \"subsample\": 0.8, \"colsample_bytree\": 0.75, \"colsample_bylevel\": null, \"colsample_bynode\": null, \"reg_alpha\": null, \"reg_lambda\": null, \"scale_pos_weight\": null, \"base_score\": null, \"missing\": NaN, \"num_parallel_tree\": null, \"kwargs\": {}, \"random_state\": null, \"n_jobs\": null, \"monotone_constraints\": null, \"interaction_constraints\": null, \"importance_type\": \"gain\", \"gpu_id\": null, \"validate_parameters\": null, \"type\": \"XGBRegressor\"}"},"gradient_booster":{"model":{"gbtree_model_param":{"num_trees":"100","size_leaf_vector":"0"},"tree_info":[0,0,0,0,0,0,0,0,0,0,0,0,0,0,0,0,0,0,0,0,0,0,0,0,0,0,0,0,0,0,0,0,0,0,0,0,0,0,0,0,0,0,0,0,0,0,0,0,0,0,0,0,0,0,0,0,0,0,0,0,0,0,0,0,0,0,0,0,0,0,0,0,0,0,0,0,0,0,0,0,0,0,0,0,0,0,0,0,0,0,0,0,0,0,0,0,0,0,0,0],"trees":[{"base_weights":[2.48563823699951172e+01,1.37349395751953125e+01,9.97083358764648438e+01,6.93333358764648438e+01,1.15061731338500977e+01,2.77625000000000000e+02,9.55555534362792969e+00,4.75000000000000000e+00,9.92500000000000000e+01,1.24545450210571289e+01,9.14814853668212891e+00,3.42666656494140625e+02,4.12500000000000000e+01,1.12500000000000000e+01,1.67500000000000000e+01],"default_left":[true,true,true,true,true,true,false,false,false,true,false,false,false,false,false],"id":0,"leaf_child_counts":[0,0,0,0,0,0,0,0,0,0,0,0,0,0,0],"left_children":[1,3,5,7,9,11,-1,-1,-1,13,-1,-1,-1,-1,-1],"loss_changes":[7.68819218750000000e+04,9.48725488281250000e+03,1.89823312500000000e+05,5.32491699218750000e+03,6.72031250000000000e+01,4.73619062500000000e+04,0.00000000000000000e+00,0.00000000000000000e+00,0.00000000000000000e+00,9.61367187500000000e+01,0.00000000000000000e+00,0.00000000000000000e+00,0.00000000000000000e+00,0.00000000000000000e+00,0.00000000000000000e+00],"parents":[2147483647,0,0,1,1,2,2,3,3,4,4,5,5,9,9],"right_children":[2,4,6,8,10,12,-1,-1,-1,14,-1,-1,-1,-1,-1],"split_conditions":[1.13999998569488525e+00,4.75986003875732422e+00,1.24000000953674316e+00,4.68587017059326172e+00,3.44558563232421875e+01,6.35786116123199463e-01,2.86666679382324219e+00,1.42500007152557373e+00,2.97750015258789062e+01,3.40392227172851562e+01,2.74444460868835449e+00,1.02800003051757812e+02,1.23750009536743164e+01,3.37500023841857910e+00,5.02500009536743164e+00],"split_indices":[2,1,2,1,5,3,0,0,0,5,0,0,0,0,0],"sum_hessian":[9.30000000000000000e+01,8.20000000000000000e+01,1.10000000000000000e+01,2.00000000000000000e+00,8.00000000000000000e+01,3.00000000000000000e+00,8.00000000000000000e+00,1.00000000000000000e+00,1.00000000000000000e+00,5.40000000000000000e+01,2.60000000000000000e+01,2.00000000000000000e+00,1.00000000000000000e+00,4.50000000000000000e+01,9.00000000000000000e+00],"tree_param":{"num_deleted":"0","num_feature":"33","num_nodes":"15","size_leaf_vector":"0"}},{"base_weights":[2.22712459564208984e+01,1.31817903518676758e+01,8.71780319213867188e+01,1.03191633224487305e+01,8.41703720092773438e+01,2.23131256103515625e+02,8.30416679382324219e+00,5.89333343505859375e+01,8.29108905792236328e+00,3.37777757644653320e+00,1.22877777099609375e+02,2.74133331298828125e+02,3.50625000000000000e+01,4.03749990463256836e+00,8.43625030517578125e+01,1.24906244277954102e+01,7.69269847869873047e+00],"default_left":[true,true,true,true,true,true,false,true,true,false,false,false,false,false,false,false,false],"id":1,"leaf_child_counts":[0,0,0,0,0,0,0,0,0,0,0,0,0,0,0,0,0],"left_children":[1,3,5,7,9,11,-1,13,15,-1,-1,-1,-1,-1,-1,-1,-1],"loss_changes":[5.25378632812500000e+04,1.55917509765625000e+04,1.16101804687500000e+05,7.30023535156250000e+03,8.96676171875000000e+03,2.87557968750000000e+04,0.00000000000000000e+00,3.84725195312500000e+03,9.74121093750000000e+01,0.00000000000000000e+00,0.00000000000000000e+00,0.00000000000000000e+00,0.00000000000000000e+00,0.00000000000000000e+00,0.00000000000000000e+00,0.00000000000000000e+00,0.00000000000000000e+00],"parents":[2147483647,0,0,1,1,2,2,3,3,4,4,5,5,7,7,8,8],"right_children":[2,4,6,8,10,12,-1,14,16,-1,-1,-1,-1,-1,-1,-1,-1],"split_conditions":[1.13999998569488525e+00,3.57238693237304688e+01,1.24000000953674316e+00,4.77260017395019531e+00,6.62349987030029297e+00,6.35786116123199463e-01,2.49125003814697266e+00,3.79386997222900391e+00,1.04812197387218475e-02,1.01333332061767578e+00,3.68633346557617188e+01,8.22400054931640625e+01,1.05187501907348633e+01,1.21125006675720215e+00,2.53087520599365234e+01,3.74718737602233887e+00,2.30780959129333496e+00],"split_indices":[2,5,2,1,0,3,0,0,27,0,0,0,0,0,0,0,0],"sum_hessian":[9.00000000000000000e+01,8.00000000000000000e+01,1.00000000000000000e+01,7.80000000000000000e+01,2.00000000000000000e+00,3.00000000000000000e+00,7.00000000000000000e+00,2.00000000000000000e+00,7.60000000000000000e+01,1.00000000000000000e+00,1.00000000000000000e+00,2.00000000000000000e+00,1.00000000000000000e+00,1.00000000000000000e+00,1.00000000000000000e+00,7.00000000000000000e+00,6.90000000000000000e+01],"tree_param":{"num_deleted":"0","num_feature":"33","num_nodes":"17","size_leaf_vector":"0"}},{"base_weights":[1.70927906036376953e+01,1.25776412963867188e+02,1.06501359939575195e+01,7.00194454193115234e+00,2.02625411987304688e+02,8.37561702728271484e+00,7.15448150634765625e+01,6.05602598190307617e+00,3.33573417663574219e+01,2.87111091613769531e+00,1.04446105957031250e+02,2.98031234741210938e+01,5.36948442459106445e+00,9.67299957275390625e+01,6.67356681823730469e+00],"default_left":[true,true,true,false,false,true,true,true,true,false,false,false,false,false,false],"id":2,"leaf_child_counts":[0,0,0,0,0,0,0,0,0,0,0,0,0,0,0],"left_children":[1,3,5,-1,-1,7,9,11,13,-1,-1,-1,-1,-1,-1],"loss_changes":[6.23796640625000000e+04,4.42197187500000000e+04,1.14508017578125000e+04,0.00000000000000000e+00,0.00000000000000000e+00,4.72351513671875000e+03,6.47848437500000000e+03,1.12793823242187500e+03,1.11916171875000000e+04,0.00000000000000000e+00,0.00000000000000000e+00,0.00000000000000000e+00,0.00000000000000000e+00,0.00000000000000000e+00,0.00000000000000000e+00],"parents":[2147483647,0,0,1,1,2,2,5,5,6,6,7,7,8,8],"right_children":[2,4,6,-1,-1,8,10,12,14,-1,-1,-1,-1,-1,-1],"split_conditions":[4.04768991470336914e+00,3.84280991554260254e+00,3.57238693237304688e+01,2.10058355331420898e+00,6.07876243591308594e+01,6.88057994842529297e+00,6.62349987030029297e+00,4.17434024810791016e+00,5.87450981140136719e+00,8.61333310604095459e-01,3.13338336944580078e+01,8.94093704223632812e+00,1.61084544658660889e+00,2.90189990997314453e+01,2.00207018852233887e+00],"split_indices":[0,0,5,0,0,1,0,0,0,0,0,0,0,0,0],"sum_hessian":[9.00000000000000000e+01,4.00000000000000000e+00,8.60000000000000000e+01,2.00000000000000000e+00,2.00000000000000000e+00,8.40000000000000000e+01,2.00000000000000000e+00,7.80000000000000000e+01,6.00000000000000000e+00,1.00000000000000000e+00,1.00000000000000000e+00,1.00000000000000000e+00,7.70000000000000000e+01,1.00000000000000000e+00,5.00000000000000000e+00],"tree_param":{"num_deleted":"0","num_feature":"33","num_nodes":"15","size_leaf_vector":"0"}},{"base_weights":[1.24643030166625977e+01,5.88125419616699219e+00,5.47640113830566406e+01,3.62469792366027832e+00,3.85533485412597656e+01,1.54694671630859375e+02,4.26549577713012695e+00,4.50397253036499023e+00,-3.07208061218261719e+01,8.87791900634765625e+01,3.80209136009216309e+00,1.89371124267578125e+02,2.53326568603515625e+01,1.67818748950958252e+00,5.27945232391357422e+00,2.91305942535400391e+01,3.41530799865722656e+00,5.27817249298095703e+00,1.55067348480224609e+00,8.19091224670410156e+00,1.77599370479583740e+00],"default_left":[true,true,true,true,true,true,true,true,false,false,true,false,false,false,true,false,false,false,false,false,false],"id":3,"leaf_child_counts":[0,0,0,0,0,0,0,0,0,0,0,0,0,0,0,0,0,0,0,0,0],"left_children":[1,3,5,7,9,11,13,15,-1,-1,17,-1,-1,-1,19,-1,-1,-1,-1,-1,-1],"loss_changes":[2.47394101562500000e+04,5.68464355468750000e+03,5.98963437500000000e+04,2.40329980468750000e+03,8.38950878906250000e+03,1.31459921875000000e+04,1.47508544921875000e+01,1.88445959472656250e+03,0.00000000000000000e+00,0.00000000000000000e+00,5.10837936401367188e+00,0.00000000000000000e+00,0.00000000000000000e+00,0.00000000000000000e+00,4.66540679931640625e+01,0.00000000000000000e+00,0.00000000000000000e+00,0.00000000000000000e+00,0.00000000000000000e+00,0.00000000000000000e+00,0.00000000000000000e+00],"parents":[2147483647,0,0,1,1,2,2,3,3,4,4,5,5,6,6,7,7,10,10,14,14],"right_children":[2,4,6,8,10,12,14,16,-1,-1,18,-1,-1,-1,20,-1,-1,-1,-1,-1,-1],"split_conditions":[1.15149998664855957e+00,1.08895552158355713e+00,1.24000000953674316e+00,3.57785339355468750e+01,-2.98500001430511475e-01,6.35786116123199463e-01,1.53049993515014648e+00,4.75986003875732422e+00,-9.21624183654785156e+00,2.66337585449218750e+01,5.91429996490478516e+00,5.68113403320312500e+01,7.59979724884033203e+00,5.03456294536590576e-01,1.69599997997283936e+00,8.73917865753173828e+00,1.02459239959716797e+00,1.58345186710357666e+00,4.65202063322067261e-01,2.45727372169494629e+00,5.32798111438751221e-01],"split_indices":[2,19,2,5,2,3,2,1,0,0,1,0,0,0,2,0,0,0,0,0,0],"sum_hessian":[8.90000000000000000e+01,7.80000000000000000e+01,1.10000000000000000e+01,7.40000000000000000e+01,4.00000000000000000e+00,3.00000000000000000e+00,8.00000000000000000e+00,7.30000000000000000e+01,1.00000000000000000e+00,1.00000000000000000e+00,3.00000000000000000e+00,2.00000000000000000e+00,1.00000000000000000e+00,3.00000000000000000e+00,5.00000000000000000e+00,2.00000000000000000e+00,7.10000000000000000e+01,1.00000000000000000e+00,2.00000000000000000e+00,2.00000000000000000e+00,3.00000000000000000e+00],"tree_param":{"num_deleted":"0","num_feature":"33","num_nodes":"21","size_leaf_vector":"0"}},{"base_weights":[9.75317764282226562e+00,1.16014259338378906e+02,6.01980876922607422e+00,1.73430511474609375e+02,5.90876102447509766e-01,4.45008659362792969e+00,2.67310009002685547e+01,2.56003618240356445e+00,1.79914493560791016e+01,7.54623107910156250e+01,1.89227688312530518e+00,3.31052112579345703e+00,-2.61126861572265625e+01,5.02317199707031250e+01,3.65241670608520508e+00],"default_left":[false,true,true,false,false,true,false,true,true,false,false,false,false,false,false],"id":4,"leaf_child_counts":[0,0,0,0,0,0,0,0,0,0,0,0,0,0,0],"left_children":[1,3,5,-1,-1,7,9,11,13,-1,-1,-1,-1,-1,-1],"loss_changes":[3.50056757812500000e+04,1.97790585937500000e+04,2.74199707031250000e+03,0.00000000000000000e+00,0.00000000000000000e+00,2.07823095703125000e+03,7.11974609375000000e+03,1.67881188964843750e+03,4.43947558593750000e+03,0.00000000000000000e+00,0.00000000000000000e+00,0.00000000000000000e+00,0.00000000000000000e+00,0.00000000000000000e+00,0.00000000000000000e+00],"parents":[2147483647,0,0,1,1,2,2,5,5,6,6,7,7,8,8],"right_children":[2,4,6,-1,-1,8,10,12,14,-1,-1,-1,-1,-1,-1],"split_conditions":[2.19315643310546875e+01,4.10132980346679688e+00,2.99009094238281250e+01,5.20291557312011719e+01,1.77262842655181885e-01,1.15149998664855957e+00,3.01437587738037109e+01,3.57545471191406250e+01,1.29250001907348633e+00,2.26386947631835938e+01,5.67683100700378418e-01,9.93156373500823975e-01,-7.83380603790283203e+00,1.50695161819458008e+01,1.09572505950927734e+00],"split_indices":[6,0,6,0,0,2,6,5,2,0,0,0,0,0,0],"sum_hessian":[8.90000000000000000e+01,2.00000000000000000e+00,8.70000000000000000e+01,1.00000000000000000e+00,1.00000000000000000e+00,8.20000000000000000e+01,5.00000000000000000e+00,7.30000000000000000e+01,9.00000000000000000e+00,1.00000000000000000e+00,4.00000000000000000e+00,7.20000000000000000e+01,1.00000000000000000e+00,2.00000000000000000e+00,7.00000000000000000e+00],"tree_param":{"num_deleted":"0","num_feature":"33","num_nodes":"15","size_leaf_vector":"0"}},{"base_weights":[7.77492666244506836e+00,9.86121215820312500e+01,4.58985233306884766e+00,1.47415939331054688e+02,5.02244472503662109e-01,3.16839742660522461e+00,2.75523281097412109e+01,3.74140906333923340e+00,-2.21957836151123047e+01,2.36892700195312500e+00,6.41429672241210938e+01,2.26423702239990234e+01,2.99518322944641113e+00,4.98657226562500000e-01,3.98986816406250000e+00],"default_left":[false,true,true,false,false,true,true,true,false,true,false,false,false,false,false],"id":5,"leaf_child_counts":[0,0,0,0,0,0,0,0,0,0,0,0,0,0,0],"left_children":[1,3,5,-1,-1,7,9,11,-1,13,-1,-1,-1,-1,-1],"loss_changes":[2.55864726562500000e+04,1.42903691406250000e+04,2.78503466796875000e+03,0.00000000000000000e+00,0.00000000000000000e+00,1.30389697265625000e+03,4.45543359375000000e+03,1.10284594726562500e+03,0.00000000000000000e+00,1.01368122100830078e+01,0.00000000000000000e+00,0.00000000000000000e+00,0.00000000000000000e+00,0.00000000000000000e+00,0.00000000000000000e+00],"parents":[2147483647,0,0,1,1,2,2,5,5,6,6,7,7,9,9],"right_children":[2,4,6,-1,-1,8,10,12,-1,14,-1,-1,-1,-1,-1],"split_conditions":[2.18847332000732422e+01,4.10132980346679688e+00,1.16689491271972656e+00,4.42247848510742188e+01,1.50673344731330872e-01,3.57545471191406250e+01,6.30295991897583008e+00,4.75986003875732422e+00,-6.65873527526855469e+00,5.84984016418457031e+00,1.92428913116455078e+01,6.79271125793457031e+00,8.98554980754852295e-01,1.49597167968750000e-01,1.19696044921875000e+00],"split_indices":[6,0,32,0,0,5,0,1,0,0,0,0,0,0,0],"sum_hessian":[8.90000000000000000e+01,2.00000000000000000e+00,8.70000000000000000e+01,1.00000000000000000e+00,1.00000000000000000e+00,8.30000000000000000e+01,4.00000000000000000e+00,8.20000000000000000e+01,1.00000000000000000e+00,3.00000000000000000e+00,1.00000000000000000e+00,2.00000000000000000e+00,8.00000000000000000e+01,2.00000000000000000e+00,1.00000000000000000e+00],"tree_param":{"num_deleted":"0","num_feature":"33","num_nodes":"15","size_leaf_vector":"0"}},{"base_weights":[4.94744205474853516e+00,5.04719429016113281e+01,2.27422451972961426e+00,1.25303543090820312e+02,4.38156366348266602e-01,1.03272664546966553e+00,5.45215225219726562e+01,-2.92780876159667969e-01,7.79395759105682373e-01,2.06690788269042969e+00,-4.00019216537475586e+00,3.30517807006835938e+01,1.16498315334320068e+00,-4.44971531629562378e-01,-1.80727500915527344e+01],"default_left":[false,true,true,false,true,true,false,false,false,true,true,false,false,false,false],"id":6,"leaf_child_counts":[0,0,0,0,0,0,0,0,0,0,0,0,0,0,0],"left_children":[1,3,5,-1,7,9,-1,-1,-1,11,13,-1,-1,-1,-1],"loss_changes":[1.09596337890625000e+04,1.86656367187500000e+04,5.58694140625000000e+03,0.00000000000000000e+00,1.22589039802551270e+00,4.55893798828125000e+02,0.00000000000000000e+00,0.00000000000000000e+00,0.00000000000000000e+00,1.97360864257812500e+03,7.42423828125000000e+02,0.00000000000000000e+00,0.00000000000000000e+00,0.00000000000000000e+00,0.00000000000000000e+00],"parents":[2147483647,0,0,1,1,2,2,4,4,5,5,9,9,10,10],"right_children":[2,4,6,-1,8,10,-1,-1,-1,12,14,-1,-1,-1,-1],"split_conditions":[2.18847332000732422e+01,4.10132980346679688e+00,3.57149505615234375e+01,3.75910644531250000e+01,5.68661808967590332e-01,9.72499966621398926e-01,1.63564567565917969e+01,-8.78342688083648682e-02,2.33818739652633667e-01,4.11886024475097656e+00,9.89083945751190186e-02,9.91553497314453125e+00,3.49494963884353638e-01,-1.33491471409797668e-01,-5.42182540893554688e+00],"split_indices":[6,0,5,0,3,2,0,0,0,0,18,0,0,0,0],"sum_hessian":[9.00000000000000000e+01,4.00000000000000000e+00,8.60000000000000000e+01,1.00000000000000000e+00,3.00000000000000000e+00,8.50000000000000000e+01,1.00000000000000000e+00,1.00000000000000000e+00,2.00000000000000000e+00,7.10000000000000000e+01,1.40000000000000000e+01,1.00000000000000000e+00,7.00000000000000000e+01,1.20000000000000000e+01,2.00000000000000000e+00],"tree_param":{"num_deleted":"0","num_feature":"33","num_nodes":"15","size_leaf_vector":"0"}},{"base_weights":[1.62245666980743408e+00,2.21513485908508301e+00,-2.70446472167968750e+01,1.02715051174163818e+00,1.48575735092163086e+01,2.55309295654296875e+00,-2.27941012382507324e+00,4.63432922363281250e+01,3.73914384841918945e+00,1.27700674533843994e+00,1.38250341415405273e+01,-1.72324523925781250e+01,-1.08735477924346924e+00,9.47027301788330078e+00,1.20557677745819092e+00],"default_left":[true,true,false,true,true,true,true,false,true,false,false,false,false,false,false],"id":7,"leaf_child_counts":[0,0,0,0,0,0,0,0,0,0,0,0,0,0,0],"left_children":[1,3,-1,5,7,9,11,-1,13,-1,-1,-1,-1,-1,-1],"loss_changes":[1.67399255371093750e+03,1.39652697753906250e+03,0.00000000000000000e+00,4.44788574218750000e+02,2.62728955078125000e+03,8.45383300781250000e+02,4.80358154296875000e+02,0.00000000000000000e+00,9.02242660522460938e+01,0.00000000000000000e+00,0.00000000000000000e+00,0.00000000000000000e+00,0.00000000000000000e+00,0.00000000000000000e+00,0.00000000000000000e+00],"parents":[2147483647,0,0,1,1,3,3,4,4,5,5,6,6,8,8],"right_children":[2,4,-1,6,8,10,12,-1,14,-1,-1,-1,-1,-1,-1],"split_conditions":[1.29622912406921387e+00,9.53361868858337402e-01,-8.11339473724365234e+00,5.93965888023376465e-01,-2.98500001430511475e-01,8.52460786700248718e-03,4.04007256031036377e-01,1.39029884338378906e+01,1.42936861515045166e+00,3.83102029561996460e-01,4.14751052856445312e+00,-5.16973590850830078e+00,-3.26206445693969727e-01,2.84108209609985352e+00,3.61673057079315186e-01],"split_indices":[20,19,0,10,2,16,27,0,10,0,0,0,0,0,0],"sum_hessian":[9.40000000000000000e+01,9.30000000000000000e+01,1.00000000000000000e+00,8.60000000000000000e+01,7.00000000000000000e+00,5.90000000000000000e+01,2.70000000000000000e+01,1.00000000000000000e+00,6.00000000000000000e+00,5.40000000000000000e+01,5.00000000000000000e+00,1.00000000000000000e+00,2.60000000000000000e+01,1.00000000000000000e+00,5.00000000000000000e+00],"tree_param":{"num_deleted":"0","num_feature":"33","num_nodes":"15","size_leaf_vector":"0"}},{"base_weights":[4.63027334213256836e+00,7.49772727489471436e-01,3.81779708862304688e+01,-1.37688865661621094e+01,1.30569744110107422e+00,8.42225875854492188e+01,1.11856317520141602e+00,2.60202560424804688e+01,6.38134121894836426e-01,1.03347503662109375e+02,1.34239177703857422e+01,-2.23738864064216614e-01,3.91503667831420898e+00,-1.62090852856636047e-01,4.19356536865234375e+00,3.22694778442382812e-02,-2.95808315277099609e-01],"default_left":[true,true,true,false,true,true,true,false,true,false,false,true,false,false,false,true,true],"id":8,"leaf_child_counts":[0,0,0,0,0,0,0,0,0,0,0,0,0,0,0,0,0],"left_children":[1,3,5,-1,7,9,11,-1,13,-1,-1,-1,-1,-1,-1,-1,-1],"loss_changes":[1.12971962890625000e+04,6.55609252929687500e+02,1.52632685546875000e+04,0.00000000000000000e+00,1.25378271484375000e+03,4.02874414062500000e+03,2.33982181549072266e+01,0.00000000000000000e+00,2.16910751342773438e+02,0.00000000000000000e+00,0.00000000000000000e+00,1.01797491312026978e-01,0.00000000000000000e+00,0.00000000000000000e+00,0.00000000000000000e+00,0.00000000000000000e+00,0.00000000000000000e+00],"parents":[2147483647,0,0,1,1,2,2,4,4,5,5,6,6,8,8,11,11],"right_children":[2,4,6,-1,8,10,12,-1,14,-1,-1,-1,-1,-1,-1,-1,-1],"split_conditions":[1.15149998664855957e+00,3.92305994033813477e+00,1.31700003147125244e+00,-4.13066625595092773e+00,4.08209991455078125e+00,6.35786116123199463e-01,4.65225982666015625e+00,7.80607700347900391e+00,1.29715502262115479e-01,3.10042514801025391e+01,4.02717542648315430e+00,-6.71216621994972229e-02,1.17451107501983643e+00,-4.86272573471069336e-02,1.25806963443756104e+00,9.68084391206502914e-03,-8.87424945831298828e-02],"split_indices":[2,0,2,0,0,3,0,0,31,0,0,1,0,0,0,2147483647,2147483647],"sum_hessian":[8.60000000000000000e+01,7.80000000000000000e+01,8.00000000000000000e+00,2.00000000000000000e+00,7.60000000000000000e+01,3.00000000000000000e+00,5.00000000000000000e+00,1.00000000000000000e+00,7.50000000000000000e+01,2.00000000000000000e+00,1.00000000000000000e+00,4.00000000000000000e+00,1.00000000000000000e+00,6.20000000000000000e+01,1.30000000000000000e+01,1.00000000000000000e+00,3.00000000000000000e+00],"tree_param":{"num_deleted":"2","num_feature":"33","num_nodes":"17","size_leaf_vector":"0"}},{"base_weights":[2.90618896484375000e+00,4.54281425476074219e+01,8.94630908966064453e-01,9.08143463134765625e+01,2.79579162597656250e-02,-2.53069519996643066e-01,1.38834028244018555e+01,-4.16101455688476562e-01,4.58038330078125000e-01,3.25084954500198364e-01,-2.29636363983154297e+01,3.05859827995300293e+00,3.94161148071289062e+01,8.36787819862365723e-01,-1.97938690185546875e+01,7.42069721221923828e+00,7.02039122581481934e-01],"default_left":[false,true,true,false,true,true,true,false,false,true,false,true,false,false,false,false,false],"id":9,"leaf_child_counts":[0,0,0,0,0,0,0,0,0,0,0,0,0,0,0,0,0],"left_children":[1,3,5,-1,7,9,11,-1,-1,13,-1,15,-1,-1,-1,-1,-1],"loss_changes":[7.57200732421875000e+03,8.23962792968750000e+03,1.28553430175781250e+03,0.00000000000000000e+00,7.63534128665924072e-01,1.05788244628906250e+03,1.81414831542968750e+03,0.00000000000000000e+00,0.00000000000000000e+00,8.29862426757812500e+02,0.00000000000000000e+00,5.64676437377929688e+01,0.00000000000000000e+00,0.00000000000000000e+00,0.00000000000000000e+00,0.00000000000000000e+00,0.00000000000000000e+00],"parents":[2147483647,0,0,1,1,2,2,4,4,5,5,6,6,9,9,11,11],"right_children":[2,4,6,-1,8,10,12,-1,-1,14,-1,16,-1,-1,-1,-1,-1],"split_conditions":[2.18847332000732422e+01,4.60266971588134766e+00,1.07764458656311035e+00,2.72443046569824219e+01,5.47803974151611328e+00,3.57785339355468750e+01,6.30295991897583008e+00,-1.24830439686775208e-01,1.37411504983901978e-01,7.23092985153198242e+00,-6.88909101486206055e+00,1.72416663169860840e+00,1.18248348236083984e+01,2.51036345958709717e-01,-5.93816089630126953e+00,2.22620916366577148e+00,2.10611745715141296e-01],"split_indices":[6,0,32,0,0,5,0,0,0,1,0,10,0,0,0,0,0],"sum_hessian":[8.80000000000000000e+01,3.00000000000000000e+00,8.50000000000000000e+01,1.00000000000000000e+00,2.00000000000000000e+00,7.90000000000000000e+01,6.00000000000000000e+00,1.00000000000000000e+00,1.00000000000000000e+00,7.80000000000000000e+01,1.00000000000000000e+00,5.00000000000000000e+00,1.00000000000000000e+00,7.70000000000000000e+01,1.00000000000000000e+00,1.00000000000000000e+00,4.00000000000000000e+00],"tree_param":{"num_deleted":"0","num_feature":"33","num_nodes":"17","size_leaf_vector":"0"}},{"base_weights":[1.49054515361785889e+00,3.78624572753906250e+01,-1.40053391456604004e+00,6.61225967407226562e+01,7.20173454284667969e+00,-8.98698568344116211e-01,-1.95190906524658203e+01,-4.59552288055419922e-01,9.90868091583251953e+00,-4.56119120121002197e-01,-1.68247890472412109e+01,-1.31247367858886719e+01,-1.02785505354404449e-01],"default_left":[true,true,true,false,true,true,false,false,false,true,false,false,false],"id":10,"leaf_child_counts":[0,0,0,0,0,0,0,0,0,0,0,0,0],"left_children":[1,3,5,-1,7,9,-1,-1,-1,11,-1,-1,-1],"loss_changes":[8.57050683593750000e+03,4.72266113281250000e+03,6.73490661621093750e+02,0.00000000000000000e+00,8.75083160400390625e+01,5.20967895507812500e+02,0.00000000000000000e+00,0.00000000000000000e+00,0.00000000000000000e+00,3.29893371582031250e+02,0.00000000000000000e+00,0.00000000000000000e+00,0.00000000000000000e+00],"parents":[2147483647,0,0,1,1,2,2,4,4,5,5,9,9],"right_children":[2,4,6,-1,8,10,-1,-1,-1,12,-1,-1,-1],"split_conditions":[4.17434024810791016e+00,5.25819015502929688e+00,9.98570382595062256e-01,1.98367805480957031e+01,3.72169995307922363e+00,7.23092985153198242e+00,-5.85572719573974609e+00,-1.37865692377090454e-01,2.97260427474975586e+00,4.26976013183593750e+00,-5.04743671417236328e+00,-3.93742108345031738e+00,-3.08356527239084244e-02],"split_indices":[0,1,3,0,0,1,0,0,0,0,0,0,0],"sum_hessian":[8.00000000000000000e+01,5.00000000000000000e+00,7.50000000000000000e+01,2.00000000000000000e+00,3.00000000000000000e+00,7.40000000000000000e+01,1.00000000000000000e+00,1.00000000000000000e+00,2.00000000000000000e+00,7.30000000000000000e+01,1.00000000000000000e+00,1.00000000000000000e+00,7.20000000000000000e+01],"tree_param":{"num_deleted":"0","num_feature":"33","num_nodes":"13","size_leaf_vector":"0"}},{"base_weights":[1.87541759014129639e+00,1.04518175125122070e+01,-1.80511564016342163e-01,4.27918930053710938e+01,1.13100981712341309e+00,1.55091702938079834e+00,-7.32504892349243164e+00,-3.38268280029296875e-01,5.72813682556152344e+01,7.35905027389526367e+00,-3.93231034278869629e-01,4.77354407310485840e-01,3.35191192626953125e+01,-6.50298297405242920e-01,-1.72287921905517578e+01,-1.48552060127258301e+00,2.43580055236816406e+00,-2.84145307540893555e+00,4.23746824264526367e+00,-7.82073557376861572e-01,-2.57117033004760742e-01,-1.67408311367034912e+00,-2.45876255035400391e+01],"default_left":[false,true,true,true,true,true,true,false,false,false,true,true,false,true,false,false,false,false,false,true,true,false,false],"id":11,"leaf_child_counts":[0,0,0,0,0,0,0,0,0,0,0,0,0,0,0,0,0,0,0,0,0,0,0],"left_children":[1,3,5,7,9,11,13,-1,-1,-1,15,17,-1,-1,21,-1,-1,-1,-1,-1,-1,-1,-1],"loss_changes":[1.64170642089843750e+03,5.37744335937500000e+03,9.51500000000000000e+02,2.51910937500000000e+03,1.45289321899414062e+02,2.11183129882812500e+03,9.80371398925781250e+02,0.00000000000000000e+00,0.00000000000000000e+00,0.00000000000000000e+00,4.37900123596191406e+01,7.73265258789062500e+02,0.00000000000000000e+00,3.17031383514404297e-01,6.45625366210937500e+02,0.00000000000000000e+00,0.00000000000000000e+00,0.00000000000000000e+00,0.00000000000000000e+00,0.00000000000000000e+00,0.00000000000000000e+00,0.00000000000000000e+00,0.00000000000000000e+00],"parents":[2147483647,0,0,1,1,2,2,3,3,4,4,5,5,6,6,10,10,11,11,13,13,14,14],"right_children":[2,4,6,8,10,12,14,-1,-1,-1,16,18,-1,-1,22,-1,-1,-1,-1,-1,-1,-1,-1],"split_conditions":[3.41996994018554688e+01,1.93095430731773376e-02,1.21768470853567123e-02,3.97899448871612549e-01,5.23711967468261719e+00,3.57149505615234375e+01,5.03656744956970215e-01,-1.01480491459369659e-01,1.71844120025634766e+01,2.20771527290344238e+00,6.54444026947021484e+00,1.56929250806570053e-03,1.00557365417480469e+01,-1.95089504122734070e-01,3.57363357543945312e+01,-4.45656210184097290e-01,7.30740189552307129e-01,-8.52435946464538574e-01,1.27124047279357910e+00,-2.34622076153755188e-01,-7.71351158618927002e-02,-5.02224981784820557e-01,-7.37628793716430664e+00],"split_indices":[5,11,16,3,1,5,3,0,0,0,1,17,0,1,5,0,0,0,0,2147483647,2147483647,0,0],"sum_hessian":[9.20000000000000000e+01,1.70000000000000000e+01,7.50000000000000000e+01,3.00000000000000000e+00,1.40000000000000000e+01,6.10000000000000000e+01,1.40000000000000000e+01,1.00000000000000000e+00,2.00000000000000000e+00,2.00000000000000000e+00,1.20000000000000000e+01,6.00000000000000000e+01,1.00000000000000000e+00,9.00000000000000000e+00,5.00000000000000000e+00,9.00000000000000000e+00,3.00000000000000000e+00,3.20000000000000000e+01,2.80000000000000000e+01,6.00000000000000000e+00,3.00000000000000000e+00,2.00000000000000000e+00,3.00000000000000000e+00],"tree_param":{"num_deleted":"2","num_feature":"33","num_nodes":"23","size_leaf_vector":"0"}},{"base_weights":[6.17989838123321533e-01,3.89293899536132812e+01,-6.24506771564483643e-01,5.86816101074218750e+01,-2.87528038024902344e-01,-1.24246511459350586e+01,1.87145173549652100e-01,-1.93829193115234375e+01,9.94590759277343750e-01,1.28141670227050781e+01,-4.09269362688064575e-01,3.55987548828125000e-02,1.45628738403320312e+00,9.68408212065696716e-02,-1.42752275466918945e+01],"default_left":[false,true,true,false,false,true,true,false,true,false,true,false,false,false,false],"id":12,"leaf_child_counts":[0,0,0,0,0,0,0,0,0,0,0,0,0,0,0],"left_children":[1,3,5,-1,-1,7,9,-1,11,-1,13,-1,-1,-1,-1],"loss_changes":[4.54648095703125000e+03,2.34073632812500000e+03,8.93042907714843750e+02,0.00000000000000000e+00,0.00000000000000000e+00,5.79526245117187500e+02,6.67967163085937500e+02,0.00000000000000000e+00,1.27644777297973633e+00,0.00000000000000000e+00,5.97887145996093750e+02,0.00000000000000000e+00,0.00000000000000000e+00,0.00000000000000000e+00,0.00000000000000000e+00],"parents":[2147483647,0,0,1,1,2,2,5,5,6,6,8,8,10,10],"right_children":[2,4,6,-1,-1,8,10,-1,12,-1,14,-1,-1,-1,-1],"split_conditions":[2.18847332000732422e+01,4.60266971588134766e+00,3.92305994033813477e+00,1.76044845581054688e+01,-8.62584114074707031e-02,5.21016979217529297e+00,4.27478027343750000e+00,-5.81487607955932617e+00,3.72169995307922363e+00,3.84425020217895508e+00,3.57352752685546875e+01,1.06796268373727798e-02,4.36886221170425415e-01,2.90522482246160507e-02,-4.28256845474243164e+00],"split_indices":[6,0,0,0,0,1,0,0,0,0,5,0,0,0,0],"sum_hessian":[9.40000000000000000e+01,2.00000000000000000e+00,9.20000000000000000e+01,1.00000000000000000e+00,1.00000000000000000e+00,5.00000000000000000e+00,8.70000000000000000e+01,3.00000000000000000e+00,2.00000000000000000e+00,3.00000000000000000e+00,8.40000000000000000e+01,1.00000000000000000e+00,1.00000000000000000e+00,8.20000000000000000e+01,2.00000000000000000e+00],"tree_param":{"num_deleted":"0","num_feature":"33","num_nodes":"15","size_leaf_vector":"0"}},{"base_weights":[1.34609746932983398e+00,-4.09231275320053101e-01,1.44684782028198242e+01,-1.39678347110748291e+00,1.24971523284912109e+01,4.47812690734863281e+01,-2.49647736549377441e+00,-8.76275956630706787e-01,-1.41173791885375977e+01,2.74357080459594727e+00,3.06325302124023438e+01,5.48811836242675781e+01,7.24076080322265625e+00,1.11527717113494873e+00,-1.38893795013427734e+01,-6.00978314876556396e-01,-1.07617979049682617e+01,-1.97354412078857422e+01,-1.44062757492065430e+00,5.46536493301391602e+00,-8.92746925354003906e-01,9.13656577467918396e-02,3.62937307357788086e+00],"default_left":[true,true,true,true,true,true,true,true,true,true,false,false,false,true,false,false,false,false,false,false,false,false,false],"id":13,"leaf_child_counts":[0,0,0,0,0,0,0,0,0,0,0,0,0,0,0,0,0,0,0,0,0,0,0],"left_children":[1,3,5,7,9,11,13,15,17,19,-1,-1,-1,21,-1,-1,-1,-1,-1,-1,-1,-1,-1],"loss_changes":[2.14809155273437500e+03,1.07535119628906250e+03,5.76860253906250000e+03,5.04080169677734375e+02,9.77266845703125000e+02,1.11924218750000000e+03,3.44677429199218750e+02,2.00363372802734375e+02,1.85224914550781250e+02,5.43657226562500000e+01,0.00000000000000000e+00,0.00000000000000000e+00,0.00000000000000000e+00,1.76878833770751953e+01,0.00000000000000000e+00,0.00000000000000000e+00,0.00000000000000000e+00,0.00000000000000000e+00,0.00000000000000000e+00,0.00000000000000000e+00,0.00000000000000000e+00,0.00000000000000000e+00,0.00000000000000000e+00],"parents":[2147483647,0,0,1,1,2,2,3,3,4,4,5,5,6,6,7,7,8,8,9,9,13,13],"right_children":[2,4,6,8,10,12,14,16,18,20,-1,-1,-1,22,-1,-1,-1,-1,-1,-1,-1,-1,-1],"split_conditions":[1.15149998664855957e+00,9.53361868858337402e-01,1.24000000953674316e+00,6.09029233455657959e-01,6.30295991897583008e+00,6.35786116123199463e-01,5.44826984405517578e+00,1.29622912406921387e+00,5.62903976440429688e+00,3.32491159439086914e+00,9.18975925445556641e+00,1.64643554687500000e+01,2.17222833633422852e+00,5.83767771720886230e-01,-4.16681385040283203e+00,-1.80293500423431396e-01,-3.22853946685791016e+00,-5.92063236236572266e+00,-4.32188302278518677e-01,1.63960957527160645e+00,-2.67824083566665649e-01,2.74096988141536713e-02,1.08881199359893799e+00],"split_indices":[2,19,2,30,0,3,0,21,0,11,0,0,0,3,0,0,0,0,0,0,0,0,0],"sum_hessian":[9.20000000000000000e+01,8.20000000000000000e+01,1.00000000000000000e+01,7.70000000000000000e+01,5.00000000000000000e+00,3.00000000000000000e+00,7.00000000000000000e+00,7.50000000000000000e+01,2.00000000000000000e+00,4.00000000000000000e+00,1.00000000000000000e+00,2.00000000000000000e+00,1.00000000000000000e+00,6.00000000000000000e+00,1.00000000000000000e+00,7.40000000000000000e+01,1.00000000000000000e+00,1.00000000000000000e+00,1.00000000000000000e+00,2.00000000000000000e+00,2.00000000000000000e+00,5.00000000000000000e+00,1.00000000000000000e+00],"tree_param":{"num_deleted":"0","num_feature":"33","num_nodes":"23","size_leaf_vector":"0"}},{"base_weights":[1.31530356407165527e+00,2.06976699829101562e+01,4.09041851758956909e-01,4.16471862792968750e+01,-1.67897537350654602e-01,-8.80819633603096008e-02,1.07463817596435547e+01,-9.82244491577148438e-01,6.62694501876831055e+00,-3.02992510795593262e+00,2.60376510620117188e+01,-3.30384582281112671e-01,-6.40027284622192383e+00,2.02432556152343750e+01,6.92460417747497559e-01,-3.90668964385986328e+00,-6.38197898864746094e-01],"default_left":[false,true,true,false,false,true,true,true,true,true,false,false,false,false,false,false,false],"id":14,"leaf_child_counts":[0,0,0,0,0,0,0,0,0,0,0,0,0,0,0,0,0],"left_children":[1,3,5,-1,-1,7,9,11,13,15,-1,-1,-1,-1,-1,-1,-1],"loss_changes":[1.57242846679687500e+03,1.75548657226562500e+03,4.48034149169921875e+02,0.00000000000000000e+00,0.00000000000000000e+00,5.10872619628906250e+02,9.21521118164062500e+02,2.62770111083984375e+02,7.94040222167968750e+02,3.79770278930664062e+00,0.00000000000000000e+00,0.00000000000000000e+00,0.00000000000000000e+00,0.00000000000000000e+00,0.00000000000000000e+00,0.00000000000000000e+00,0.00000000000000000e+00],"parents":[2147483647,0,0,1,1,2,2,5,5,6,6,7,7,8,8,9,9],"right_children":[2,4,6,-1,-1,8,10,12,14,16,-1,-1,-1,-1,-1,-1,-1],"split_conditions":[2.18847332000732422e+01,5.40616989135742188e+00,1.16689491271972656e+00,1.24941568374633789e+01,-5.03692626953125000e-02,1.15149998664855957e+00,6.19065999984741211e+00,2.95966625213623047e+01,1.27099990844726562e+00,5.61196994781494141e+00,7.81129550933837891e+00,-9.91153791546821594e-02,-1.92008197307586670e+00,6.07297706604003906e+00,2.07738131284713745e-01,-1.17200696468353271e+00,-1.91459372639656067e-01],"split_indices":[6,1,32,0,0,2,1,6,2,1,0,0,0,0,0,0,0],"sum_hessian":[8.90000000000000000e+01,3.00000000000000000e+00,8.60000000000000000e+01,1.00000000000000000e+00,2.00000000000000000e+00,8.30000000000000000e+01,3.00000000000000000e+00,7.40000000000000000e+01,9.00000000000000000e+00,2.00000000000000000e+00,1.00000000000000000e+00,6.70000000000000000e+01,7.00000000000000000e+00,2.00000000000000000e+00,7.00000000000000000e+00,1.00000000000000000e+00,1.00000000000000000e+00],"tree_param":{"num_deleted":"0","num_feature":"33","num_nodes":"17","size_leaf_vector":"0"}},{"base_weights":[5.16237676143646240e-01,1.75993194580078125e+01,-2.24069461226463318e-01,3.54001159667968750e+01,-1.34318038821220398e-01,-1.19239320755004883e+01,4.35743838548660278e-01,-2.27200055122375488e+00,-1.76012191772460938e+01,-5.05502298474311829e-02,1.43930234909057617e+01,-8.73146057128906250e-02,-3.32068634033203125e+00,1.26033353805541992e+00,-2.85778141021728516e+00,-5.42468070983886719e-01,2.21320037841796875e+01],"default_left":[false,true,true,false,false,true,true,true,false,true,true,false,false,false,false,false,false],"id":15,"leaf_child_counts":[0,0,0,0,0,0,0,0,0,0,0,0,0,0,0,0,0],"left_children":[1,3,5,-1,-1,7,9,11,-1,13,15,-1,-1,-1,-1,-1,-1],"loss_changes":[1.21802941894531250e+03,1.26744641113281250e+03,7.23130249023437500e+02,0.00000000000000000e+00,0.00000000000000000e+00,2.33993957519531250e+02,6.04801025390625000e+02,6.58320140838623047e+00,0.00000000000000000e+00,3.23757751464843750e+02,3.58762329101562500e+02,0.00000000000000000e+00,0.00000000000000000e+00,0.00000000000000000e+00,0.00000000000000000e+00,0.00000000000000000e+00,0.00000000000000000e+00],"parents":[2147483647,0,0,1,1,2,2,5,5,6,6,7,7,9,9,10,10],"right_children":[2,4,6,-1,-1,8,10,12,-1,14,16,-1,-1,-1,-1,-1,-1],"split_conditions":[2.18847332000732422e+01,4.60266971588134766e+00,3.92305994033813477e+00,1.06200351715087891e+01,-4.02954146265983582e-02,6.44952774047851562e-01,1.16689491271972656e+00,3.69292998313903809e+00,-5.28036594390869141e+00,5.99038982391357422e+00,6.18416023254394531e+00,-2.61943824589252472e-02,-9.96205925941467285e-01,3.78100067377090454e-01,-8.57334434986114502e-01,-1.62740424275398254e-01,6.63960123062133789e+00],"split_indices":[6,0,0,0,0,3,32,0,0,0,0,0,0,0,0,0,0],"sum_hessian":[9.50000000000000000e+01,3.00000000000000000e+00,9.20000000000000000e+01,1.00000000000000000e+00,2.00000000000000000e+00,4.00000000000000000e+00,8.80000000000000000e+01,2.00000000000000000e+00,2.00000000000000000e+00,8.60000000000000000e+01,2.00000000000000000e+00,1.00000000000000000e+00,1.00000000000000000e+00,5.90000000000000000e+01,2.70000000000000000e+01,1.00000000000000000e+00,1.00000000000000000e+00],"tree_param":{"num_deleted":"0","num_feature":"33","num_nodes":"17","size_leaf_vector":"0"}},{"base_weights":[-5.15356600284576416e-01,1.81306168437004089e-01,-1.93856868743896484e+01,-3.29243808984756470e-01,1.02193412780761719e+01,-2.83322219848632812e+01,-7.46308803558349609e-01,-7.83092308044433594e+00,1.75258070230484009e-01,1.08432042598724365e+00,1.88122024536132812e+01,-1.40809755325317383e+01,1.02943706512451172e+00,1.71297121047973633e+00,-2.78862309455871582e+00,-2.55998134613037109e-01,1.88247871398925781e+00],"default_left":[true,true,true,true,true,false,false,true,true,true,false,false,false,false,false,false,false],"id":16,"leaf_child_counts":[0,0,0,0,0,0,0,0,0,0,0,0,0,0,0,0,0],"left_children":[1,3,5,7,9,-1,-1,11,13,15,-1,-1,-1,-1,-1,-1,-1],"loss_changes":[1.10780029296875000e+03,4.23608001708984375e+02,4.79129028320312500e+02,3.00356719970703125e+02,2.93585418701171875e+02,0.00000000000000000e+00,0.00000000000000000e+00,2.91384063720703125e+02,3.46596740722656250e+02,3.69127035140991211e+00,0.00000000000000000e+00,0.00000000000000000e+00,0.00000000000000000e+00,0.00000000000000000e+00,0.00000000000000000e+00,0.00000000000000000e+00,0.00000000000000000e+00],"parents":[2147483647,0,0,1,1,2,2,3,3,4,4,7,7,8,8,9,9],"right_children":[2,4,6,8,10,-1,-1,12,14,16,-1,-1,-1,-1,-1,-1,-1],"split_conditions":[6.09029233455657959e-01,1.16689491271972656e+00,5.62903976440429688e+00,3.92305994033813477e+00,6.30295991897583008e+00,-8.49966716766357422e+00,-2.23892644047737122e-01,1.32049989700317383e+00,3.42971038818359375e+01,5.67829990386962891e+00,5.64366102218627930e+00,-4.22429275512695312e+00,3.08831125497817993e-01,5.13891398906707764e-01,-8.36586952209472656e-01,-7.67994448542594910e-02,5.64743638038635254e-01],"split_indices":[30,32,0,0,0,0,0,2,5,0,0,0,0,0,0,0,0],"sum_hessian":[8.30000000000000000e+01,8.10000000000000000e+01,2.00000000000000000e+00,7.80000000000000000e+01,3.00000000000000000e+00,1.00000000000000000e+00,1.00000000000000000e+00,4.00000000000000000e+00,7.40000000000000000e+01,2.00000000000000000e+00,1.00000000000000000e+00,2.00000000000000000e+00,2.00000000000000000e+00,4.90000000000000000e+01,2.50000000000000000e+01,1.00000000000000000e+00,1.00000000000000000e+00],"tree_param":{"num_deleted":"0","num_feature":"33","num_nodes":"17","size_leaf_vector":"0"}},{"base_weights":[-9.64909791946411133e-01,3.19065779447555542e-01,-8.10070228576660156e+00,8.45590782165527344e+00,-2.92383246123790741e-02,-2.49458351135253906e+01,-5.52579283714294434e-01,2.60860991477966309e+00,-9.07979667186737061e-01,-2.42198944091796875e+00,5.94594955444335938e-01,2.03650623559951782e-01,7.38458681106567383e+00,-4.58279192447662354e-01,-6.41466569900512695e+00,2.66604018211364746e+00,-7.67191112041473389e-01],"default_left":[true,true,true,false,false,false,true,false,true,false,true,false,false,false,false,false,false],"id":17,"leaf_child_counts":[0,0,0,0,0,0,0,0,0,0,0,0,0,0,0,0,0],"left_children":[1,3,5,-1,7,-1,9,11,13,-1,15,-1,-1,-1,-1,-1,-1],"loss_changes":[7.81370239257812500e+02,2.07136199951171875e+02,1.63915429687500000e+03,0.00000000000000000e+00,1.66945587158203125e+02,0.00000000000000000e+00,2.28854961395263672e+01,2.05244674682617188e+02,1.30783706665039062e+02,0.00000000000000000e+00,2.17914180755615234e+01,0.00000000000000000e+00,0.00000000000000000e+00,0.00000000000000000e+00,0.00000000000000000e+00,0.00000000000000000e+00,0.00000000000000000e+00],"parents":[2147483647,0,0,1,1,2,2,4,4,6,6,7,7,8,8,10,10],"right_children":[2,4,6,-1,8,-1,10,12,14,-1,16,-1,-1,-1,-1,-1,-1],"split_conditions":[1.06449997425079346e+00,4.27478027343750000e+00,1.30049991607666016e+00,2.53677248954772949e+00,3.42681045532226562e+01,-7.48375082015991211e+00,1.53049993515014648e+00,3.40442237854003906e+01,2.95530738830566406e+01,-7.26596832275390625e-01,1.69599997997283936e+00,6.10951893031597137e-02,2.21537613868713379e+00,-1.37483760714530945e-01,-1.92439973354339600e+00,7.99812078475952148e-01,-2.30157345533370972e-01],"split_indices":[2,0,2,0,5,0,2,5,6,0,2,0,0,0,0,0,0],"sum_hessian":[8.40000000000000000e+01,7.20000000000000000e+01,1.20000000000000000e+01,2.00000000000000000e+00,7.00000000000000000e+01,3.00000000000000000e+00,9.00000000000000000e+00,1.70000000000000000e+01,5.30000000000000000e+01,3.00000000000000000e+00,6.00000000000000000e+00,1.20000000000000000e+01,5.00000000000000000e+00,5.00000000000000000e+01,3.00000000000000000e+00,2.00000000000000000e+00,4.00000000000000000e+00],"tree_param":{"num_deleted":"0","num_feature":"33","num_nodes":"17","size_leaf_vector":"0"}},{"base_weights":[6.54021143913269043e-01,3.82182860374450684e+00,-1.15197014808654785e+00,8.37535560131072998e-01,1.52130260467529297e+01,2.47993230819702148e-01,-1.02827310562133789e+01,-7.02701473236083984e+00,1.38907492160797119e+00,3.35750122070312500e+01,6.55685901641845703e+00,7.94089508056640625e+00,-5.26567064225673676e-02,-1.93330230712890625e+01,-9.85951602458953857e-01,3.35349321365356445e+00,-1.71055883169174194e-01,1.69525680541992188e+01,1.08720386028289795e+00,-7.82122850418090820e-01,3.08931350708007812e+00,-1.76446533203125000e+00,1.06405162811279297e+00],"default_left":[true,true,true,true,true,true,true,false,true,false,true,false,true,false,true,false,false,false,false,false,false,false,false],"id":18,"leaf_child_counts":[0,0,0,0,0,0,0,0,0,0,0,0,0,0,0,0,0,0,0,0,0,0,0],"left_children":[1,3,5,7,9,11,13,-1,15,-1,17,-1,19,-1,21,-1,-1,-1,-1,-1,-1,-1,-1],"loss_changes":[5.36458679199218750e+02,1.14307739257812500e+03,7.69513854980468750e+02,1.31214126586914062e+02,8.92464233398437500e+02,1.23000274658203125e+02,6.54047119140625000e+02,0.00000000000000000e+00,8.33218688964843750e+01,0.00000000000000000e+00,3.22734741210937500e+02,0.00000000000000000e+00,1.21598190307617188e+02,0.00000000000000000e+00,9.85726165771484375e+00,0.00000000000000000e+00,0.00000000000000000e+00,0.00000000000000000e+00,0.00000000000000000e+00,0.00000000000000000e+00,0.00000000000000000e+00,0.00000000000000000e+00,0.00000000000000000e+00],"parents":[2147483647,0,0,1,1,2,2,3,3,4,4,5,5,6,6,8,8,10,10,12,12,14,14],"right_children":[2,4,6,8,10,12,14,-1,16,-1,18,-1,20,-1,22,-1,-1,-1,-1,-1,-1,-1,-1],"split_conditions":[1.27131734043359756e-02,1.12817049026489258e+00,1.04999995231628418e+00,4.76328992843627930e+00,5.34638977050781250e+00,4.75986003875732422e+00,1.32200002670288086e+00,-2.10810446739196777e+00,6.64089965820312500e+01,1.00725040435791016e+01,5.08883666992187500e+01,2.38226866722106934e+00,2.38567018508911133e+00,-5.79990720748901367e+00,1.06834960937500000e+02,1.00604796409606934e+00,-5.13167679309844971e-02,5.08577060699462891e+00,3.26161175966262817e-01,-2.34636858105659485e-01,9.26794111728668213e-01,-5.29339611530303955e-01,3.19215506315231323e-01],"split_indices":[22,14,2,1,1,1,2,0,4,0,4,0,12,0,4,0,0,0,0,0,0,0,0],"sum_hessian":[9.20000000000000000e+01,3.30000000000000000e+01,5.90000000000000000e+01,2.70000000000000000e+01,6.00000000000000000e+00,5.20000000000000000e+01,7.00000000000000000e+00,1.00000000000000000e+00,2.60000000000000000e+01,1.00000000000000000e+00,5.00000000000000000e+00,1.00000000000000000e+00,5.10000000000000000e+01,3.00000000000000000e+00,4.00000000000000000e+00,1.10000000000000000e+01,1.50000000000000000e+01,1.00000000000000000e+00,4.00000000000000000e+00,4.20000000000000000e+01,9.00000000000000000e+00,3.00000000000000000e+00,1.00000000000000000e+00],"tree_param":{"num_deleted":"0","num_feature":"33","num_nodes":"23","size_leaf_vector":"0"}},{"base_weights":[4.38461542129516602e-01,7.88660192489624023e+00,-2.84714162349700928e-01,-3.86125135421752930e+00,2.05997676849365234e+01,-1.74405593872070312e+01,1.37193202972412109e-01,-6.97978401184082031e+00,5.44365227222442627e-01,8.44051837921142578e+00,2.85387573242187500e+01,5.40078461170196533e-01,-5.05603313446044922e+00,-8.78958702087402344e-02,9.04443740844726562e-01,-4.22346889972686768e-01,2.68303227424621582e+00,-9.52661228179931641e+00,-4.39090013504028320e-01],"default_left":[true,true,true,true,true,false,true,false,true,false,false,true,true,false,false,false,false,false,false],"id":19,"leaf_child_counts":[0,0,0,0,0,0,0,0,0,0,0,0,0,0,0,0,0,0,0],"left_children":[1,3,5,7,9,-1,11,-1,13,-1,-1,15,17,-1,-1,-1,-1,-1,-1],"loss_changes":[4.87013671875000000e+02,1.27436010742187500e+03,6.03161499023437500e+02,7.24948654174804688e+01,1.45246704101562500e+02,0.00000000000000000e+00,1.74297149658203125e+02,0.00000000000000000e+00,7.62487709522247314e-01,0.00000000000000000e+00,0.00000000000000000e+00,1.59940521240234375e+02,1.19659439086914062e+02,0.00000000000000000e+00,0.00000000000000000e+00,0.00000000000000000e+00,0.00000000000000000e+00,0.00000000000000000e+00,0.00000000000000000e+00],"parents":[2147483647,0,0,1,1,2,2,3,3,4,4,6,6,8,8,11,11,12,12],"right_children":[2,4,6,8,10,-1,12,-1,14,-1,-1,16,18,-1,-1,-1,-1,-1,-1],"split_conditions":[4.17434024810791016e+00,3.92305994033813477e+00,4.23299980163574219e+00,5.16018962860107422e+00,1.21050000190734863e+00,-5.23216819763183594e+00,6.88498973846435547e+00,-2.09393525123596191e+00,3.72169995307922363e+00,2.53215551376342773e+00,8.56162738800048828e+00,6.25681018829345703e+00,1.61917701363563538e-01,-2.63687614351511002e-02,2.71333128213882446e-01,-1.26704066991806030e-01,8.04909706115722656e-01,-2.85798382759094238e+00,-1.31727010011672974e-01],"split_indices":[0,0,0,1,2,0,1,0,0,0,0,1,18,0,0,0,0,0,0],"sum_hessian":[8.90000000000000000e+01,7.00000000000000000e+00,8.20000000000000000e+01,4.00000000000000000e+00,3.00000000000000000e+00,1.00000000000000000e+00,8.10000000000000000e+01,2.00000000000000000e+00,2.00000000000000000e+00,2.00000000000000000e+00,1.00000000000000000e+00,7.60000000000000000e+01,5.00000000000000000e+00,1.00000000000000000e+00,1.00000000000000000e+00,5.30000000000000000e+01,2.30000000000000000e+01,2.00000000000000000e+00,3.00000000000000000e+00],"tree_param":{"num_deleted":"0","num_feature":"33","num_nodes":"19","size_leaf_vector":"0"}},{"base_weights":[1.18790829181671143e+00,-8.87201666831970215e-01,4.61042785644531250e+00,-1.48244743347167969e+01,-3.54576706886291504e-01,1.31119146347045898e+01,8.76040339469909668e-01,8.84971916675567627e-01,-1.62690210342407227e+00,2.87006282806396484e+01,2.33094787597656250e+00,-3.03890526294708252e-01,1.40072250366210938e+01,6.47317409515380859e+00,-4.45393547415733337e-02,-2.05499434471130371e+00,2.48283410072326660e+00,5.70788145065307617e+00,3.44622497558593750e+01,7.33167934417724609e+00,-3.25252032279968262e+00,7.14051783084869385e-01,-7.32818984985351562e+00],"default_left":[true,false,true,false,false,true,true,true,true,true,true,true,false,false,false,false,false,false,false,false,false,false,false],"id":20,"leaf_child_counts":[0,0,0,0,0,0,0,0,0,0,0,0,0,0,0,0,0,0,0,0,0,0,0],"left_children":[1,3,5,-1,7,9,11,13,15,17,19,21,-1,-1,-1,-1,-1,-1,-1,-1,-1,-1,-1],"loss_changes":[6.21973510742187500e+02,4.03027252197265625e+02,1.03619238281250000e+03,0.00000000000000000e+00,8.66036605834960938e+01,1.61371435546875000e+03,3.76109985351562500e+02,1.45728622436523438e+02,5.26045532226562500e+01,3.33195556640625000e+02,2.19296417236328125e+02,1.69690338134765625e+02,0.00000000000000000e+00,0.00000000000000000e+00,0.00000000000000000e+00,0.00000000000000000e+00,0.00000000000000000e+00,0.00000000000000000e+00,0.00000000000000000e+00,0.00000000000000000e+00,0.00000000000000000e+00,0.00000000000000000e+00,0.00000000000000000e+00],"parents":[2147483647,0,0,1,1,2,2,4,4,5,5,6,6,7,7,8,8,9,9,10,10,11,11],"right_children":[2,4,6,-1,8,10,12,14,16,18,20,22,-1,-1,-1,-1,-1,-1,-1,-1,-1,-1,-1],"split_conditions":[8.76995205879211426e-01,2.16333274841308594e+01,2.75236852467060089e-02,-4.44734239578247070e+00,3.56129302978515625e+01,1.28525471687316895e+00,3.54004135131835938e+01,1.96850494830869138e-04,5.69230131804943085e-02,1.50781258940696716e-01,3.44305267333984375e+01,7.23092985153198242e+00,4.20216751098632812e+00,1.94195234775543213e+00,-1.33618069812655449e-02,-6.16498351097106934e-01,7.44850277900695801e-01,1.71236455440521240e+00,1.03386754989624023e+01,2.19950389862060547e+00,-9.75756108760833740e-01,2.14215546846389771e-01,-2.19845700263977051e+00],"split_indices":[26,6,32,0,5,13,5,11,19,3,5,1,0,0,0,0,0,0,0,0,0,0,0],"sum_hessian":[8.60000000000000000e+01,5.40000000000000000e+01,3.20000000000000000e+01,1.00000000000000000e+00,5.30000000000000000e+01,9.00000000000000000e+00,2.30000000000000000e+01,2.70000000000000000e+01,2.60000000000000000e+01,3.00000000000000000e+00,6.00000000000000000e+00,2.20000000000000000e+01,1.00000000000000000e+00,3.00000000000000000e+00,2.40000000000000000e+01,2.40000000000000000e+01,2.00000000000000000e+00,1.00000000000000000e+00,2.00000000000000000e+00,3.00000000000000000e+00,3.00000000000000000e+00,2.00000000000000000e+01,2.00000000000000000e+00],"tree_param":{"num_deleted":"0","num_feature":"33","num_nodes":"23","size_leaf_vector":"0"}},{"base_weights":[1.26762306690216064e+00,3.19825142621994019e-01,7.70080661773681641e+00,6.60110890865325928e-01,-1.26008033752441406e+01,2.31031951904296875e+01,-9.62988138198852539e-01,3.47243666648864746e-01,1.19061431884765625e+01,4.85169935226440430e+00,2.75697937011718750e+01,5.45331954956054688e-01,-1.55665016174316406e+00,-3.02761286497116089e-01,2.72243404388427734e+00,1.12260913848876953e+00,-3.04611206054687500e-01],"default_left":[true,true,true,true,false,true,true,true,false,false,false,true,false,false,false,false,false],"id":21,"leaf_child_counts":[0,0,0,0,0,0,0,0,0,0,0,0,0,0,0,0,0],"left_children":[1,3,5,7,-1,9,11,13,-1,-1,-1,15,-1,-1,-1,-1,-1],"loss_changes":[5.21909912109375000e+02,3.42467559814453125e+02,1.49012255859375000e+03,2.59754302978515625e+02,0.00000000000000000e+00,1.92327880859375000e+02,8.01235008239746094e+00,1.15071769714355469e+02,0.00000000000000000e+00,0.00000000000000000e+00,0.00000000000000000e+00,1.81391763687133789e+00,0.00000000000000000e+00,0.00000000000000000e+00,0.00000000000000000e+00,0.00000000000000000e+00,0.00000000000000000e+00],"parents":[2147483647,0,0,1,1,2,2,3,3,5,5,6,6,7,7,11,11],"right_children":[2,4,6,8,-1,10,12,14,-1,-1,-1,16,-1,-1,-1,-1,-1],"split_conditions":[1.12549996376037598e+00,1.09899997711181641e+00,1.29550004005432129e+00,3.57238693237304688e+01,-3.78024125099182129e+00,1.15149998664855957e+00,6.12806435674428940e-03,9.05218124389648438e-01,3.57184314727783203e+00,1.45550990104675293e+00,8.27093887329101562e+00,1.91250002384185791e+00,-4.66995060443878174e-01,-9.08283889293670654e-02,8.16730260848999023e-01,3.36782753467559814e-01,-9.13833677768707275e-02],"split_indices":[2,2,2,5,0,2,9,3,0,0,0,2,0,0,0,0,0],"sum_hessian":[8.50000000000000000e+01,7.50000000000000000e+01,1.00000000000000000e+01,7.40000000000000000e+01,1.00000000000000000e+00,3.00000000000000000e+00,7.00000000000000000e+00,7.30000000000000000e+01,1.00000000000000000e+00,1.00000000000000000e+00,2.00000000000000000e+00,2.00000000000000000e+00,5.00000000000000000e+00,5.80000000000000000e+01,1.50000000000000000e+01,1.00000000000000000e+00,1.00000000000000000e+00],"tree_param":{"num_deleted":"0","num_feature":"33","num_nodes":"17","size_leaf_vector":"0"}},{"base_weights":[1.25854536890983582e-02,3.16031754016876221e-01,-8.58925533294677734e+00,-1.82711625099182129e+00,1.64448177814483643e+00,-1.07106828689575195e+01,-1.21479594707489014e+00,1.49531250000000000e+01,1.10098624229431152e+00,-4.60659265518188477e-01,-5.19500207901000977e+00,-3.59358906745910645e-01,4.12871789932250977e+00],"default_left":[true,true,false,false,true,false,true,false,true,false,false,false,false],"id":22,"leaf_child_counts":[0,0,0,0,0,0,0,0,0,0,0,0,0],"left_children":[1,3,-1,5,7,-1,9,-1,11,-1,-1,-1,-1],"loss_changes":[2.29801605224609375e+02,2.45005187988281250e+02,0.00000000000000000e+00,1.66495117187500000e+02,3.66895782470703125e+02,0.00000000000000000e+00,9.36586837768554688e+01,0.00000000000000000e+00,2.31403396606445312e+02,0.00000000000000000e+00,0.00000000000000000e+00,0.00000000000000000e+00,0.00000000000000000e+00],"parents":[2147483647,0,0,1,1,3,3,4,4,6,6,8,8],"right_children":[2,4,-1,6,8,-1,10,-1,12,-1,-1,-1,-1],"split_conditions":[7.23092985153198242e+00,2.14769325256347656e+01,-2.57677674293518066e+00,3.38716659545898438e+01,4.10634994506835938e+00,-3.21320509910583496e+00,9.18780207633972168e-01,4.48593759536743164e+00,1.07323974370956421e-01,-1.38197779655456543e-01,-1.55850064754486084e+00,-1.07807673513889313e-01,1.23861539363861084e+00],"split_indices":[1,6,0,5,0,0,22,0,18,0,0,0,0],"sum_hessian":[8.60000000000000000e+01,8.40000000000000000e+01,2.00000000000000000e+00,3.20000000000000000e+01,5.20000000000000000e+01,1.00000000000000000e+00,3.10000000000000000e+01,1.00000000000000000e+00,5.10000000000000000e+01,2.70000000000000000e+01,4.00000000000000000e+00,3.50000000000000000e+01,1.60000000000000000e+01],"tree_param":{"num_deleted":"0","num_feature":"33","num_nodes":"13","size_leaf_vector":"0"}},{"base_weights":[2.99577385187149048e-01,2.10876703262329102e+00,-8.36515665054321289e-01,-4.79751765727996826e-01,5.21261739730834961e+00,-6.13047361373901367e+00,-1.97294831275939941e-01,-1.33078205585479736e+00,1.29084467887878418e+00,2.86493635177612305e+00,1.15394268035888672e+01,-4.69784975051879883e-01,-1.16345672607421875e+01,-6.76132738590240479e-01,3.50667834281921387e+00,2.09229612350463867e+00,-1.75504159927368164e+00,1.28181651234626770e-01,2.79833483695983887e+00,5.20038318634033203e+00,1.20212621986865997e-01,8.67793083190917969e-01,1.48073730468750000e+01,-2.29294657707214355e+00,2.49984979629516602e+00,5.90645599365234375e+00,-9.53667104244232178e-01,4.58272314071655273e+00,-9.36772823333740234e-01],"default_left":[true,true,false,true,true,true,true,true,true,false,true,true,false,true,true,false,false,false,false,false,false,false,false,false,false,false,false,false,false],"id":23,"leaf_child_counts":[0,0,0,0,0,0,0,0,0,0,0,0,0,0,0,0,0,0,0,0,0,0,0,0,0,0,0,0,0],"left_children":[1,3,5,7,9,11,13,15,17,19,21,23,-1,25,27,-1,-1,-1,-1,-1,-1,-1,-1,-1,-1,-1,-1,-1,-1],"loss_changes":[1.86750717163085938e+02,2.83703857421875000e+02,1.88294952392578125e+02,3.18544559478759766e+01,2.04593505859375000e+02,1.81476013183593750e+02,9.28247222900390625e+01,2.40038967132568359e+01,1.19102277755737305e+01,8.27068786621093750e+01,1.26647583007812500e+02,2.73885173797607422e+01,0.00000000000000000e+00,8.96699295043945312e+01,3.29810867309570312e+01,0.00000000000000000e+00,0.00000000000000000e+00,0.00000000000000000e+00,0.00000000000000000e+00,0.00000000000000000e+00,0.00000000000000000e+00,0.00000000000000000e+00,0.00000000000000000e+00,0.00000000000000000e+00,0.00000000000000000e+00,0.00000000000000000e+00,0.00000000000000000e+00,0.00000000000000000e+00,0.00000000000000000e+00],"parents":[2147483647,0,0,1,1,2,2,3,3,4,4,5,5,6,6,7,7,8,8,9,9,10,10,11,11,13,13,14,14],"right_children":[2,4,6,8,10,12,14,16,18,20,22,24,-1,26,28,-1,-1,-1,-1,-1,-1,-1,-1,-1,-1,-1,-1,-1,-1],"split_conditions":[2.64762621372938156e-02,3.36711807250976562e+01,2.42766685485839844e+01,6.21500015258789062e-01,1.10006678104400635e+00,7.75999963283538818e-01,2.91848063468933105e-01,5.11020994186401367e+00,8.16494703292846680e-01,2.38445339202880859e+01,-4.10000026226043701e-01,5.69085979461669922e+00,-3.49037027359008789e+00,4.75986003875732422e+00,6.30335998535156250e+00,6.27688884735107422e-01,-5.26512503623962402e-01,3.84544953703880310e-02,8.39500486850738525e-01,1.56011497974395752e+00,3.60637865960597992e-02,2.60337948799133301e-01,4.44221210479736328e+00,-6.87883973121643066e-01,7.49954938888549805e-01,1.77193689346313477e+00,-2.86100149154663086e-01,1.37481701374053955e+00,-2.81031847000122070e-01],"split_indices":[22,5,6,2,13,2,30,1,26,6,2,1,0,1,1,0,0,0,0,0,0,0,0,0,0,0,0,0,0],"sum_hessian":[8.90000000000000000e+01,3.40000000000000000e+01,5.50000000000000000e+01,1.90000000000000000e+01,1.50000000000000000e+01,5.00000000000000000e+00,5.00000000000000000e+01,1.30000000000000000e+01,6.00000000000000000e+00,1.20000000000000000e+01,3.00000000000000000e+00,3.00000000000000000e+00,2.00000000000000000e+00,4.50000000000000000e+01,5.00000000000000000e+00,1.00000000000000000e+00,1.20000000000000000e+01,4.00000000000000000e+00,2.00000000000000000e+00,6.00000000000000000e+00,6.00000000000000000e+00,1.00000000000000000e+00,2.00000000000000000e+00,2.00000000000000000e+00,1.00000000000000000e+00,1.00000000000000000e+00,4.40000000000000000e+01,4.00000000000000000e+00,1.00000000000000000e+00],"tree_param":{"num_deleted":"0","num_feature":"33","num_nodes":"29","size_leaf_vector":"0"}},{"base_weights":[-3.36645431816577911e-02,2.09499883651733398e+00,-9.58682417869567871e-01,5.08340549468994141e+00,-2.81122851371765137e+00,-6.98601305484771729e-01,-5.01035022735595703e+00,2.37046289443969727e+00,1.87622776031494141e+01,-7.76502370834350586e-01,-6.68655490875244141e+00,-1.13501131534576416e+00,1.85879552364349365e+00,3.59984827041625977e+00,8.77692818641662598e-01,5.67339181900024414e-01,-1.54297971725463867e+00,-9.30765438079833984e+00,5.88371276855468750e-01,-3.84934753179550171e-01,-2.40252661705017090e+00,-7.45292305946350098e-01,3.71906948089599609e+00],"default_left":[false,true,true,true,true,true,false,false,false,true,true,true,true,false,false,false,false,false,false,false,false,false,false],"id":24,"leaf_child_counts":[0,0,0,0,0,0,0,0,0,0,0,0,0,0,0,0,0,0,0,0,0,0,0],"left_children":[1,3,5,7,9,11,-1,13,-1,15,17,19,21,-1,-1,-1,-1,-1,-1,-1,-1,-1,-1],"loss_changes":[1.94975494384765625e+02,4.54144714355468750e+02,6.92093505859375000e+01,6.60614624023437500e+02,8.94306106567382812e+01,7.57705993652343750e+01,0.00000000000000000e+00,2.80386581420898438e+01,0.00000000000000000e+00,1.01456089019775391e+01,8.17495574951171875e+01,5.32669906616210938e+01,5.12149658203125000e+01,0.00000000000000000e+00,0.00000000000000000e+00,0.00000000000000000e+00,0.00000000000000000e+00,0.00000000000000000e+00,0.00000000000000000e+00,0.00000000000000000e+00,0.00000000000000000e+00,0.00000000000000000e+00,0.00000000000000000e+00],"parents":[2147483647,0,0,1,1,2,2,3,3,4,4,5,5,7,7,9,9,10,10,11,11,12,12],"right_children":[2,4,6,8,10,12,-1,14,-1,16,18,20,22,-1,-1,-1,-1,-1,-1,-1,-1,-1,-1],"split_conditions":[2.75209159851074219e+01,1.59989520907402039e-02,1.32063150405883789e+00,1.15149998664855957e+00,1.02199995517730713e+00,9.80140209197998047e-01,-1.50310516357421875e+00,2.38445339202880859e+01,5.62868356704711914e+00,1.32531374692916870e-02,1.41549992561340332e+00,6.49158596992492676e-01,1.07903575897216797e+00,1.07995450496673584e+00,2.63307869434356689e-01,1.70201763510704041e-01,-4.62893933057785034e-01,-2.79229640960693359e+00,1.76511391997337341e-01,-1.15480430424213409e-01,-7.20758020877838135e-01,-2.23587706685066223e-01,1.11572086811065674e+00],"split_indices":[6,19,22,2,2,3,0,6,0,9,2,3,13,0,0,0,0,0,0,0,0,0,0],"sum_hessian":[9.70000000000000000e+01,2.90000000000000000e+01,6.80000000000000000e+01,1.80000000000000000e+01,1.10000000000000000e+01,6.50000000000000000e+01,3.00000000000000000e+00,1.60000000000000000e+01,2.00000000000000000e+00,8.00000000000000000e+00,3.00000000000000000e+00,5.60000000000000000e+01,9.00000000000000000e+00,8.00000000000000000e+00,8.00000000000000000e+00,3.00000000000000000e+00,5.00000000000000000e+00,2.00000000000000000e+00,1.00000000000000000e+00,3.60000000000000000e+01,2.00000000000000000e+01,4.00000000000000000e+00,5.00000000000000000e+00],"tree_param":{"num_deleted":"0","num_feature":"33","num_nodes":"23","size_leaf_vector":"0"}},{"base_weights":[5.66839098930358887e-01,5.20138216018676758e+00,2.29052215814590454e-01,1.88224649429321289e+00,6.39038848876953125e+00,4.29289758205413818e-01,-3.88302111625671387e+00,2.43651121854782104e-01,7.64019012451171875e+00,-8.10503482818603516e-01,-4.63702583312988281e+00,5.40548622608184814e-01,-1.48381376266479492e+00],"default_left":[false,true,true,false,false,true,true,true,false,false,false,false,false],"id":25,"leaf_child_counts":[0,0,0,0,0,0,0,0,0,0,0,0,0],"left_children":[1,3,5,-1,-1,7,9,11,-1,-1,-1,-1,-1],"loss_changes":[1.38137039184570312e+02,1.16505584716796875e+01,7.08318252563476562e+01,0.00000000000000000e+00,0.00000000000000000e+00,1.06566810607910156e+02,5.50844955444335938e+00,4.18324737548828125e+01,0.00000000000000000e+00,0.00000000000000000e+00,0.00000000000000000e+00,0.00000000000000000e+00,0.00000000000000000e+00],"parents":[2147483647,0,0,1,1,2,2,5,5,6,6,7,7],"right_children":[2,4,6,-1,-1,8,10,12,-1,-1,-1,-1,-1],"split_conditions":[2.20879592895507812e+01,3.51000010967254639e-01,1.32063150405883789e+00,5.64673960208892822e-01,1.91711664199829102e+00,3.57238693237304688e+01,-6.54999986290931702e-02,1.41743171215057373e+00,2.29205703735351562e+00,-2.43151053786277771e-01,-1.39110779762268066e+00,1.62164598703384399e-01,-4.45144146680831909e-01],"split_indices":[6,2,22,0,0,5,2,10,0,0,0,0,0],"sum_hessian":[8.80000000000000000e+01,5.00000000000000000e+00,8.30000000000000000e+01,2.00000000000000000e+00,3.00000000000000000e+00,8.00000000000000000e+01,3.00000000000000000e+00,7.90000000000000000e+01,1.00000000000000000e+00,1.00000000000000000e+00,2.00000000000000000e+00,6.80000000000000000e+01,1.10000000000000000e+01],"tree_param":{"num_deleted":"0","num_feature":"33","num_nodes":"13","size_leaf_vector":"0"}},{"base_weights":[-3.10309380292892456e-01,-7.96945467591285706e-02,-6.58721685409545898e+00,-1.10185086727142334e+00,9.94266867637634277e-01,-6.92130565643310547e+00,-7.98499464988708496e-01,4.70432901382446289e+00,3.48304688930511475e-01,-1.00360882282257080e+00,3.80549192428588867e+00,6.73357772827148438e+00,4.30554062128067017e-01,-1.28388134762644768e-02,6.49416351318359375e+00],"default_left":[true,true,false,false,true,false,true,false,false,false,false,false,false,false,false],"id":26,"leaf_child_counts":[0,0,0,0,0,0,0,0,0,0,0,0,0,0,0],"left_children":[1,3,-1,5,7,-1,9,11,13,-1,-1,-1,-1,-1,-1],"loss_changes":[1.22516601562500000e+02,9.22093276977539062e+01,0.00000000000000000e+00,7.03829574584960938e+01,9.66204223632812500e+01,0.00000000000000000e+00,4.34807357788085938e+01,4.91361541748046875e+01,7.99867095947265625e+01,0.00000000000000000e+00,0.00000000000000000e+00,0.00000000000000000e+00,0.00000000000000000e+00,0.00000000000000000e+00,0.00000000000000000e+00],"parents":[2147483647,0,0,1,1,3,3,4,4,6,6,7,7,8,8],"right_children":[2,4,-1,6,8,-1,10,12,14,-1,-1,-1,-1,-1,-1],"split_conditions":[3.57478561401367188e+01,3.35626373291015625e+01,-1.97616517543792725e+00,2.14908866882324219e+01,2.36766226589679718e-02,-2.07639169692993164e+00,9.98634219169616699e-01,3.42556838989257812e+01,3.57149505615234375e+01,-3.01082670688629150e-01,1.14164757728576660e+00,2.02007341384887695e+00,1.29166230559349060e-01,-3.85164422914385796e-03,1.94824910163879395e+00],"split_indices":[5,5,0,6,12,0,3,5,5,0,0,0,0,0,0],"sum_hessian":[8.40000000000000000e+01,8.20000000000000000e+01,2.00000000000000000e+00,4.20000000000000000e+01,4.00000000000000000e+01,1.00000000000000000e+00,4.10000000000000000e+01,5.00000000000000000e+00,3.50000000000000000e+01,4.00000000000000000e+01,1.00000000000000000e+00,3.00000000000000000e+00,2.00000000000000000e+00,3.40000000000000000e+01,1.00000000000000000e+00],"tree_param":{"num_deleted":"0","num_feature":"33","num_nodes":"15","size_leaf_vector":"0"}},{"base_weights":[5.70234835147857666e-01,8.56091901659965515e-02,3.19494485855102539e+00,2.98683017492294312e-01,-5.26977300643920898e+00,1.14694285392761230e+00,1.49094848632812500e+01,1.53528928756713867e-01,5.52004241943359375e+00,4.14363622665405273e+00,-1.24394488334655762e+00,-8.72120186686515808e-02,2.47022271156311035e+00,1.28452146053314209e+00,5.25206327438354492e+00,4.60570193827152252e-02,-5.13697910308837891e+00],"default_left":[true,true,true,true,false,true,false,true,false,true,true,false,false,false,false,false,false],"id":27,"leaf_child_counts":[0,0,0,0,0,0,0,0,0,0,0,0,0,0,0,0,0],"left_children":[1,3,5,7,-1,9,-1,11,-1,13,15,-1,-1,-1,-1,-1,-1],"loss_changes":[1.14206642150878906e+02,8.94380493164062500e+01,3.18779296875000000e+02,5.59951362609863281e+01,0.00000000000000000e+00,9.82962951660156250e+01,0.00000000000000000e+00,4.14869384765625000e+01,0.00000000000000000e+00,1.22683334350585938e+01,4.04127655029296875e+01,0.00000000000000000e+00,0.00000000000000000e+00,0.00000000000000000e+00,0.00000000000000000e+00,0.00000000000000000e+00,0.00000000000000000e+00],"parents":[2147483647,0,0,1,1,2,2,3,3,5,5,7,7,9,9,10,10],"right_children":[2,4,6,8,-1,10,-1,12,-1,14,16,-1,-1,-1,-1,-1,-1],"split_conditions":[1.03349995613098145e+00,3.57478561401367188e+01,7.20613896846771240e-01,3.57238693237304688e+01,-1.58093202114105225e+00,1.24000000953674316e+00,4.47284555435180664e+00,8.87305676937103271e-01,1.65601277351379395e+00,6.44877624511718750e+01,5.44826984405517578e+00,-2.61636059731245041e-02,7.41066813468933105e-01,3.85356456041336060e-01,1.57561910152435303e+00,1.38171063736081123e-02,-1.54109382629394531e+00],"split_indices":[2,5,22,5,0,2,0,8,0,4,0,0,0,0,0,0,0],"sum_hessian":[8.90000000000000000e+01,7.60000000000000000e+01,1.30000000000000000e+01,7.40000000000000000e+01,2.00000000000000000e+00,1.20000000000000000e+01,1.00000000000000000e+00,7.30000000000000000e+01,1.00000000000000000e+00,5.00000000000000000e+00,7.00000000000000000e+00,6.70000000000000000e+01,6.00000000000000000e+00,2.00000000000000000e+00,3.00000000000000000e+00,6.00000000000000000e+00,1.00000000000000000e+00],"tree_param":{"num_deleted":"0","num_feature":"33","num_nodes":"17","size_leaf_vector":"0"}},{"base_weights":[1.63400486111640930e-01,-2.90757894515991211e-01,2.81179952621459961e+00,-6.69861698150634766e+00,3.73711585998535156e-02,9.35237026214599609e+00,1.77791848778724670e-01,2.02594488859176636e-01,-4.21581792831420898e+00,1.11337113380432129e+00,1.17275800704956055e+01,-5.08355140686035156e-01,3.86752873659133911e-01,5.03710329532623291e-01,-1.64989233016967773e+00,6.48599624633789062e-01,-1.02705478668212891e-01],"default_left":[true,true,false,false,true,true,false,true,false,false,false,false,true,false,false,false,false],"id":28,"leaf_child_counts":[0,0,0,0,0,0,0,0,0,0,0,0,0,0,0,0,0],"left_children":[1,3,5,-1,7,9,11,13,-1,-1,-1,-1,15,-1,-1,-1,-1],"loss_changes":[1.15082839965820312e+02,1.72663909912109375e+02,2.39528030395507812e+02,0.00000000000000000e+00,5.63694610595703125e+01,6.52202148437500000e+01,1.77376532554626465e+00,4.37826805114746094e+01,0.00000000000000000e+00,0.00000000000000000e+00,0.00000000000000000e+00,0.00000000000000000e+00,1.22008252143859863e+00,0.00000000000000000e+00,0.00000000000000000e+00,0.00000000000000000e+00,0.00000000000000000e+00],"parents":[2147483647,0,0,1,1,2,2,4,4,5,5,6,6,7,7,12,12],"right_children":[2,4,6,-1,8,10,12,14,-1,-1,-1,-1,16,-1,-1,-1,-1],"split_conditions":[1.12549996376037598e+00,4.23299980163574219e+00,2.55909957885742188e+01,-2.00958514213562012e+00,3.57478561401367188e+01,1.15149998664855957e+00,6.97158355712890625e+01,3.62213402986526489e-01,-1.26474547386169434e+00,3.34011346101760864e-01,3.51827406883239746e+00,-1.52506545186042786e-01,7.86517709493637085e-02,1.51113107800483704e-01,-4.94967728853225708e-01,1.94579899311065674e-01,-3.08116450905799866e-02],"split_indices":[2,0,6,0,5,2,5,31,0,0,0,0,7,0,0,0,0],"sum_hessian":[9.40000000000000000e+01,8.10000000000000000e+01,1.30000000000000000e+01,3.00000000000000000e+00,7.80000000000000000e+01,3.00000000000000000e+00,1.00000000000000000e+01,7.60000000000000000e+01,2.00000000000000000e+00,1.00000000000000000e+00,2.00000000000000000e+00,2.00000000000000000e+00,8.00000000000000000e+00,6.60000000000000000e+01,1.00000000000000000e+01,5.00000000000000000e+00,3.00000000000000000e+00],"tree_param":{"num_deleted":"0","num_feature":"33","num_nodes":"17","size_leaf_vector":"0"}},{"base_weights":[-2.42342770099639893e-01,-5.89971542358398438e-01,1.97950148582458496e+00,4.17582094669342041e-01,-1.55656301975250244e+00,4.49515008926391602e+00,-4.59554523229598999e-01,1.94774258136749268e+00,-5.53854629397392273e-02,-8.25596928596496582e-01,-4.78017997741699219e+00,5.60887002944946289e+00,1.51180648803710938e+00,-7.40249156951904297e-02,-7.30195522308349609e-01,3.47675472497940063e-01,5.03198480606079102e+00,4.71098095178604126e-01,-1.00759327411651611e+00,-3.05483317375183105e+00,-4.12776976823806763e-01,-6.60337018966674805e+00,-1.48136138916015625e-01,-3.31357955932617188e-01,1.22205413877964020e-01],"default_left":[true,true,true,false,true,true,true,false,true,true,true,false,false,true,false,false,false,false,false,false,false,false,false,true,true],"id":29,"leaf_child_counts":[0,0,0,0,0,0,0,0,0,0,0,0,0,0,0,0,0,0,0,0,0,0,0,0,0],"left_children":[1,3,5,7,9,11,13,15,17,19,21,-1,-1,-1,-1,-1,-1,-1,-1,-1,-1,-1,-1,-1,-1],"loss_changes":[6.83646545410156250e+01,7.46658477783203125e+01,7.56954498291015625e+01,2.76090946197509766e+01,8.79513320922851562e+01,1.14561309814453125e+01,6.76328063011169434e-01,4.26654510498046875e+01,1.55143270492553711e+01,2.91080493927001953e+01,5.81374664306640625e+01,0.00000000000000000e+00,0.00000000000000000e+00,2.42479935288429260e-01,0.00000000000000000e+00,0.00000000000000000e+00,0.00000000000000000e+00,0.00000000000000000e+00,0.00000000000000000e+00,0.00000000000000000e+00,0.00000000000000000e+00,0.00000000000000000e+00,0.00000000000000000e+00,0.00000000000000000e+00,0.00000000000000000e+00],"parents":[2147483647,0,0,1,1,2,2,3,3,4,4,5,5,6,6,7,7,8,8,9,9,10,10,13,13],"right_children":[2,4,6,8,10,12,14,16,18,20,22,-1,-1,-1,-1,-1,-1,-1,-1,-1,-1,-1,-1,-1,-1],"split_conditions":[2.20621728897094727e+00,3.75638484954833984e-01,7.00573120117187500e+01,3.41667022705078125e+01,9.41499948501586914e-01,7.03447008132934570e+00,1.10555107116699219e+02,3.38450279235839844e+01,5.44457006454467773e+00,5.77926635742187500e-01,1.27991401672363281e+02,1.68266105651855469e+00,4.53541964292526245e-01,-2.22074761986732483e-02,-2.19058662652969360e-01,1.04302644729614258e-01,1.50959551334381104e+00,1.41329437494277954e-01,-3.02277982234954834e-01,-9.16449964046478271e-01,-1.23833097517490387e-01,-1.98101115226745605e+00,-4.44408431649208069e-02,-9.94073897600173950e-02,3.66616249084472656e-02],"split_indices":[12,12,4,5,2,0,4,5,0,12,4,0,0,0,0,0,0,0,0,0,0,0,0,2147483647,2147483647],"sum_hessian":[8.60000000000000000e+01,7.50000000000000000e+01,1.10000000000000000e+01,3.70000000000000000e+01,3.80000000000000000e+01,5.00000000000000000e+00,6.00000000000000000e+00,8.00000000000000000e+00,2.90000000000000000e+01,3.20000000000000000e+01,6.00000000000000000e+00,3.00000000000000000e+00,2.00000000000000000e+00,3.00000000000000000e+00,3.00000000000000000e+00,6.00000000000000000e+00,2.00000000000000000e+00,1.90000000000000000e+01,1.00000000000000000e+01,4.00000000000000000e+00,2.80000000000000000e+01,4.00000000000000000e+00,2.00000000000000000e+00,1.00000000000000000e+00,2.00000000000000000e+00],"tree_param":{"num_deleted":"2","num_feature":"33","num_nodes":"25","size_leaf_vector":"0"}},{"base_weights":[-6.08442313969135284e-02,-4.28403764963150024e-01,2.95922851562500000e+00,-3.70567011833190918e+00,-2.57043391466140747e-01,8.57777833938598633e-01,1.09361419677734375e+01,1.27573937177658081e-01,-1.56755626201629639e+00,2.74007225036621094e+00,-7.14594945311546326e-02,-1.75387095659971237e-02,2.23609209060668945e+00,-6.42013669013977051e-01,-3.84556436538696289e+00,-2.96802133321762085e-01,3.27931404113769531e-01],"default_left":[true,true,true,false,true,true,false,true,true,false,true,false,false,false,false,false,false],"id":30,"leaf_child_counts":[0,0,0,0,0,0,0,0,0,0,0,0,0,0,0,0,0],"left_children":[1,3,5,-1,7,9,-1,11,13,-1,15,-1,-1,-1,-1,-1,-1],"loss_changes":[1.02282890319824219e+02,4.50981559753417969e+01,1.58250106811523438e+02,0.00000000000000000e+00,4.00196113586425781e+01,1.59376888275146484e+01,0.00000000000000000e+00,1.90095233917236328e+01,3.54821815490722656e+01,0.00000000000000000e+00,7.27329373359680176e-01,0.00000000000000000e+00,0.00000000000000000e+00,0.00000000000000000e+00,0.00000000000000000e+00,0.00000000000000000e+00,0.00000000000000000e+00],"parents":[2147483647,0,0,1,1,2,2,4,4,5,5,7,7,8,8,10,10],"right_children":[2,4,6,-1,8,10,-1,12,14,-1,16,-1,-1,-1,-1,-1,-1],"split_conditions":[1.13999998569488525e+00,4.23299980163574219e+00,5.32558012008666992e+00,-1.11170113086700439e+00,6.53285026550292969e+00,5.40470027923583984e+00,3.28084278106689453e+00,2.69657969474792480e+00,-1.39499992132186890e-01,8.22021722793579102e-01,5.66823184490203857e-01,-5.26161305606365204e-03,6.70827627182006836e-01,-1.92604109644889832e-01,-1.15366935729980469e+00,-8.90406444668769836e-02,9.83794257044792175e-02],"split_indices":[2,0,0,0,0,1,0,25,2,0,23,0,0,0,0,0,0],"sum_hessian":[9.00000000000000000e+01,8.10000000000000000e+01,9.00000000000000000e+00,3.00000000000000000e+00,7.80000000000000000e+01,8.00000000000000000e+00,1.00000000000000000e+00,6.10000000000000000e+01,1.70000000000000000e+01,2.00000000000000000e+00,6.00000000000000000e+00,5.80000000000000000e+01,3.00000000000000000e+00,1.30000000000000000e+01,4.00000000000000000e+00,4.00000000000000000e+00,2.00000000000000000e+00],"tree_param":{"num_deleted":"0","num_feature":"33","num_nodes":"17","size_leaf_vector":"0"}},{"base_weights":[3.54331046342849731e-01,5.17922878265380859e-01,-6.77548599243164062e+00,2.62580364942550659e-01,4.55088663101196289e+00,4.98052865266799927e-01,-1.45907974243164062e+00,9.29571533203125000e+00,1.04075074195861816e+00,7.95062109827995300e-02,2.22635293006896973e+00,-6.88619911670684814e-01,-2.44261455535888672e+00,7.47303962707519531e-02,1.33784735202789307e+00],"default_left":[true,true,false,true,true,true,true,false,true,false,false,false,false,false,false],"id":31,"leaf_child_counts":[0,0,0,0,0,0,0,0,0,0,0,0,0,0,0],"left_children":[1,3,-1,5,7,9,11,-1,13,-1,-1,-1,-1,-1,-1],"loss_changes":[1.03817832946777344e+02,8.63369293212890625e+01,0.00000000000000000e+00,3.35643920898437500e+01,7.36004409790039062e+01,5.19059371948242188e+01,5.89570808410644531e+00,0.00000000000000000e+00,1.04802799224853516e+00,0.00000000000000000e+00,0.00000000000000000e+00,0.00000000000000000e+00,0.00000000000000000e+00,0.00000000000000000e+00,0.00000000000000000e+00],"parents":[2147483647,0,0,1,1,3,3,4,4,5,5,6,6,8,8],"right_children":[2,4,-1,6,8,10,12,-1,14,-1,-1,-1,-1,-1,-1],"split_conditions":[7.23092985153198242e+00,6.88057994842529297e+00,-2.03264594078063965e+00,2.52333730459213257e-01,6.06260013580322266e+00,1.25837254524230957e+00,6.13920974731445312e+00,2.78871464729309082e+00,6.90252017974853516e+00,2.38518640398979187e-02,6.67905926704406738e-01,-2.06585988402366638e-01,-7.32784390449523926e-01,2.24191192537546158e-02,4.01354223489761353e-01],"split_indices":[1,1,0,31,0,26,1,0,0,0,0,0,0,0,0],"sum_hessian":[8.50000000000000000e+01,8.40000000000000000e+01,1.00000000000000000e+00,8.00000000000000000e+01,4.00000000000000000e+00,7.10000000000000000e+01,9.00000000000000000e+00,1.00000000000000000e+00,3.00000000000000000e+00,5.80000000000000000e+01,1.30000000000000000e+01,6.00000000000000000e+00,3.00000000000000000e+00,1.00000000000000000e+00,2.00000000000000000e+00],"tree_param":{"num_deleted":"0","num_feature":"33","num_nodes":"15","size_leaf_vector":"0"}},{"base_weights":[-5.04886843264102936e-02,6.63881683349609375e+00,-1.96951568126678467e-01,-7.11585208773612976e-02,-5.75916290283203125e+00,-2.86198973655700684e-01,2.98710775375366211e+00,1.51148289442062378e-01,-1.13594365119934082e+00,7.90135192871093750e+00,4.23988521099090576e-01],"default_left":[true,false,true,true,false,true,true,false,false,false,false],"id":32,"leaf_child_counts":[0,0,0,0,0,0,0,0,0,0,0],"left_children":[1,-1,3,5,-1,7,9,-1,-1,-1,-1],"loss_changes":[9.14431457519531250e+01,0.00000000000000000e+00,6.32617492675781250e+01,6.00434951782226562e+01,0.00000000000000000e+00,3.17605476379394531e+01,7.22246856689453125e+01,0.00000000000000000e+00,0.00000000000000000e+00,0.00000000000000000e+00,0.00000000000000000e+00],"parents":[2147483647,0,0,2,2,3,3,5,5,6,6],"right_children":[2,-1,4,6,-1,8,10,-1,-1,-1,-1],"split_conditions":[4.75986003875732422e+00,1.99164509773254395e+00,7.23092985153198242e+00,6.88057994842529297e+00,-1.72774899005889893e+00,3.53483200073242188e-01,6.06260013580322266e+00,4.53444868326187134e-02,-3.40783119201660156e-01,2.37040567398071289e+00,1.27196565270423889e-01],"split_indices":[1,0,1,1,0,9,0,0,0,0,0],"sum_hessian":[9.10000000000000000e+01,1.00000000000000000e+00,9.00000000000000000e+01,8.90000000000000000e+01,1.00000000000000000e+00,8.40000000000000000e+01,5.00000000000000000e+00,5.60000000000000000e+01,2.80000000000000000e+01,1.00000000000000000e+00,4.00000000000000000e+00],"tree_param":{"num_deleted":"0","num_feature":"33","num_nodes":"11","size_leaf_vector":"0"}},{"base_weights":[3.52021679282188416e-02,5.79124987125396729e-01,-9.83595430850982666e-01,9.23530459403991699e-02,2.25700068473815918e+00,-2.86900997161865234e+00,5.08404895663261414e-02,1.88610708713531494e+00,-1.72400072216987610e-01,6.06320571899414062e+00,1.01376295089721680e+00,1.75237655639648438e-02,-3.51240897178649902e+00,1.58722138404846191e+00,-1.01671862602233887e+00,3.70720171928405762e+00,4.87594604492187500e-02,-5.22770404815673828e-01,1.13144659996032715e+00,1.99639952182769775e+00,-1.37834236025810242e-01,-2.84637928009033203e-01,3.10923576354980469e-01,-1.70885944366455078e+00,-4.61347675323486328e+00,2.87681984901428223e+00,-1.98213569819927216e-02,-5.90904951095581055e-01,-1.57983946800231934e+00],"default_left":[true,true,true,false,true,true,true,false,true,false,true,true,true,true,true,false,false,false,false,false,false,true,true,false,false,false,false,false,false],"id":33,"leaf_child_counts":[0,0,0,0,0,0,0,0,0,0,0,0,0,0,0,0,0,0,0,0,0,0,0,0,0,0,0,0,0],"left_children":[1,3,5,7,9,11,13,15,17,-1,19,-1,23,25,27,-1,-1,-1,-1,-1,-1,-1,-1,-1,-1,-1,-1,-1,-1],"loss_changes":[4.93345832824707031e+01,4.71626472473144531e+01,6.06064224243164062e+01,2.21706562042236328e+01,5.53695831298828125e+01,2.04906768798828125e+01,3.60574836730957031e+01,1.98951435089111328e+01,1.93214836120605469e+01,0.00000000000000000e+00,1.27227888107299805e+01,3.54463219642639160e-01,9.98868560791015625e+00,1.87089805603027344e+01,2.18366432189941406e+00,0.00000000000000000e+00,0.00000000000000000e+00,0.00000000000000000e+00,0.00000000000000000e+00,0.00000000000000000e+00,0.00000000000000000e+00,0.00000000000000000e+00,0.00000000000000000e+00,0.00000000000000000e+00,0.00000000000000000e+00,0.00000000000000000e+00,0.00000000000000000e+00,0.00000000000000000e+00,0.00000000000000000e+00],"parents":[2147483647,0,0,1,1,2,2,3,3,4,4,5,5,6,6,7,7,8,8,10,10,11,11,12,12,13,13,14,14],"right_children":[2,4,6,8,10,12,14,16,18,-1,20,-1,24,26,28,-1,-1,-1,-1,-1,-1,-1,-1,-1,-1,-1,-1,-1,-1],"split_conditions":[7.74802684783935547e-01,2.35807010903954506e-03,8.87740075588226318e-01,2.38445339202880859e+01,3.19540672302246094e+01,5.44162001460790634e-04,1.58902633190155029e+00,3.42556838989257812e+01,3.44504654407501221e-01,1.81896173954010010e+00,9.70372408628463745e-02,5.25712966918945312e-03,1.88501432538032532e-01,9.85522449016571045e-01,3.32491159439086914e+00,1.11216056346893311e+00,1.46278385072946548e-02,-1.56831130385398865e-01,3.39433997869491577e-01,5.98919868469238281e-01,-4.13502715528011322e-02,-8.53913798928260803e-02,9.32770743966102600e-02,-5.12657880783081055e-01,-1.38404309749603271e+00,8.63045990467071533e-01,-5.94640756025910378e-03,-1.77271485328674316e-01,-4.73951846361160278e-01],"split_indices":[24,16,10,6,5,9,10,5,24,0,20,2,3,9,11,0,0,0,0,0,0,2147483647,2147483647,0,0,0,0,0,0],"sum_hessian":[8.70000000000000000e+01,5.70000000000000000e+01,3.00000000000000000e+01,4.50000000000000000e+01,1.20000000000000000e+01,1.00000000000000000e+01,2.00000000000000000e+01,5.00000000000000000e+00,4.00000000000000000e+01,2.00000000000000000e+00,1.00000000000000000e+01,2.00000000000000000e+00,8.00000000000000000e+00,8.00000000000000000e+00,1.20000000000000000e+01,2.00000000000000000e+00,3.00000000000000000e+00,3.20000000000000000e+01,8.00000000000000000e+00,5.00000000000000000e+00,5.00000000000000000e+00,1.00000000000000000e+00,1.00000000000000000e+00,4.00000000000000000e+00,4.00000000000000000e+00,4.00000000000000000e+00,4.00000000000000000e+00,8.00000000000000000e+00,4.00000000000000000e+00],"tree_param":{"num_deleted":"2","num_feature":"33","num_nodes":"29","size_leaf_vector":"0"}},{"base_weights":[-1.27401381731033325e-01,3.58855783939361572e-01,-7.52870321273803711e-01,-2.43182480335235596e-02,4.04219007492065430e+00,-1.82907807826995850e+00,-1.87878265976905823e-01,2.77974516153335571e-01,-9.79552090167999268e-01,4.61314678192138672e+00,8.79181385040283203e-01,-2.39921665191650391e+00,1.06116867065429688e+00,5.62223434448242188e-01,-8.75447988510131836e-01,-2.45772457122802734e+00,4.18337315320968628e-01,2.41287231445312500e-01,-1.88604986667633057e+00,-1.50357580184936523e+00,-4.58494710922241211e+00,1.28345775604248047e+00,3.08295249938964844e-01,1.42427158355712891e+00,-2.62346625328063965e-01,-1.45948970317840576e+00,1.09553933143615723e+00],"default_left":[true,true,true,true,true,true,true,true,true,false,false,true,true,true,true,false,false,false,false,false,false,true,true,false,false,false,false],"id":34,"leaf_child_counts":[0,0,0,0,0,0,0,0,0,0,0,0,0,0,0,0,0,0,0,0,0,0,0,0,0,0,0],"left_children":[1,3,5,7,9,11,13,15,17,-1,-1,19,-1,23,25,-1,-1,-1,-1,-1,-1,-1,-1,-1,-1,-1,-1],"loss_changes":[2.85550765991210938e+01,7.49002761840820312e+01,2.45863571166992188e+01,1.44215440750122070e+01,4.97391510009765625e+00,2.56157455444335938e+01,1.49331197738647461e+01,1.56197919845581055e+01,1.37353372573852539e+01,0.00000000000000000e+00,0.00000000000000000e+00,1.65977401733398438e+01,1.06382608413696289e-01,1.03251209259033203e+01,1.88660106658935547e+01,0.00000000000000000e+00,0.00000000000000000e+00,0.00000000000000000e+00,0.00000000000000000e+00,0.00000000000000000e+00,0.00000000000000000e+00,0.00000000000000000e+00,0.00000000000000000e+00,0.00000000000000000e+00,0.00000000000000000e+00,0.00000000000000000e+00,0.00000000000000000e+00],"parents":[2147483647,0,0,1,1,2,2,3,3,4,4,5,5,6,6,7,7,8,8,11,11,12,12,13,13,14,14],"right_children":[2,4,6,8,10,12,14,16,18,-1,-1,20,-1,24,26,-1,-1,-1,-1,-1,-1,-1,-1,-1,-1,-1,-1],"split_conditions":[3.53934913873672485e-01,8.52460786700248718e-03,8.71307492256164551e-01,6.20652008056640625e+00,6.68114995956420898e+00,1.40249991416931152e+00,4.50391322374343872e-02,3.81812000274658203e+00,5.06104493979364634e-04,1.38394403457641602e+00,2.63754427433013916e-01,1.09749996662139893e+00,3.18350613117218018e-01,2.26630181074142456e-01,8.28577399253845215e-01,-7.37317383289337158e-01,1.25501200556755066e-01,7.23861753940582275e-02,-5.65814971923828125e-01,-4.51072752475738525e-01,-1.37548422813415527e+00,3.85037332773208618e-01,9.24885794520378113e-02,4.27281498908996582e-01,-7.87039920687675476e-02,-4.37846928834915161e-01,3.28661799430847168e-01],"split_indices":[23,16,12,0,1,2,7,0,19,0,0,2,0,18,7,0,0,0,0,0,0,2147483647,2147483647,0,0,0,0],"sum_hessian":[9.20000000000000000e+01,5.20000000000000000e+01,4.00000000000000000e+01,4.80000000000000000e+01,4.00000000000000000e+00,1.30000000000000000e+01,2.70000000000000000e+01,3.70000000000000000e+01,1.10000000000000000e+01,3.00000000000000000e+00,1.00000000000000000e+00,1.10000000000000000e+01,2.00000000000000000e+00,1.30000000000000000e+01,1.40000000000000000e+01,1.00000000000000000e+00,3.60000000000000000e+01,5.00000000000000000e+00,6.00000000000000000e+00,9.00000000000000000e+00,2.00000000000000000e+00,1.00000000000000000e+00,1.00000000000000000e+00,6.00000000000000000e+00,7.00000000000000000e+00,1.10000000000000000e+01,3.00000000000000000e+00],"tree_param":{"num_deleted":"2","num_feature":"33","num_nodes":"27","size_leaf_vector":"0"}},{"base_weights":[5.55241517722606659e-02,-2.21783965826034546e-01,1.76096391677856445e+00,-5.43928965926170349e-02,-2.52090215682983398e+00,5.28281986713409424e-01,7.66023254394531250e+00,1.75147410482168198e-02,-2.50800991058349609e+00,1.49428439140319824e+00,-2.07544565200805664e-02,1.23717755079269409e-01,-1.73921370506286621e+00,-2.68848747014999390e-01,4.82352256774902344e-01],"default_left":[true,true,true,false,false,true,false,true,false,false,true,false,false,false,false],"id":35,"leaf_child_counts":[0,0,0,0,0,0,0,0,0,0,0,0,0,0,0],"left_children":[1,3,5,7,-1,9,-1,11,-1,-1,13,-1,-1,-1,-1],"loss_changes":[4.05897979736328125e+01,2.83419208526611328e+01,8.32162933349609375e+01,1.23942937850952148e+01,0.00000000000000000e+00,5.86508846282958984e+00,0.00000000000000000e+00,1.30884914398193359e+01,0.00000000000000000e+00,0.00000000000000000e+00,1.12822294235229492e+00,0.00000000000000000e+00,0.00000000000000000e+00,0.00000000000000000e+00,0.00000000000000000e+00],"parents":[2147483647,0,0,1,1,2,2,3,3,5,5,7,7,10,10],"right_children":[2,4,6,8,-1,10,-1,12,-1,-1,14,-1,-1,-1,-1],"split_conditions":[1.12549996376037598e+00,8.98999989032745361e-01,5.56052017211914062e+00,1.20000000000000000e+01,-7.56270706653594971e-01,4.04768991470336914e+00,2.29806995391845703e+00,3.05039329528808594e+01,-7.52403020858764648e-01,4.48285341262817383e-01,4.65225982666015625e+00,3.71153280138969421e-02,-5.21764159202575684e-01,-8.06546285748481750e-02,1.44705682992935181e-01],"split_indices":[2,2,0,28,0,0,0,6,0,0,0,0,0,0,0],"sum_hessian":[8.40000000000000000e+01,7.30000000000000000e+01,1.10000000000000000e+01,6.90000000000000000e+01,4.00000000000000000e+00,1.00000000000000000e+01,1.00000000000000000e+00,6.80000000000000000e+01,1.00000000000000000e+00,3.00000000000000000e+00,7.00000000000000000e+00,6.50000000000000000e+01,3.00000000000000000e+00,5.00000000000000000e+00,2.00000000000000000e+00],"tree_param":{"num_deleted":"0","num_feature":"33","num_nodes":"15","size_leaf_vector":"0"}},{"base_weights":[5.13568148016929626e-03,-1.43341377377510071e-01,1.82854866981506348e+00,-4.85062822699546814e-02,-2.75094342231750488e+00,-3.70931625366210938e-02,6.51119995117187500e+00,-1.39659667015075684e+00,1.11774243414402008e-01,-4.66456031799316406e+00,5.38145065307617188e-01,-4.07227188348770142e-01,2.49780654907226562e-01,-2.18396973609924316e+00,-3.29904377460479736e-01,2.14007332921028137e-01,-2.44723320007324219e+00,3.28025817871093750e-01,7.52258300781250000e-03],"default_left":[true,true,true,false,true,true,false,true,true,false,false,false,true,false,false,false,false,true,true],"id":36,"leaf_child_counts":[0,0,0,0,0,0,0,0,0,0,0,0,0,0,0,0,0,0,0],"left_children":[1,3,5,7,9,11,-1,13,15,-1,-1,-1,-1,-1,-1,-1,-1,-1,-1],"loss_changes":[2.51697273254394531e+01,2.11336879730224609e+01,6.13945732116699219e+01,1.83062057495117188e+01,2.13923778533935547e+01,7.38808035850524902e-01,0.00000000000000000e+00,6.83846092224121094e+00,2.04064807891845703e+01,0.00000000000000000e+00,0.00000000000000000e+00,0.00000000000000000e+00,7.33544975519180298e-02,0.00000000000000000e+00,0.00000000000000000e+00,0.00000000000000000e+00,0.00000000000000000e+00,0.00000000000000000e+00,0.00000000000000000e+00],"parents":[2147483647,0,0,1,1,2,2,3,3,4,4,5,5,7,7,8,8,12,12],"right_children":[2,4,6,8,10,12,-1,14,16,-1,-1,-1,-1,-1,-1,-1,-1,-1,-1],"split_conditions":[6.61935448646545410e-01,7.23092985153198242e+00,9.16499972343444824e-01,3.35007743835449219e+01,7.26326990127563477e+00,6.88436279296875000e+01,1.95336008071899414e+00,5.47717895507812500e+01,3.57478561401367188e+01,-1.39936816692352295e+00,1.61443531513214111e-01,-1.22168160974979401e-01,7.49341994524002075e-02,-6.55190944671630859e-01,-9.89713147282600403e-02,6.42022043466567993e-02,-7.34169960021972656e-01,9.84077528119087219e-02,2.25677504204213619e-03],"split_indices":[18,1,2,5,1,4,0,4,5,0,0,0,1,0,0,0,0,2147483647,2147483647],"sum_hessian":[9.10000000000000000e+01,8.50000000000000000e+01,6.00000000000000000e+00,8.30000000000000000e+01,2.00000000000000000e+00,5.00000000000000000e+00,1.00000000000000000e+00,8.00000000000000000e+00,7.50000000000000000e+01,1.00000000000000000e+00,1.00000000000000000e+00,2.00000000000000000e+00,3.00000000000000000e+00,4.00000000000000000e+00,4.00000000000000000e+00,7.30000000000000000e+01,2.00000000000000000e+00,2.00000000000000000e+00,1.00000000000000000e+00],"tree_param":{"num_deleted":"2","num_feature":"33","num_nodes":"19","size_leaf_vector":"0"}},{"base_weights":[1.03991389274597168e-01,-2.65570193529129028e-01,8.05218458175659180e-01,-1.18535466492176056e-01,-2.33118128776550293e+00,-2.69744154065847397e-02,2.02357530593872070e+00,-5.75344502925872803e-01,6.01623713970184326e-01,-3.41319060325622559e+00,4.57423210144042969e-01,-4.66074228286743164e-01,1.84594333171844482e+00,3.11979317665100098e+00,-3.54331970214843750e-01,2.02477931976318359e-01,-8.42117846012115479e-01,9.50319766998291016e-01,-8.43746006488800049e-01,6.73698246479034424e-01,-8.68596374988555908e-01,2.26656889915466309e+00,2.92033195495605469e-01,3.82993745803833008e+00,-1.28068065643310547e+00,-8.70199203491210938e-01,-7.81536102294921875e-03],"default_left":[true,true,true,true,true,true,true,true,true,false,false,true,true,true,true,false,false,false,false,false,false,false,false,false,false,false,false],"id":37,"leaf_child_counts":[0,0,0,0,0,0,0,0,0,0,0,0,0,0,0,0,0,0,0,0,0,0,0,0,0,0,0],"left_children":[1,3,5,7,9,11,13,15,17,-1,-1,19,21,23,25,-1,-1,-1,-1,-1,-1,-1,-1,-1,-1,-1,-1],"loss_changes":[2.40553283691406250e+01,1.82503833770751953e+01,3.24996337890625000e+01,1.94267044067382812e+01,1.36304550170898438e+01,1.73083019256591797e+01,3.49925994873046875e+01,7.64059257507324219e+00,1.23937063217163086e+01,0.00000000000000000e+00,0.00000000000000000e+00,8.38449382781982422e+00,1.95254421234130859e+00,3.30296707153320312e+01,8.86982023715972900e-01,0.00000000000000000e+00,0.00000000000000000e+00,0.00000000000000000e+00,0.00000000000000000e+00,0.00000000000000000e+00,0.00000000000000000e+00,0.00000000000000000e+00,0.00000000000000000e+00,0.00000000000000000e+00,0.00000000000000000e+00,0.00000000000000000e+00,0.00000000000000000e+00],"parents":[2147483647,0,0,1,1,2,2,3,3,4,4,5,5,6,6,7,7,8,8,11,11,12,12,13,13,14,14],"right_children":[2,4,6,8,10,12,14,16,18,-1,-1,20,22,24,26,-1,-1,-1,-1,-1,-1,-1,-1,-1,-1,-1,-1],"split_conditions":[3.73629480600357056e-02,6.85264968872070312e+00,6.52500033378601074e-01,1.65744666010141373e-02,7.26326990127563477e+00,9.88632857799530029e-01,7.33757298439741135e-03,3.66499989468138665e-05,1.83513807132840157e-03,-1.02395725250244141e+00,1.37226969003677368e-01,7.24815035937353969e-05,9.96856153011322021e-01,7.68082201480865479e-01,5.55072021484375000e+00,6.07433803379535675e-02,-2.52635359764099121e-01,2.85095930099487305e-01,-2.53123819828033447e-01,2.02109485864639282e-01,-2.60578930377960205e-01,6.79970681667327881e-01,8.76099616289138794e-02,1.14898133277893066e+00,-3.84204208850860596e-01,-2.61059761047363281e-01,-2.34460830688476562e-03],"split_indices":[30,1,2,32,1,3,29,12,30,0,0,18,3,3,1,0,0,0,0,0,0,0,0,0,0,0,0],"sum_hessian":[9.10000000000000000e+01,6.00000000000000000e+01,3.10000000000000000e+01,5.70000000000000000e+01,3.00000000000000000e+00,1.90000000000000000e+01,1.20000000000000000e+01,3.50000000000000000e+01,2.20000000000000000e+01,2.00000000000000000e+00,1.00000000000000000e+00,1.60000000000000000e+01,3.00000000000000000e+00,8.00000000000000000e+00,4.00000000000000000e+00,9.00000000000000000e+00,2.60000000000000000e+01,1.80000000000000000e+01,4.00000000000000000e+00,4.00000000000000000e+00,1.20000000000000000e+01,2.00000000000000000e+00,1.00000000000000000e+00,7.00000000000000000e+00,1.00000000000000000e+00,1.00000000000000000e+00,3.00000000000000000e+00],"tree_param":{"num_deleted":"0","num_feature":"33","num_nodes":"27","size_leaf_vector":"0"}},{"base_weights":[9.15169417858123779e-02,-1.57578796148300171e-01,9.33866620063781738e-01,5.53540810942649841e-02,-7.99633502960205078e-01,4.96002197265625000e+00,4.60909903049468994e-01,4.41380679607391357e-01,-4.91108596324920654e-01,-1.47454059123992920e+00,3.75168114900588989e-01,2.23547816276550293e+00,-1.15390419960021973e-02,6.51433885097503662e-01,-1.73626077175140381e+00,-1.83429074287414551e+00,-1.82485580444335938e-01,-1.91357135772705078e+00,-7.89753139019012451e-01,7.76283264160156250e-01,-4.18413162231445312e-01,2.72143101692199707e+00,3.88809680938720703e-01,-3.86634826660156250e-01,1.74275434017181396e+00],"default_left":[true,true,true,true,true,false,true,false,true,true,true,true,true,false,false,false,false,false,false,false,false,false,false,false,false],"id":38,"leaf_child_counts":[0,0,0,0,0,0,0,0,0,0,0,0,0,0,0,0,0,0,0,0,0,0,0,0,0],"left_children":[1,3,5,7,9,-1,11,13,15,17,19,21,23,-1,-1,-1,-1,-1,-1,-1,-1,-1,-1,-1,-1],"loss_changes":[1.84019947052001953e+01,9.34085369110107422e+00,3.57978210449218750e+01,1.11861200332641602e+01,1.40321950912475586e+01,0.00000000000000000e+00,1.59552602767944336e+01,1.53110980987548828e+01,8.78508186340332031e+00,1.79582023620605469e+00,2.55302929878234863e+00,2.53145599365234375e+00,1.12022581100463867e+01,0.00000000000000000e+00,0.00000000000000000e+00,0.00000000000000000e+00,0.00000000000000000e+00,0.00000000000000000e+00,0.00000000000000000e+00,0.00000000000000000e+00,0.00000000000000000e+00,0.00000000000000000e+00,0.00000000000000000e+00,0.00000000000000000e+00,0.00000000000000000e+00],"parents":[2147483647,0,0,1,1,2,2,3,3,4,4,6,6,7,7,8,8,9,9,10,10,11,11,12,12],"right_children":[2,4,6,8,10,-1,12,14,16,18,20,22,24,-1,-1,-1,-1,-1,-1,-1,-1,-1,-1,-1,-1],"split_conditions":[9.66758131980895996e-01,1.01510941982269287e+00,1.11176633834838867e+00,6.25789444893598557e-03,3.96062210202217102e-02,1.48800659179687500e+00,2.71120429039001465e-01,1.00000000000000000e+01,5.42966648936271667e-02,1.80478408932685852e-01,1.34809112548828125e+02,7.01581001281738281e+00,2.28643342852592468e-01,1.95430174469947815e-01,-5.20878255367279053e-01,-5.50287246704101562e-01,-5.47456778585910797e-02,-5.74071407318115234e-01,-2.36925944685935974e-01,2.32884988188743591e-01,-1.25523954629898071e-01,8.16429316997528076e-01,1.16642907261848450e-01,-1.15990452468395233e-01,5.22826313972473145e-01],"split_indices":[23,13,13,19,19,0,9,28,27,17,4,0,7,0,0,0,0,0,0,0,0,0,0,0,0],"sum_hessian":[8.60000000000000000e+01,6.70000000000000000e+01,1.90000000000000000e+01,5.10000000000000000e+01,1.60000000000000000e+01,1.00000000000000000e+00,1.80000000000000000e+01,3.00000000000000000e+01,2.10000000000000000e+01,1.00000000000000000e+01,6.00000000000000000e+00,3.00000000000000000e+00,1.50000000000000000e+01,2.80000000000000000e+01,2.00000000000000000e+00,3.00000000000000000e+00,1.80000000000000000e+01,5.00000000000000000e+00,5.00000000000000000e+00,4.00000000000000000e+00,2.00000000000000000e+00,2.00000000000000000e+00,1.00000000000000000e+00,1.30000000000000000e+01,2.00000000000000000e+00],"tree_param":{"num_deleted":"0","num_feature":"33","num_nodes":"25","size_leaf_vector":"0"}},{"base_weights":[5.39837963879108429e-02,3.31867980957031250e+00,-2.16871891170740128e-02,6.87769502401351929e-02,-2.57760882377624512e+00,1.70395404100418091e-01,-1.29759848117828369e+00,-4.19690132141113281e+00,3.30488204956054688e-01,-2.19296291470527649e-01,9.01940524578094482e-01,-1.49094808101654053e+00,-1.65425300598144531e-01],"default_left":[true,false,true,true,true,true,true,false,false,false,false,false,false],"id":39,"leaf_child_counts":[0,0,0,0,0,0,0,0,0,0,0,0,0],"left_children":[1,-1,3,5,7,9,11,-1,-1,-1,-1,-1,-1],"loss_changes":[2.18117351531982422e+01,0.00000000000000000e+00,2.02933559417724609e+01,1.20232658386230469e+01,1.55142059326171875e+01,2.30039558410644531e+01,1.06679153442382812e+00,0.00000000000000000e+00,0.00000000000000000e+00,0.00000000000000000e+00,0.00000000000000000e+00,0.00000000000000000e+00,0.00000000000000000e+00],"parents":[2147483647,0,0,2,2,3,3,4,4,5,5,6,6],"right_children":[2,-1,4,6,8,10,12,-1,-1,-1,-1,-1,-1],"split_conditions":[4.77260017395019531e+00,9.95603978633880615e-01,7.23092985153198242e+00,2.57169508934020996e+00,6.69577026367187500e+00,9.77379798889160156e-01,6.44911003112792969e+00,-1.25907039642333984e+00,9.91464629769325256e-02,-6.57888874411582947e-02,2.70582169294357300e-01,-4.47284430265426636e-01,-4.96275909245014191e-02],"split_indices":[1,0,1,11,0,26,0,0,0,0,0,0,0],"sum_hessian":[8.70000000000000000e+01,1.00000000000000000e+00,8.60000000000000000e+01,8.40000000000000000e+01,2.00000000000000000e+00,7.90000000000000000e+01,5.00000000000000000e+00,1.00000000000000000e+00,1.00000000000000000e+00,5.20000000000000000e+01,2.70000000000000000e+01,4.00000000000000000e+00,1.00000000000000000e+00],"tree_param":{"num_deleted":"0","num_feature":"33","num_nodes":"13","size_leaf_vector":"0"}},{"base_weights":[2.84826010465621948e-02,1.03884853422641754e-01,-3.56736564636230469e+00,-6.32748842239379883e-01,2.84302443265914917e-01,-8.24965238571166992e-01,1.41357278823852539e+00,5.81349074840545654e-01,-2.87315368652343750e-01,-2.27854534983634949e-01,-1.39675867557525635e+00,3.37960183620452881e-01,2.75293493270874023e+00,-9.46620881557464600e-01,1.56194970011711121e-01],"default_left":[true,true,false,true,true,true,false,true,true,false,false,false,false,false,false],"id":40,"leaf_child_counts":[0,0,0,0,0,0,0,0,0,0,0,0,0,0,0],"left_children":[1,3,-1,5,7,9,-1,11,13,-1,-1,-1,-1,-1,-1],"loss_changes":[2.63995609283447266e+01,1.28055534362792969e+01,0.00000000000000000e+00,8.63954162597656250e+00,1.32414112091064453e+01,5.82737445831298828e+00,0.00000000000000000e+00,2.60251541137695312e+01,8.04289436340332031e+00,0.00000000000000000e+00,0.00000000000000000e+00,0.00000000000000000e+00,0.00000000000000000e+00,0.00000000000000000e+00,0.00000000000000000e+00],"parents":[2147483647,0,0,1,1,3,3,4,4,5,5,7,7,8,8],"right_children":[2,4,-1,6,8,10,-1,12,14,-1,-1,-1,-1,-1,-1],"split_conditions":[7.23092985153198242e+00,7.31627456843852997e-03,-1.07020974159240723e+00,2.96755027770996094e+01,2.39130288362503052e-01,3.66499989468138665e-05,4.24071848392486572e-01,1.52725577354431152e-01,8.95541548728942871e-01,-6.83563649654388428e-02,-4.19027626514434814e-01,1.01388059556484222e-01,8.25880527496337891e-01,-2.83986270427703857e-01,4.68584932386875153e-02],"split_indices":[1,23,0,6,21,12,0,21,10,0,0,0,0,0,0],"sum_hessian":[9.50000000000000000e+01,9.40000000000000000e+01,1.00000000000000000e+00,1.80000000000000000e+01,7.60000000000000000e+01,1.70000000000000000e+01,1.00000000000000000e+00,5.00000000000000000e+01,2.60000000000000000e+01,9.00000000000000000e+00,8.00000000000000000e+00,4.60000000000000000e+01,4.00000000000000000e+00,1.00000000000000000e+01,1.60000000000000000e+01],"tree_param":{"num_deleted":"0","num_feature":"33","num_nodes":"15","size_leaf_vector":"0"}},{"base_weights":[-3.42704448848962784e-03,1.29858493804931641e-01,-1.21742570400238037e+00,1.63010880351066589e-02,2.34015274047851562e+00,-2.43933701515197754e+00,-1.99913814663887024e-01,1.56718659400939941e+00,-6.55389502644538879e-02,3.14000439643859863e+00,-2.97012329101562500e-02,1.03977009654045105e-01,-8.59683990478515625e-01,1.75230979919433594e-01,2.87152671813964844e+00,-1.24421274662017822e+00,5.32646924257278442e-02,2.96489387750625610e-01,-1.23194374144077301e-01],"default_left":[true,true,true,true,true,false,true,true,true,false,false,true,false,false,false,false,false,true,true],"id":41,"leaf_child_counts":[0,0,0,0,0,0,0,0,0,0,0,0,0,0,0,0,0,0,0],"left_children":[1,3,5,7,9,-1,11,13,15,-1,-1,-1,-1,-1,-1,-1,-1,-1,-1],"loss_changes":[1.47208557128906250e+01,2.05434684753417969e+01,1.07021265029907227e+01,1.01297492980957031e+01,7.67538833618164062e+00,0.00000000000000000e+00,1.29237604141235352e+00,6.75915336608886719e+00,1.07086086273193359e+01,0.00000000000000000e+00,0.00000000000000000e+00,2.55192339420318604e-01,0.00000000000000000e+00,0.00000000000000000e+00,0.00000000000000000e+00,0.00000000000000000e+00,0.00000000000000000e+00,0.00000000000000000e+00,0.00000000000000000e+00],"parents":[2147483647,0,0,1,1,2,2,3,3,4,4,6,6,7,7,8,8,11,11],"right_children":[2,4,6,8,10,-1,12,14,16,-1,-1,-1,-1,-1,-1,-1,-1,-1,-1],"split_conditions":[1.24000000953674316e+00,1.13999998569488525e+00,1.45000004768371582e+00,