{"learner":{"attributes":{"scikit_learn":"{\"n_estimators\": 100, \"objective\": \"binary:logistic\", \"max_depth\": 6, \"learning_rate\": null, \"verbosity\": null, \"booster\": null, \"tree_method\": null, \"gamma\": 0.3, \"min_child_weight\": null, \"max_delta_step\": null, \"subsample\": 0.8, \"colsample_bytree\": 0.75, \"colsample_bylevel\": null, \"colsample_bynode\": null, \"reg_alpha\": null, \"reg_lambda\": null, \"scale_pos_weight\": null, \"base_score\": null, \"missing\": NaN, \"num_parallel_tree\": null, \"kwargs\": {}, \"random_state\": null, \"n_jobs\": null, \"monotone_constraints\": null, \"interaction_constraints\": null, \"importance_type\": \"gain\", \"gpu_id\": null, \"validate_parameters\": null, \"classes_\": [false, true], \"n_classes_\": 2, \"_le\": {\"classes_\": [false, true]}, \"_features_count\": 35, \"type\": \"XGBClassifier\"}"},"gradient_booster":{"model":{"gbtree_model_param":{"num_trees":"100","size_leaf_vector":"0"},"tree_info":[0,0,0,0,0,0,0,0,0,0,0,0,0,0,0,0,0,0,0,0,0,0,0,0,0,0,0,0,0,0,0,0,0,0,0,0,0,0,0,0,0,0,0,0,0,0,0,0,0,0,0,0,0,0,0,0,0,0,0,0,0,0,0,0,0,0,0,0,0,0,0,0,0,0,0,0,0,0,0,0,0,0,0,0,0,0,0,0,0,0,0,0,0,0,0,0,0,0,0,0],"trees":[{"base_weights":[-1.62886595726013184e+00,-0.00000000000000000e+00,-1.77528095245361328e+00,-1.00000000000000000e+00,1.00000000000000000e+00,-1.81176471710205078e+00,-5.00000000000000000e-01,-5.00000000000000000e-01,-1.85185182094573975e+00],"default_left":[true,true,true,false,false,true,true,true,true],"id":0,"leaf_child_counts":[0,0,0,0,0,0,0,0,0],"left_children":[1,3,-1,-1,-1,-1,-1,-1,-1],"loss_changes":[5.78338623046875000e+00,4.00000000000000000e+00,1.29348754882812500e-01,0.00000000000000000e+00,0.00000000000000000e+00,1.91497802734375000e-01,0.00000000000000000e+00,0.00000000000000000e+00,0.00000000000000000e+00],"parents":[2147483647,0,0,1,1,2,2,5,5],"right_children":[2,4,-1,-1,-1,-1,-1,-1,-1],"split_conditions":[4.17434024810791016e+00,3.83968997001647949e+00,-5.32584309577941895e-01,-3.00000011920928955e-01,3.00000011920928955e-01,-5.43529450893402100e-01,-1.50000005960464478e-01,-1.50000005960464478e-01,-5.55555582046508789e-01],"split_indices":[0,0,14,0,0,2147483647,2147483647,2147483647,2147483647],"sum_hessian":[2.32500000000000000e+01,2.00000000000000000e+00,2.12500000000000000e+01,1.00000000000000000e+00,1.00000000000000000e+00,2.02500000000000000e+01,1.00000000000000000e+00,1.00000000000000000e+00,1.92500000000000000e+01],"tree_param":{"num_deleted":"4","num_feature":"35","num_nodes":"9","size_leaf_vector":"0"}},{"base_weights":[-1.19326293468475342e+00,-0.00000000000000000e+00,-1.30929219722747803e+00,-1.39540541172027588e+00,-9.15109217166900635e-02,-1.43966090679168701e+00,-3.92341375350952148e-01,-3.92341375350952148e-01,-1.49021244049072266e+00],"default_left":[true,false,true,true,false,true,false,false,false],"id":1,"leaf_child_counts":[0,0,0,0,0,0,0,0,0],"left_children":[1,-1,3,5,-1,7,-1,-1,-1],"loss_changes":[3.05539703369140625e+00,0.00000000000000000e+00,1.98143005371093750e+00,2.65892028808593750e-01,0.00000000000000000e+00,3.44406127929687500e-01,0.00000000000000000e+00,0.00000000000000000e+00,0.00000000000000000e+00],"parents":[2147483647,0,0,2,2,3,3,5,5],"right_children":[2,-1,4,6,-1,8,-1,-1,-1],"split_conditions":[4.17434024810791016e+00,-0.00000000000000000e+00,1.07764458656311035e+00,6.88057994842529297e+00,-2.74532772600650787e-02,3.66499989468138665e-05,-1.17702417075634003e-01,-1.17702417075634003e-01,-4.47063744068145752e-01],"split_indices":[0,0,34,1,0,16,0,0,0],"sum_hessian":[2.10680408477783203e+01,1.95566654205322266e+00,1.91123733520507812e+01,1.77139072418212891e+01,1.39846634864807129e+00,1.65485191345214844e+01,1.16538870334625244e+00,1.16538870334625244e+00,1.53831300735473633e+01],"tree_param":{"num_deleted":"0","num_feature":"35","num_nodes":"9","size_leaf_vector":"0"}},{"base_weights":[-1.02071738243103027e+00,-1.11570465564727783e+00,-1.18252955377101898e-01,-1.24361944198608398e+00,-5.64528763294219971e-01,2.79935061931610107e-01,-8.41551244258880615e-01,-2.24860191345214844e-01,-9.73298549652099609e-01],"default_left":[true,true,false,false,false,false,true,true,true],"id":2,"leaf_child_counts":[0,0,0,0,0,0,0,0,0],"left_children":[1,3,-1,-1,5,-1,-1,-1,-1],"loss_changes":[1.54173088073730469e+00,5.35022735595703125e-01,0.00000000000000000e+00,0.00000000000000000e+00,1.43715763092041016e+00,0.00000000000000000e+00,1.15657567977905273e-01,0.00000000000000000e+00,0.00000000000000000e+00],"parents":[2147483647,0,0,1,1,4,4,6,6],"right_children":[2,4,-1,-1,6,-1,-1,-1,-1],"split_conditions":[1.15149998664855957e+00,9.05218124389648438e-01,-3.54758873581886292e-02,-3.73085856437683105e-01,3.43681869506835938e+01,8.39805230498313904e-02,-2.52465397119522095e-01,-6.74580633640289307e-02,-2.91989564895629883e-01],"split_indices":[2,3,0,0,7,0,3,2147483647,2147483647],"sum_hessian":[1.85242080688476562e+01,1.65463638305664062e+01,1.97784411907196045e+00,1.24099979400634766e+01,4.13636541366577148e+00,1.01914167404174805e+00,3.11722373962402344e+00,1.02519261837005615e+00,2.09203124046325684e+00],"tree_param":{"num_deleted":"2","num_feature":"35","num_nodes":"9","size_leaf_vector":"0"}},{"base_weights":[-8.36210072040557861e-01,8.91380012035369873e-02,-1.02601647377014160e+00,-3.46558451652526855e-01,6.43752276897430420e-01,-2.06348940730094910e-01,-1.13334083557128906e+00,-1.20261645317077637e+00,-2.10273742675781250e-01],"default_left":[true,true,false,false,false,false,true,false,false],"id":3,"leaf_child_counts":[0,0,0,0,0,0,0,0,0],"left_children":[1,3,5,-1,-1,-1,7,-1,-1],"loss_changes":[3.11360931396484375e+00,1.15312945842742920e+00,1.02921772003173828e+00,0.00000000000000000e+00,0.00000000000000000e+00,0.00000000000000000e+00,5.44727325439453125e-01,0.00000000000000000e+00,0.00000000000000000e+00],"parents":[2147483647,0,0,1,1,2,2,6,6],"right_children":[2,4,6,-1,-1,-1,8,-1,-1],"split_conditions":[5.31307029724121094e+00,6.34850412607192993e-02,2.40454635620117188e+01,-1.03967539966106415e-01,1.93125694990158081e-01,-6.19046837091445923e-02,2.91261005401611328e+01,-3.60784947872161865e-01,-6.30821287631988525e-02],"split_indices":[1,19,6,0,0,0,6,0,0],"sum_hessian":[1.62068099975585938e+01,2.84877586364746094e+00,1.33580331802368164e+01,1.80552172660827637e+00,1.04325401782989502e+00,1.88493156433105469e+00,1.14731016159057617e+01,1.03904561996459961e+01,1.08264565467834473e+00],"tree_param":{"num_deleted":"0","num_feature":"35","num_nodes":"9","size_leaf_vector":"0"}},{"base_weights":[-7.03194200992584229e-01,-8.44004154205322266e-01,-3.54706309735774994e-03,-9.36370253562927246e-01,-3.29758584499359131e-01,7.64395236968994141e-01,-7.64958262443542480e-01,-1.00438237190246582e+00,-1.62215203046798706e-01,2.66013979911804199e-01,-7.15101599693298340e-01],"default_left":[true,true,true,true,true,false,false,false,false,false,false],"id":4,"leaf_child_counts":[0,0,0,0,0,0,0,0,0,0,0],"left_children":[1,3,5,7,9,-1,-1,-1,-1,-1,-1],"loss_changes":[1.47394800186157227e+00,2.83808708190917969e-01,2.64056253433227539e+00,3.65306854248046875e-01,9.80714797973632812e-01,0.00000000000000000e+00,0.00000000000000000e+00,0.00000000000000000e+00,0.00000000000000000e+00,0.00000000000000000e+00,0.00000000000000000e+00],"parents":[2147483647,0,0,1,1,2,2,3,3,4,4],"right_children":[2,4,6,8,10,-1,-1,-1,-1,-1,-1],"split_conditions":[1.06449997425079346e+00,2.87024288177490234e+01,1.31700003147125244e+00,6.50000000000000000e+00,-3.10000013560056686e-02,2.29318574070930481e-01,-2.29487493634223938e-01,-3.01314711570739746e-01,-4.86645624041557312e-02,7.98041969537734985e-02,-2.14530482888221741e-01],"split_indices":[2,8,2,30,2,0,0,0,0,0,0],"sum_hessian":[1.39917030334472656e+01,1.14757766723632812e+01,2.51592659950256348e+00,9.03253746032714844e+00,2.44323897361755371e+00,1.25064003467559814e+00,1.26528668403625488e+00,8.02970886230468750e+00,1.00282859802246094e+00,1.08123254776000977e+00,1.36200654506683350e+00],"tree_param":{"num_deleted":"0","num_feature":"35","num_nodes":"11","size_leaf_vector":"0"}},{"base_weights":[-5.38302958011627197e-01,3.61390739679336548e-01,-7.50772774219512939e-01,-3.06724548339843750e-01,8.50663781166076660e-01,-8.86734127998352051e-01,1.66264891624450684e-01,-1.29435911774635315e-01,-1.03191471099853516e+00],"default_left":[true,true,true,false,false,false,false,false,false],"id":5,"leaf_child_counts":[0,0,0,0,0,0,0,0,0],"left_children":[1,3,5,-1,-1,7,-1,-1,-1],"loss_changes":[2.81623196601867676e+00,1.31299209594726562e+00,1.53073978424072266e+00,0.00000000000000000e+00,0.00000000000000000e+00,9.46101665496826172e-01,0.00000000000000000e+00,0.00000000000000000e+00,0.00000000000000000e+00],"parents":[2147483647,0,0,1,1,2,2,5,5],"right_children":[2,4,6,-1,-1,8,-1,-1,-1],"split_conditions":[5.31307029724121094e+00,8.76897014677524567e-04,9.53361868858337402e-01,-9.20173674821853638e-02,2.55199134349822998e-01,2.40454635620117188e+01,4.98794689774513245e-02,-3.88307757675647736e-02,-3.09574425220489502e-01],"split_indices":[1,19,21,0,0,6,0,0,0],"sum_hessian":[1.23131361007690430e+01,2.21842265129089355e+00,1.00947132110595703e+01,1.09553790092468262e+00,1.12288475036621094e+00,8.82008075714111328e+00,1.27463269233703613e+00,1.72316586971282959e+00,7.09691476821899414e+00],"tree_param":{"num_deleted":"0","num_feature":"35","num_nodes":"9","size_leaf_vector":"0"}},{"base_weights":[-6.51725828647613525e-01,1.37772632297128439e-03,-8.22878897190093994e-01,4.94155168533325195e-01,-5.73735296726226807e-01,7.04669654369354248e-02,-1.00811910629272461e+00],"default_left":[true,false,true,false,false,false,false],"id":6,"leaf_child_counts":[0,0,0,0,0,0,0],"left_children":[1,3,5,-1,-1,-1,-1],"loss_changes":[1.28014135360717773e+00,1.23978066444396973e+00,1.57162523269653320e+00,0.00000000000000000e+00,0.00000000000000000e+00,0.00000000000000000e+00,0.00000000000000000e+00],"parents":[2147483647,0,0,1,1,2,2],"right_children":[2,4,6,-1,-1,-1,-1],"split_conditions":[3.58500976562500000e+01,7.14729003906250000e+01,4.10132980346679688e+00,1.48246556520462036e-01,-1.72120600938796997e-01,2.11400911211967468e-02,-3.02435755729675293e-01],"split_indices":[4,7,0,0,0,0,0],"sum_hessian":[1.04421186447143555e+01,2.37423133850097656e+00,8.06788635253906250e+00,1.35445475578308105e+00,1.01977670192718506e+00,1.49201822280883789e+00,6.57586860656738281e+00],"tree_param":{"num_deleted":"0","num_feature":"35","num_nodes":"7","size_leaf_vector":"0"}},{"base_weights":[-5.19803285598754883e-01,1.90885663032531738e-01,-6.99603199958801270e-01,-8.81036520004272461e-01,3.56273084878921509e-01,-1.35440051555633545e-01,-9.70686674118041992e-01],"default_left":[true,false,true,true,false,false,false],"id":7,"leaf_child_counts":[0,0,0,0,0,0,0],"left_children":[1,-1,3,5,-1,-1,-1],"loss_changes":[1.51715064048767090e+00,0.00000000000000000e+00,2.01043796539306641e+00,3.92933368682861328e-01,0.00000000000000000e+00,0.00000000000000000e+00,0.00000000000000000e+00],"parents":[2147483647,0,0,2,2,3,3],"right_children":[2,-1,4,6,-1,-1,-1],"split_conditions":[5.31307029724121094e+00,5.72657026350498199e-02,9.53361868858337402e-01,4.91194752976298332e-03,1.06881931424140930e-01,-4.06320169568061829e-02,-2.91206002235412598e-01],"split_indices":[1,0,21,28,0,0,0],"sum_hessian":[9.82788276672363281e+00,1.97191309928894043e+00,7.85597038269042969e+00,6.84531354904174805e+00,1.01065647602081299e+00,1.00422263145446777e+00,5.84109115600585938e+00],"tree_param":{"num_deleted":"0","num_feature":"35","num_nodes":"7","size_leaf_vector":"0"}},{"base_weights":[-3.11420410871505737e-01,-6.68534636497497559e-01,6.19706273078918457e-01,5.89616782963275909e-02,-8.43180537223815918e-01,-9.24516141414642334e-01,-2.39506468176841736e-01],"default_left":[true,false,false,false,true,true,true],"id":8,"leaf_child_counts":[0,0,0,0,0,0,0],"left_children":[1,3,-1,-1,-1,-1,-1],"loss_changes":[3.39423513412475586e+00,9.33820486068725586e-01,0.00000000000000000e+00,0.00000000000000000e+00,5.73019981384277344e-02,0.00000000000000000e+00,0.00000000000000000e+00],"parents":[2147483647,0,0,1,1,4,4],"right_children":[2,4,-1,-1,-1,-1,-1],"split_conditions":[7.54991099238395691e-02,3.41325035095214844e+01,1.85911893844604492e-01,1.76885034888982773e-02,-2.52954185009002686e-01,-2.77354866266250610e-01,-7.18519464135169983e-02],"split_indices":[19,7,0,0,6,2147483647,2147483647],"sum_hessian":[7.96172571182250977e+00,5.95848751068115234e+00,2.00323820114135742e+00,1.28173780441284180e+00,4.67674970626831055e+00,3.65307307243347168e+00,1.02367651462554932e+00],"tree_param":{"num_deleted":"2","num_feature":"35","num_nodes":"7","size_leaf_vector":"0"}},{"base_weights":[-3.69649499654769897e-01,-8.24477314949035645e-01,-3.09672914445400238e-02,-3.16387802362442017e-01,4.95368510484695435e-01,3.57310086488723755e-01,-6.05430603027343750e-01,-7.05904483795166016e-01,-1.84980705380439758e-01],"default_left":[true,false,true,true,false,false,false,true,true],"id":9,"leaf_child_counts":[0,0,0,0,0,0,0,0,0],"left_children":[1,-1,3,5,-1,-1,-1,-1,-1],"loss_changes":[1.33788824081420898e+00,0.00000000000000000e+00,1.07495522499084473e+00,1.10688936710357666e+00,0.00000000000000000e+00,0.00000000000000000e+00,2.02946662902832031e-02,0.00000000000000000e+00,0.00000000000000000e+00],"parents":[2147483647,0,0,2,2,3,3,6,6],"right_children":[2,-1,4,6,-1,-1,-1,-1,-1],"split_conditions":[4.76763546466827393e-01,-2.47343197464942932e-01,7.39499986171722412e-01,8.21287091821432114e-03,1.48610562086105347e-01,1.07193030416965485e-01,-1.81629180908203125e-01,-2.11771354079246521e-01,-5.54942153394222260e-02],"split_indices":[3,0,2,24,0,0,5,2147483647,2147483647],"sum_hessian":[7.85095834732055664e+00,2.73869872093200684e+00,5.11225986480712891e+00,3.57337927818298340e+00,1.53888034820556641e+00,1.00192320346832275e+00,2.57145595550537109e+00,1.52750539779663086e+00,1.04395067691802979e+00],"tree_param":{"num_deleted":"2","num_feature":"35","num_nodes":"9","size_leaf_vector":"0"}},{"base_weights":[-4.06820327043533325e-01,-7.00766623020172119e-01,1.84330150485038757e-01,-1.16392746567726135e-01,-8.24448227882385254e-01,5.68784117698669434e-01,-2.84748673439025879e-01],"default_left":[true,true,true,true,true,false,false],"id":10,"leaf_child_counts":[0,0,0,0,0,0,0],"left_children":[1,-1,5,-1,-1,-1,-1],"loss_changes":[1.35015320777893066e+00,2.58284807205200195e-01,7.25575685501098633e-01,0.00000000000000000e+00,0.00000000000000000e+00,0.00000000000000000e+00,0.00000000000000000e+00],"parents":[2147483647,0,0,1,1,2,2],"right_children":[2,-1,6,-1,-1,-1,-1],"split_conditions":[7.39499986171722412e-01,-2.10229992866516113e-01,1.21050000190734863e+00,-3.49178239703178406e-02,-2.47334480285644531e-01,1.70635238289833069e-01,-8.54246020317077637e-02],"split_indices":[2,11,2,2147483647,2147483647,0,0],"sum_hessian":[6.02656030654907227e+00,3.90125465393066406e+00,2.12530565261840820e+00,1.02052450180053711e+00,2.88073015213012695e+00,1.05119645595550537e+00,1.07410919666290283e+00],"tree_param":{"num_deleted":"2","num_feature":"35","num_nodes":"7","size_leaf_vector":"0"}},{"base_weights":[-1.09240226447582245e-01,-4.38524544239044189e-01,4.86853003501892090e-01,5.25479130446910858e-02,-6.88150763511657715e-01,8.34958195686340332e-01,-1.13970831036567688e-01],"default_left":[true,true,true,false,false,false,false],"id":11,"leaf_child_counts":[0,0,0,0,0,0,0],"left_children":[1,3,5,-1,-1,-1,-1],"loss_changes":[1.78103899955749512e+00,7.31270074844360352e-01,7.88626253604888916e-01,0.00000000000000000e+00,0.00000000000000000e+00,0.00000000000000000e+00,0.00000000000000000e+00],"parents":[2147483647,0,0,1,1,2,2],"right_children":[2,4,6,-1,-1,-1,-1],"split_conditions":[6.00064210593700409e-02,1.77966821938753128e-02,1.54503494501113892e-01,1.57643742859363556e-02,-2.06445232033729553e-01,2.50487476587295532e-01,-3.41912508010864258e-02],"split_indices":[20,25,33,0,0,0,0],"sum_hessian":[6.98608493804931641e+00,4.67044687271118164e+00,2.31563806533813477e+00,1.84007906913757324e+00,2.83036756515502930e+00,1.21943390369415283e+00,1.09620428085327148e+00],"tree_param":{"num_deleted":"0","num_feature":"35","num_nodes":"7","size_leaf_vector":"0"}},{"base_weights":[-3.98156523704528809e-01,1.68642431497573853e-01,-6.77400887012481689e-01,-1.68449252843856812e-01,4.32555317878723145e-01,-6.48795664310455322e-02,-8.16120803356170654e-01],"default_left":[true,true,false,false,false,false,false],"id":12,"leaf_child_counts":[0,0,0,0,0,0,0],"left_children":[1,3,5,-1,-1,-1,-1],"loss_changes":[1.26263082027435303e+00,3.57141315937042236e-01,3.77009391784667969e-01,0.00000000000000000e+00,0.00000000000000000e+00,0.00000000000000000e+00,0.00000000000000000e+00],"parents":[2147483647,0,0,1,1,2,2],"right_children":[2,4,6,-1,-1,-1,-1],"split_conditions":[5.31307029724121094e+00,5.13471031188964844e+00,3.38982162475585938e+01,-5.05347773432731628e-02,1.29766598343849182e-01,-1.94638706743717194e-02,-2.44836255908012390e-01],"split_indices":[1,1,5,0,0,0,0],"sum_hessian":[6.25565719604492188e+00,2.19546556472778320e+00,4.06019210815429688e+00,1.12291204929351807e+00,1.07255351543426514e+00,1.02074921131134033e+00,3.03944277763366699e+00],"tree_param":{"num_deleted":"0","num_feature":"35","num_nodes":"7","size_leaf_vector":"0"}},{"base_weights":[-6.45751282572746277e-02,-3.98318499326705933e-01,4.09699976444244385e-01,2.38365590572357178e-01,-7.28340387344360352e-01,-6.12227879464626312e-02,7.14896738529205322e-01],"default_left":[true,true,true,false,false,false,false],"id":13,"leaf_child_counts":[0,0,0,0,0,0,0],"left_children":[1,3,5,-1,-1,-1,-1],"loss_changes":[1.20430052280426025e+00,1.09135317802429199e+00,5.05075693130493164e-01,0.00000000000000000e+00,0.00000000000000000e+00,0.00000000000000000e+00,0.00000000000000000e+00],"parents":[2147483647,0,0,1,1,2,2],"right_children":[2,4,6,-1,-1,-1,-1],"split_conditions":[7.39499986171722412e-01,6.32977951318025589e-03,1.83202713727951050e-01,7.15096816420555115e-02,-2.18502119183540344e-01,-1.83668378740549088e-02,2.14469030499458313e-01],"split_indices":[2,24,11,0,0,0,0],"sum_hessian":[5.57738637924194336e+00,3.36771059036254883e+00,2.20967602729797363e+00,1.24450922012329102e+00,2.12320113182067871e+00,1.18327128887176514e+00,1.02640485763549805e+00],"tree_param":{"num_deleted":"0","num_feature":"35","num_nodes":"7","size_leaf_vector":"0"}},{"base_weights":[2.97700315713882446e-02,-3.85229825973510742e-01,5.80904126167297363e-01,8.00948217511177063e-02,-6.07237100601196289e-01,1.11330419778823853e-01,7.87466764450073242e-01],"default_left":[true,true,true,false,false,true,true],"id":14,"leaf_child_counts":[0,0,0,0,0,0,0],"left_children":[1,3,-1,-1,-1,-1,-1],"loss_changes":[1.68321287631988525e+00,4.86780047416687012e-01,2.16861367225646973e-01,0.00000000000000000e+00,0.00000000000000000e+00,0.00000000000000000e+00,0.00000000000000000e+00],"parents":[2147483647,0,0,1,1,2,2],"right_children":[2,4,-1,-1,-1,-1,-1],"split_conditions":[9.77379798889160156e-01,5.57742004394531250e+01,1.74271240830421448e-01,2.40284483879804611e-02,-1.82171136140823364e-01,3.33991274237632751e-02,2.36240044236183167e-01],"split_indices":[28,4,33,0,0,2147483647,2147483647],"sum_hessian":[5.38084793090820312e+00,3.24124121665954590e+00,2.13960671424865723e+00,1.25338530540466309e+00,1.98785591125488281e+00,1.12382030487060547e+00,1.01578640937805176e+00],"tree_param":{"num_deleted":"2","num_feature":"35","num_nodes":"7","size_leaf_vector":"0"}},{"base_weights":[-9.03136283159255981e-02,-4.84395205974578857e-01,5.47590911388397217e-01,3.97579967975616455e-02,-7.30558872222900391e-01,7.22624897956848145e-01,9.83828082680702209e-02],"default_left":[true,true,true,false,false,true,true],"id":15,"leaf_child_counts":[0,0,0,0,0,0,0],"left_children":[1,3,-1,-1,-1,-1,-1],"loss_changes":[1.94945859909057617e+00,6.31850242614746094e-01,1.66969537734985352e-01,0.00000000000000000e+00,0.00000000000000000e+00,0.00000000000000000e+00,0.00000000000000000e+00],"parents":[2147483647,0,0,1,1,2,2],"right_children":[2,4,-1,-1,-1,-1,-1],"split_conditions":[6.00064210593700409e-02,5.33218002319335938e+00,1.64277285337448120e-01,1.19273997843265533e-02,-2.19167664647102356e-01,2.16787472367286682e-01,2.95148435980081558e-02],"split_indices":[20,1,11,0,0,2147483647,2147483647],"sum_hessian":[5.69967842102050781e+00,3.67190980911254883e+00,2.02776861190795898e+00,1.44135022163391113e+00,2.23055982589721680e+00,1.02119541168212891e+00,1.00657308101654053e+00],"tree_param":{"num_deleted":"2","num_feature":"35","num_nodes":"7","size_leaf_vector":"0"}},{"base_weights":[-1.91822387278079987e-02,2.10642457008361816e-01,-5.53725838661193848e-01,-2.73081302642822266e-01,8.51265430450439453e-01,-6.59857332706451416e-01,3.38445395231246948e-01],"default_left":[true,true,false,true,false,false,false],"id":16,"leaf_child_counts":[0,0,0,0,0,0,0],"left_children":[1,3,-1,5,-1,-1,-1],"loss_changes":[8.50172996520996094e-01,1.75091326236724854e+00,0.00000000000000000e+00,1.06275761127471924e+00,0.00000000000000000e+00,0.00000000000000000e+00,0.00000000000000000e+00],"parents":[2147483647,0,0,1,1,3,3],"right_children":[2,4,-1,6,-1,-1,-1],"split_conditions":[3.17469954490661621e-01,5.42259737849235535e-02,-1.66117757558822632e-01,8.89045059680938721e-01,2.55379647016525269e-01,-1.97957202792167664e-01,1.01533621549606323e-01],"split_indices":[23,32,0,3,0,0,0],"sum_hessian":[4.97091484069824219e+00,3.90004634857177734e+00,1.07086849212646484e+00,2.54903674125671387e+00,1.35100984573364258e+00,1.51304125785827637e+00,1.03599536418914795e+00],"tree_param":{"num_deleted":"0","num_feature":"35","num_nodes":"7","size_leaf_vector":"0"}},{"base_weights":[-3.64762187004089355e-01,1.11329525709152222e-01,-7.30025053024291992e-01],"default_left":[true,false,false],"id":17,"leaf_child_counts":[0,0,0],"left_children":[1,-1,-1],"loss_changes":[9.26737308502197266e-01,0.00000000000000000e+00,0.00000000000000000e+00],"parents":[2147483647,0,0],"right_children":[2,-1,-1],"split_conditions":[3.69857609272003174e-01,3.33988592028617859e-02,-2.19007521867752075e-01],"split_indices":[26,0,0],"sum_hessian":[3.86182117462158203e+00,1.97837281227111816e+00,1.88344824314117432e+00],"tree_param":{"num_deleted":"0","num_feature":"35","num_nodes":"3","size_leaf_vector":"0"}},{"base_weights":[2.02953070402145386e-02,3.16393285989761353e-01,-5.90783536434173584e-01,-2.39686444401741028e-01,5.50272107124328613e-01,1.33757799863815308e-01,8.02084088325500488e-01],"default_left":[true,true,false,false,true,true,true],"id":18,"leaf_child_counts":[0,0,0,0,0,0,0],"left_children":[1,3,-1,-1,-1,-1,-1],"loss_changes":[1.24654865264892578e+00,7.29632735252380371e-01,0.00000000000000000e+00,0.00000000000000000e+00,2.63869166374206543e-01,0.00000000000000000e+00,0.00000000000000000e+00],"parents":[2147483647,0,0,1,1,4,4],"right_children":[2,4,-1,-1,-1,-1,-1],"split_conditions":[9.26643753051757812e+01,2.66085090637207031e+01,-1.77235066890716553e-01,-7.19059333205223083e-02,1.65081635117530823e-01,4.01273407042026520e-02,2.40625232458114624e-01],"split_indices":[4,4,0,0,1,2147483647,2147483647],"sum_hessian":[4.85626935958862305e+00,3.59604549407958984e+00,1.26022386550903320e+00,1.05731034278869629e+00,2.53873515129089355e+00,1.53346300125122070e+00,1.00527215003967285e+00],"tree_param":{"num_deleted":"2","num_feature":"35","num_nodes":"7","size_leaf_vector":"0"}},{"base_weights":[-1.95771351456642151e-01,-5.01190245151519775e-01,2.36184448003768921e-01,-6.21439695358276367e-01,-1.06704793870449066e-01],"default_left":[true,true,false,true,true],"id":19,"leaf_child_counts":[0,0,0,0,0],"left_children":[1,-1,-1,-1,-1],"loss_changes":[8.12972962856292725e-01,9.51903462409973145e-02,0.00000000000000000e+00,0.00000000000000000e+00,0.00000000000000000e+00],"parents":[2147483647,0,0,1,1],"right_children":[2,-1,-1,-1,-1],"split_conditions":[7.39499986171722412e-01,-1.50357082486152649e-01,7.08553344011306763e-02,-1.86431914567947388e-01,-3.20114381611347198e-02],"split_indices":[2,6,0,2147483647,2147483647],"sum_hessian":[4.26501178741455078e+00,2.40456056594848633e+00,1.86045098304748535e+00,1.40190589427947998e+00,1.00265467166900635e+00],"tree_param":{"num_deleted":"2","num_feature":"35","num_nodes":"5","size_leaf_vector":"0"}},{"base_weights":[1.66328117251396179e-01,-2.31481999158859253e-01,5.41918814182281494e-01,1.41964510083198547e-01,-4.82255905866622925e-01],"default_left":[true,true,false,false,false],"id":20,"leaf_child_counts":[0,0,0,0,0],"left_children":[1,3,-1,-1,-1],"loss_changes":[9.21844840049743652e-01,3.76500070095062256e-01,0.00000000000000000e+00,0.00000000000000000e+00,0.00000000000000000e+00],"parents":[2147483647,0,0,1,1],"right_children":[2,4,-1,-1,-1],"split_conditions":[9.77379798889160156e-01,4.43440978415310383e-04,1.62575647234916687e-01,4.25893552601337433e-02,-1.44676774740219116e-01],"split_indices":[28,24,0,0,0],"sum_hessian":[4.33016729354858398e+00,2.28921294212341309e+00,2.04095435142517090e+00,1.09397935867309570e+00,1.19523346424102783e+00],"tree_param":{"num_deleted":"0","num_feature":"35","num_nodes":"5","size_leaf_vector":"0"}},{"base_weights":[1.12780481576919556e-01,4.77943509817123413e-01,-3.00094604492187500e-01,6.72565162181854248e-01,5.60231134295463562e-02,-5.84185004234313965e-01,1.32852599024772644e-01],"default_left":[false,true,false,true,true,false,false],"id":21,"leaf_child_counts":[0,0,0,0,0,0,0],"left_children":[1,-1,5,-1,-1,-1,-1],"loss_changes":[9.15398418903350830e-01,2.17111051082611084e-01,4.48744446039199829e-01,0.00000000000000000e+00,0.00000000000000000e+00,0.00000000000000000e+00,0.00000000000000000e+00],"parents":[2147483647,0,0,1,1,2,2],"right_children":[2,-1,6,-1,-1,-1,-1],"split_conditions":[3.47687149047851562e+01,1.43383055925369263e-01,3.54742050170898438e+01,2.01769560575485229e-01,1.68069340288639069e-02,-1.75255507230758667e-01,3.98557819426059723e-02],"split_indices":[5,21,5,2147483647,2147483647,0,0],"sum_hessian":[4.12029647827148438e+00,2.10285234451293945e+00,2.01744389533996582e+00,1.03251922130584717e+00,1.07033312320709229e+00,1.00721216201782227e+00,1.01023185253143311e+00],"tree_param":{"num_deleted":"2","num_feature":"35","num_nodes":"7","size_leaf_vector":"0"}},{"base_weights":[-6.20935522019863129e-02,-3.59747320413589478e-01,3.92805695533752441e-01,-6.05649888515472412e-01,1.88138559460639954e-01],"default_left":[true,true,false,false,false],"id":22,"leaf_child_counts":[0,0,0,0,0],"left_children":[1,3,-1,-1,-1],"loss_changes":[9.19910132884979248e-01,6.52562677860260010e-01,0.00000000000000000e+00,0.00000000000000000e+00,0.00000000000000000e+00],"parents":[2147483647,0,0,1,1],"right_children":[2,4,-1,-1,-1],"split_conditions":[7.54991099238395691e-02,2.83272628784179688e+01,1.17841713130474091e-01,-1.81694969534873962e-01,5.64415715634822845e-02],"split_indices":[19,6,0,0,0],"sum_hessian":[4.75025987625122070e+00,2.99785065650939941e+00,1.75240910053253174e+00,1.99639582633972168e+00,1.00145471096038818e+00],"tree_param":{"num_deleted":"0","num_feature":"35","num_nodes":"5","size_leaf_vector":"0"}},{"base_weights":[2.04098951071500778e-02,4.65835124254226685e-01,-2.83255249261856079e-01,-6.19694173336029053e-01,1.52774721384048462e-01],"default_left":[true,false,true,false,false],"id":23,"leaf_child_counts":[0,0,0,0,0],"left_children":[1,-1,3,-1,-1],"loss_changes":[8.58570218086242676e-01,0.00000000000000000e+00,6.54498457908630371e-01,0.00000000000000000e+00,0.00000000000000000e+00],"parents":[2147483647,0,0,2,2],"right_children":[2,-1,4,-1,-1],"split_conditions":[6.32977951318025589e-03,1.39750540256500244e-01,3.72520252130925655e-03,-1.85908257961273193e-01,4.58324179053306580e-02],"split_indices":[24,0,18,0,0],"sum_hessian":[4.37201976776123047e+00,1.55583369731903076e+00,2.81618618965148926e+00,1.35186970233917236e+00,1.46431636810302734e+00],"tree_param":{"num_deleted":"0","num_feature":"35","num_nodes":"5","size_leaf_vector":"0"}},{"base_weights":[-2.05256074666976929e-01,2.21305951476097107e-01,-7.04109132289886475e-01,5.37194192409515381e-01,-1.18552744388580322e-01],"default_left":[true,false,false,false,false],"id":24,"leaf_child_counts":[0,0,0,0,0],"left_children":[1,3,-1,-1,-1],"loss_changes":[1.27340936660766602e+00,4.49313819408416748e-01,0.00000000000000000e+00,0.00000000000000000e+00,0.00000000000000000e+00],"parents":[2147483647,0,0,1,1],"right_children":[2,4,-1,-1,-1],"split_conditions":[8.71307492256164551e-01,2.40454635620117188e+01,-2.11232751607894897e-01,1.61158263683319092e-01,-3.55658233165740967e-02],"split_indices":[14,6,0,0,0],"sum_hessian":[4.25201654434204102e+00,2.59200286865234375e+00,1.66001367568969727e+00,1.04244351387023926e+00,1.54955935478210449e+00],"tree_param":{"num_deleted":"0","num_feature":"35","num_nodes":"5","size_leaf_vector":"0"}},{"base_weights":[9.14337858557701111e-03,-3.75635862350463867e-01,3.27400922775268555e-01,-1.14243112504482269e-01,5.69413721561431885e-01],"default_left":[true,false,true,false,false],"id":25,"leaf_child_counts":[0,0,0,0,0],"left_children":[1,-1,3,-1,-1],"loss_changes":[7.52862989902496338e-01,0.00000000000000000e+00,4.23052430152893066e-01,0.00000000000000000e+00,0.00000000000000000e+00],"parents":[2147483647,0,0,2,2],"right_children":[2,-1,4,-1,-1],"split_conditions":[7.05038845539093018e-01,-1.12690761685371399e-01,1.10849961638450623e-02,-3.42729352414608002e-02,1.70824125409126282e-01],"split_indices":[3,0,34,0,0],"sum_hessian":[4.14359855651855469e+00,1.79414975643157959e+00,2.34944891929626465e+00,1.01859045028686523e+00,1.33085846900939941e+00],"tree_param":{"num_deleted":"0","num_feature":"35","num_nodes":"5","size_leaf_vector":"0"}},{"base_weights":[-1.72593310475349426e-01,2.55920976400375366e-01,-5.70293843746185303e-01],"default_left":[true,false,false],"id":26,"leaf_child_counts":[0,0,0],"left_children":[1,-1,-1],"loss_changes":[8.90460968017578125e-01,0.00000000000000000e+00,0.00000000000000000e+00],"parents":[2147483647,0,0],"right_children":[2,-1,-1],"split_conditions":[1.54317996930330992e-04,7.67762959003448486e-02,-1.71088159084320068e-01],"split_indices":[23,0,0],"sum_hessian":[3.36867332458496094e+00,1.79312050342559814e+00,1.57555282115936279e+00],"tree_param":{"num_deleted":"0","num_feature":"35","num_nodes":"3","size_leaf_vector":"0"}},{"base_weights":[1.08379833400249481e-01,-2.17277839779853821e-01,4.02106493711471558e-01],"default_left":[true,false,false],"id":27,"leaf_child_counts":[0,0,0],"left_children":[1,-1,-1],"loss_changes":[5.46542942523956299e-01,0.00000000000000000e+00,0.00000000000000000e+00],"parents":[2147483647,0,0],"right_children":[2,-1,-1],"split_conditions":[2.33568649291992188e+01,-6.51833564043045044e-02,1.20631955564022064e-01],"split_indices":[8,0,0],"sum_hessian":[3.80034780502319336e+00,1.92564177513122559e+00,1.87470614910125732e+00],"tree_param":{"num_deleted":"0","num_feature":"35","num_nodes":"3","size_leaf_vector":"0"}},{"base_weights":[9.36011224985122681e-02,3.69944304227828979e-01,-2.99949258565902710e-01,-6.31352663040161133e-02,7.18725323677062988e-01],"default_left":[false,true,false,false,false],"id":28,"leaf_child_counts":[0,0,0,0,0],"left_children":[1,3,-1,-1,-1],"loss_changes":[6.78562283515930176e-01,5.76144576072692871e-01,0.00000000000000000e+00,0.00000000000000000e+00,0.00000000000000000e+00],"parents":[2147483647,0,0,1,1],"right_children":[2,4,-1,-1,-1],"split_conditions":[3.48227005004882812e+01,9.08999979496002197e-01,-8.99847820401191711e-02,-1.89405810087919235e-02,2.15617612004280090e-01],"split_indices":[5,2,0,0,0],"sum_hessian":[4.21905183792114258e+00,2.51385521888732910e+00,1.70519649982452393e+00,1.48674929141998291e+00,1.02710592746734619e+00],"tree_param":{"num_deleted":"0","num_feature":"35","num_nodes":"5","size_leaf_vector":"0"}},{"base_weights":[-5.03839626908302307e-02,-4.74604249000549316e-01,3.07365894317626953e-01,-4.54946644604206085e-02,5.07032096385955811e-01],"default_left":[true,false,true,true,true],"id":29,"leaf_child_counts":[0,0,0,0,0],"left_children":[1,-1,-1,-1,-1],"loss_changes":[8.20368766784667969e-01,0.00000000000000000e+00,2.35697537660598755e-01,0.00000000000000000e+00,0.00000000000000000e+00],"parents":[2147483647,0,0,2,2],"right_children":[2,-1,-1,-1,-1],"split_conditions":[6.49158596992492676e-01,-1.42381280660629272e-01,9.22097712755203247e-02,-1.36484000831842422e-02,1.52109637856483459e-01],"split_indices":[3,0,5,2147483647,2147483647],"sum_hessian":[3.44432282447814941e+00,1.42633533477783203e+00,2.01798748970031738e+00,1.00826859474182129e+00,1.00971889495849609e+00],"tree_param":{"num_deleted":"2","num_feature":"35","num_nodes":"5","size_leaf_vector":"0"}},{"base_weights":[-6.44473284482955933e-02,4.59914207458496094e-01,-4.00495380163192749e-01,-5.51574587821960449e-01,-4.63627874851226807e-02],"default_left":[false,false,true,true,true],"id":30,"leaf_child_counts":[0,0,0,0,0],"left_children":[1,-1,-1,-1,-1],"loss_changes":[9.10850822925567627e-01,0.00000000000000000e+00,1.37486040592193604e-01,0.00000000000000000e+00,0.00000000000000000e+00],"parents":[2147483647,0,0,2,2],"right_children":[2,-1,-1,-1,-1],"split_conditions":[2.48957023620605469e+01,1.37974262237548828e-01,-1.20148621499538422e-01,-1.65472388267517090e-01,-1.39088369905948639e-02],"split_indices":[8,0,23,2147483647,2147483647],"sum_hessian":[3.12379813194274902e+00,1.07609236240386963e+00,2.04770588874816895e+00,1.04454684257507324e+00,1.00315904617309570e+00],"tree_param":{"num_deleted":"2","num_feature":"35","num_nodes":"5","size_leaf_vector":"0"}},{"base_weights":[2.66240179538726807e-01,-7.58957490324974060e-02,5.75499892234802246e-01,-3.58906567096710205e-01,2.36330538988113403e-01],"default_left":[true,true,false,false,false],"id":31,"leaf_child_counts":[0,0,0,0,0],"left_children":[1,3,-1,-1,-1],"loss_changes":[5.30317485332489014e-01,3.55834811925888062e-01,0.00000000000000000e+00,0.00000000000000000e+00,0.00000000000000000e+00],"parents":[2147483647,0,0,1,1],"right_children":[2,4,-1,-1,-1],"split_conditions":[5.42259737849235535e-02,3.43729019165039062e+01,1.72649979591369629e-01,-1.07671976089477539e-01,7.08991661667823792e-02],"split_indices":[32,5,0,0,0],"sum_hessian":[3.59923219680786133e+00,2.06704092025756836e+00,1.53219127655029297e+00,1.00582480430603027e+00,1.06121611595153809e+00],"tree_param":{"num_deleted":"0","num_feature":"35","num_nodes":"5","size_leaf_vector":"0"}},{"base_weights":[3.42519395053386688e-02,-4.52656090259552002e-01,3.99738490581512451e-01,1.44619904458522797e-02,6.00516617298126221e-01],"default_left":[false,false,true,true,true],"id":32,"leaf_child_counts":[0,0,0,0,0],"left_children":[1,-1,-1,-1,-1],"loss_changes":[9.94635224342346191e-01,0.00000000000000000e+00,2.34433591365814209e-01,0.00000000000000000e+00,0.00000000000000000e+00],"parents":[2147483647,0,0,2,2],"right_children":[2,-1,-1,-1,-1],"split_conditions":[3.57149505615234375e+01,-1.35796830058097839e-01,1.19921550154685974e-01,4.33859741315245628e-03,1.80154994130134583e-01],"split_indices":[7,0,19,2147483647,2147483647],"sum_hessian":[3.57236886024475098e+00,1.42948257923126221e+00,2.14288616180419922e+00,1.10140717029571533e+00,1.04147911071777344e+00],"tree_param":{"num_deleted":"2","num_feature":"35","num_nodes":"5","size_leaf_vector":"0"}},{"base_weights":[-2.89267897605895996e-02,3.22785496711730957e-01,-3.37203085422515869e-01],"default_left":[true,false,false],"id":33,"leaf_child_counts":[0,0,0],"left_children":[1,-1,-1],"loss_changes":[5.92638194561004639e-01,0.00000000000000000e+00,0.00000000000000000e+00],"parents":[2147483647,0,0],"right_children":[2,-1,-1],"split_conditions":[5.57742004394531250e+01,9.68356505036354065e-02,-1.01160928606987000e-01],"split_indices":[4,0,0],"sum_hessian":[3.46203255653381348e+00,1.59510838985443115e+00,1.86692416667938232e+00],"tree_param":{"num_deleted":"0","num_feature":"35","num_nodes":"3","size_leaf_vector":"0"}},{"base_weights":[-4.58183810114860535e-02,2.90972501039505005e-01,-5.72175681591033936e-01,4.86303865909576416e-01,-9.56006869673728943e-02],"default_left":[true,true,false,false,false],"id":34,"leaf_child_counts":[0,0,0,0,0],"left_children":[1,3,-1,-1,-1],"loss_changes":[9.97613906860351562e-01,3.12432378530502319e-01,0.00000000000000000e+00,0.00000000000000000e+00,0.00000000000000000e+00],"parents":[2147483647,0,0,1,1],"right_children":[2,4,-1,-1,-1],"split_conditions":[5.49445009231567383e+00,5.67435801029205322e-01,-1.71652704477310181e-01,1.45891159772872925e-01,-2.86802072077989578e-02],"split_indices":[0,14,0,0,0],"sum_hessian":[3.68841624259948730e+00,2.52194190025329590e+00,1.16647434234619141e+00,1.50399994850158691e+00,1.01794183254241943e+00],"tree_param":{"num_deleted":"0","num_feature":"35","num_nodes":"5","size_leaf_vector":"0"}},{"base_weights":[1.21673248708248138e-01,4.72549110651016235e-01,-1.40284717082977295e-01,-4.10173177719116211e-01,2.13555157184600830e-01],"default_left":[false,false,true,false,false],"id":35,"leaf_child_counts":[0,0,0,0,0],"left_children":[1,-1,3,-1,-1],"loss_changes":[4.47788119316101074e-01,0.00000000000000000e+00,3.88169586658477783e-01,0.00000000000000000e+00,0.00000000000000000e+00],"parents":[2147483647,0,0,2,2],"right_children":[2,-1,4,-1,-1],"split_conditions":[2.45626220703125000e+01,1.41764745116233826e-01,1.07323974370956421e-01,-1.23051956295967102e-01,6.40665516257286072e-02],"split_indices":[6,0,20,0,0],"sum_hessian":[3.15055012702941895e+00,1.00307869911193848e+00,2.14747142791748047e+00,1.12793934345245361e+00,1.01953196525573730e+00],"tree_param":{"num_deleted":"0","num_feature":"35","num_nodes":"5","size_leaf_vector":"0"}},{"base_weights":[1.57952427864074707e-01,-1.74671441316604614e-01,4.51189219951629639e-01],"default_left":[true,false,false],"id":36,"leaf_child_counts":[0,0,0],"left_children":[1,-1,-1],"loss_changes":[5.30071437358856201e-01,0.00000000000000000e+00,0.00000000000000000e+00],"parents":[2147483647,0,0],"right_children":[2,-1,-1],"split_conditions":[7.39499986171722412e-01,-5.24014346301555634e-02,1.35356768965721130e-01],"split_indices":[2,0,0],"sum_hessian":[3.62654161453247070e+00,1.88860058784484863e+00,1.73794102668762207e+00],"tree_param":{"num_deleted":"0","num_feature":"35","num_nodes":"3","size_leaf_vector":"0"}},{"base_weights":[1.01009145379066467e-01,-2.03310310840606689e-01,4.28908318281173706e-01,9.69619527459144592e-02,-3.99453103542327881e-01],"default_left":[true,true,false,true,true],"id":37,"leaf_child_counts":[0,0,0,0,0],"left_children":[1,-1,-1,-1,-1],"loss_changes":[5.65157055854797363e-01,2.24999383091926575e-01,0.00000000000000000e+00,0.00000000000000000e+00,0.00000000000000000e+00],"parents":[2147483647,0,0,1,1],"right_children":[2,-1,-1,-1,-1],"split_conditions":[6.00064210593700409e-02,-6.09930939972400665e-02,1.28672495484352112e-01,2.90885865688323975e-02,-1.19835935533046722e-01],"split_indices":[20,6,0,2147483647,2147483647],"sum_hessian":[3.78980112075805664e+00,2.16264033317565918e+00,1.62716078758239746e+00,1.05429363250732422e+00,1.10834681987762451e+00],"tree_param":{"num_deleted":"2","num_feature":"35","num_nodes":"5","size_leaf_vector":"0"}},{"base_weights":[1.70859009027481079e-01,-1.39289245009422302e-01,4.74477469921112061e-01],"default_left":[true,false,false],"id":38,"leaf_child_counts":[0,0,0],"left_children":[1,-1,-1],"loss_changes":[4.51406598091125488e-01,0.00000000000000000e+00,0.00000000000000000e+00],"parents":[2147483647,0,0],"right_children":[2,-1,-1],"split_conditions":[7.36500024795532227e-01,-4.17867749929428101e-02,1.42343252897262573e-01],"split_indices":[2,0,0],"sum_hessian":[3.09185910224914551e+00,1.79722142219543457e+00,1.29463779926300049e+00],"tree_param":{"num_deleted":"0","num_feature":"35","num_nodes":"3","size_leaf_vector":"0"}},{"base_weights":[3.84270958602428436e-03,-2.51329332590103149e-01,3.19319903850555420e-01],"default_left":[true,false,false],"id":39,"leaf_child_counts":[0,0,0],"left_children":[1,-1,-1],"loss_changes":[4.33857530355453491e-01,0.00000000000000000e+00,0.00000000000000000e+00],"parents":[2147483647,0,0],"right_children":[2,-1,-1],"split_conditions":[7.54991099238395691e-02,-7.53988027572631836e-02,9.57959741353988647e-02],"split_indices":[19,0,0],"sum_hessian":[3.39253211021423340e+00,1.98793637752532959e+00,1.40459561347961426e+00],"tree_param":{"num_deleted":"0","num_feature":"35","num_nodes":"3","size_leaf_vector":"0"}},{"base_weights":[-3.19076105952262878e-02,-4.01401102542877197e-01,2.01906889677047729e-01,4.24938052892684937e-01,-1.59337744116783142e-01],"default_left":[true,false,true,false,false],"id":40,"leaf_child_counts":[0,0,0,0,0],"left_children":[1,-1,3,-1,-1],"loss_changes":[4.82072651386260986e-01,0.00000000000000000e+00,3.50363701581954956e-01,0.00000000000000000e+00,0.00000000000000000e+00],"parents":[2147483647,0,0,2,2],"right_children":[2,-1,4,-1,-1],"split_conditions":[2.70621329545974731e-01,-1.20420336723327637e-01,2.96493798494338989e-01,1.27481415867805481e-01,-4.78013269603252411e-02],"split_indices":[13,0,11,0,0],"sum_hessian":[3.64189577102661133e+00,1.13365221023559570e+00,2.50824356079101562e+00,1.44177830219268799e+00,1.06646537780761719e+00],"tree_param":{"num_deleted":"0","num_feature":"35","num_nodes":"5","size_leaf_vector":"0"}},{"base_weights":[1.04023933410644531e-01,3.49498301744461060e-01,-5.97761683166027069e-02,-3.60966563224792480e-01,1.95074811577796936e-01],"default_left":[true,false,true,false,false],"id":41,"leaf_child_counts":[0,0,0,0,0],"left_children":[1,-1,3,-1,-1],"loss_changes":[2.09619775414466858e-01,0.00000000000000000e+00,3.52053493261337280e-01,0.00000000000000000e+00,0.00000000000000000e+00],"parents":[2147483647,0,0,2,2],"right_children":[2,-1,4,-1,-1],"split_conditions":[3.65285992622375488e-01,1.04849494993686676e-01,6.00064210593700409e-02,-1.08289971947669983e-01,5.85224442183971405e-02],"split_indices":[29,0,20,0,0],"sum_hessian":[3.69370985031127930e+00,1.02457380294799805e+00,2.66913604736328125e+00,1.03250658512115479e+00,1.63662958145141602e+00],"tree_param":{"num_deleted":"0","num_feature":"35","num_nodes":"5","size_leaf_vector":"0"}},{"base_weights":[5.19804880023002625e-02,2.60751426219940186e-01,-1.53073951601982117e-01],"default_left":[true,true,true],"id":42,"leaf_child_counts":[0,0,0],"left_children":[-1,-1,-1],"loss_changes":[2.35542297363281250e-01,0.00000000000000000e+00,0.00000000000000000e+00],"parents":[2147483647,0,0],"right_children":[-1,-1,-1],"split_conditions":[1.55941471457481384e-02,7.82254338264465332e-02,-4.59221862256526947e-02],"split_indices":[6,2147483647,2147483647],"sum_hessian":[3.56974387168884277e+00,1.63425159454345703e+00,1.93549227714538574e+00],"tree_param":{"num_deleted":"2","num_feature":"35","num_nodes":"3","size_leaf_vector":"0"}},{"base_weights":[-1.24089770019054413e-01,1.91170424222946167e-01,-4.83545124530792236e-01],"default_left":[false,false,false],"id":43,"leaf_child_counts":[0,0,0],"left_children":[1,-1,-1],"loss_changes":[5.75236141681671143e-01,0.00000000000000000e+00,0.00000000000000000e+00],"parents":[2147483647,0,0],"right_children":[2,-1,-1],"split_conditions":[2.77951049804687500e+01,5.73511309921741486e-02,-1.45063549280166626e-01],"split_indices":[6,0,0],"sum_hessian":[3.26039767265319824e+00,1.98639619350433350e+00,1.27400147914886475e+00],"tree_param":{"num_deleted":"0","num_feature":"35","num_nodes":"3","size_leaf_vector":"0"}},{"base_weights":[-5.87880751118063927e-03,-3.15822362899780273e-01,2.97359973192214966e-01],"default_left":[true,false,false],"id":44,"leaf_child_counts":[0,0,0],"left_children":[1,-1,-1],"loss_changes":[4.77608382701873779e-01,0.00000000000000000e+00,0.00000000000000000e+00],"parents":[2147483647,0,0],"right_children":[2,-1,-1],"split_conditions":[7.39499986171722412e-01,-9.47467163205146790e-02,8.92079919576644897e-02],"split_indices":[2,0,0],"sum_hessian":[3.08243489265441895e+00,1.50384342670440674e+00,1.57859146595001221e+00],"tree_param":{"num_deleted":"0","num_feature":"35","num_nodes":"3","size_leaf_vector":"0"}},{"base_weights":[-7.93144926428794861e-02,2.60570704936981201e-01,-4.42834228277206421e-01],"default_left":[true,false,false],"id":45,"leaf_child_counts":[0,0,0],"left_children":[1,-1,-1],"loss_changes":[5.62108874320983887e-01,0.00000000000000000e+00,0.00000000000000000e+00],"parents":[2147483647,0,0],"right_children":[2,-1,-1],"split_conditions":[2.14474252425134182e-03,7.81712159514427185e-02,-1.32850274443626404e-01],"split_indices":[21,0,0],"sum_hessian":[2.61555027961730957e+00,1.49807476997375488e+00,1.11747550964355469e+00],"tree_param":{"num_deleted":"0","num_feature":"35","num_nodes":"3","size_leaf_vector":"0"}},{"base_weights":[-3.07895801961421967e-02,-2.79607743024826050e-01,3.05916458368301392e-01],"default_left":[true,false,false],"id":46,"leaf_child_counts":[0,0,0],"left_children":[1,-1,-1],"loss_changes":[4.25792127847671509e-01,0.00000000000000000e+00,0.00000000000000000e+00],"parents":[2147483647,0,0],"right_children":[2,-1,-1],"split_conditions":[9.05218124389648438e-01,-8.38823243975639343e-02,9.17749404907226562e-02],"split_indices":[3,0,0],"sum_hessian":[3.06136655807495117e+00,1.85795736312866211e+00,1.20340931415557861e+00],"tree_param":{"num_deleted":"0","num_feature":"35","num_nodes":"3","size_leaf_vector":"0"}},{"base_weights":[7.66964480280876160e-02,4.27989095449447632e-01,-2.60752648115158081e-01],"default_left":[true,false,false],"id":47,"leaf_child_counts":[0,0,0],"left_children":[1,-1,-1],"loss_changes":[5.67266583442687988e-01,0.00000000000000000e+00,0.00000000000000000e+00],"parents":[2147483647,0,0],"right_children":[2,-1,-1],"split_conditions":[6.32977951318025589e-03,1.28396734595298767e-01,-7.82257989048957825e-02],"split_indices":[24,0,0],"sum_hessian":[2.84388589859008789e+00,1.26190519332885742e+00,1.58198082447052002e+00],"tree_param":{"num_deleted":"0","num_feature":"35","num_nodes":"3","size_leaf_vector":"0"}},{"base_weights":[7.11149442940950394e-03,2.47544348239898682e-01,-2.30637520551681519e-01],"default_left":[true,true,true],"id":48,"leaf_child_counts":[0,0,0],"left_children":[-1,-1,-1],"loss_changes":[2.85065710544586182e-01,0.00000000000000000e+00,0.00000000000000000e+00],"parents":[2147483647,0,0],"right_children":[-1,-1,-1],"split_conditions":[2.13344837538897991e-03,7.42633044719696045e-02,-6.91912621259689331e-02],"split_indices":[24,2147483647,2147483647],"sum_hessian":[2.98813962936401367e+00,1.46519970893859863e+00,1.52294003963470459e+00],"tree_param":{"num_deleted":"2","num_feature":"35","num_nodes":"3","size_leaf_vector":"0"}},{"base_weights":[6.54000730719417334e-04,-2.49538168311119080e-01,3.23241323232650757e-01],"default_left":[true,false,false],"id":49,"leaf_child_counts":[0,0,0],"left_children":[1,-1,-1],"loss_changes":[3.84722083806991577e-01,0.00000000000000000e+00,0.00000000000000000e+00],"parents":[2147483647,0,0],"right_children":[2,-1,-1],"split_conditions":[6.00064210593700409e-02,-7.48614519834518433e-02,9.69723984599113464e-02],"split_indices":[20,0,0],"sum_hessian":[2.76738309860229492e+00,1.68611454963684082e+00,1.08126842975616455e+00],"tree_param":{"num_deleted":"0","num_feature":"35","num_nodes":"3","size_leaf_vector":"0"}},{"base_weights":[1.90684676170349121e-01,-4.03602682054042816e-02,3.50280553102493286e-01],"default_left":[true,true,true],"id":50,"leaf_child_counts":[0,0,0],"left_children":[-1,-1,-1],"loss_changes":[1.59985736012458801e-01,0.00000000000000000e+00,0.00000000000000000e+00],"parents":[2147483647,0,0],"right_children":[-1,-1,-1],"split_conditions":[5.72054050862789154e-02,-1.21080810204148293e-02,1.05084173381328583e-01],"split_indices":[8,2147483647,2147483647],"sum_hessian":[2.95533466339111328e+00,1.51262962818145752e+00,1.44270503520965576e+00],"tree_param":{"num_deleted":"2","num_feature":"35","num_nodes":"3","size_leaf_vector":"0"}},{"base_weights":[1.73353269696235657e-01,-8.47052931785583496e-02,3.24578493833541870e-01],"default_left":[true,true,true],"id":51,"leaf_child_counts":[0,0,0],"left_children":[-1,-1,-1],"loss_changes":[1.88057556748390198e-01,0.00000000000000000e+00,0.00000000000000000e+00],"parents":[2147483647,0,0],"right_children":[-1,-1,-1],"split_conditions":[5.20059838891029358e-02,-2.54115890711545944e-02,9.73735526204109192e-02],"split_indices":[0,2147483647,2147483647],"sum_hessian":[3.11439275741577148e+00,1.31325662136077881e+00,1.80113613605499268e+00],"tree_param":{"num_deleted":"2","num_feature":"35","num_nodes":"3","size_leaf_vector":"0"}},{"base_weights":[1.68856028467416763e-02,-1.60119965672492981e-01,2.40367621183395386e-01,-4.08900409936904907e-01,1.69391408562660217e-01],"default_left":[true,true,false,false,false],"id":52,"leaf_child_counts":[0,0,0,0,0],"left_children":[1,3,-1,-1,-1],"loss_changes":[2.10640549659729004e-01,3.17544013261795044e-01,0.00000000000000000e+00,0.00000000000000000e+00,0.00000000000000000e+00],"parents":[2147483647,0,0,1,1],"right_children":[2,4,-1,-1,-1],"split_conditions":[7.54991099238395691e-02,8.26062321662902832e-01,7.21102878451347351e-02,-1.22670128941535950e-01,5.08174262940883636e-02],"split_indices":[19,3,0,0,0],"sum_hessian":[3.35195994377136230e+00,2.02868914604187012e+00,1.32327079772949219e+00,1.01866757869720459e+00,1.01002156734466553e+00],"tree_param":{"num_deleted":"0","num_feature":"35","num_nodes":"5","size_leaf_vector":"0"}},{"base_weights":[4.57381233572959900e-02,1.83339849114418030e-01,-1.49181380867958069e-01,-3.25427278876304626e-02,3.06805014610290527e-01],"default_left":[true,true,true,true,true],"id":53,"leaf_child_counts":[0,0,0,0,0],"left_children":[-1,-1,-1,-1,-1],"loss_changes":[1.45845443010330200e-01,9.09689366817474365e-02,0.00000000000000000e+00,0.00000000000000000e+00,0.00000000000000000e+00],"parents":[2147483647,0,0,1,1],"right_children":[-1,-1,-1,-1,-1],"split_conditions":[1.37214371934533119e-02,5.50019554793834686e-02,-4.47544157505035400e-02,-9.76281892508268356e-03,9.20415073633193970e-02],"split_indices":[34,2147483647,2147483647,2147483647,2147483647],"sum_hessian":[3.41793346405029297e+00,2.03837060928344727e+00,1.37956273555755615e+00,1.00955486297607422e+00,1.02881574630737305e+00],"tree_param":{"num_deleted":"4","num_feature":"35","num_nodes":"5","size_leaf_vector":"0"}},{"base_weights":[8.56015086174011230e-02,2.93204396963119507e-01,-1.12854100763797760e-01],"default_left":[true,true,true],"id":54,"leaf_child_counts":[0,0,0],"left_children":[-1,-1,-1],"loss_changes":[2.13657885789871216e-01,0.00000000000000000e+00,0.00000000000000000e+00],"parents":[2147483647,0,0],"right_children":[-1,-1,-1],"split_conditions":[2.56804544478654861e-02,8.79613235592842102e-02,-3.38562317192554474e-02],"split_indices":[6,2147483647,2147483647],"sum_hessian":[3.38273644447326660e+00,1.41992890834808350e+00,1.96280741691589355e+00],"tree_param":{"num_deleted":"2","num_feature":"35","num_nodes":"3","size_leaf_vector":"0"}},{"base_weights":[5.60545176267623901e-02,-1.23717874288558960e-01,2.21374332904815674e-01],"default_left":[true,true,true],"id":55,"leaf_child_counts":[0,0,0],"left_children":[-1,-1,-1],"loss_changes":[1.55260458588600159e-01,0.00000000000000000e+00,0.00000000000000000e+00],"parents":[2147483647,0,0],"right_children":[-1,-1,-1],"split_conditions":[1.68163552880287170e-02,-3.71153652667999268e-02,6.64122998714447021e-02],"split_indices":[28,2147483647,2147483647],"sum_hessian":[3.30258274078369141e+00,1.70268785953521729e+00,1.59989488124847412e+00],"tree_param":{"num_deleted":"2","num_feature":"35","num_nodes":"3","size_leaf_vector":"0"}},{"base_weights":[-1.30041509866714478e-01,-3.01457464694976807e-01,1.73415452241897583e-01,-4.33104336261749268e-01,-1.69749408960342407e-02],"default_left":[true,true,true,true,true],"id":56,"leaf_child_counts":[0,0,0,0,0],"left_children":[-1,-1,-1,-1,-1],"loss_changes":[2.79740214347839355e-01,1.10976755619049072e-01,0.00000000000000000e+00,0.00000000000000000e+00,0.00000000000000000e+00],"parents":[2147483647,0,0,1,1],"right_children":[-1,-1,-1,-1,-1],"split_conditions":[-3.90124544501304626e-02,-9.04372408986091614e-02,5.20246364176273346e-02,-1.29931300878524780e-01,-5.09248254820704460e-03],"split_indices":[19,2147483647,2147483647,2147483647,2147483647],"sum_hessian":[3.37282538414001465e+00,2.15953969955444336e+00,1.21328580379486084e+00,1.11919379234313965e+00,1.04034590721130371e+00],"tree_param":{"num_deleted":"4","num_feature":"35","num_nodes":"5","size_leaf_vector":"0"}},{"base_weights":[-5.47979883849620819e-02,1.76084160804748535e-01,-2.35923126339912415e-01],"default_left":[true,true,true],"id":57,"leaf_child_counts":[0,0,0],"left_children":[-1,-1,-1],"loss_changes":[2.29640007019042969e-01,0.00000000000000000e+00,0.00000000000000000e+00],"parents":[2147483647,0,0],"right_children":[-1,-1,-1],"split_conditions":[-1.64393968880176544e-02,5.28252497315406799e-02,-7.07769393920898438e-02],"split_indices":[24,2147483647,2147483647],"sum_hessian":[3.49794769287109375e+00,1.54999017715454102e+00,1.94795763492584229e+00],"tree_param":{"num_deleted":"2","num_feature":"35","num_nodes":"3","size_leaf_vector":"0"}},{"base_weights":[-2.28072598576545715e-01,2.12733462452888489e-01,-4.83723014593124390e-01],"default_left":[true,false,false],"id":58,"leaf_child_counts":[0,0,0],"left_children":[1,-1,-1],"loss_changes":[5.35067200660705566e-01,0.00000000000000000e+00,0.00000000000000000e+00],"parents":[2147483647,0,0],"right_children":[2,-1,-1],"split_conditions":[5.31307029724121094e+00,6.38200417160987854e-02,-1.45116910338401794e-01],"split_indices":[1,0,0],"sum_hessian":[2.83489608764648438e+00,1.10223591327667236e+00,1.73266005516052246e+00],"tree_param":{"num_deleted":"0","num_feature":"35","num_nodes":"3","size_leaf_vector":"0"}},{"base_weights":[5.79552277922630310e-02,-1.91635146737098694e-01,2.52458781003952026e-01],"default_left":[false,true,true],"id":59,"leaf_child_counts":[0,0,0],"left_children":[-1,-1,-1],"loss_changes":[2.33679682016372681e-01,0.00000000000000000e+00,0.00000000000000000e+00],"parents":[2147483647,0,0],"right_children":[-1,-1,-1],"split_conditions":[1.73865687102079391e-02,-5.74905462563037872e-02,7.57376402616500854e-02],"split_indices":[5,2147483647,2147483647],"sum_hessian":[2.81697487831115723e+00,1.24023318290710449e+00,1.57674169540405273e+00],"tree_param":{"num_deleted":"2","num_feature":"35","num_nodes":"3","size_leaf_vector":"0"}},{"base_weights":[1.08731240034103394e-01,-1.38750091195106506e-01,2.57679224014282227e-01],"default_left":[true,true,true],"id":60,"leaf_child_counts":[0,0,0],"left_children":[-1,-1,-1],"loss_changes":[1.86315715312957764e-01,0.00000000000000000e+00,0.00000000000000000e+00],"parents":[2147483647,0,0],"right_children":[-1,-1,-1],"split_conditions":[3.26193720102310181e-02,-4.16250303387641907e-02,7.73037672042846680e-02],"split_indices":[0,2147483647,2147483647],"sum_hessian":[3.08451390266418457e+00,1.18464994430541992e+00,1.89986383914947510e+00],"tree_param":{"num_deleted":"2","num_feature":"35","num_nodes":"3","size_leaf_vector":"0"}},{"base_weights":[8.06574299931526184e-02,-1.98547720909118652e-01,2.81803786754608154e-01],"default_left":[true,true,true],"id":61,"leaf_child_counts":[0,0,0],"left_children":[-1,-1,-1],"loss_changes":[2.80977368354797363e-01,0.00000000000000000e+00,0.00000000000000000e+00],"parents":[2147483647,0,0],"right_children":[-1,-1,-1],"split_conditions":[2.41972301155328751e-02,-5.95643185079097748e-02,8.45411419868469238e-02],"split_indices":[8,2147483647,2147483647],"sum_hessian":[3.00679230690002441e+00,1.26449894905090332e+00,1.74229347705841064e+00],"tree_param":{"num_deleted":"2","num_feature":"35","num_nodes":"3","size_leaf_vector":"0"}},{"base_weights":[5.03813996911048889e-02,-1.93649172782897949e-01,1.89611449837684631e-01,-4.95003201067447662e-02,3.41093719005584717e-01],"default_left":[true,true,true,true,true],"id":62,"leaf_child_counts":[0,0,0,0,0],"left_children":[-1,-1,-1,-1,-1],"loss_changes":[1.80355325341224670e-01,0.00000000000000000e+00,1.32685184478759766e-01,0.00000000000000000e+00,0.00000000000000000e+00],"parents":[2147483647,0,0,2,2],"right_children":[-1,-1,-1,-1,-1],"split_conditions":[1.51144200935959816e-02,-5.80947548151016235e-02,5.68834356963634491e-02,-1.48500967770814896e-02,1.02328121662139893e-01],"split_indices":[2,2147483647,2147483647,2147483647,2147483647],"sum_hessian":[3.22756028175354004e+00,1.03051078319549561e+00,2.19704937934875488e+00,1.11316585540771484e+00,1.08388352394104004e+00],"tree_param":{"num_deleted":"4","num_feature":"35","num_nodes":"5","size_leaf_vector":"0"}},{"base_weights":[-8.39121863245964050e-02,2.62364506721496582e-01,-3.23174357414245605e-01],"default_left":[true,false,false],"id":63,"leaf_child_counts":[0,0,0],"left_children":[1,-1,-1],"loss_changes":[3.94534200429916382e-01,0.00000000000000000e+00,0.00000000000000000e+00],"parents":[2147483647,0,0],"right_children":[2,-1,-1],"split_conditions":[6.32977951318025589e-03,7.87093564867973328e-02,-9.69523116946220398e-02],"split_indices":[24,0,0],"sum_hessian":[2.73857975006103516e+00,1.07958030700683594e+00,1.65899944305419922e+00],"tree_param":{"num_deleted":"0","num_feature":"35","num_nodes":"3","size_leaf_vector":"0"}},{"base_weights":[-1.03310845792293549e-01,-2.98142552375793457e-01,1.96538284420967102e-01],"default_left":[true,true,true],"id":64,"leaf_child_counts":[0,0,0],"left_children":[-1,-1,-1],"loss_changes":[2.73705869913101196e-01,0.00000000000000000e+00,0.00000000000000000e+00],"parents":[2147483647,0,0],"right_children":[-1,-1,-1],"split_conditions":[-3.09932548552751541e-02,-8.94427672028541565e-02,5.89614883065223694e-02],"split_indices":[19,2147483647,2147483647],"sum_hessian":[2.68211221694946289e+00,1.62920308113098145e+00,1.05290913581848145e+00],"tree_param":{"num_deleted":"2","num_feature":"35","num_nodes":"3","size_leaf_vector":"0"}},{"base_weights":[3.19999381899833679e-02,3.11793118715286255e-01,-2.47798085212707520e-01],"default_left":[true,false,false],"id":65,"leaf_child_counts":[0,0,0],"left_children":[1,-1,-1],"loss_changes":[3.82599204778671265e-01,0.00000000000000000e+00,0.00000000000000000e+00],"parents":[2147483647,0,0],"right_children":[2,-1,-1],"split_conditions":[2.40454635620117188e+01,9.35379415750503540e-02,-7.43394270539283752e-02],"split_indices":[6,0,0],"sum_hessian":[2.90030288696289062e+00,1.39298820495605469e+00,1.50731468200683594e+00],"tree_param":{"num_deleted":"0","num_feature":"35","num_nodes":"3","size_leaf_vector":"0"}},{"base_weights":[2.57241353392601013e-02,-2.05126926302909851e-01,1.89574837684631348e-01],"default_left":[true,true,true],"id":66,"leaf_child_counts":[0,0,0],"left_children":[-1,-1,-1],"loss_changes":[1.86756163835525513e-01,0.00000000000000000e+00,0.00000000000000000e+00],"parents":[2147483647,0,0],"right_children":[-1,-1,-1],"split_conditions":[7.71724106743931770e-03,-6.15380816161632538e-02,5.68724535405635834e-02],"split_indices":[1,2147483647,2147483647],"sum_hessian":[2.90928840637207031e+00,1.10314357280731201e+00,1.80614483356475830e+00],"tree_param":{"num_deleted":"2","num_feature":"35","num_nodes":"3","size_leaf_vector":"0"}},{"base_weights":[1.40348404645919800e-01,-1.02587550878524780e-01,3.49359363317489624e-01],"default_left":[true,true,true],"id":67,"leaf_child_counts":[0,0,0],"left_children":[-1,-1,-1],"loss_changes":[2.46365994215011597e-01,0.00000000000000000e+00,0.00000000000000000e+00],"parents":[2147483647,0,0],"right_children":[-1,-1,-1],"split_conditions":[4.21045236289501190e-02,-3.07762660086154938e-02,1.04807816445827484e-01],"split_indices":[28,2147483647,2147483647],"sum_hessian":[3.14614987373352051e+00,1.69047129154205322e+00,1.45567870140075684e+00],"tree_param":{"num_deleted":"2","num_feature":"35","num_nodes":"3","size_leaf_vector":"0"}},{"base_weights":[-2.42257528007030487e-02,-2.19265684485435486e-01,1.92539379000663757e-01],"default_left":[true,true,true],"id":68,"leaf_child_counts":[0,0,0],"left_children":[-1,-1,-1],"loss_changes":[2.24117904901504517e-01,0.00000000000000000e+00,0.00000000000000000e+00],"parents":[2147483647,0,0],"right_children":[-1,-1,-1],"split_conditions":[-7.26772611960768700e-03,-6.57797083258628845e-02,5.77618144452571869e-02],"split_indices":[8,2147483647,2147483647],"sum_hessian":[3.30250406265258789e+00,1.73229348659515381e+00,1.57021069526672363e+00],"tree_param":{"num_deleted":"2","num_feature":"35","num_nodes":"3","size_leaf_vector":"0"}},{"base_weights":[1.02633312344551086e-01,-8.85282754898071289e-02,3.32409501075744629e-01,1.46762162446975708e-01,-2.73706525564193726e-01],"default_left":[true,true,true,true,true],"id":69,"leaf_child_counts":[0,0,0,0,0],"left_children":[-1,-1,-1,-1,-1],"loss_changes":[2.13657900691032410e-01,1.74332469701766968e-01,0.00000000000000000e+00,0.00000000000000000e+00,0.00000000000000000e+00],"parents":[2147483647,0,0,1,1],"right_children":[-1,-1,-1,-1,-1],"split_conditions":[3.07899955660104752e-02,-2.65584830194711685e-02,9.97228547930717468e-02,4.40286509692668915e-02,-8.21119621396064758e-02],"split_indices":[19,2147483647,2147483647,2147483647,2147483647],"sum_hessian":[3.19425988197326660e+00,2.07919740676879883e+00,1.11506247520446777e+00,1.00706243515014648e+00,1.07213497161865234e+00],"tree_param":{"num_deleted":"4","num_feature":"35","num_nodes":"5","size_leaf_vector":"0"}},{"base_weights":[1.07965961098670959e-01,-7.82372951507568359e-02,3.23331832885742188e-01],"default_left":[true,true,true],"id":70,"leaf_child_counts":[0,0,0],"left_children":[-1,-1,-1],"loss_changes":[1.90161764621734619e-01,0.00000000000000000e+00,0.00000000000000000e+00],"parents":[2147483647,0,0],"right_children":[-1,-1,-1],"split_conditions":[3.23897898197174072e-02,-2.34711896628141403e-02,9.69995558261871338e-02],"split_indices":[19,2147483647,2147483647],"sum_hessian":[3.11116313934326172e+00,2.01003241539001465e+00,1.10113084316253662e+00],"tree_param":{"num_deleted":"2","num_feature":"35","num_nodes":"3","size_leaf_vector":"0"}},{"base_weights":[2.59487610310316086e-02,-1.79610431194305420e-01,2.44195863604545593e-01],"default_left":[true,true,true],"id":71,"leaf_child_counts":[0,0,0],"left_children":[-1,-1,-1],"loss_changes":[2.39146694540977478e-01,0.00000000000000000e+00,0.00000000000000000e+00],"parents":[2147483647,0,0],"right_children":[-1,-1,-1],"split_conditions":[7.78462877497076988e-03,-5.38831315934658051e-02,7.32587650418281555e-02],"split_indices":[28,2147483647,2147483647],"sum_hessian":[3.35298347473144531e+00,1.81784844398498535e+00,1.53513503074645996e+00],"tree_param":{"num_deleted":"2","num_feature":"35","num_nodes":"3","size_leaf_vector":"0"}},{"base_weights":[1.11887799575924873e-02,-1.36388465762138367e-01,2.15289503335952759e-01,-4.43861126899719238e-01,2.45654240250587463e-01],"default_left":[true,true,false,false,false],"id":72,"leaf_child_counts":[0,0,0,0,0],"left_children":[1,3,-1,-1,-1],"loss_changes":[1.62403941154479980e-01,4.82067197561264038e-01,0.00000000000000000e+00,0.00000000000000000e+00,0.00000000000000000e+00],"parents":[2147483647,0,0,1,1],"right_children":[2,4,-1,-1,-1],"split_conditions":[7.54991099238395691e-02,3.38450279235839844e+01,6.45868554711341858e-02,-1.33158341050148010e-01,7.36962780356407166e-02],"split_indices":[19,7,0,0,0],"sum_hessian":[3.41693830490112305e+00,2.17560362815856934e+00,1.24133467674255371e+00,1.11579108238220215e+00,1.05981266498565674e+00],"tree_param":{"num_deleted":"0","num_feature":"35","num_nodes":"5","size_leaf_vector":"0"}},{"base_weights":[-8.97871255874633789e-02,-2.77794182300567627e-01,1.28233805298805237e-01],"default_left":[true,true,true],"id":73,"leaf_child_counts":[0,0,0],"left_children":[-1,-1,-1],"loss_changes":[2.03960105776786804e-01,0.00000000000000000e+00,0.00000000000000000e+00],"parents":[2147483647,0,0],"right_children":[-1,-1,-1],"split_conditions":[-2.69361380487680435e-02,-8.33382606506347656e-02,3.84701415896415710e-02],"split_indices":[2,2147483647,2147483647],"sum_hessian":[3.10684728622436523e+00,1.52103924751281738e+00,1.58580815792083740e+00],"tree_param":{"num_deleted":"2","num_feature":"35","num_nodes":"3","size_leaf_vector":"0"}},{"base_weights":[-9.95590463280677795e-02,-2.90354460477828979e-01,1.39599934220314026e-01],"default_left":[true,true,true],"id":74,"leaf_child_counts":[0,0,0],"left_children":[-1,-1,-1],"loss_changes":[2.26631522178649902e-01,0.00000000000000000e+00,0.00000000000000000e+00],"parents":[2147483647,0,0],"right_children":[-1,-1,-1],"split_conditions":[-2.98677142709493637e-02,-8.71063396334648132e-02,4.18799817562103271e-02],"split_indices":[28,2147483647,2147483647],"sum_hessian":[3.07837605476379395e+00,1.59325218200683594e+00,1.48512387275695801e+00],"tree_param":{"num_deleted":"2","num_feature":"35","num_nodes":"3","size_leaf_vector":"0"}},{"base_weights":[-2.80149858444929123e-02,-1.80155918002128601e-01,2.11207062005996704e-01],"default_left":[true,true,true],"id":75,"leaf_child_counts":[0,0,0],"left_children":[-1,-1,-1],"loss_changes":[1.84930711984634399e-01,0.00000000000000000e+00,0.00000000000000000e+00],"parents":[2147483647,0,0],"right_children":[-1,-1,-1],"split_conditions":[-8.40449612587690353e-03,-5.40467761456966400e-02,6.33621215820312500e-02],"split_indices":[23,2147483647,2147483647],"sum_hessian":[3.03568172454833984e+00,2.00649547576904297e+00,1.02918601036071777e+00],"tree_param":{"num_deleted":"2","num_feature":"35","num_nodes":"3","size_leaf_vector":"0"}},{"base_weights":[-4.67662280425429344e-03,-2.10819199681282043e-01,1.46447643637657166e-01,1.90801382064819336e-01,3.02543584257364273e-02],"default_left":[true,true,true,true,true],"id":76,"leaf_child_counts":[0,0,0,0,0],"left_children":[-1,-1,-1,-1,-1],"loss_changes":[1.62449464201927185e-01,0.00000000000000000e+00,9.82763618230819702e-03,0.00000000000000000e+00,0.00000000000000000e+00],"parents":[2147483647,0,0,2,2],"right_children":[-1,-1,-1,-1,-1],"split_conditions":[-1.40298693440854549e-03,-6.32457658648490906e-02,4.39342930912971497e-02,5.72404153645038605e-02,9.07630752772092819e-03],"split_indices":[0,2147483647,2147483647,2147483647,2147483647],"sum_hessian":[3.22350573539733887e+00,1.19645869731903076e+00,2.02704715728759766e+00,1.00233042240142822e+00,1.02471685409545898e+00],"tree_param":{"num_deleted":"4","num_feature":"35","num_nodes":"5","size_leaf_vector":"0"}},{"base_weights":[5.49434125423431396e-02,-1.67388543486595154e-01,2.21665129065513611e-01],"default_left":[true,true,true],"id":77,"leaf_child_counts":[0,0,0],"left_children":[-1,-1,-1],"loss_changes":[1.82425111532211304e-01,0.00000000000000000e+00,0.00000000000000000e+00],"parents":[2147483647,0,0],"right_children":[-1,-1,-1],"split_conditions":[1.64830237627029419e-02,-5.02165667712688446e-02,6.64995387196540833e-02],"split_indices":[26,2147483647,2147483647],"sum_hessian":[2.92043352127075195e+00,1.24978351593017578e+00,1.67065000534057617e+00],"tree_param":{"num_deleted":"2","num_feature":"35","num_nodes":"3","size_leaf_vector":"0"}},{"base_weights":[-2.04748138785362244e-01,7.06235170364379883e-02,-3.35497945547103882e-01],"default_left":[false,true,true],"id":78,"leaf_child_counts":[0,0,0],"left_children":[-1,-1,-1],"loss_changes":[1.57251253724098206e-01,0.00000000000000000e+00,0.00000000000000000e+00],"parents":[2147483647,0,0],"right_children":[-1,-1,-1],"split_conditions":[-6.14244453608989716e-02,2.11870558559894562e-02,-1.00649386644363403e-01],"split_indices":[7,2147483647,2147483647],"sum_hessian":[2.70942950248718262e+00,1.02034413814544678e+00,1.68908536434173584e+00],"tree_param":{"num_deleted":"2","num_feature":"35","num_nodes":"3","size_leaf_vector":"0"}},{"base_weights":[9.58154872059822083e-02,-1.33283600211143494e-01,3.17657530307769775e-01],"default_left":[true,true,true],"id":79,"leaf_child_counts":[0,0,0],"left_children":[-1,-1,-1],"loss_changes":[2.56821274757385254e-01,0.00000000000000000e+00,0.00000000000000000e+00],"parents":[2147483647,0,0],"right_children":[-1,-1,-1],"split_conditions":[2.87446472793817520e-02,-3.99850830435752869e-02,9.52972620725631714e-02],"split_indices":[28,2147483647,2147483647],"sum_hessian":[3.22012281417846680e+00,1.78053629398345947e+00,1.43958663940429688e+00],"tree_param":{"num_deleted":"2","num_feature":"35","num_nodes":"3","size_leaf_vector":"0"}},{"base_weights":[9.82595309615135193e-02,-8.94504114985466003e-02,2.84334063529968262e-01],"default_left":[true,true,true],"id":80,"leaf_child_counts":[0,0,0],"left_children":[-1,-1,-1],"loss_changes":[1.70261710882186890e-01,0.00000000000000000e+00,0.00000000000000000e+00],"parents":[2147483647,0,0],"right_children":[-1,-1,-1],"split_conditions":[2.94778607785701752e-02,-2.68351249396800995e-02,8.53002220392227173e-02],"split_indices":[20,2147483647,2147483647],"sum_hessian":[3.14646530151367188e+00,1.82485151290893555e+00,1.32161366939544678e+00],"tree_param":{"num_deleted":"2","num_feature":"35","num_nodes":"3","size_leaf_vector":"0"}},{"base_weights":[7.71086523309350014e-03,-1.52991160750389099e-01,2.28549346327781677e-01],"default_left":[true,true,true],"id":81,"leaf_child_counts":[0,0,0],"left_children":[-1,-1,-1],"loss_changes":[1.76362529397010803e-01,0.00000000000000000e+00,0.00000000000000000e+00],"parents":[2147483647,0,0],"right_children":[-1,-1,-1],"split_conditions":[2.31325975619256496e-03,-4.58973497152328491e-02,6.85648098587989807e-02],"split_indices":[7,2147483647,2147483647],"sum_hessian":[2.98421287536621094e+00,1.90510928630828857e+00,1.07910358905792236e+00],"tree_param":{"num_deleted":"2","num_feature":"35","num_nodes":"3","size_leaf_vector":"0"}},{"base_weights":[4.60982397198677063e-02,-2.65317648649215698e-01,2.58962184190750122e-01],"default_left":[true,false,false],"id":82,"leaf_child_counts":[0,0,0],"left_children":[1,-1,-1],"loss_changes":[3.35412085056304932e-01,0.00000000000000000e+00,0.00000000000000000e+00],"parents":[2147483647,0,0],"right_children":[2,-1,-1],"split_conditions":[1.88369512557983398e-01,-7.95952975749969482e-02,7.76886567473411560e-02],"split_indices":[26,0,0],"sum_hessian":[3.02335190773010254e+00,1.12746834754943848e+00,1.89588344097137451e+00],"tree_param":{"num_deleted":"0","num_feature":"35","num_nodes":"3","size_leaf_vector":"0"}},{"base_weights":[-1.71438977122306824e-01,-4.50924754142761230e-01,1.69264689087867737e-01],"default_left":[true,false,false],"id":83,"leaf_child_counts":[0,0,0],"left_children":[1,-1,-1],"loss_changes":[4.36861217021942139e-01,0.00000000000000000e+00,0.00000000000000000e+00],"parents":[2147483647,0,0],"right_children":[2,-1,-1],"split_conditions":[6.00064210593700409e-02,-1.35277435183525085e-01,5.07794097065925598e-02],"split_indices":[20,0,0],"sum_hessian":[2.78627038002014160e+00,1.35292756557464600e+00,1.43334269523620605e+00],"tree_param":{"num_deleted":"0","num_feature":"35","num_nodes":"3","size_leaf_vector":"0"}},{"base_weights":[7.66644254326820374e-02,2.47041717171669006e-01,-1.09861634671688080e-01],"default_left":[false,true,true],"id":84,"leaf_child_counts":[0,0,0],"left_children":[-1,-1,-1],"loss_changes":[1.50594234466552734e-01,0.00000000000000000e+00,0.00000000000000000e+00],"parents":[2147483647,0,0],"right_children":[-1,-1,-1],"split_conditions":[2.29993276298046112e-02,7.41125196218490601e-02,-3.29584926366806030e-02],"split_indices":[5,2147483647,2147483647],"sum_hessian":[2.88466286659240723e+00,1.33803498744964600e+00,1.54662787914276123e+00],"tree_param":{"num_deleted":"2","num_feature":"35","num_nodes":"3","size_leaf_vector":"0"}},{"base_weights":[-5.66765964031219482e-02,-2.89513498544692993e-01,2.06180587410926819e-01],"default_left":[true,true,true],"id":85,"leaf_child_counts":[0,0,0],"left_children":[-1,-1,-1],"loss_changes":[2.98670500516891479e-01,0.00000000000000000e+00,0.00000000000000000e+00],"parents":[2147483647,0,0],"right_children":[-1,-1,-1],"split_conditions":[-1.70029792934656143e-02,-8.68540555238723755e-02,6.18541799485683441e-02],"split_indices":[8,2147483647,2147483647],"sum_hessian":[2.90469455718994141e+00,1.48652875423431396e+00,1.41816568374633789e+00],"tree_param":{"num_deleted":"2","num_feature":"35","num_nodes":"3","size_leaf_vector":"0"}},{"base_weights":[-1.34721115231513977e-01,-3.87181818485260010e-01,1.70445874333381653e-01],"default_left":[true,false,false],"id":86,"leaf_child_counts":[0,0,0],"left_children":[1,-1,-1],"loss_changes":[3.57043683528900146e-01,0.00000000000000000e+00,0.00000000000000000e+00],"parents":[2147483647,0,0],"right_children":[2,-1,-1],"split_conditions":[3.43729019165039062e+01,-1.16154551506042480e-01,5.11337630450725555e-02],"split_indices":[5,0,0],"sum_hessian":[2.77777838706970215e+00,1.37308728694915771e+00,1.40469110012054443e+00],"tree_param":{"num_deleted":"0","num_feature":"35","num_nodes":"3","size_leaf_vector":"0"}},{"base_weights":[3.99783663451671600e-02,2.46938824653625488e-01,-1.60720407962799072e-01],"default_left":[true,true,true],"id":87,"leaf_child_counts":[0,0,0],"left_children":[-1,-1,-1],"loss_changes":[2.03099742531776428e-01,0.00000000000000000e+00,0.00000000000000000e+00],"parents":[2147483647,0,0],"right_children":[-1,-1,-1],"split_conditions":[1.19935106486082077e-02,7.40816518664360046e-02,-4.82161231338977814e-02],"split_indices":[24,2147483647,2147483647],"sum_hessian":[2.93414950370788574e+00,1.33111214637756348e+00,1.60303747653961182e+00],"tree_param":{"num_deleted":"2","num_feature":"35","num_nodes":"3","size_leaf_vector":"0"}},{"base_weights":[-5.10889291763305664e-02,2.92949378490447998e-01,-3.66771489381790161e-01],"default_left":[true,false,false],"id":88,"leaf_child_counts":[0,0,0],"left_children":[1,-1,-1],"loss_changes":[5.05270540714263916e-01,0.00000000000000000e+00,0.00000000000000000e+00],"parents":[2147483647,0,0],"right_children":[2,-1,-1],"split_conditions":[5.59370279312133789e-01,8.78848135471343994e-02,-1.10031448304653168e-01],"split_indices":[14,0,0],"sum_hessian":[2.66298198699951172e+00,1.30872035026550293e+00,1.35426163673400879e+00],"tree_param":{"num_deleted":"0","num_feature":"35","num_nodes":"3","size_leaf_vector":"0"}},{"base_weights":[3.50834615528583527e-02,2.48068138957023621e-01,-1.58100485801696777e-01],"default_left":[true,true,true],"id":89,"leaf_child_counts":[0,0,0],"left_children":[-1,-1,-1],"loss_changes":[2.03814774751663208e-01,0.00000000000000000e+00,0.00000000000000000e+00],"parents":[2147483647,0,0],"right_children":[-1,-1,-1],"split_conditions":[1.05250384658575058e-02,7.44204446673393250e-02,-4.74301464855670929e-02],"split_indices":[24,2147483647,2147483647],"sum_hessian":[3.00034546852111816e+00,1.29191255569458008e+00,1.70843279361724854e+00],"tree_param":{"num_deleted":"2","num_feature":"35","num_nodes":"3","size_leaf_vector":"0"}},{"base_weights":[-2.22673714160919189e-02,-2.27559655904769897e-01,2.05653637647628784e-01],"default_left":[true,true,true],"id":90,"leaf_child_counts":[0,0,0],"left_children":[-1,-1,-1],"loss_changes":[2.09506601095199585e-01,0.00000000000000000e+00,0.00000000000000000e+00],"parents":[2147483647,0,0],"right_children":[-1,-1,-1],"split_conditions":[-6.68021151795983315e-03,-6.82678967714309692e-02,6.16960935294628143e-02],"split_indices":[2,2147483647,2147483647],"sum_hessian":[2.47738122940063477e+00,1.30422723293304443e+00,1.17315399646759033e+00],"tree_param":{"num_deleted":"2","num_feature":"35","num_nodes":"3","size_leaf_vector":"0"}},{"base_weights":[2.42438331246376038e-01,3.86665046215057373e-01,-5.10881394147872925e-02],"default_left":[true,true,true],"id":91,"leaf_child_counts":[0,0,0],"left_children":[-1,-1,-1],"loss_changes":[1.75989940762519836e-01,0.00000000000000000e+00,0.00000000000000000e+00],"parents":[2147483647,0,0],"right_children":[-1,-1,-1],"split_conditions":[7.27315023541450500e-02,1.15999519824981689e-01,-1.53264421969652176e-02],"split_indices":[10,2147483647,2147483647],"sum_hessian":[2.69052290916442871e+00,1.59131014347076416e+00,1.09921276569366455e+00],"tree_param":{"num_deleted":"2","num_feature":"35","num_nodes":"3","size_leaf_vector":"0"}},{"base_weights":[3.19657358340919018e-03,-2.64007508754730225e-01,2.55016386508941650e-01],"default_left":[true,false,false],"id":92,"leaf_child_counts":[0,0,0],"left_children":[1,-1,-1],"loss_changes":[3.20760130882263184e-01,0.00000000000000000e+00,0.00000000000000000e+00],"parents":[2147483647,0,0],"right_children":[2,-1,-1],"split_conditions":[9.77379798889160156e-01,-7.92022570967674255e-02,7.65049159526824951e-02],"split_indices":[28,0,0],"sum_hessian":[2.76644563674926758e+00,1.31874096393585205e+00,1.44770467281341553e+00],"tree_param":{"num_deleted":"0","num_feature":"35","num_nodes":"3","size_leaf_vector":"0"}},{"base_weights":[-5.13618625700473785e-03,2.14901790022850037e-01,-1.72586575150489807e-01],"default_left":[true,true,true],"id":93,"leaf_child_counts":[0,0,0],"left_children":[-1,-1,-1],"loss_changes":[1.70018330216407776e-01,0.00000000000000000e+00,0.00000000000000000e+00],"parents":[2147483647,0,0],"right_children":[-1,-1,-1],"split_conditions":[-1.54085597023367882e-03,6.44705370068550110e-02,-5.17759732902050018e-02],"split_indices":[28,2147483647,2147483647],"sum_hessian":[2.60775041580200195e+00,1.00446224212646484e+00,1.60328829288482666e+00],"tree_param":{"num_deleted":"2","num_feature":"35","num_nodes":"3","size_leaf_vector":"0"}},{"base_weights":[4.79562208056449890e-02,2.58985102176666260e-01,-1.38308241963386536e-01],"default_left":[true,true,true],"id":94,"leaf_child_counts":[0,0,0],"left_children":[-1,-1,-1],"loss_changes":[1.91946148872375488e-01,0.00000000000000000e+00,0.00000000000000000e+00],"parents":[2147483647,0,0],"right_children":[-1,-1,-1],"split_conditions":[1.43868671730160713e-02,7.76955336332321167e-02,-4.14924733340740204e-02],"split_indices":[24,2147483647,2147483647],"sum_hessian":[2.97195529937744141e+00,1.21031212806701660e+00,1.76164305210113525e+00],"tree_param":{"num_deleted":"2","num_feature":"35","num_nodes":"3","size_leaf_vector":"0"}},{"base_weights":[-7.97551497817039490e-02,1.99645817279815674e-01,-3.56157392263412476e-01],"default_left":[true,false,false],"id":95,"leaf_child_counts":[0,0,0],"left_children":[1,-1,-1],"loss_changes":[3.47624182701110840e-01,0.00000000000000000e+00,0.00000000000000000e+00],"parents":[2147483647,0,0],"right_children":[2,-1,-1],"split_conditions":[5.83884000778198242e+00,5.98937459290027618e-02,-1.06847219169139862e-01],"split_indices":[1,0,0],"sum_hessian":[2.58059573173522949e+00,1.42143630981445312e+00,1.15915942192077637e+00],"tree_param":{"num_deleted":"0","num_feature":"35","num_nodes":"3","size_leaf_vector":"0"}},{"base_weights":[-9.30708348751068115e-02,1.63044810295104980e-01,-3.69936197996139526e-01],"default_left":[false,false,false],"id":96,"leaf_child_counts":[0,0,0],"left_children":[1,-1,-1],"loss_changes":[3.23716461658477783e-01,0.00000000000000000e+00,0.00000000000000000e+00],"parents":[2147483647,0,0],"right_children":[2,-1,-1],"split_conditions":[2.77951049804687500e+01,4.89134453237056732e-02,-1.10980860888957977e-01],"split_indices":[6,0,0],"sum_hessian":[2.71459555625915527e+00,1.62369382381439209e+00,1.09090161323547363e+00],"tree_param":{"num_deleted":"0","num_feature":"35","num_nodes":"3","size_leaf_vector":"0"}},{"base_weights":[-7.21579715609550476e-02,-2.80810087919235229e-01,2.20433101058006287e-01],"default_left":[true,true,true],"id":97,"leaf_child_counts":[0,0,0],"left_children":[-1,-1,-1],"loss_changes":[2.82979458570480347e-01,0.00000000000000000e+00,0.00000000000000000e+00],"parents":[2147483647,0,0],"right_children":[-1,-1,-1],"split_conditions":[-2.16473918408155441e-02,-8.42430293560028076e-02,6.61299303174018860e-02],"split_indices":[32,2147483647,2147483647],"sum_hessian":[2.62130331993103027e+00,1.55363893508911133e+00,1.06766438484191895e+00],"tree_param":{"num_deleted":"2","num_feature":"35","num_nodes":"3","size_leaf_vector":"0"}},{"base_weights":[-5.64959421753883362e-02,-2.34591588377952576e-01,2.00281232595443726e-01],"default_left":[true,true,true],"id":98,"leaf_child_counts":[0,0,0],"left_children":[-1,-1,-1],"loss_changes":[2.10151866078376770e-01,0.00000000000000000e+00,0.00000000000000000e+00],"parents":[2147483647,0,0],"right_children":[-1,-1,-1],"split_conditions":[-1.69487837702035904e-02,-7.03774765133857727e-02,6.00843727588653564e-02],"split_indices":[3,2147483647,2147483647],"sum_hessian":[2.56799411773681641e+00,1.56732690334320068e+00,1.00066721439361572e+00],"tree_param":{"num_deleted":"2","num_feature":"35","num_nodes":"3","size_leaf_vector":"0"}},{"base_weights":[-5.97670264542102814e-02,2.41580709815025330e-01,-3.11561465263366699e-01],"default_left":[true,false,false],"id":99,"leaf_child_counts":[0,0,0],"left_children":[1,-1,-1],"loss_changes":[3.60737919807434082e-01,0.00000000000000000e+00,0.00000000000000000e+00],"parents":[2147483647,0,0],"right_children":[2,-1,-1],"split_conditions":[6.32977951318025589e-03,7.24742189049720764e-02,-9.34684425592422485e-02],"split_indices":[24,0,0],"sum_hessian":[2.76224851608276367e+00,1.27586102485656738e+00,1.48638749122619629e+00],"tree_param":{"num_deleted":"0","num_feature":"35","num_nodes":"3","size_leaf_vector":"0"}}]},"name":"gbtree"},"learner_model_param":{"base_score":"0.500000","num_class":"0","num_feature":"35"},"objective":{"name":"binary:logistic","reg_loss_param":{"scale_pos_weight":"1"}}},"version":[1,1,1]}